<?xml version="1.0"?>
<opencv_storage>
<cascade>
  <stageType>BOOST</stageType>
  <featureType>LBP</featureType>
  <height>40</height>
  <width>40</width>
  <stageParams>
    <boostType>GAB</boostType>
    <minHitRate>9.9900001287460327e-01</minHitRate>
    <maxFalseAlarm>5.0000000000000000e-01</maxFalseAlarm>
    <weightTrimRate>9.4999999999999996e-01</weightTrimRate>
    <maxDepth>1</maxDepth>
    <maxWeakCount>100</maxWeakCount></stageParams>
  <featureParams>
    <maxCatCount>256</maxCatCount>
    <featSize>1</featSize></featureParams>
  <stageNum>19</stageNum>
  <stages>
    <!-- stage 0 -->
    <_>
      <maxWeakCount>4</maxWeakCount>
      <stageThreshold>-4.9844425916671753e-01</stageThreshold>
      <weakClassifiers>
        <_>
          <internalNodes>
            0 -1 99 -787377992 -787890176 386927100 1561133340
            -1711101254 412715402 1082742938 590234</internalNodes>
          <leafValues>
            -8.3742332458496094e-01 6.5843272209167480e-01</leafValues></_>
        <_>
          <internalNodes>
            0 -1 98 470293272 -49704592 -2147417829 -9825998 135272656
            1301283344 526133759 -1089601044</internalNodes>
          <leafValues>
            -7.0884418487548828e-01 5.6732153892517090e-01</leafValues></_>
        <_>
          <internalNodes>
            0 -1 39 -250826542 277876884 -2062246915 -653983727
            -265766148 -662142823 -1702324069 414292413</internalNodes>
          <leafValues>
            -7.2168409824371338e-01 5.5194568634033203e-01</leafValues></_>
        <_>
          <internalNodes>
            0 -1 88 -182939496 2064881792 286528592 -1735917296
            -318653816 721559698 961446313 -356319221</internalNodes>
          <leafValues>
            -7.8028821945190430e-01 5.3082323074340820e-01</leafValues></_></weakClassifiers></_>
    <!-- stage 1 -->
    <_>
      <maxWeakCount>3</maxWeakCount>
      <stageThreshold>-8.6429458856582642e-01</stageThreshold>
      <weakClassifiers>
        <_>
          <internalNodes>
            0 -1 78 -1577000320 16826368 536907777 -1324023807
            -100095286 805371904 -1031690038 -2120024058</internalNodes>
          <leafValues>
            -7.8512394428253174e-01 7.7333950996398926e-01</leafValues></_>
        <_>
          <internalNodes>
            0 -1 57 -775163702 -2103410622 -2130673656 -1434310526
            -1969711425 673882144 -1597462321 -1398346065</internalNodes>
          <leafValues>
            -7.2517889738082886e-01 6.3569575548171997e-01</leafValues></_>
        <_>
          <internalNodes>
            0 -1 92 -443525924 -783412204 286261397 1036260352 25172650
            1518469128 -1702845730 -150003414</internalNodes>
          <leafValues>
            -7.1486639976501465e-01 6.5107882022857666e-01</leafValues></_></weakClassifiers></_>
    <!-- stage 2 -->
    <_>
      <maxWeakCount>5</maxWeakCount>
      <stageThreshold>-7.0019948482513428e-01</stageThreshold>
      <weakClassifiers>
        <_>
          <internalNodes>
            0 -1 45 -858993441 1283772100 -11620897 356883799 -16859154
            -27471238 -7667733 752614907</internalNodes>
          <leafValues>
            -6.4958286285400391e-01 7.1494680643081665e-01</leafValues></_>
        <_>
          <internalNodes>
            0 -1 65 -1064772720 -243142512 -1023409922 -577928816
            -1841657709 -258955136 772332175 -1708455717</internalNodes>
          <leafValues>
            -5.5167835950851440e-01 6.7002409696578979e-01</leafValues></_>
        <_>
          <internalNodes>
            0 -1 69 -586353762 299407490 16814137 1393098816 -1862238022
            -1735720822 -1190657397 520684203</internalNodes>
          <leafValues>
            -6.6576725244522095e-01 5.9136617183685303e-01</leafValues></_>
        <_>
          <internalNodes>
            0 -1 81 -754401808 -35040810 1024544985 -539421412 816316875
            -1414397815 1258355641 -945060933</internalNodes>
          <leafValues>
            -6.2650769948959351e-01 6.5699267387390137e-01</leafValues></_>
        <_>
          <internalNodes>
            0 -1 59 -1753044228 -675708896 -2078228344 -182875727
            -1342032904 -124256118 327688937 -555286001</internalNodes>
          <leafValues>
            -7.0056265592575073e-01 5.7163417339324951e-01</leafValues></_></weakClassifiers></_>
    <!-- stage 3 -->
    <_>
      <maxWeakCount>5</maxWeakCount>
      <stageThreshold>-6.3937765359878540e-01</stageThreshold>
      <weakClassifiers>
        <_>
          <internalNodes>
            0 -1 33 -83299400 1542546481 -1217137183 1030991689
            1345831164 286749984 2035746003 1949779627</internalNodes>
          <leafValues>
            -6.3393938541412354e-01 7.0022988319396973e-01</leafValues></_>
        <_>
          <internalNodes>
            0 -1 107 -686899008 -775041020 -1828544111 1661010271
            1870848154 1004625994 -1416983813 -1278541221</internalNodes>
          <leafValues>
            -5.9983432292938232e-01 6.3804143667221069e-01</leafValues></_>
        <_>
          <internalNodes>
            0 -1 89 1600805104 993983230 -239097731 -545540420
            -1885405958 -1614839052 -1111524165 -1677773129</internalNodes>
          <leafValues>
            -5.5470275878906250e-01 6.9705730676651001e-01</leafValues></_>
        <_>
          <internalNodes>
            0 -1 8 1666445299 1347613684 24140275 165724151 47350777
            7569402 1559620607 -201336833</internalNodes>
          <leafValues>
            -6.0249596834182739e-01 6.7561382055282593e-01</leafValues></_>
        <_>
          <internalNodes>
            0 -1 49 -51711138 -109223330 1426542911 2098946267
            -609485861 -1626333103 1929735679 199205515</internalNodes>
          <leafValues>
            -7.4361103773117065e-01 5.1371896266937256e-01</leafValues></_></weakClassifiers></_>
    <!-- stage 4 -->
    <_>
      <maxWeakCount>6</maxWeakCount>
      <stageThreshold>-6.8384236097335815e-01</stageThreshold>
      <weakClassifiers>
        <_>
          <internalNodes>
            0 -1 14 -477638675 -789366343 -318540584 1356035701
            -1325277186 -2138919657 1880078331 1147566003</internalNodes>
          <leafValues>
            -7.0796459913253784e-01 6.3738155364990234e-01</leafValues></_>
        <_>
          <internalNodes>
            0 -1 27 1550776318 1820384163 1176230907 1081107195
            1112834300 -78318961 -496955681 -1460240417</internalNodes>
          <leafValues>
            -6.1213380098342896e-01 5.2830809354782104e-01</leafValues></_>
        <_>
          <internalNodes>
            0 -1 92 -552052387 -134590027 563879165 1070601356 421281534
            1000805307 -1087624262 931078962</internalNodes>
          <leafValues>
            -7.7668404579162598e-01 4.1221120953559875e-01</leafValues></_>
        <_>
          <internalNodes>
            0 -1 77 -997424736 -263995101 -1499425821 -542425151
            -2000364872 -1732730794 734524411 -1109705874</internalNodes>
          <leafValues>
            -7.3003524541854858e-01 4.7395613789558411e-01</leafValues></_>
        <_>
          <internalNodes>
            0 -1 117 -182655779 1059035549 -343011261 1383925777
            -1414892369 -389407247 799155422 -83162389</internalNodes>
          <leafValues>
            -5.6846117973327637e-01 5.7211709022521973e-01</leafValues></_>
        <_>
          <internalNodes>
            0 -1 60 -607587848 2078130289 -1589575361 -1882386389
            -1440433227 958196926 -1645514306 688794859</internalNodes>
          <leafValues>
            -7.7357500791549683e-01 4.2176502943038940e-01</leafValues></_></weakClassifiers></_>
    <!-- stage 5 -->
    <_>
      <maxWeakCount>6</maxWeakCount>
      <stageThreshold>-3.3227369189262390e-01</stageThreshold>
      <weakClassifiers>
        <_>
          <internalNodes>
            0 -1 25 2077097724 147876600 989298687 39876607 1275457279
            13434623 232751103 -989954049</internalNodes>
          <leafValues>
            -5.0000000000000000e-01 6.4678901433944702e-01</leafValues></_>
        <_>
          <internalNodes>
            0 -1 7 -412757005 -204353072 365204473 1434825617 -149899276
            -1535059718 2057530266 165747663</internalNodes>
          <leafValues>
            -6.3458698987960815e-01 4.8476818203926086e-01</leafValues></_>
        <_>
          <internalNodes>
            0 -1 93 -1209076536 -171999590 769930744 -139331759
            -671613250 -549093521 519311359 -66226889</internalNodes>
          <leafValues>
            -5.4116755723953247e-01 5.6787854433059692e-01</leafValues></_>
        <_>
          <internalNodes>
            0 -1 73 -690956546 -14128384 -1761459236 2133811740
            -1014842916 -669900654 -813646860 -1742861609</internalNodes>
          <leafValues>
            -6.1449080705642700e-01 4.9715542793273926e-01</leafValues></_>
        <_>
          <internalNodes>
            0 -1 67 359421786 2073559186 -1913087681 -2017868774
            -1484619013 -1952410487 -2012679201 1063977647</internalNodes>
          <leafValues>
            -6.6055381298065186e-01 4.8354509472846985e-01</leafValues></_>
        <_>
          <internalNodes>
            0 -1 30 -354808646 -577295801 -1441412770 -1212694889
            1249961912 -863418057 -870171765 -911668501</internalNodes>
          <leafValues>
            -7.2152203321456909e-01 4.1567316651344299e-01</leafValues></_></weakClassifiers></_>
    <!-- stage 6 -->
    <_>
      <maxWeakCount>6</maxWeakCount>
      <stageThreshold>-6.5929776430130005e-01</stageThreshold>
      <weakClassifiers>
        <_>
          <internalNodes>
            0 -1 104 -1103596048 463431676 1519241948 255656024
            893416440 1903093880 -1213151235 2127671286</internalNodes>
          <leafValues>
            -6.9999998807907104e-01 5.9166663885116577e-01</leafValues></_>
        <_>
          <internalNodes>
            0 -1 22 -548409393 -1068451998 -213659217 355714999
            -413942340 -933181984 -1442067553 754576375</internalNodes>
          <leafValues>
            -6.9599902629852295e-01 4.5144513249397278e-01</leafValues></_>
        <_>
          <internalNodes>
            0 -1 52 -210194180 -88483406 297930943 29416522 705812635
            -607055456 329681067 229576136</internalNodes>
          <leafValues>
            -7.1527993679046631e-01 4.2184269428253174e-01</leafValues></_>
        <_>
          <internalNodes>
            0 -1 4 -532637 1103319563 278483333 552718429 1095935681
            24373005 8448927 -169378817</internalNodes>
          <leafValues>
            -6.1159718036651611e-01 4.9658611416816711e-01</leafValues></_>
        <_>
          <internalNodes>
            0 -1 44 -344725302 -283251976 1807796219 -1524003888
            -238553242 -1287910027 -1669078317 -1686009387</internalNodes>
          <leafValues>
            -6.1918514966964722e-01 4.7133073210716248e-01</leafValues></_>
        <_>
          <internalNodes>
            0 -1 16 -188746057 -218121648 210373591 -460061969
            -1224414256 1204522341 -2144476528 1384841759</internalNodes>
          <leafValues>
            -6.5305829048156738e-01 4.6022933721542358e-01</leafValues></_></weakClassifiers></_>
    <!-- stage 7 -->
    <_>
      <maxWeakCount>8</maxWeakCount>
      <stageThreshold>-9.7085863351821899e-01</stageThreshold>
      <weakClassifiers>
        <_>
          <internalNodes>
            0 -1 37 -1036845136 -721027836 356117032 -156107072
            -1223098487 810612636 2132624618 661720762</internalNodes>
          <leafValues>
            -6.8055558204650879e-01 5.7425743341445923e-01</leafValues></_>
        <_>
          <internalNodes>
            0 -1 83 -1409688068 541739016 -795457368 -523614040
            -917636385 -1903466357 -1378882661 -1266221137</internalNodes>
          <leafValues>
            -6.6298061609268188e-01 4.3208068609237671e-01</leafValues></_>
        <_>
          <internalNodes>
            0 -1 91 -1612226496 -472534564 306995358 1394520704
            -1970996962 259755450 -2046448961 2086387135</internalNodes>
          <leafValues>
            -7.6423186063766479e-01 3.9305248856544495e-01</leafValues></_>
        <_>
          <internalNodes>
            0 -1 55 -212929959 -1979435892 -2078760758 -632892864
            -2112884521 -1945722679 1969939103 2147220187</internalNodes>
          <leafValues>
            -6.5343785285949707e-01 3.8174775242805481e-01</leafValues></_>
        <_>
          <internalNodes>
            0 -1 75 -1819627496 833849859 -1801321506 -85819240
            -1984232008 -22994774 53139408 1588712703</internalNodes>
          <leafValues>
            -7.7353847026824951e-01 3.3099055290222168e-01</leafValues></_>
        <_>
          <internalNodes>
            0 -1 102 -1162277091 -1611548051 -48446983 147834253
            579808959 1041870996 190342009 -346367205</internalNodes>
          <leafValues>
            -5.5232971906661987e-01 5.0021350383758545e-01</leafValues></_>
        <_>
          <internalNodes>
            0 -1 41 -121180161 2137117957 352405997 1024569638
            1772945116 1225968993 1523378836 453758124</internalNodes>
          <leafValues>
            -6.5891283750534058e-01 4.4724380970001221e-01</leafValues></_>
        <_>
          <internalNodes>
            0 -1 112 -475703880 253841412 594773497 2098921613 462008703
            -1345814094 -1417508679 -385637545</internalNodes>
          <leafValues>
            -6.2802731990814209e-01 5.2812772989273071e-01</leafValues></_></weakClassifiers></_>
    <!-- stage 8 -->
    <_>
      <maxWeakCount>7</maxWeakCount>
      <stageThreshold>-1.1769648790359497e+00</stageThreshold>
      <weakClassifiers>
        <_>
          <internalNodes>
            0 -1 35 -867243346 -1080245864 -675396388 1446082551
            -1979568406 -587123903 1429422847 67206895</internalNodes>
          <leafValues>
            -8.1818181276321411e-01 5.5484896898269653e-01</leafValues></_>
        <_>
          <internalNodes>
            0 -1 90 -1339005712 313609493 -217392043 -597551225
            489784081 1194765505 -121733297 2059019228</internalNodes>
          <leafValues>
            -8.3689671754837036e-01 3.2718181610107422e-01</leafValues></_>
        <_>
          <internalNodes>
            0 -1 13 -943593632 -1119846367 956348241 352385683
            -2145064520 -1431193073 -72174613 1056529847</internalNodes>
          <leafValues>
            -7.0950853824615479e-01 3.8451325893402100e-01</leafValues></_>
        <_>
          <internalNodes>
            0 -1 72 -849512721 -335003642 -241641991 938344778
            -1048715448 -303903686 -368193042 211781630</internalNodes>
          <leafValues>
            -6.9109952449798584e-01 3.7208616733551025e-01</leafValues></_>
        <_>
          <internalNodes>
            0 -1 100 -239201857 98445245 -1260903161 212035562 10423071
            436488475 848070463 -1164248604</internalNodes>
          <leafValues>
            -5.4744082689285278e-01 5.1449424028396606e-01</leafValues></_>
        <_>
          <internalNodes>
            0 -1 10 1309894039 -1482532603 41985399 -679189818 842650573
            -1929708148 -1794637157 1461747594</internalNodes>
          <leafValues>
            -6.7175096273422241e-01 4.1667902469635010e-01</leafValues></_>
        <_>
          <internalNodes>
            0 -1 110 -274468286 -710832973 1157844757 -462978753
            1012930024 -51006131 1771768030 -838340769</internalNodes>
          <leafValues>
            -5.2762585878372192e-01 5.6467866897583008e-01</leafValues></_></weakClassifiers></_>
    <!-- stage 9 -->
    <_>
      <maxWeakCount>6</maxWeakCount>
      <stageThreshold>-1.3738316297531128e+00</stageThreshold>
      <weakClassifiers>
        <_>
          <internalNodes>
            0 -1 105 951720188 72290254 1778099646 38227356 1784550692
            737044219 2100893917 -1392755108</internalNodes>
          <leafValues>
            -7.1278458833694458e-01 5.7925069332122803e-01</leafValues></_>
        <_>
          <internalNodes>
            0 -1 26 1417567710 1417737215 2017531167 -700388979
            537512974 -367209079 1085148379 -17891337</internalNodes>
          <leafValues>
            -5.4025155305862427e-01 5.0654238462448120e-01</leafValues></_>
        <_>
          <internalNodes>
            0 -1 87 -728398861 1490867831 1669143370 362608579
            1439152869 -1239381961 -1206746482 342676560</internalNodes>
          <leafValues>
            -6.9512313604354858e-01 4.3469569087028503e-01</leafValues></_>
        <_>
          <internalNodes>
            0 -1 116 -1145405508 -541914704 428321727 -94486035
            -1300186532 -132743015 1904413615 -1621520</internalNodes>
          <leafValues>
            -5.9820491075515747e-01 4.5129087567329407e-01</leafValues></_>
        <_>
          <internalNodes>
            0 -1 62 -1407318019 -173127172 434581983 -478664580 64569237
            2010850818 1059609835 -1329656598</internalNodes>
          <leafValues>
            -5.3608936071395874e-01 5.1471000909805298e-01</leafValues></_>
        <_>
          <internalNodes>
            0 -1 66 -212942316 -1093923828 223205823 -1098336021
            -788368973 -251604593 122310654 -857650193</internalNodes>
          <leafValues>
            -6.3421267271041870e-01 4.8612534999847412e-01</leafValues></_></weakClassifiers></_>
    <!-- stage 10 -->
    <_>
      <maxWeakCount>5</maxWeakCount>
      <stageThreshold>-1.0503516197204590e+00</stageThreshold>
      <weakClassifiers>
        <_>
          <internalNodes>
            0 -1 101 1069438428 -654313089 289330668 1478389046
            461837076 1808273422 -1507393124 439235900</internalNodes>
          <leafValues>
            -8.3944952487945557e-01 5.3276133537292480e-01</leafValues></_>
        <_>
          <internalNodes>
            0 -1 43 50325759 -666597473 105779955 1948315837 -1170539057
            -1410212595 -823467054 752087775</internalNodes>
          <leafValues>
            -6.3518148660659790e-01 4.3750032782554626e-01</leafValues></_>
        <_>
          <internalNodes>
            0 -1 36 1443167740 707063885 1552630085 1655854419 12701132
            -892273501 285216735 -16891937</internalNodes>
          <leafValues>
            -6.1217141151428223e-01 4.3849766254425049e-01</leafValues></_>
        <_>
          <internalNodes>
            0 -1 48 -739180872 -715453950 621252763 -1550993201
            -1709574088 2077069516 216545723 1166309401</internalNodes>
          <leafValues>
            -7.6392346620559692e-01 3.3819267153739929e-01</leafValues></_>
        <_>
          <internalNodes>
            0 -1 84 -518524126 -46969252 -1550399273 1770267976
            -901514443 1690413260 -422914564 1305809884</internalNodes>
          <leafValues>
            -6.7395263910293579e-01 3.9528307318687439e-01</leafValues></_></weakClassifiers></_>
    <!-- stage 11 -->
    <_>
      <maxWeakCount>8</maxWeakCount>
      <stageThreshold>-7.0201098918914795e-01</stageThreshold>
      <weakClassifiers>
        <_>
          <internalNodes>
            0 -1 82 -1284360176 -1087497889 -26808617 2071085128
            -1280591190 912402608 1125632750 2079472494</internalNodes>
          <leafValues>
            -6.7837339639663696e-01 5.5591702461242676e-01</leafValues></_>
        <_>
          <internalNodes>
            0 -1 3 -182724429 -736762664 -268328303 -264933148 890223355
            346661457 2027223739 574057035</internalNodes>
          <leafValues>
            -5.8208286762237549e-01 4.4109103083610535e-01</leafValues></_>
        <_>
          <internalNodes>
            0 -1 20 -758192281 -791394945 -385547503 1561341330
            -180281035 1154057605 -853991295 1486513866</internalNodes>
          <leafValues>
            -6.4526826143264771e-01 3.9913231134414673e-01</leafValues></_>
        <_>
          <internalNodes>
            0 -1 12 -1171267053 1854843747 -460119541 -642652079
            -61543695 707128555 -1601363776 -36707309</internalNodes>
          <leafValues>
            -5.0686889886856079e-01 4.9261048436164856e-01</leafValues></_>
        <_>
          <internalNodes>
            0 -1 31 -119806280 -1686150092 -1190849900 -1317691073
            -1957372676 -1967793441 193505199 853566666</internalNodes>
          <leafValues>
            -7.5671845674514771e-01 3.4000438451766968e-01</leafValues></_>
        <_>
          <internalNodes>
            0 -1 79 -762976818 362816752 -1800170337 -619607807
            -1691290646 145463794 -909078801 1552410813</internalNodes>
          <leafValues>
            -6.9393122196197510e-01 3.6929944157600403e-01</leafValues></_>
        <_>
          <internalNodes>
            0 -1 1 -442018025 -175173361 1075825800 -50203250 545413987
            -343931781 -1009809263 -968365282</internalNodes>
          <leafValues>
            -5.5982232093811035e-01 5.1411771774291992e-01</leafValues></_>
        <_>
          <internalNodes>
            0 -1 42 -940843591 -729650 -671158535 1860112117 870168829
            -1344504353 2144468979 -1332662565</internalNodes>
          <leafValues>
            -4.5999625325202942e-01 6.0662686824798584e-01</leafValues></_></weakClassifiers></_>
    <!-- stage 12 -->
    <_>
      <maxWeakCount>8</maxWeakCount>
      <stageThreshold>-8.2952731847763062e-01</stageThreshold>
      <weakClassifiers>
        <_>
          <internalNodes>
            0 -1 64 -1221083236 -285958238 353225215 17711276 9439378
            182522257 60260750 260114568</internalNodes>
          <leafValues>
            -6.6666668653488159e-01 5.5882352590560913e-01</leafValues></_>
        <_>
          <internalNodes>
            0 -1 17 1361300294 20002703 680104261 1210197483 1079107390
            548954525 69800715 -16834833</internalNodes>
          <leafValues>
            -5.9673738479614258e-01 4.1908994317054749e-01</leafValues></_>
        <_>
          <internalNodes>
            0 -1 76 -182913640 26315438 -2113565409 214905231
            -1704660848 1035985034 -1072222644 1554928255</internalNodes>
          <leafValues>
            -7.1819573640823364e-01 3.6001950502395630e-01</leafValues></_>
        <_>
          <internalNodes>
            0 -1 113 -1505231409 1078288383 -1022950811 1413674617
            -514544433 -368411203 -1963622327 1822291613</internalNodes>
          <leafValues>
            -5.8074146509170532e-01 4.1634365916252136e-01</leafValues></_>
        <_>
          <internalNodes>
            0 -1 98 389549325 -375524876 -1401183733 -58996771 292904556
            189925408 528685119 -81045012</internalNodes>
          <leafValues>
            -6.3215208053588867e-01 4.1388601064682007e-01</leafValues></_>
        <_>
          <internalNodes>
            0 -1 118 -134218273 16048119 1941690994 -1596037392
            1340919366 1685489141 -462076393 -521669405</internalNodes>
          <leafValues>
            -4.6652847528457642e-01 5.7423371076583862e-01</leafValues></_>
        <_>
          <internalNodes>
            0 -1 115 1500694010 -1265512312 155517270 1548292102
            998778030 -7599988 1218534959 -853190749</internalNodes>
          <leafValues>
            -6.0220867395401001e-01 4.7168573737144470e-01</leafValues></_>
        <_>
          <internalNodes>
            0 -1 68 -397746438 188406390 1232545539 -1747218031
            -1581138521 -1417542344 50381559 999105483</internalNodes>
          <leafValues>
            -7.0346266031265259e-01 3.8653254508972168e-01</leafValues></_></weakClassifiers></_>
    <!-- stage 13 -->
    <_>
      <maxWeakCount>7</maxWeakCount>
      <stageThreshold>-4.1368660330772400e-01</stageThreshold>
      <weakClassifiers>
        <_>
          <internalNodes>
            0 -1 40 637709044 414375510 -603956906 231761502 -391473618
            -1435778048 -373913954 164835275</internalNodes>
          <leafValues>
            -6.3369965553283691e-01 5.4849225282669067e-01</leafValues></_>
        <_>
          <internalNodes>
            0 -1 18 1341286130 1552962045 160643271 439385967 340877778
            1587776070 310554903 989485951</internalNodes>
          <leafValues>
            -7.3948824405670166e-01 3.3140397071838379e-01</leafValues></_>
        <_>
          <internalNodes>
            0 -1 47 -963949841 -454791280 1627960187 901104785
            -994585628 -129644951 -905773484 1053685401</internalNodes>
          <leafValues>
            -6.3174903392791748e-01 3.7249806523323059e-01</leafValues></_>
        <_>
          <internalNodes>
            0 -1 58 -91494026 -788463874 -2112515919 -163529512
            -77133996 -1782474028 465851841 -722779741</internalNodes>
          <leafValues>
            -5.5802309513092041e-01 4.1106367111206055e-01</leafValues></_>
        <_>
          <internalNodes>
            0 -1 29 -462427538 301931347 9014821 769106627 1021550164
            1019723464 -911545754 -777010441</internalNodes>
          <leafValues>
            -5.5174976587295532e-01 4.6131312847137451e-01</leafValues></_>
        <_>
          <internalNodes>
            0 -1 86 -1441664187 -1379040276 -1022753926 -182638936
            -96018186 -1369701720 -31138608 1965420062</internalNodes>
          <leafValues>
            -6.2696421146392822e-01 3.9914804697036743e-01</leafValues></_>
        <_>
          <internalNodes>
            0 -1 74 503624108 856241068 -234846363 -2051691258 845077685
            1053612158 1861009545 2126312399</internalNodes>
          <leafValues>
            -7.2930157184600830e-01 3.4932965040206909e-01</leafValues></_></weakClassifiers></_>
    <!-- stage 14 -->
    <_>
      <maxWeakCount>7</maxWeakCount>
      <stageThreshold>-1.0301178693771362e+00</stageThreshold>
      <weakClassifiers>
        <_>
          <internalNodes>
            0 -1 96 -1282068240 2099604878 -988489167 1157841401
            870558114 989939732 336132532 905883722</internalNodes>
          <leafValues>
            -7.6086956262588501e-01 5.3149604797363281e-01</leafValues></_>
        <_>
          <internalNodes>
            0 -1 111 544748612 941236178 -181092569 531242697 414985660
            -1926567729 100548472 -752172875</internalNodes>
          <leafValues>
            -6.5546762943267822e-01 3.8335180282592773e-01</leafValues></_>
        <_>
          <internalNodes>
            0 -1 9 -1285622787 903673093 831415501 1104353573 541750639
            155195947 2016159183 -397260117</internalNodes>
          <leafValues>
            -5.7616943120956421e-01 4.3697419762611389e-01</leafValues></_>
        <_>
          <internalNodes>
            0 -1 70 -2375179 -2105082563 1606220732 -1699962947
            -1609842945 -829636867 -90259713 -2162947</internalNodes>
          <leafValues>
            -4.5860019326210022e-01 5.4596197605133057e-01</leafValues></_>
        <_>
          <internalNodes>
            0 -1 5 -232810541 -1831526345 1082697808 -40566621
            -1931754489 -1084725227 -291633695 -892926275</internalNodes>
          <leafValues>
            -5.1328051090240479e-01 5.0721883773803711e-01</leafValues></_>
        <_>
          <internalNodes>
            0 -1 63 -1977450600 770244942 -2103911526 -291752162
            234496255 985337274 14189537 -1501682628</internalNodes>
          <leafValues>
            -7.1589815616607666e-01 3.6155375838279724e-01</leafValues></_>
        <_>
          <internalNodes>
            0 -1 88 -48456528 1438365306 869011326 -498422244 -125324380
            2062502080 1052082184 -117476784</internalNodes>
          <leafValues>
            -7.0151674747467041e-01 3.5658168792724609e-01</leafValues></_></weakClassifiers></_>
    <!-- stage 15 -->
    <_>
      <maxWeakCount>8</maxWeakCount>
      <stageThreshold>-6.0909628868103027e-01</stageThreshold>
      <weakClassifiers>
        <_>
          <internalNodes>
            0 -1 15 1983180478 -1567232210 1177272625 1962262740
            -1066562836 -2011848575 -632463425 135822010</internalNodes>
          <leafValues>
            -6.9685041904449463e-01 5.4333865642547607e-01</leafValues></_>
        <_>
          <internalNodes>
            0 -1 51 1732572328 -297536414 1225108861 1373437957
            1058082190 -836510948 790989246 453758523</internalNodes>
          <leafValues>
            -7.3645305633544922e-01 3.2382199168205261e-01</leafValues></_>
        <_>
          <internalNodes>
            0 -1 78 -299179071 -1817190194 -191583359 -1290564855
            -949488398 -230308660 -695086713 -979268474</internalNodes>
          <leafValues>
            -4.9821993708610535e-01 4.7807374596595764e-01</leafValues></_>
        <_>
          <internalNodes>
            0 -1 11 1938768711 -790706857 8421379 -1039891517 981722335
            286462677 -636445236 -1856053819</internalNodes>
          <leafValues>
            -4.9619990587234497e-01 4.8413234949111938e-01</leafValues></_>
        <_>
          <internalNodes>
            0 -1 24 -22716750 -1439962917 -1065323389 2064253531
            1377245159 -1297563195 -816806999 -196833403</internalNodes>
          <leafValues>
            -5.6192111968994141e-01 4.5044383406639099e-01</leafValues></_>
        <_>
          <internalNodes>
            0 -1 6 -722097157 -943357199 -1929561667 -990389249
            1962201087 -1908947079 -866339270 -1107062949</internalNodes>
          <leafValues>
            -4.6029374003410339e-01 5.9288644790649414e-01</leafValues></_>
        <_>
          <internalNodes>
            0 -1 106 631494288 -980504196 871914933 977831053 1387084205
            -661781479 1688378719 -2218928</internalNodes>
          <leafValues>
            -5.5081039667129517e-01 4.9791356921195984e-01</leafValues></_>
        <_>
          <internalNodes>
            0 -1 80 654998072 -2029807619 1080149 -1405395873
            -2138934893 -388927470 1137068572 -1921263601</internalNodes>
          <leafValues>
            -6.6004389524459839e-01 4.2266136407852173e-01</leafValues></_></weakClassifiers></_>
    <!-- stage 16 -->
    <_>
      <maxWeakCount>8</maxWeakCount>
      <stageThreshold>-1.3140209913253784e+00</stageThreshold>
      <weakClassifiers>
        <_>
          <internalNodes>
            0 -1 61 713859584 -1334491239 -1415203486 -1183509129
            805604446 -1204895677 -512651299 16259934</internalNodes>
          <leafValues>
            -8.1818181276321411e-01 5.1407635211944580e-01</leafValues></_>
        <_>
          <internalNodes>
            0 -1 0 -625015247 1364133563 218956156 -775487067 41284528
            234993448 58033149 -1656539233</internalNodes>
          <leafValues>
            -5.7100927829742432e-01 4.0319705009460449e-01</leafValues></_>
        <_>
          <internalNodes>
            0 -1 97 -1083154692 -1318538331 1602080855 -1149498247
            288493831 -603448055 727978955 -457047908</internalNodes>
          <leafValues>
            -5.6018376350402832e-01 4.2642590403556824e-01</leafValues></_>
        <_>
          <internalNodes>
            0 -1 95 -71647241 -133960 -65547 788266746 758676735
            1610505982 -1380755503 -1162092594</internalNodes>
          <leafValues>
            -4.5420515537261963e-01 5.3767913579940796e-01</leafValues></_>
        <_>
          <internalNodes>
            0 -1 54 -1224870981 -1864558927 43120175 -232966205
            1629201558 -1152050799 -495705457 785847191</internalNodes>
          <leafValues>
            -5.2254265546798706e-01 4.9640756845474243e-01</leafValues></_>
        <_>
          <internalNodes>
            0 -1 114 -609823273 -1195222320 -1054995397 1573812178
            -1878947233 -2000713073 -691542316 1339902922</internalNodes>
          <leafValues>
            -5.9190142154693604e-01 4.6469166874885559e-01</leafValues></_>
        <_>
          <internalNodes>
            0 -1 103 1378613084 -2010595257 -1115673639 -1144167733
            1619730958 1879688276 -1329229842 -1210862887</internalNodes>
          <leafValues>
            -5.0237745046615601e-01 5.2429056167602539e-01</leafValues></_>
        <_>
          <internalNodes>
            0 -1 19 1321728242 -537931761 -1358857982 1234859344
            -108550984 -937232128 957545699 1797179299</internalNodes>
          <leafValues>
            -6.7729413509368896e-01 3.8751271367073059e-01</leafValues></_></weakClassifiers></_>
    <!-- stage 17 -->
    <_>
      <maxWeakCount>8</maxWeakCount>
      <stageThreshold>-6.8382120132446289e-01</stageThreshold>
      <weakClassifiers>
        <_>
          <internalNodes>
            0 -1 94 179723660 -940126802 251794654 -700297142 294639102
            2068043904 248378 526916529</internalNodes>
          <leafValues>
            -7.2866523265838623e-01 5.2418404817581177e-01</leafValues></_>
        <_>
          <internalNodes>
            0 -1 21 -498022481 2003894202 283218335 2075884519
            -174981193 -660303209 -15401198 50169335</internalNodes>
          <leafValues>
            -5.6183612346649170e-01 4.1289490461349487e-01</leafValues></_>
        <_>
          <internalNodes>
            0 -1 46 2031346910 336232030 -24936078 274397313 1161119241
            -79019209 415318016 765183152</internalNodes>
          <leafValues>
            -6.8265706300735474e-01 3.5261899232864380e-01</leafValues></_>
        <_>
          <internalNodes>
            0 -1 38 2127658873 -5086991 -360464467 2138565968 2060107743
            -1242399266 759562191 -721456953</internalNodes>
          <leafValues>
            -4.3849647045135498e-01 5.6445330381393433e-01</leafValues></_>
        <_>
          <internalNodes>
            0 -1 32 -763996606 -578242827 -2094137339 293831555
            -54494218 -1946148404 -289719377 -2004129027</internalNodes>
          <leafValues>
            -6.4359140396118164e-01 3.8524088263511658e-01</leafValues></_>
        <_>
          <internalNodes>
            0 -1 109 680200025 -1171766425 -1591992971 864259851
            -338186243 -23580191 -871965651 -181764760</internalNodes>
          <leafValues>
            -5.2620238065719604e-01 4.9993735551834106e-01</leafValues></_>
        <_>
          <internalNodes>
            0 -1 2 -1051008082 -136516465 -1775620003 1900621093
            -439515198 282067495 1625303692 16986103</internalNodes>
          <leafValues>
            -7.7387869358062744e-01 3.6468029022216797e-01</leafValues></_>
        <_>
          <internalNodes>
            0 -1 23 -16785549 427048707 -1880195841 -936678667
            -939464224 -327374413 4265170 -388366459</internalNodes>
          <leafValues>
            -4.8000970482826233e-01 5.9616881608963013e-01</leafValues></_></weakClassifiers></_>
    <!-- stage 18 -->
    <_>
      <maxWeakCount>8</maxWeakCount>
      <stageThreshold>-7.5536972284317017e-01</stageThreshold>
      <weakClassifiers>
        <_>
          <internalNodes>
            0 -1 85 289670276 1420609564 -358594298 1375076386
            -578599856 -757938060 1838522770 461277438</internalNodes>
          <leafValues>
            -8.1772154569625854e-01 5.0786948204040527e-01</leafValues></_>
        <_>
          <internalNodes>
            0 -1 34 -134512654 -268494815 -1041022989 1273755519
            2009067445 -33613797 234557439 -456658769</internalNodes>
          <leafValues>
            -4.3149906396865845e-01 5.1881223917007446e-01</leafValues></_>
        <_>
          <internalNodes>
            0 -1 108 -1758179336 1101882525 1985423161 -1526177504
            541377199 -1463094241 594705657 654062624</internalNodes>
          <leafValues>
            -7.3756623268127441e-01 3.4611937403678894e-01</leafValues></_>
        <_>
          <internalNodes>
            0 -1 53 -145825325 -1191203588 -1662585601 -1160786789
            -1313188717 -114167504 -1620530633 -51647809</internalNodes>
          <leafValues>
            -4.3749687075614929e-01 5.7639014720916748e-01</leafValues></_>
        <_>
          <internalNodes>
            0 -1 50 1521352844 -1377251130 1519801 1065457311 181080001
            -1197049747 -1709823111 -1581237584</internalNodes>
          <leafValues>
            -7.4261462688446045e-01 3.2586336135864258e-01</leafValues></_>
        <_>
          <internalNodes>
            0 -1 71 -413444265 775150656 -989407080 1114489275
            -1626087093 17802040 -1724137083 -1017647657</internalNodes>
          <leafValues>
            -5.1937782764434814e-01 4.8799160122871399e-01</leafValues></_>
        <_>
          <internalNodes>
            0 -1 56 1063134868 170836850 595722515 579521869 848499207
            1874735811 292411747 -656771131</internalNodes>
          <leafValues>
            -6.5649008750915527e-01 4.0969142317771912e-01</leafValues></_>
        <_>
          <internalNodes>
            0 -1 28 -518952045 -13615209 1964807037 -562866559
            -1546032161 -458038009 -2017876201 1021762823</internalNodes>
          <leafValues>
            -5.8125990629196167e-01 4.4881474971771240e-01</leafValues></_></weakClassifiers></_></stages>
  <features>
    <_>
      <rect>
        6 5 7 8</rect></_>
    <_>
      <rect>
        6 7 5 9</rect></_>
    <_>
      <rect>
        6 11 7 7</rect></_>
    <_>
      <rect>
        7 0 9 7</rect></_>
    <_>
      <rect>
        7 4 8 8</rect></_>
    <_>
      <rect>
        7 11 5 5</rect></_>
    <_>
      <rect>
        8 8 6 7</rect></_>
    <_>
      <rect>
        8 11 7 4</rect></_>
    <_>
      <rect>
        9 3 7 8</rect></_>
    <_>
      <rect>
        9 7 6 9</rect></_>
    <_>
      <rect>
        9 13 6 3</rect></_>
    <_>
      <rect>
        9 14 8 8</rect></_>
    <_>
      <rect>
        9 16 4 4</rect></_>
    <_>
      <rect>
        10 9 6 5</rect></_>
    <_>
      <rect>
        10 11 7 5</rect></_>
    <_>
      <rect>
        10 12 6 6</rect></_>
    <_>
      <rect>
        10 14 4 5</rect></_>
    <_>
      <rect>
        11 5 6 8</rect></_>
    <_>
      <rect>
        11 6 5 7</rect></_>
    <_>
      <rect>
        11 9 4 6</rect></_>
    <_>
      <rect>
        11 10 4 7</rect></_>
    <_>
      <rect>
        11 11 5 5</rect></_>
    <_>
      <rect>
        11 15 7 4</rect></_>
    <_>
      <rect>
        11 17 3 4</rect></_>
    <_>
      <rect>
        11 19 5 3</rect></_>
    <_>
      <rect>
        12 5 6 9</rect></_>
    <_>
      <rect>
        12 6 5 9</rect></_>
    <_>
      <rect>
        12 7 5 9</rect></_>
    <_>
      <rect>
        12 11 5 5</rect></_>
    <_>
      <rect>
        12 13 3 2</rect></_>
    <_>
      <rect>
        12 14 4 5</rect></_>
    <_>
      <rect>
        12 15 4 4</rect></_>
    <_>
      <rect>
        12 15 4 5</rect></_>
    <_>
      <rect>
        12 16 3 2</rect></_>
    <_>
      <rect>
        12 16 4 2</rect></_>
    <_>
      <rect>
        12 17 5 3</rect></_>
    <_>
      <rect>
        13 6 5 9</rect></_>
    <_>
      <rect>
        13 12 3 4</rect></_>
    <_>
      <rect>
        13 17 5 2</rect></_>
    <_>
      <rect>
        13 18 6 2</rect></_>
    <_>
      <rect>
        14 11 5 4</rect></_>
    <_>
      <rect>
        14 12 2 5</rect></_>
    <_>
      <rect>
        14 12 4 4</rect></_>
    <_>
      <rect>
        14 12 5 4</rect></_>
    <_>
      <rect>
        14 14 4 3</rect></_>
    <_>
      <rect>
        14 14 5 5</rect></_>
    <_>
      <rect>
        14 14 5 7</rect></_>
    <_>
      <rect>
        14 15 5 4</rect></_>
    <_>
      <rect>
        14 16 3 2</rect></_>
    <_>
      <rect>
        14 16 4 5</rect></_>
    <_>
      <rect>
        14 19 3 1</rect></_>
    <_>
      <rect>
        14 19 4 2</rect></_>
    <_>
      <rect>
        14 20 4 2</rect></_>
    <_>
      <rect>
        14 21 4 2</rect></_>
    <_>
      <rect>
        15 1 4 5</rect></_>
    <_>
      <rect>
        15 3 6 9</rect></_>
    <_>
      <rect>
        15 5 4 9</rect></_>
    <_>
      <rect>
        15 6 7 10</rect></_>
    <_>
      <rect>
        15 12 4 5</rect></_>
    <_>
      <rect>
        15 15 3 2</rect></_>
    <_>
      <rect>
        15 16 3 2</rect></_>
    <_>
      <rect>
        15 16 3 3</rect></_>
    <_>
      <rect>
        15 19 3 1</rect></_>
    <_>
      <rect>
        15 20 2 1</rect></_>
    <_>
      <rect>
        15 20 4 2</rect></_>
    <_>
      <rect>
        15 21 3 2</rect></_>
    <_>
      <rect>
        15 21 4 2</rect></_>
    <_>
      <rect>
        15 22 3 2</rect></_>
    <_>
      <rect>
        15 22 4 2</rect></_>
    <_>
      <rect>
        15 23 4 2</rect></_>
    <_>
      <rect>
        16 2 5 11</rect></_>
    <_>
      <rect>
        16 8 7 10</rect></_>
    <_>
      <rect>
        16 12 4 6</rect></_>
    <_>
      <rect>
        16 14 3 2</rect></_>
    <_>
      <rect>
        16 15 2 2</rect></_>
    <_>
      <rect>
        16 15 3 2</rect></_>
    <_>
      <rect>
        16 16 2 2</rect></_>
    <_>
      <rect>
        16 16 2 3</rect></_>
    <_>
      <rect>
        16 17 2 3</rect></_>
    <_>
      <rect>
        16 17 4 1</rect></_>
    <_>
      <rect>
        16 18 2 1</rect></_>
    <_>
      <rect>
        16 18 2 2</rect></_>
    <_>
      <rect>
        16 18 3 2</rect></_>
    <_>
      <rect>
        17 8 6 9</rect></_>
    <_>
      <rect>
        17 13 2 4</rect></_>
    <_>
      <rect>
        17 13 3 5</rect></_>
    <_>
      <rect>
        17 14 3 3</rect></_>
    <_>
      <rect>
        17 14 4 3</rect></_>
    <_>
      <rect>
        17 15 2 2</rect></_>
    <_>
      <rect>
        17 16 2 1</rect></_>
    <_>
      <rect>
        17 16 2 3</rect></_>
    <_>
      <rect>
        17 16 3 3</rect></_>
    <_>
      <rect>
        17 17 2 2</rect></_>
    <_>
      <rect>
        17 17 3 1</rect></_>
    <_>
      <rect>
        17 17 3 2</rect></_>
    <_>
      <rect>
        17 18 2 2</rect></_>
    <_>
      <rect>
        17 18 3 2</rect></_>
    <_>
      <rect>
        17 19 1 1</rect></_>
    <_>
      <rect>
        17 19 2 1</rect></_>
    <_>
      <rect>
        18 16 3 2</rect></_>
    <_>
      <rect>
        18 17 1 2</rect></_>
    <_>
      <rect>
        18 17 2 2</rect></_>
    <_>
      <rect>
        18 18 1 1</rect></_>
    <_>
      <rect>
        18 18 2 1</rect></_>
    <_>
      <rect>
        18 18 2 2</rect></_>
    <_>
      <rect>
        18 19 1 1</rect></_>
    <_>
      <rect>
        18 19 2 1</rect></_>
    <_>
      <rect>
        18 19 2 2</rect></_>
    <_>
      <rect>
        18 20 1 1</rect></_>
    <_>
      <rect>
        18 21 2 1</rect></_>
    <_>
      <rect>
        19 17 2 1</rect></_>
    <_>
      <rect>
        19 18 1 1</rect></_>
    <_>
      <rect>
        19 20 2 1</rect></_>
    <_>
      <rect>
        20 14 3 4</rect></_>
    <_>
      <rect>
        20 16 3 2</rect></_>
    <_>
      <rect>
        20 18 2 1</rect></_>
    <_>
      <rect>
        20 19 1 1</rect></_>
    <_>
      <rect>
        20 19 1 2</rect></_>
    <_>
      <rect>
        23 13 5 6</rect></_></features></cascade>
</opencv_storage>
