<?xml version="1.0"?>
<opencv_storage>
<stage11>
  <maxWeakCount>8</maxWeakCount>
  <stageThreshold>-7.0201098918914795e-01</stageThreshold>
  <weakClassifiers>
    <_>
      <internalNodes>
        0 -1 45159 -1284360176 -1087497889 -26808617 2071085128
        -1280591190 912402608 1125632750 2079472494</internalNodes>
      <leafValues>
        -6.7837339639663696e-01 5.5591702461242676e-01</leafValues></_>
    <_>
      <internalNodes>
        0 -1 21950 -182724429 -736762664 -268328303 -264933148 890223355
        346661457 2027223739 574057035</internalNodes>
      <leafValues>
        -5.8208286762237549e-01 4.4109103083610535e-01</leafValues></_>
    <_>
      <internalNodes>
        0 -1 33571 -758192281 -791394945 -385547503 1561341330
        -180281035 1154057605 -853991295 1486513866</internalNodes>
      <leafValues>
        -6.4526826143264771e-01 3.9913231134414673e-01</leafValues></_>
    <_>
      <internalNodes>
        0 -1 29007 -1171267053 1854843747 -460119541 -642652079
        -61543695 707128555 -1601363776 -36707309</internalNodes>
      <leafValues>
        -5.0686889886856079e-01 4.9261048436164856e-01</leafValues></_>
    <_>
      <internalNodes>
        0 -1 36307 -119806280 -1686150092 -1190849900 -1317691073
        -1957372676 -1967793441 193505199 853566666</internalNodes>
      <leafValues>
        -7.5671845674514771e-01 3.4000438451766968e-01</leafValues></_>
    <_>
      <internalNodes>
        0 -1 45109 -762976818 362816752 -1800170337 -619607807
        -1691290646 145463794 -909078801 1552410813</internalNodes>
      <leafValues>
        -6.9393122196197510e-01 3.6929944157600403e-01</leafValues></_>
    <_>
      <internalNodes>
        0 -1 19956 -442018025 -175173361 1075825800 -50203250 545413987
        -343931781 -1009809263 -968365282</internalNodes>
      <leafValues>
        -5.5982232093811035e-01 5.1411771774291992e-01</leafValues></_>
    <_>
      <internalNodes>
        0 -1 40622 -940843591 -729650 -671158535 1860112117 870168829
        -1344504353 2144468979 -1332662565</internalNodes>
      <leafValues>
        -4.5999625325202942e-01 6.0662686824798584e-01</leafValues></_></weakClassifiers></stage11>
</opencv_storage>
