<?xml version="1.0"?>
<opencv_storage>
<stage18>
  <maxWeakCount>8</maxWeakCount>
  <stageThreshold>-7.5536972284317017e-01</stageThreshold>
  <weakClassifiers>
    <_>
      <internalNodes>
        0 -1 46783 289670276 1420609564 -358594298 1375076386 -578599856
        -757938060 1838522770 461277438</internalNodes>
      <leafValues>
        -8.1772154569625854e-01 5.0786948204040527e-01</leafValues></_>
    <_>
      <internalNodes>
        0 -1 36377 -134512654 -268494815 -1041022989 1273755519
        2009067445 -33613797 234557439 -456658769</internalNodes>
      <leafValues>
        -4.3149906396865845e-01 5.1881223917007446e-01</leafValues></_>
    <_>
      <internalNodes>
        0 -1 48959 -1758179336 1101882525 1985423161 -1526177504
        541377199 -1463094241 594705657 654062624</internalNodes>
      <leafValues>
        -7.3756623268127441e-01 3.4611937403678894e-01</leafValues></_>
    <_>
      <internalNodes>
        0 -1 41163 -145825325 -1191203588 -1662585601 -1160786789
        -1313188717 -114167504 -1620530633 -51647809</internalNodes>
      <leafValues>
        -4.3749687075614929e-01 5.7639014720916748e-01</leafValues></_>
    <_>
      <internalNodes>
        0 -1 41054 1521352844 -1377251130 1519801 1065457311 181080001
        -1197049747 -1709823111 -1581237584</internalNodes>
      <leafValues>
        -7.4261462688446045e-01 3.2586336135864258e-01</leafValues></_>
    <_>
      <internalNodes>
        0 -1 44509 -413444265 775150656 -989407080 1114489275
        -1626087093 17802040 -1724137083 -1017647657</internalNodes>
      <leafValues>
        -5.1937782764434814e-01 4.8799160122871399e-01</leafValues></_>
    <_>
      <internalNodes>
        0 -1 42137 1063134868 170836850 595722515 579521869 848499207
        1874735811 292411747 -656771131</internalNodes>
      <leafValues>
        -6.5649008750915527e-01 4.0969142317771912e-01</leafValues></_>
    <_>
      <internalNodes>
        0 -1 36005 -518952045 -13615209 1964807037 -562866559
        -1546032161 -458038009 -2017876201 1021762823</internalNodes>
      <leafValues>
        -5.8125990629196167e-01 4.4881474971771240e-01</leafValues></_></weakClassifiers></stage18>
</opencv_storage>
