<?xml version="1.0"?>
<opencv_storage>
<stage4>
  <maxWeakCount>6</maxWeakCount>
  <stageThreshold>-6.8384236097335815e-01</stageThreshold>
  <weakClassifiers>
    <_>
      <internalNodes>
        0 -1 31208 -477638675 -789366343 -318540584 1356035701
        -1325277186 -2138919657 1880078331 1147566003</internalNodes>
      <leafValues>
        -7.0796459913253784e-01 6.3738155364990234e-01</leafValues></_>
    <_>
      <internalNodes>
        0 -1 35648 1550776318 1820384163 1176230907 1081107195
        1112834300 -78318961 -496955681 -1460240417</internalNodes>
      <leafValues>
        -6.1213380098342896e-01 5.2830809354782104e-01</leafValues></_>
    <_>
      <internalNodes>
        0 -1 47000 -552052387 -134590027 563879165 1070601356 421281534
        1000805307 -1087624262 931078962</internalNodes>
      <leafValues>
        -7.7668404579162598e-01 4.1221120953559875e-01</leafValues></_>
    <_>
      <internalNodes>
        0 -1 45034 -997424736 -263995101 -1499425821 -542425151
        -2000364872 -1732730794 734524411 -1109705874</internalNodes>
      <leafValues>
        -7.3003524541854858e-01 4.7395613789558411e-01</leafValues></_>
    <_>
      <internalNodes>
        0 -1 52361 -182655779 1059035549 -343011261 1383925777
        -1414892369 -389407247 799155422 -83162389</internalNodes>
      <leafValues>
        -5.6846117973327637e-01 5.7211709022521973e-01</leafValues></_>
    <_>
      <internalNodes>
        0 -1 42961 -607587848 2078130289 -1589575361 -1882386389
        -1440433227 958196926 -1645514306 688794859</internalNodes>
      <leafValues>
        -7.7357500791549683e-01 4.2176502943038940e-01</leafValues></_></weakClassifiers></stage4>
</opencv_storage>
