<?xml version="1.0"?>
<opencv_storage>
<stage13>
  <maxWeakCount>7</maxWeakCount>
  <stageThreshold>-4.1368660330772400e-01</stageThreshold>
  <weakClassifiers>
    <_>
      <internalNodes>
        0 -1 40559 637709044 414375510 -603956906 231761502 -391473618
        -1435778048 -373913954 164835275</internalNodes>
      <leafValues>
        -6.3369965553283691e-01 5.4849225282669067e-01</leafValues></_>
    <_>
      <internalNodes>
        0 -1 33207 1341286130 1552962045 160643271 439385967 340877778
        1587776070 310554903 989485951</internalNodes>
      <leafValues>
        -7.3948824405670166e-01 3.3140397071838379e-01</leafValues></_>
    <_>
      <internalNodes>
        0 -1 40835 -963949841 -454791280 1627960187 901104785 -994585628
        -129644951 -905773484 1053685401</internalNodes>
      <leafValues>
        -6.3174903392791748e-01 3.7249806523323059e-01</leafValues></_>
    <_>
      <internalNodes>
        0 -1 42703 -91494026 -788463874 -2112515919 -163529512 -77133996
        -1782474028 465851841 -722779741</internalNodes>
      <leafValues>
        -5.5802309513092041e-01 4.1106367111206055e-01</leafValues></_>
    <_>
      <internalNodes>
        0 -1 36146 -462427538 301931347 9014821 769106627 1021550164
        1019723464 -911545754 -777010441</internalNodes>
      <leafValues>
        -5.5174976587295532e-01 4.6131312847137451e-01</leafValues></_>
    <_>
      <internalNodes>
        0 -1 46842 -1441664187 -1379040276 -1022753926 -182638936
        -96018186 -1369701720 -31138608 1965420062</internalNodes>
      <leafValues>
        -6.2696421146392822e-01 3.9914804697036743e-01</leafValues></_>
    <_>
      <internalNodes>
        0 -1 44969 503624108 856241068 -234846363 -2051691258 845077685
        1053612158 1861009545 2126312399</internalNodes>
      <leafValues>
        -7.2930157184600830e-01 3.4932965040206909e-01</leafValues></_></weakClassifiers></stage13>
</opencv_storage>
