<?xml version="1.0"?>
<opencv_storage>
<stage19>
  <maxWeakCount>8</maxWeakCount>
  <stageThreshold>-7.3365551233291626e-01</stageThreshold>
  <weakClassifiers>
    <_>
      <internalNodes>
        0 -1 43015 522490956 788728064 -58665658 -1599102336 -115061140
        -2023161746 -384782816 15721898</internalNodes>
      <leafValues>
        -6.2081784009933472e-01 5.4183590412139893e-01</leafValues></_>
    <_>
      <internalNodes>
        0 -1 46781 -866401286 1348170542 -834619500 -1685145203
        -1727847620 -1413126831 -114212096 1955934125</internalNodes>
      <leafValues>
        -6.4515340328216553e-01 3.5338374972343445e-01</leafValues></_>
    <_>
      <internalNodes>
        0 -1 46247 -1416890121 740993706 1986324466 -60101709
        -1987514903 -877658113 -1410012673 -336168011</internalNodes>
      <leafValues>
        -4.5615759491920471e-01 4.9020478129386902e-01</leafValues></_>
    <_>
      <internalNodes>
        0 -1 40543 -892865262 -658161193 395108696 349446764 760340921
        2085898504 43478340 1249887978</internalNodes>
      <leafValues>
        -6.6657167673110962e-01 3.6240008473396301e-01</leafValues></_>
    <_>
      <internalNodes>
        0 -1 28687 -455108800 1924895171 62524049 -1784935649 1398617828
        -901143963 -1750292301 728659283</internalNodes>
      <leafValues>
        -6.1277741193771362e-01 3.7471592426300049e-01</leafValues></_>
    <_>
      <internalNodes>
        0 -1 53894 -530877446 860443263 -503188167 1142368815 -704425250
        732523730 -250299477 738575107</internalNodes>
      <leafValues>
        -6.2791943550109863e-01 3.6437681317329407e-01</leafValues></_>
    <_>
      <internalNodes>
        0 -1 38631 -235274254 362118145 298123459 -1853840768 110025178
        296478807 1231846784 -2004749114</internalNodes>
      <leafValues>
        -5.9785676002502441e-01 4.1300687193870544e-01</leafValues></_>
    <_>
      <internalNodes>
        0 -1 48703 -327951593 976334269 -715858435 218090959 -286196409
        -16546 -69175441 -290979322</internalNodes>
      <leafValues>
        -4.7256889939308167e-01 5.7348424196243286e-01</leafValues></_></weakClassifiers></stage19>
</opencv_storage>
