<?xml version="1.0"?>
<opencv_storage>
<stage5>
  <maxWeakCount>6</maxWeakCount>
  <stageThreshold>-3.3227369189262390e-01</stageThreshold>
  <weakClassifiers>
    <_>
      <internalNodes>
        0 -1 35461 2077097724 147876600 989298687 39876607 1275457279
        13434623 232751103 -989954049</internalNodes>
      <leafValues>
        -5.0000000000000000e-01 6.4678901433944702e-01</leafValues></_>
    <_>
      <internalNodes>
        0 -1 26007 -412757005 -204353072 365204473 1434825617 -149899276
        -1535059718 2057530266 165747663</internalNodes>
      <leafValues>
        -6.3458698987960815e-01 4.8476818203926086e-01</leafValues></_>
    <_>
      <internalNodes>
        0 -1 47006 -1209076536 -171999590 769930744 -139331759
        -671613250 -549093521 519311359 -66226889</internalNodes>
      <leafValues>
        -5.4116755723953247e-01 5.6787854433059692e-01</leafValues></_>
    <_>
      <internalNodes>
        0 -1 44913 -690956546 -14128384 -1761459236 2133811740
        -1014842916 -669900654 -813646860 -1742861609</internalNodes>
      <leafValues>
        -6.1449080705642700e-01 4.9715542793273926e-01</leafValues></_>
    <_>
      <internalNodes>
        0 -1 43285 359421786 2073559186 -1913087681 -2017868774
        -1484619013 -1952410487 -2012679201 1063977647</internalNodes>
      <leafValues>
        -6.6055381298065186e-01 4.8354509472846985e-01</leafValues></_>
    <_>
      <internalNodes>
        0 -1 36236 -354808646 -577295801 -1441412770 -1212694889
        1249961912 -863418057 -870171765 -911668501</internalNodes>
      <leafValues>
        -7.2152203321456909e-01 4.1567316651344299e-01</leafValues></_></weakClassifiers></stage5>
</opencv_storage>
