<?xml version="1.0"?>
<opencv_storage>
<stage7>
  <maxWeakCount>8</maxWeakCount>
  <stageThreshold>-9.7085863351821899e-01</stageThreshold>
  <weakClassifiers>
    <_>
      <internalNodes>
        0 -1 38407 -1036845136 -721027836 356117032 -156107072
        -1223098487 810612636 2132624618 661720762</internalNodes>
      <leafValues>
        -6.8055558204650879e-01 5.7425743341445923e-01</leafValues></_>
    <_>
      <internalNodes>
        0 -1 46483 -1409688068 541739016 -795457368 -523614040
        -917636385 -1903466357 -1378882661 -1266221137</internalNodes>
      <leafValues>
        -6.6298061609268188e-01 4.3208068609237671e-01</leafValues></_>
    <_>
      <internalNodes>
        0 -1 46954 -1612226496 -472534564 306995358 1394520704
        -1970996962 259755450 -2046448961 2086387135</internalNodes>
      <leafValues>
        -7.6423186063766479e-01 3.9305248856544495e-01</leafValues></_>
    <_>
      <internalNodes>
        0 -1 41972 -212929959 -1979435892 -2078760758 -632892864
        -2112884521 -1945722679 1969939103 2147220187</internalNodes>
      <leafValues>
        -6.5343785285949707e-01 3.8174775242805481e-01</leafValues></_>
    <_>
      <internalNodes>
        0 -1 44977 -1819627496 833849859 -1801321506 -85819240
        -1984232008 -22994774 53139408 1588712703</internalNodes>
      <leafValues>
        -7.7353847026824951e-01 3.3099055290222168e-01</leafValues></_>
    <_>
      <internalNodes>
        0 -1 48861 -1162277091 -1611548051 -48446983 147834253 579808959
        1041870996 190342009 -346367205</internalNodes>
      <leafValues>
        -5.5232971906661987e-01 5.0021350383758545e-01</leafValues></_>
    <_>
      <internalNodes>
        0 -1 40605 -121180161 2137117957 352405997 1024569638 1772945116
        1225968993 1523378836 453758124</internalNodes>
      <leafValues>
        -6.5891283750534058e-01 4.4724380970001221e-01</leafValues></_>
    <_>
      <internalNodes>
        0 -1 50785 -475703880 253841412 594773497 2098921613 462008703
        -1345814094 -1417508679 -385637545</internalNodes>
      <leafValues>
        -6.2802731990814209e-01 5.2812772989273071e-01</leafValues></_></weakClassifiers></stage7>
</opencv_storage>
