<?xml version="1.0"?>
<opencv_storage>
<cascade>
  <stageType>BOOST</stageType>
  <featureType>LBP</featureType>
  <height>40</height>
  <width>20</width>
  <stageParams>
    <boostType>GAB</boostType>
    <minHitRate>9.9900001287460327e-01</minHitRate>
    <maxFalseAlarm>5.0000000000000000e-01</maxFalseAlarm>
    <weightTrimRate>9.4999999999999996e-01</weightTrimRate>
    <maxDepth>1</maxDepth>
    <maxWeakCount>100</maxWeakCount></stageParams>
  <featureParams>
    <maxCatCount>256</maxCatCount>
    <featSize>1</featSize></featureParams>
  <stageNum>22</stageNum>
  <stages>
    <!-- stage 0 -->
    <_>
      <maxWeakCount>6</maxWeakCount>
      <stageThreshold>-4.6142524480819702e-01</stageThreshold>
      <weakClassifiers>
        <_>
          <internalNodes>
            0 -1 110 -243219364 -111996911 568463376 524944284
            -1182469698 956944529 963433114 893324856</internalNodes>
          <leafValues>
            -8.1907892227172852e-01 6.2625420093536377e-01</leafValues></_>
        <_>
          <internalNodes>
            0 -1 7 1501560575 1346382533 536899613 191583 1074185983
            43574 17014687 -659886081</internalNodes>
          <leafValues>
            -5.8123451471328735e-01 6.7264282703399658e-01</leafValues></_>
        <_>
          <internalNodes>
            0 -1 131 -1852309036 1469793346 1359024599 -67119688
            428511886 954990720 998902958 -4257602</internalNodes>
          <leafValues>
            -6.3732630014419556e-01 5.6810247898101807e-01</leafValues></_>
        <_>
          <internalNodes>
            0 -1 137 -788926143 -2138262831 75530366 72136391 1367843551
            2021655043 1089253007 500165287</internalNodes>
          <leafValues>
            -7.0961803197860718e-01 5.4476904869079590e-01</leafValues></_>
        <_>
          <internalNodes>
            0 -1 73 -93409602 147645080 -1890601513 93949851 -1732513861
            -1466233670 2048129739 135232442</internalNodes>
          <leafValues>
            -8.2306462526321411e-01 4.3881392478942871e-01</leafValues></_>
        <_>
          <internalNodes>
            0 -1 109 1962989784 -1257172725 -2055208740 -1615920869
            -1036324613 -1165843220 723568875 -71628119</internalNodes>
          <leafValues>
            -6.2932091951370239e-01 6.4908134937286377e-01</leafValues></_></weakClassifiers></_>
    <!-- stage 1 -->
    <_>
      <maxWeakCount>3</maxWeakCount>
      <stageThreshold>-6.1887359619140625e-01</stageThreshold>
      <weakClassifiers>
        <_>
          <internalNodes>
            0 -1 147 520101400 2079919898 2119499518 1069367231
            2146056736 -8437925 2138996733 -619702827</internalNodes>
          <leafValues>
            -6.7690557241439819e-01 7.5200378894805908e-01</leafValues></_>
        <_>
          <internalNodes>
            0 -1 95 531292144 1061113749 145653567 -781245135 -138752264
            523223360 -1015066690 -1022668534</internalNodes>
          <leafValues>
            -6.1425274610519409e-01 6.7514276504516602e-01</leafValues></_>
        <_>
          <internalNodes>
            0 -1 76 1488511704 1428549352 23274105 1897872163
            -1569658213 -1136703003 90180090 -1711128245</internalNodes>
          <leafValues>
            -6.1711078882217407e-01 6.7901253700256348e-01</leafValues></_></weakClassifiers></_>
    <!-- stage 2 -->
    <_>
      <maxWeakCount>6</maxWeakCount>
      <stageThreshold>-1.6461852788925171e+00</stageThreshold>
      <weakClassifiers>
        <_>
          <internalNodes>
            0 -1 130 -753905416 -149842560 -1803550484 1158742280
            -1324830372 1401233608 557550 1049703042</internalNodes>
          <leafValues>
            -7.6228207349777222e-01 6.2515830993652344e-01</leafValues></_>
        <_>
          <internalNodes>
            0 -1 102 1359532760 -738613092 100614141 -1727034674
            -85542226 -1350330126 774589439 -1690352897</internalNodes>
          <leafValues>
            -5.0821202993392944e-01 6.9723999500274658e-01</leafValues></_>
        <_>
          <internalNodes>
            0 -1 34 -796854064 -654299134 1292902656 1402028303
            -2112585488 1342308480 805347978 50544779</internalNodes>
          <leafValues>
            -7.3637825250625610e-01 5.1205706596374512e-01</leafValues></_>
        <_>
          <internalNodes>
            0 -1 39 -887357518 -719998976 419482624 1363623938
            -1052406912 823165066 1762115755 733184711</internalNodes>
          <leafValues>
            -7.2759854793548584e-01 5.3415185213088989e-01</leafValues></_>
        <_>
          <internalNodes>
            0 -1 139 -762781480 1904214148 1409296603 285548544
            1107855498 16941186 16887439 285540489</internalNodes>
          <leafValues>
            -7.6931667327880859e-01 4.4432660937309265e-01</leafValues></_>
        <_>
          <internalNodes>
            0 -1 88 -45026562 -1316814720 -788495844 1057726616
            -1155358532 -1157103552 414775178 -632188162</internalNodes>
          <leafValues>
            -6.5258336067199707e-01 5.4863417148590088e-01</leafValues></_></weakClassifiers></_>
    <!-- stage 3 -->
    <_>
      <maxWeakCount>6</maxWeakCount>
      <stageThreshold>-1.3127471208572388e+00</stageThreshold>
      <weakClassifiers>
        <_>
          <internalNodes>
            0 -1 79 -976302888 -993310576 -988282675 2098790402
            807407774 1308622906 730333371 355404458</internalNodes>
          <leafValues>
            -7.4161076545715332e-01 5.9983360767364502e-01</leafValues></_>
        <_>
          <internalNodes>
            0 -1 98 303038714 -1182527396 290522141 -1588651555
            1942520250 -1173749620 149633435 -1322542918</internalNodes>
          <leafValues>
            -5.9865480661392212e-01 5.4961717128753662e-01</leafValues></_>
        <_>
          <internalNodes>
            0 -1 16 -621106393 -682519936 84488207 294482321 -1073685628
            1887731848 1367927241 1209004010</internalNodes>
          <leafValues>
            -6.2029093503952026e-01 5.5562996864318848e-01</leafValues></_>
        <_>
          <internalNodes>
            0 -1 67 1409340632 -712894464 16843993 486866983 805568696
            -2004875135 -536815221 185221259</internalNodes>
          <leafValues>
            -6.5248608589172363e-01 5.4270040988922119e-01</leafValues></_>
        <_>
          <internalNodes>
            0 -1 25 -686752606 -243165035 16811673 -1862162399 268468985
            2038726672 453026075 2012152047</internalNodes>
          <leafValues>
            -6.5106272697448730e-01 5.2354526519775391e-01</leafValues></_>
        <_>
          <internalNodes>
            0 -1 101 -210577928 -1862306054 208932117 -570848071
            -685721635 -13609475 325238779 -1718633490</internalNodes>
          <leafValues>
            -5.8527261018753052e-01 6.4100301265716553e-01</leafValues></_></weakClassifiers></_>
    <!-- stage 4 -->
    <_>
      <maxWeakCount>7</maxWeakCount>
      <stageThreshold>-7.6334029436111450e-01</stageThreshold>
      <weakClassifiers>
        <_>
          <internalNodes>
            0 -1 124 -100345384 2060599632 419436940 -1637990274
            -1333413756 822921440 1631787707 993700543</internalNodes>
          <leafValues>
            -6.3347762823104858e-01 6.2375378608703613e-01</leafValues></_>
        <_>
          <internalNodes>
            0 -1 148 -787953456 -37793843 -193322122 -1098452
            -1257337138 -1073758340 -1078063885 -202658891</internalNodes>
          <leafValues>
            -4.5194905996322632e-01 6.5258932113647461e-01</leafValues></_>
        <_>
          <internalNodes>
            0 -1 4 -620018289 571403019 1171218815 658897303 1210372347
            -1342119903 -270840613 1109391191</internalNodes>
          <leafValues>
            -5.8590650558471680e-01 5.2341759204864502e-01</leafValues></_>
        <_>
          <internalNodes>
            0 -1 129 -1263986180 -244821680 88605849 -716636055
            -2096955154 -207388544 671107823 1028326153</internalNodes>
          <leafValues>
            -6.6720056533813477e-01 4.7888520359992981e-01</leafValues></_>
        <_>
          <internalNodes>
            0 -1 119 -593757224 -787873126 -1055354560 1629161496
            -1710579016 -1467481528 689617836 1273461700</internalNodes>
          <leafValues>
            -7.4377000331878662e-01 4.1047170758247375e-01</leafValues></_>
        <_>
          <internalNodes>
            0 -1 82 -641017665 -38982632 352300575 1607417007
            -1153069105 -1169405867 225803775 -335606531</internalNodes>
          <leafValues>
            -4.6197327971458435e-01 7.8810209035873413e-01</leafValues></_>
        <_>
          <internalNodes>
            0 -1 61 -803157936 2133856610 -2147448744 1560641633
            574653338 -1205202816 75680251 85671945</internalNodes>
          <leafValues>
            -6.5263932943344116e-01 5.3031259775161743e-01</leafValues></_></weakClassifiers></_>
    <!-- stage 5 -->
    <_>
      <maxWeakCount>6</maxWeakCount>
      <stageThreshold>-5.7958191633224487e-01</stageThreshold>
      <weakClassifiers>
        <_>
          <internalNodes>
            0 -1 131 538444244 1727281407 339163071 -290458664 421135278
            1044122877 501157102 -16906132</internalNodes>
          <leafValues>
            -6.8483060598373413e-01 6.3119345903396606e-01</leafValues></_>
        <_>
          <internalNodes>
            0 -1 14 -94700545 -320802385 -202670089 1406468757
            -267073283 -402587463 -759202561 35784412</internalNodes>
          <leafValues>
            -6.8113666772842407e-01 5.0490003824234009e-01</leafValues></_>
        <_>
          <internalNodes>
            0 -1 41 1096933801 -796894729 917674455 1354261493
            -467414533 650203238 -289610753 750172847</internalNodes>
          <leafValues>
            -6.3188129663467407e-01 4.7642320394515991e-01</leafValues></_>
        <_>
          <internalNodes>
            0 -1 117 1300033789 -947600428 929118613 354025445 -48732177
            -1349697481 -610021717 145747286</internalNodes>
          <leafValues>
            -6.8718105554580688e-01 4.0155339241027832e-01</leafValues></_>
        <_>
          <internalNodes>
            0 -1 147 991174461 999362363 1026660543 985495999 1540103713
            -9474199 1877011369 -74394381</internalNodes>
          <leafValues>
            -6.0831111669540405e-01 5.0860935449600220e-01</leafValues></_>
        <_>
          <internalNodes>
            0 -1 38 1985008519 156518229 1345419866 1459634582
            1078214677 1313129476 2045437607 -352950382</internalNodes>
          <leafValues>
            -5.7652157545089722e-01 5.1671993732452393e-01</leafValues></_></weakClassifiers></_>
    <!-- stage 6 -->
    <_>
      <maxWeakCount>7</maxWeakCount>
      <stageThreshold>-8.7981265783309937e-01</stageThreshold>
      <weakClassifiers>
        <_>
          <internalNodes>
            0 -1 81 1460067508 -558900161 1073397692 -360586 -2122921553
            1063223247 -1342507026 1200324602</internalNodes>
          <leafValues>
            -5.0381678342819214e-01 6.3053297996520996e-01</leafValues></_>
        <_>
          <internalNodes>
            0 -1 95 496164848 2000637879 144987255 -1052106629
            -459158857 1042860449 -1044362918 -882175989</internalNodes>
          <leafValues>
            -5.6558096408843994e-01 4.8304736614227295e-01</leafValues></_>
        <_>
          <internalNodes>
            0 -1 123 1350824156 -40691240 -520087236 -149470639
            189770494 -39745504 155329082 -955289301</internalNodes>
          <leafValues>
            -5.3375679254531860e-01 4.8510524630546570e-01</leafValues></_>
        <_>
          <internalNodes>
            0 -1 65 -255728957 -588773809 -722410159 -993673129
            1901716114 -1415726449 -774769709 754181371</internalNodes>
          <leafValues>
            -5.8192098140716553e-01 4.8048564791679382e-01</leafValues></_>
        <_>
          <internalNodes>
            0 -1 113 -99106722 -258099056 268958 -595548960 1275125432
            586128034 1971342629 1797245451</internalNodes>
          <leafValues>
            -6.4686340093612671e-01 4.2141121625900269e-01</leafValues></_>
        <_>
          <internalNodes>
            0 -1 112 -82257735 -8538951 1960658777 1844428799 -4458769
            1069504508 -1135216753 -1175478302</internalNodes>
          <leafValues>
            -5.3161168098449707e-01 5.6462550163269043e-01</leafValues></_>
        <_>
          <internalNodes>
            0 -1 43 -731071519 1885476164 -2079805251 -180549485
            -603969612 1521050504 -1534386179 1135542916</internalNodes>
          <leafValues>
            -7.1810215711593628e-01 4.4222909212112427e-01</leafValues></_></weakClassifiers></_>
    <!-- stage 7 -->
    <_>
      <maxWeakCount>6</maxWeakCount>
      <stageThreshold>-5.7807070016860962e-01</stageThreshold>
      <weakClassifiers>
        <_>
          <internalNodes>
            0 -1 2 -205261855 1349734871 -1393887235 78142719 664872385
            215521150 -538055201 250511231</internalNodes>
          <leafValues>
            -4.6583852171897888e-01 6.2642371654510498e-01</leafValues></_>
        <_>
          <internalNodes>
            0 -1 18 -152589809 1346431529 -898962833 1498480229
            -997793225 71344235 -1021837313 -991691697</internalNodes>
          <leafValues>
            -4.3315461277961731e-01 5.5581027269363403e-01</leafValues></_>
        <_>
          <internalNodes>
            0 -1 115 -1544555794 -931594559 -1146149801 -1896938462
            354682175 40894395 -280877522 897551462</internalNodes>
          <leafValues>
            -6.7365652322769165e-01 3.7928774952888489e-01</leafValues></_>
        <_>
          <internalNodes>
            0 -1 114 560748336 -1043730678 276456407 2113578878
            1866955543 1934631567 151367579 1866075656</internalNodes>
          <leafValues>
            -7.3385453224182129e-01 3.3244159817695618e-01</leafValues></_>
        <_>
          <internalNodes>
            0 -1 154 613017074 272646146 -1167005142 -1459597182
            -1054113770 -871701881 -276642546 -1110122930</internalNodes>
          <leafValues>
            -7.4833101034164429e-01 3.4045568108558655e-01</leafValues></_>
        <_>
          <internalNodes>
            0 -1 13 -242125229 -1786826089 674570721 -710556893
            -1601933011 -1400887484 -1468006380 1333915883</internalNodes>
          <leafValues>
            -5.8988028764724731e-01 4.2150351405143738e-01</leafValues></_></weakClassifiers></_>
    <!-- stage 8 -->
    <_>
      <maxWeakCount>9</maxWeakCount>
      <stageThreshold>-8.5059607028961182e-01</stageThreshold>
      <weakClassifiers>
        <_>
          <internalNodes>
            0 -1 132 -1121056816 1971799508 1300320732 1936331804
            1359272349 903226783 297180223 456788197</internalNodes>
          <leafValues>
            -6.0402685403823853e-01 5.6572377681732178e-01</leafValues></_>
        <_>
          <internalNodes>
            0 -1 62 746582655 1229578 -1474637245 674023518 69401527
            1716426757 1195275231 2136980031</internalNodes>
          <leafValues>
            -5.7747930288314819e-01 4.5972177386283875e-01</leafValues></_>
        <_>
          <internalNodes>
            0 -1 55 -1038881174 68112682 1611714314 909444891 378792626
            627784714 -1581465365 1029511963</internalNodes>
          <leafValues>
            -7.2358214855194092e-01 3.6941617727279663e-01</leafValues></_>
        <_>
          <internalNodes>
            0 -1 96 -610337313 -8431790 993745425 -9200042 -805640513
            -134256962 -272958683 -980456706</internalNodes>
          <leafValues>
            -4.4042912125587463e-01 6.0642838478088379e-01</leafValues></_>
        <_>
          <internalNodes>
            0 -1 10 277332559 -98309969 -532401397 1309877423
            -1163869493 1543809546 -939460209 -346955551</internalNodes>
          <leafValues>
            -4.5518094301223755e-01 5.5578809976577759e-01</leafValues></_>
        <_>
          <internalNodes>
            0 -1 140 -786826592 -61390179 2021284912 1834834445
            418180558 -661590861 16322233 1334784561</internalNodes>
          <leafValues>
            -6.4890491962432861e-01 4.1151219606399536e-01</leafValues></_>
        <_>
          <internalNodes>
            0 -1 72 -138025798 -115750817 -1983424389 794282331
            -1463267745 -543743089 1707827098 111947144</internalNodes>
          <leafValues>
            -6.8444973230361938e-01 3.8759765028953552e-01</leafValues></_>
        <_>
          <internalNodes>
            0 -1 49 -151704713 -1964003349 -15276801 1900042558
            1395140549 -89485428 -91164674 -544477785</internalNodes>
          <leafValues>
            -4.8665726184844971e-01 5.6875419616699219e-01</leafValues></_>
        <_>
          <internalNodes>
            0 -1 116 1599970239 -536941316 795750201 -842083056
            -1825181905 -1881867044 2137833407 -1983443977</internalNodes>
          <leafValues>
            -4.4968178868293762e-01 5.9820008277893066e-01</leafValues></_></weakClassifiers></_>
    <!-- stage 9 -->
    <_>
      <maxWeakCount>7</maxWeakCount>
      <stageThreshold>-1.0381735563278198e+00</stageThreshold>
      <weakClassifiers>
        <_>
          <internalNodes>
            0 -1 70 -90125128 -74725360 -603561223 1463245821 -524555063
            -392305954 -860143414 1379564</internalNodes>
          <leafValues>
            -7.2504705190658569e-01 5.6095588207244873e-01</leafValues></_>
        <_>
          <internalNodes>
            0 -1 27 -1170871765 -265965033 -2129734479 1696944283
            -1430333732 196111130 -1929120735 1338921967</internalNodes>
          <leafValues>
            -5.4919624328613281e-01 4.2595905065536499e-01</leafValues></_>
        <_>
          <internalNodes>
            0 -1 37 2138570494 1767134548 1074778296 139497639 67237974
            143764104 1730708135 -864110113</internalNodes>
          <leafValues>
            -5.7705307006835938e-01 4.2912572622299194e-01</leafValues></_>
        <_>
          <internalNodes>
            0 -1 99 1471141504 -849918463 109230292 2031115378
            -1700446134 252140931 1765822860 1037006843</internalNodes>
          <leafValues>
            -7.3645323514938354e-01 3.0511578917503357e-01</leafValues></_>
        <_>
          <internalNodes>
            0 -1 90 -183506179 2035639260 128347505 991305052
            -1383533604 -882496850 -103927061 1452796608</internalNodes>
          <leafValues>
            -5.4075050354003906e-01 4.1930535435676575e-01</leafValues></_>
        <_>
          <internalNodes>
            0 -1 64 -2122191416 -679350728 1360286019 1604624386
            -840898408 -425937027 48360127 1035144591</internalNodes>
          <leafValues>
            -6.9394624233245850e-01 3.6642113327980042e-01</leafValues></_>
        <_>
          <internalNodes>
            0 -1 3 -525348909 -134910096 -553834585 -738761429
            -2136014989 -120561884 -397602080 -682376989</internalNodes>
          <leafValues>
            -5.0335496664047241e-01 5.4699015617370605e-01</leafValues></_></weakClassifiers></_>
    <!-- stage 10 -->
    <_>
      <maxWeakCount>9</maxWeakCount>
      <stageThreshold>-9.6698939800262451e-01</stageThreshold>
      <weakClassifiers>
        <_>
          <internalNodes>
            0 -1 47 -355687186 -1265327904 -586969712 773992538
            -859206977 -588124470 1528416768 3203786</internalNodes>
          <leafValues>
            -8.3783781528472900e-01 5.1716160774230957e-01</leafValues></_>
        <_>
          <internalNodes>
            0 -1 29 54781921 -1231891086 1066180123 1414657299
            -250752619 -1346571508 -37639429 226506579</internalNodes>
          <leafValues>
            -6.2358343601226807e-01 3.9149022102355957e-01</leafValues></_>
        <_>
          <internalNodes>
            0 -1 94 -615525670 898620576 385943576 -1785368039
            -599025506 -809465173 -301390118 -408160483</internalNodes>
          <leafValues>
            -5.2452892065048218e-01 4.5985376834869385e-01</leafValues></_>
        <_>
          <internalNodes>
            0 -1 153 1941898685 69704125 -602801249 1386537859
            1636756144 757088941 1322381052 -838371160</internalNodes>
          <leafValues>
            -5.2511292695999146e-01 4.6560028195381165e-01</leafValues></_>
        <_>
          <internalNodes>
            0 -1 111 -593658728 -1649572807 -380035625 -1004533719
            167889322 1176700622 -1972606279 -10556904</internalNodes>
          <leafValues>
            -5.1337087154388428e-01 4.7960776090621948e-01</leafValues></_>
        <_>
          <internalNodes>
            0 -1 86 -168106884 -775882724 1485527120 -1246555660
            895042638 -1457065077 -539140769 297760702</internalNodes>
          <leafValues>
            -7.6702791452407837e-01 3.3299830555915833e-01</leafValues></_>
        <_>
          <internalNodes>
            0 -1 21 2104955516 894783913 1074987831 1909807435 218896026
            80044033 -1306666313 -1942055733</internalNodes>
          <leafValues>
            -5.9027236700057983e-01 4.5222005248069763e-01</leafValues></_>
        <_>
          <internalNodes>
            0 -1 66 -286000301 -16209532 1607446224 -287174992 -528173
            -1879167492 1341040625 -1363843341</internalNodes>
          <leafValues>
            -5.0276446342468262e-01 5.2835279703140259e-01</leafValues></_>
        <_>
          <internalNodes>
            0 -1 141 -1957860417 370557894 -742391981 -161515702
            1860152807 -1417429061 633666397 -444269666</internalNodes>
          <leafValues>
            -4.5734381675720215e-01 5.9800237417221069e-01</leafValues></_></weakClassifiers></_>
    <!-- stage 11 -->
    <_>
      <maxWeakCount>8</maxWeakCount>
      <stageThreshold>-6.8149620294570923e-01</stageThreshold>
      <weakClassifiers>
        <_>
          <internalNodes>
            0 -1 93 -408407328 -975238203 117485486 1273522965
            1927722474 996150218 -303425539 301598192</internalNodes>
          <leafValues>
            -7.3140496015548706e-01 5.3815579414367676e-01</leafValues></_>
        <_>
          <internalNodes>
            0 -1 12 -1596464221 1907554608 -1255666356 197393727
            -510942035 -2098541686 -1079706894 777117641</internalNodes>
          <leafValues>
            -5.7228803634643555e-01 3.8944339752197266e-01</leafValues></_>
        <_>
          <internalNodes>
            0 -1 28 -686623901 -65762602 -886214329 626041852 2017742333
            -204627893 1272593093 43879162</internalNodes>
          <leafValues>
            -5.7159411907196045e-01 3.9255502820014954e-01</leafValues></_>
        <_>
          <internalNodes>
            0 -1 36 1467821775 1327498837 843347538 1659903574 235979227
            -1941413473 339961710 -25296977</internalNodes>
          <leafValues>
            -5.0101155042648315e-01 4.3663164973258972e-01</leafValues></_>
        <_>
          <internalNodes>
            0 -1 121 2145277880 1594819976 820982228 1988993300
            -1315772491 -1019275457 1828831909 -1143089916</internalNodes>
          <leafValues>
            -5.6076014041900635e-01 4.2391222715377808e-01</leafValues></_>
        <_>
          <internalNodes>
            0 -1 80 -555752896 580568232 -549019358 1918129461
            1644382321 59819523 887991460 -38884130</internalNodes>
          <leafValues>
            -6.4457178115844727e-01 3.6972662806510925e-01</leafValues></_>
        <_>
          <internalNodes>
            0 -1 83 1145280178 1486082730 1029802958 -1898379776
            -1467381792 -1982855016 -444491877 -1431072716</internalNodes>
          <leafValues>
            -5.2928954362869263e-01 4.7134733200073242e-01</leafValues></_>
        <_>
          <internalNodes>
            0 -1 111 -1648517191 -1477593607 -1487044641 -1906141975
            521129454 1735739391 -1617166373 -8597926</internalNodes>
          <leafValues>
            -4.6892148256301880e-01 5.4730612039566040e-01</leafValues></_></weakClassifiers></_>
    <!-- stage 12 -->
    <_>
      <maxWeakCount>9</maxWeakCount>
      <stageThreshold>-1.0233902931213379e+00</stageThreshold>
      <weakClassifiers>
        <_>
          <internalNodes>
            0 -1 69 -308780960 -145197904 -1408203648 2048470519
            -1157260464 -1615889136 -1841961390 498876536</internalNodes>
          <leafValues>
            -6.9556027650833130e-01 5.2592009305953979e-01</leafValues></_>
        <_>
          <internalNodes>
            0 -1 156 1422391015 71332162 -188156282 752840434 1237471469
            -1985030269 -123831650 -1466958113</internalNodes>
          <leafValues>
            -4.5356467366218567e-01 4.8543202877044678e-01</leafValues></_>
        <_>
          <internalNodes>
            0 -1 134 -1156555364 1100864949 -2128754833 689133173
            641371135 -1679259727 189014954 2012524340</internalNodes>
          <leafValues>
            -6.6611534357070923e-01 3.7447139620780945e-01</leafValues></_>
        <_>
          <internalNodes>
            0 -1 118 -270572784 -1934386400 1317160767 592380867
            -402627691 -996094569 -220139797 -1228758393</internalNodes>
          <leafValues>
            -5.6241834163665771e-01 4.1539603471755981e-01</leafValues></_>
        <_>
          <internalNodes>
            0 -1 103 -584853705 -1332020182 202724101 -1677287150
            -1458348421 -1719144275 1256919047 -1397431753</internalNodes>
          <leafValues>
            -5.0894588232040405e-01 4.8840835690498352e-01</leafValues></_>
        <_>
          <internalNodes>
            0 -1 53 1124528914 2101834449 -98346639 -103220664
            1422457756 966389979 1535697243 2071495795</internalNodes>
          <leafValues>
            -6.5642273426055908e-01 3.7955519556999207e-01</leafValues></_>
        <_>
          <internalNodes>
            0 -1 100 1030626139 -1954408680 612528002 253706626
            211766399 -1293168480 793288697 -453319382</internalNodes>
          <leafValues>
            -5.0791752338409424e-01 4.9542653560638428e-01</leafValues></_>
        <_>
          <internalNodes>
            0 -1 152 908041343 1868553245 -1121368 -266936340 1932897709
            1793306559 -1946341919 -722468940</internalNodes>
          <leafValues>
            -4.3318662047386169e-01 5.9974545240402222e-01</leafValues></_>
        <_>
          <internalNodes>
            0 -1 40 -355278585 -9567716 -1941541355 1438911721
            -126491871 -791606505 1250589233 1062121075</internalNodes>
          <leafValues>
            -6.0909247398376465e-01 4.4498577713966370e-01</leafValues></_></weakClassifiers></_>
    <!-- stage 13 -->
    <_>
      <maxWeakCount>8</maxWeakCount>
      <stageThreshold>-1.4991073608398438e+00</stageThreshold>
      <weakClassifiers>
        <_>
          <internalNodes>
            0 -1 122 -1207954136 -1190657234 714160062 777949034
            75603671 486342899 233581331 1857955504</internalNodes>
          <leafValues>
            -7.2197312116622925e-01 5.1761943101882935e-01</leafValues></_>
        <_>
          <internalNodes>
            0 -1 125 -1181378044 -1836394926 -268221675 360883623
            -1749318244 605863948 -1362717770 1157557966</internalNodes>
          <leafValues>
            -6.9772678613662720e-01 3.2072910666465759e-01</leafValues></_>
        <_>
          <internalNodes>
            0 -1 8 -486349901 -1044291350 -2064352192 -642432886
            556135653 -1003352437 801705350 1573866683</internalNodes>
          <leafValues>
            -5.5006217956542969e-01 4.0186682343482971e-01</leafValues></_>
        <_>
          <internalNodes>
            0 -1 105 -1081703172 297346796 367074998 -472372064
            -241896452 994976502 532573436 -1007716619</internalNodes>
          <leafValues>
            -6.2745350599288940e-01 3.4610030055046082e-01</leafValues></_>
        <_>
          <internalNodes>
            0 -1 128 -1280686670 1066569988 -2096032352 -1376548772
            881233934 1945573462 153134777 -898968118</internalNodes>
          <leafValues>
            -6.2631613016128540e-01 3.6106112599372864e-01</leafValues></_>
        <_>
          <internalNodes>
            0 -1 85 -272893705 1197274077 669757430 -148134964
            -553960331 -63691148 -830816269 -1382833509</internalNodes>
          <leafValues>
            -4.5979431271553040e-01 5.6041687726974487e-01</leafValues></_>
        <_>
          <internalNodes>
            0 -1 1 -266141377 1117219819 816351249 1373088721 285755775
            -1509911675 1516587497 -315405355</internalNodes>
          <leafValues>
            -5.2860593795776367e-01 5.3099489212036133e-01</leafValues></_>
        <_>
          <internalNodes>
            0 -1 5 -1127808198 -1030294230 -1996057169 333250848
            -2098886507 1236239754 67114139 2131219847</internalNodes>
          <leafValues>
            -6.0482460260391235e-01 4.5422661304473877e-01</leafValues></_></weakClassifiers></_>
    <!-- stage 14 -->
    <_>
      <maxWeakCount>8</maxWeakCount>
      <stageThreshold>-1.3704357147216797e+00</stageThreshold>
      <weakClassifiers>
        <_>
          <internalNodes>
            0 -1 107 -1072824288 -2006658232 -397909173 -1941423071
            -1258008900 90173531 1922188668 1592929638</internalNodes>
          <leafValues>
            -7.5117373466491699e-01 5.1282054185867310e-01</leafValues></_>
        <_>
          <internalNodes>
            0 -1 129 -1834535688 -641041079 -1930950948 -590560178
            -2021159452 1635762317 228715231 1545114505</internalNodes>
          <leafValues>
            -6.4641755819320679e-01 3.4802907705307007e-01</leafValues></_>
        <_>
          <internalNodes>
            0 -1 31 -1761086647 -1032672493 -1844969028 -505223161
            -1207481356 432143704 1475227968 1624667392</internalNodes>
          <leafValues>
            -6.4368706941604614e-01 3.3538943529129028e-01</leafValues></_>
        <_>
          <internalNodes>
            0 -1 23 1600826303 -116086247 -290579921 -1255972027
            1091043063 -2013238839 -873470049 -385883321</internalNodes>
          <leafValues>
            -4.1752097010612488e-01 5.1795041561126709e-01</leafValues></_>
        <_>
          <internalNodes>
            0 -1 71 -1626669572 524231959 -1628181774 -1074663793
            -81002515 463469181 1490810614 -721692982</internalNodes>
          <leafValues>
            -4.4161042571067810e-01 5.0661456584930420e-01</leafValues></_>
        <_>
          <internalNodes>
            0 -1 63 -1353320357 145638420 270692639 -85949795
            -2109813522 1812201616 1058165635 -6363219</internalNodes>
          <leafValues>
            -5.4195082187652588e-01 4.6303033828735352e-01</leafValues></_>
        <_>
          <internalNodes>
            0 -1 57 -1009260618 -102877436 -1684615997 271174753
            -573935560 -7275644 652404978 95175385</internalNodes>
          <leafValues>
            -6.5944057703018188e-01 3.8864520192146301e-01</leafValues></_>
        <_>
          <internalNodes>
            0 -1 52 -1437064617 -436526377 1226978304 1378913919
            -572713705 608218125 -305825334 -1173519441</internalNodes>
          <leafValues>
            -5.5979102849960327e-01 4.1824853420257568e-01</leafValues></_></weakClassifiers></_>
    <!-- stage 15 -->
    <_>
      <maxWeakCount>8</maxWeakCount>
      <stageThreshold>-1.0655208826065063e+00</stageThreshold>
      <weakClassifiers>
        <_>
          <internalNodes>
            0 -1 142 42080052 15868126 31988589 1965690945 86447289
            455542188 499154552 522596932</internalNodes>
          <leafValues>
            -8.8538682460784912e-01 4.9377593398094177e-01</leafValues></_>
        <_>
          <internalNodes>
            0 -1 56 -1998306477 -1333671683 -395099989 -1785540794
            438448923 -628565358 -183008290 2068816638</internalNodes>
          <leafValues>
            -5.6036579608917236e-01 3.8974192738533020e-01</leafValues></_>
        <_>
          <internalNodes>
            0 -1 120 -244166570 -753928994 -1040084068 -199675566
            111460533 -431961299 1026065921 1887370662</internalNodes>
          <leafValues>
            -6.0886698961257935e-01 3.4788426756858826e-01</leafValues></_>
        <_>
          <internalNodes>
            0 -1 95 286423034 958222739 684478579 -1056823948 -234470679
            1067157905 -508436550 -873475750</internalNodes>
          <leafValues>
            -5.4517680406570435e-01 3.7738898396492004e-01</leafValues></_>
        <_>
          <internalNodes>
            0 -1 144 1437519498 -200424754 1468077148 -863135993
            -1853855573 -1165782783 407120527 978917968</internalNodes>
          <leafValues>
            -6.7391407489776611e-01 3.3332535624504089e-01</leafValues></_>
        <_>
          <internalNodes>
            0 -1 106 -1256067816 1573507240 -1898632303 -1712580341
            458094169 -1407134934 1757670352 1340841727</internalNodes>
          <leafValues>
            -6.5312635898590088e-01 3.4584864974021912e-01</leafValues></_>
        <_>
          <internalNodes>
            0 -1 58 -1080826917 295487952 -1385714607 656527674
            2039412221 -1688401542 -448663311 -10112779</internalNodes>
          <leafValues>
            -4.3927419185638428e-01 5.3196299076080322e-01</leafValues></_>
        <_>
          <internalNodes>
            0 -1 89 -528361224 2112095724 1146617944 1071450732
            1060298488 529025184 -1442789275 6227651</internalNodes>
          <leafValues>
            -7.1368271112442017e-01 3.4426802396774292e-01</leafValues></_></weakClassifiers></_>
    <!-- stage 16 -->
    <_>
      <maxWeakCount>10</maxWeakCount>
      <stageThreshold>-1.1334218978881836e+00</stageThreshold>
      <weakClassifiers>
        <_>
          <internalNodes>
            0 -1 145 -1714455304 1792736346 -719986251 -1368991508
            1171432618 92816910 16853965 1345394570</internalNodes>
          <leafValues>
            -5.9124088287353516e-01 5.3996735811233521e-01</leafValues></_>
        <_>
          <internalNodes>
            0 -1 157 -1648733947 -462063600 -1536535239 -1135862033
            1569980253 -643771773 262298196 -340967408</internalNodes>
          <leafValues>
            -4.7135841846466064e-01 4.5685616135597229e-01</leafValues></_>
        <_>
          <internalNodes>
            0 -1 151 2112675012 73793538 74761980 236254965 1075875146
            -925449660 684106891 1162141579</internalNodes>
          <leafValues>
            -7.3296856880187988e-01 3.2502683997154236e-01</leafValues></_>
        <_>
          <internalNodes>
            0 -1 136 405765949 -1589639645 -14607023 -1913595 952957821
            -2007334730 -2144319172 -139255566</internalNodes>
          <leafValues>
            -4.9580991268157959e-01 4.3829867243766785e-01</leafValues></_>
        <_>
          <internalNodes>
            0 -1 26 1090690355 -115557797 -1324825235 1977415466
            -459408983 -1174083416 -1959899953 1055682398</internalNodes>
          <leafValues>
            -5.4043918848037720e-01 3.9050006866455078e-01</leafValues></_>
        <_>
          <internalNodes>
            0 -1 33 -622884209 -659016164 -1140189507 -664996474
            1079505598 -746464802 731739161 -628808709</internalNodes>
          <leafValues>
            -5.1201206445693970e-01 4.5542749762535095e-01</leafValues></_>
        <_>
          <internalNodes>
            0 -1 126 1508636331 313728 -1832769109 -1436896965
            1904858363 -1064589290 814744323 -386210018</internalNodes>
          <leafValues>
            -4.9740117788314819e-01 4.7853624820709229e-01</leafValues></_>
        <_>
          <internalNodes>
            0 -1 9 -1813789561 1073722807 -25349661 2113605631 303089198
            901046513 -1823277690 -873213005</internalNodes>
          <leafValues>
            -4.1074261069297791e-01 5.8561199903488159e-01</leafValues></_>
        <_>
          <internalNodes>
            0 -1 92 -1157646130 638638289 -262990465 -1349391487
            414257511 748084677 1079505805 -1464569919</internalNodes>
          <leafValues>
            -5.0093120336532593e-01 4.7787740826606750e-01</leafValues></_>
        <_>
          <internalNodes>
            0 -1 48 -645925121 -1699060353 -1359511682 1341493247
            -1107460161 -963281099 393497693 -56139873</internalNodes>
          <leafValues>
            -3.6971032619476318e-01 6.5144068002700806e-01</leafValues></_></weakClassifiers></_>
    <!-- stage 17 -->
    <_>
      <maxWeakCount>9</maxWeakCount>
      <stageThreshold>-9.6128249168395996e-01</stageThreshold>
      <weakClassifiers>
        <_>
          <internalNodes>
            0 -1 104 999301836 -119479268 -1207560943 -2048351321
            2056768164 -108015581 -75314293 145242183</internalNodes>
          <leafValues>
            -5.7620817422866821e-01 5.3208774328231812e-01</leafValues></_>
        <_>
          <internalNodes>
            0 -1 75 -285419758 483489297 -1928749129 -991213741
            1320147937 429982497 -180355143 -977411484</internalNodes>
          <leafValues>
            -4.5071443915367126e-01 4.4766274094581604e-01</leafValues></_>
        <_>
          <internalNodes>
            0 -1 17 544183153 -360283120 -2087292669 1082188786
            1968244485 -235834464 279540229 132597129</internalNodes>
          <leafValues>
            -6.3687938451766968e-01 3.4495571255683899e-01</leafValues></_>
        <_>
          <internalNodes>
            0 -1 90 2133320228 -10653247 -2104944813 -551872809
            1122689528 1260532874 -1617371130 -1626160316</internalNodes>
          <leafValues>
            -5.3567028045654297e-01 3.8101640343666077e-01</leafValues></_>
        <_>
          <internalNodes>
            0 -1 11 -800418852 -1517843041 -1551688943 -523361525
            1811967181 -1998014800 1436097705 1694127518</internalNodes>
          <leafValues>
            -5.7785248756408691e-01 3.4565696120262146e-01</leafValues></_>
        <_>
          <internalNodes>
            0 -1 51 435813295 1484761934 897317687 -1061468332 56622427
            -856281288 -1229458141 -16949250</internalNodes>
          <leafValues>
            -3.5771104693412781e-01 6.0314506292343140e-01</leafValues></_>
        <_>
          <internalNodes>
            0 -1 78 -1877422672 319159597 -1860709283 1950377013
            -827115106 1038258132 1990132855 -1903814220</internalNodes>
          <leafValues>
            -6.2234085798263550e-01 3.7773653864860535e-01</leafValues></_>
        <_>
          <internalNodes>
            0 -1 50 -655447997 1562001680 1233758665 -1345418233
            731856047 1809203485 1799659955 -403803391</internalNodes>
          <leafValues>
            -5.2001655101776123e-01 4.4951444864273071e-01</leafValues></_>
        <_>
          <internalNodes>
            0 -1 32 -205576269 -1913765660 -57409 104296439 -1207887178
            -586823439 -67404465 -376608801</internalNodes>
          <leafValues>
            -4.6927797794342041e-01 5.3336799144744873e-01</leafValues></_></weakClassifiers></_>
    <!-- stage 18 -->
    <_>
      <maxWeakCount>9</maxWeakCount>
      <stageThreshold>-1.0894280672073364e+00</stageThreshold>
      <weakClassifiers>
        <_>
          <internalNodes>
            0 -1 124 -366587568 1524548122 439097158 810181712
            -2078957088 992985520 1398485690 992672508</internalNodes>
          <leafValues>
            -6.8878716230392456e-01 5.0760829448699951e-01</leafValues></_>
        <_>
          <internalNodes>
            0 -1 77 -219232420 -775896377 2079650577 -1487328891
            -319096490 2135235457 2130796412 1743757185</internalNodes>
          <leafValues>
            -5.2940356731414795e-01 3.8377022743225098e-01</leafValues></_>
        <_>
          <internalNodes>
            0 -1 6 -1527257259 -1596925690 1217765513 -1618681085
            -95122347 466145040 -385642257 2110111655</internalNodes>
          <leafValues>
            -4.4195306301116943e-01 4.5907142758369446e-01</leafValues></_>
        <_>
          <internalNodes>
            0 -1 135 991537567 -1467557616 1579949314 -323567158
            1024524640 807480369 2141261243 83959091</internalNodes>
          <leafValues>
            -6.5221154689788818e-01 3.1800028681755066e-01</leafValues></_>
        <_>
          <internalNodes>
            0 -1 45 2046849999 -154111030 -47091713 433807389 -257089234
            -1353338433 -882117151 1643607435</internalNodes>
          <leafValues>
            -5.4818218946456909e-01 3.7375560402870178e-01</leafValues></_>
        <_>
          <internalNodes>
            0 -1 54 -481980512 -404818398 857044741 -1049083479
            -1604464231 -315757984 -84436871 184664709</internalNodes>
          <leafValues>
            -6.1772477626800537e-01 3.5155984759330750e-01</leafValues></_>
        <_>
          <internalNodes>
            0 -1 127 1381013457 1621590928 -1201589835 1156546125
            285469038 337744298 500916105 -545600994</internalNodes>
          <leafValues>
            -5.1378095149993896e-01 4.7848531603813171e-01</leafValues></_>
        <_>
          <internalNodes>
            0 -1 30 1109080626 -1379626960 554177971 -1764274278
            1315124356 1056418198 -926302012 1577050606</internalNodes>
          <leafValues>
            -6.4754807949066162e-01 3.6832496523857117e-01</leafValues></_>
        <_>
          <internalNodes>
            0 -1 155 301456895 537137958 134792324 -1190027194
            -652093374 -106243580 -1424830389 -1142541837</internalNodes>
          <leafValues>
            -4.7630339860916138e-01 4.8672518134117126e-01</leafValues></_></weakClassifiers></_>
    <!-- stage 19 -->
    <_>
      <maxWeakCount>9</maxWeakCount>
      <stageThreshold>-6.7321908473968506e-01</stageThreshold>
      <weakClassifiers>
        <_>
          <internalNodes>
            0 -1 84 1682466316 -1222794964 -715394993 479889160
            1862332216 -2049634824 1531965969 202387202</internalNodes>
          <leafValues>
            -6.2105262279510498e-01 5.1287126541137695e-01</leafValues></_>
        <_>
          <internalNodes>
            0 -1 133 -209901528 -770724424 -1312705057 -1072555574
            914091680 267090499 -746551445 -2107699206</internalNodes>
          <leafValues>
            -5.4367297887802124e-01 3.5713496804237366e-01</leafValues></_>
        <_>
          <internalNodes>
            0 -1 68 -816641806 -980414078 133235 -772674005 -1340852844
            -1094778079 -380408725 -54992412</internalNodes>
          <leafValues>
            -4.6898013353347778e-01 4.3735438585281372e-01</leafValues></_>
        <_>
          <internalNodes>
            0 -1 35 -122160185 -1685388553 -1828068131 -8283440
            831032007 -1080970725 1054421777 1009784444</internalNodes>
          <leafValues>
            -4.5739036798477173e-01 4.4527301192283630e-01</leafValues></_>
        <_>
          <internalNodes>
            0 -1 108 -1091433229 -1678032903 -1074053129 -1582302226
            2128653173 -1649447049 -1300562128 -391155933</internalNodes>
          <leafValues>
            -4.1712310910224915e-01 5.0623995065689087e-01</leafValues></_>
        <_>
          <internalNodes>
            0 -1 149 -1845090105 1914192396 564697813 -120256035
            -679586370 -447989673 721305667 -385783807</internalNodes>
          <leafValues>
            -4.7246497869491577e-01 4.5924705266952515e-01</leafValues></_>
        <_>
          <internalNodes>
            0 -1 87 -472393603 859083332 549484647 1768961935 -748677386
            -1190597969 -33242919 1065744005</internalNodes>
          <leafValues>
            -5.0910449028015137e-01 4.4354331493377686e-01</leafValues></_>
        <_>
          <internalNodes>
            0 -1 74 -616826369 492661333 -2097545475 -1099045840
            -1081363593 -1081541823 -21099017 -51394018</internalNodes>
          <leafValues>
            -3.7045097351074219e-01 6.2834995985031128e-01</leafValues></_>
        <_>
          <internalNodes>
            0 -1 15 1113447233 1158512683 1251132943 -918185665
            420602561 -2111781205 -1845316892 -988717336</internalNodes>
          <leafValues>
            -5.0448167324066162e-01 4.8984128236770630e-01</leafValues></_></weakClassifiers></_>
    <!-- stage 20 -->
    <_>
      <maxWeakCount>10</maxWeakCount>
      <stageThreshold>-7.8915983438491821e-01</stageThreshold>
      <weakClassifiers>
        <_>
          <internalNodes>
            0 -1 42 1809967085 1114042 871235326 1148385019 -638596738
            342019323 979237631 880246014</internalNodes>
          <leafValues>
            -4.7967478632926941e-01 5.4297691583633423e-01</leafValues></_>
        <_>
          <internalNodes>
            0 -1 44 -471665502 54136991 1142820040 -1558852273 -62667128
            606861602 2089803855 1164434639</internalNodes>
          <leafValues>
            -6.2186187505722046e-01 3.5207358002662659e-01</leafValues></_>
        <_>
          <internalNodes>
            0 -1 8 -743417977 -1737415701 1074007174 1574769034
            152170407 -112944532 1511952331 1497321435</internalNodes>
          <leafValues>
            -4.5408743619918823e-01 4.4950631260871887e-01</leafValues></_>
        <_>
          <internalNodes>
            0 -1 22 -797164780 -707943997 -1726403005 572955030
            1079274371 161007756 -575589113 686438819</internalNodes>
          <leafValues>
            -6.5951883792877197e-01 2.9319661855697632e-01</leafValues></_>
        <_>
          <internalNodes>
            0 -1 138 1349906644 -1832645674 -1987492202 710475829
            -798424908 -56968672 810305972 2144628341</internalNodes>
          <leafValues>
            -7.0365047454833984e-01 2.8251954913139343e-01</leafValues></_>
        <_>
          <internalNodes>
            0 -1 20 -49964465 1255211359 3270097 473989641 38002944
            -1950255280 516538829 -134484065</internalNodes>
          <leafValues>
            -4.3021082878112793e-01 4.9540308117866516e-01</leafValues></_>
        <_>
          <internalNodes>
            0 -1 91 -642106134 -1602096422 -755954398 -1146651616
            978346959 506741551 998514763 -1440444344</internalNodes>
          <leafValues>
            -6.0261309146881104e-01 3.5155317187309265e-01</leafValues></_>
        <_>
          <internalNodes>
            0 -1 146 1690616011 -578810676 -725480802 -736724308
            572608031 -1104623576 1614024875 1821165603</internalNodes>
          <leafValues>
            -5.3993737697601318e-01 4.2059403657913208e-01</leafValues></_>
        <_>
          <internalNodes>
            0 -1 97 535797723 -790235439 1697807199 -1114507282
            -1883246993 -1544093729 1997335531 -919772745</internalNodes>
          <leafValues>
            -4.0242466330528259e-01 5.8599567413330078e-01</leafValues></_>
        <_>
          <internalNodes>
            0 -1 140 2036628728 -1843783787 1904630858 774368028
            72170424 -1997569365 -2018966395 -407985656</internalNodes>
          <leafValues>
            -6.2525582313537598e-01 4.1501423716545105e-01</leafValues></_></weakClassifiers></_>
    <!-- stage 21 -->
    <_>
      <maxWeakCount>8</maxWeakCount>
      <stageThreshold>-9.0730893611907959e-01</stageThreshold>
      <weakClassifiers>
        <_>
          <internalNodes>
            0 -1 24 427983312 1892844979 -889093289 1850889775 31304606
            35671600 -821917304 74858693</internalNodes>
          <leafValues>
            -6.1302679777145386e-01 5.3268766403198242e-01</leafValues></_>
        <_>
          <internalNodes>
            0 -1 0 329504813 55961429 -569966311 -1321938007 1212215464
            1744873608 -2066936912 -152941791</internalNodes>
          <leafValues>
            -4.5126461982727051e-01 4.6676757931709290e-01</leafValues></_>
        <_>
          <internalNodes>
            0 -1 60 -1136318005 -166268651 17921305 394268749
            -1207627515 -377154288 -1328226005 1425594524</internalNodes>
          <leafValues>
            -4.8123088479042053e-01 4.8480474948883057e-01</leafValues></_>
        <_>
          <internalNodes>
            0 -1 46 1906230623 967866613 788496287 179253183 -1347496997
            -1288263636 1739574014 -938622016</internalNodes>
          <leafValues>
            -4.3780553340911865e-01 5.3849732875823975e-01</leafValues></_>
        <_>
          <internalNodes>
            0 -1 143 -1719017477 1200211029 345057847 1569556808
            -513785583 -1467080702 813964369 -156800029</internalNodes>
          <leafValues>
            -4.8678097128868103e-01 5.1272571086883545e-01</leafValues></_>
        <_>
          <internalNodes>
            0 -1 150 -779365937 1086931116 -1360593172 -760161100
            -997208098 -24315395 -453181786 2024898238</internalNodes>
          <leafValues>
            -4.5848676562309265e-01 5.6625032424926758e-01</leafValues></_>
        <_>
          <internalNodes>
            0 -1 59 -642786003 540784388 790823036 -1647221193
            1489681359 2101345789 1232434559 -1913172815</internalNodes>
          <leafValues>
            -5.0749421119689941e-01 5.2796179056167603e-01</leafValues></_>
        <_>
          <internalNodes>
            0 -1 19 1954221999 158556155 44318708 -943919187 -1946055508
            -797888516 1147053557 -1145648155</internalNodes>
          <leafValues>
            -4.3829467892646790e-01 6.0728508234024048e-01</leafValues></_></weakClassifiers></_></stages>
  <features>
    <_>
      <rect>
        0 7 6 9</rect></_>
    <_>
      <rect>
        0 8 5 8</rect></_>
    <_>
      <rect>
        0 10 6 5</rect></_>
    <_>
      <rect>
        0 13 4 5</rect></_>
    <_>
      <rect>
        0 13 6 7</rect></_>
    <_>
      <rect>
        0 16 4 3</rect></_>
    <_>
      <rect>
        0 17 4 2</rect></_>
    <_>
      <rect>
        1 5 6 9</rect></_>
    <_>
      <rect>
        1 8 4 4</rect></_>
    <_>
      <rect>
        1 9 4 9</rect></_>
    <_>
      <rect>
        1 10 4 8</rect></_>
    <_>
      <rect>
        1 10 5 6</rect></_>
    <_>
      <rect>
        1 11 6 4</rect></_>
    <_>
      <rect>
        1 12 3 5</rect></_>
    <_>
      <rect>
        1 12 5 6</rect></_>
    <_>
      <rect>
        1 13 2 5</rect></_>
    <_>
      <rect>
        1 13 4 5</rect></_>
    <_>
      <rect>
        1 15 5 3</rect></_>
    <_>
      <rect>
        2 4 6 11</rect></_>
    <_>
      <rect>
        2 5 5 8</rect></_>
    <_>
      <rect>
        2 6 5 7</rect></_>
    <_>
      <rect>
        2 9 5 7</rect></_>
    <_>
      <rect>
        2 10 4 6</rect></_>
    <_>
      <rect>
        2 10 6 9</rect></_>
    <_>
      <rect>
        2 11 5 5</rect></_>
    <_>
      <rect>
        2 12 3 3</rect></_>
    <_>
      <rect>
        2 12 4 4</rect></_>
    <_>
      <rect>
        2 13 3 4</rect></_>
    <_>
      <rect>
        2 13 4 5</rect></_>
    <_>
      <rect>
        2 13 5 3</rect></_>
    <_>
      <rect>
        2 14 3 4</rect></_>
    <_>
      <rect>
        2 15 6 3</rect></_>
    <_>
      <rect>
        2 16 4 4</rect></_>
    <_>
      <rect>
        2 17 4 3</rect></_>
    <_>
      <rect>
        2 20 3 2</rect></_>
    <_>
      <rect>
        3 2 4 4</rect></_>
    <_>
      <rect>
        3 6 4 9</rect></_>
    <_>
      <rect>
        3 8 5 8</rect></_>
    <_>
      <rect>
        3 9 4 8</rect></_>
    <_>
      <rect>
        3 12 3 4</rect></_>
    <_>
      <rect>
        3 12 3 6</rect></_>
    <_>
      <rect>
        3 12 5 4</rect></_>
    <_>
      <rect>
        3 13 5 4</rect></_>
    <_>
      <rect>
        3 15 3 4</rect></_>
    <_>
      <rect>
        3 16 3 2</rect></_>
    <_>
      <rect>
        3 16 5 2</rect></_>
    <_>
      <rect>
        3 17 4 5</rect></_>
    <_>
      <rect>
        3 17 5 3</rect></_>
    <_>
      <rect>
        3 18 4 3</rect></_>
    <_>
      <rect>
        3 19 4 3</rect></_>
    <_>
      <rect>
        3 20 3 1</rect></_>
    <_>
      <rect>
        4 7 3 7</rect></_>
    <_>
      <rect>
        4 9 3 8</rect></_>
    <_>
      <rect>
        4 12 3 4</rect></_>
    <_>
      <rect>
        4 12 4 3</rect></_>
    <_>
      <rect>
        4 14 3 3</rect></_>
    <_>
      <rect>
        4 14 3 6</rect></_>
    <_>
      <rect>
        4 15 3 3</rect></_>
    <_>
      <rect>
        4 15 4 2</rect></_>
    <_>
      <rect>
        4 16 2 3</rect></_>
    <_>
      <rect>
        4 16 4 2</rect></_>
    <_>
      <rect>
        4 17 3 1</rect></_>
    <_>
      <rect>
        5 4 5 9</rect></_>
    <_>
      <rect>
        5 6 5 8</rect></_>
    <_>
      <rect>
        5 11 3 4</rect></_>
    <_>
      <rect>
        5 12 4 4</rect></_>
    <_>
      <rect>
        5 14 3 3</rect></_>
    <_>
      <rect>
        5 15 3 1</rect></_>
    <_>
      <rect>
        5 15 3 2</rect></_>
    <_>
      <rect>
        5 15 3 3</rect></_>
    <_>
      <rect>
        5 15 3 4</rect></_>
    <_>
      <rect>
        5 16 2 2</rect></_>
    <_>
      <rect>
        5 16 3 4</rect></_>
    <_>
      <rect>
        5 16 4 4</rect></_>
    <_>
      <rect>
        5 17 2 2</rect></_>
    <_>
      <rect>
        5 17 2 3</rect></_>
    <_>
      <rect>
        5 17 3 1</rect></_>
    <_>
      <rect>
        5 17 3 4</rect></_>
    <_>
      <rect>
        5 18 3 2</rect></_>
    <_>
      <rect>
        5 19 3 2</rect></_>
    <_>
      <rect>
        5 19 3 3</rect></_>
    <_>
      <rect>
        5 20 3 1</rect></_>
    <_>
      <rect>
        5 22 3 1</rect></_>
    <_>
      <rect>
        5 23 4 1</rect></_>
    <_>
      <rect>
        6 13 3 3</rect></_>
    <_>
      <rect>
        6 14 3 3</rect></_>
    <_>
      <rect>
        6 14 3 4</rect></_>
    <_>
      <rect>
        6 15 2 2</rect></_>
    <_>
      <rect>
        6 15 3 2</rect></_>
    <_>
      <rect>
        6 16 2 1</rect></_>
    <_>
      <rect>
        6 16 3 2</rect></_>
    <_>
      <rect>
        6 17 1 2</rect></_>
    <_>
      <rect>
        6 17 1 3</rect></_>
    <_>
      <rect>
        6 17 2 2</rect></_>
    <_>
      <rect>
        6 17 3 1</rect></_>
    <_>
      <rect>
        6 18 2 1</rect></_>
    <_>
      <rect>
        6 18 2 2</rect></_>
    <_>
      <rect>
        6 18 3 1</rect></_>
    <_>
      <rect>
        6 19 2 1</rect></_>
    <_>
      <rect>
        6 20 3 1</rect></_>
    <_>
      <rect>
        6 21 2 1</rect></_>
    <_>
      <rect>
        6 21 3 2</rect></_>
    <_>
      <rect>
        6 22 3 2</rect></_>
    <_>
      <rect>
        7 10 4 8</rect></_>
    <_>
      <rect>
        7 11 3 4</rect></_>
    <_>
      <rect>
        7 15 2 2</rect></_>
    <_>
      <rect>
        7 16 2 2</rect></_>
    <_>
      <rect>
        7 16 2 3</rect></_>
    <_>
      <rect>
        7 17 1 1</rect></_>
    <_>
      <rect>
        7 17 2 1</rect></_>
    <_>
      <rect>
        7 17 2 2</rect></_>
    <_>
      <rect>
        7 18 2 1</rect></_>
    <_>
      <rect>
        7 18 2 2</rect></_>
    <_>
      <rect>
        7 18 3 3</rect></_>
    <_>
      <rect>
        7 19 2 1</rect></_>
    <_>
      <rect>
        7 19 2 2</rect></_>
    <_>
      <rect>
        7 20 2 2</rect></_>
    <_>
      <rect>
        8 14 3 5</rect></_>
    <_>
      <rect>
        8 15 1 4</rect></_>
    <_>
      <rect>
        8 15 2 2</rect></_>
    <_>
      <rect>
        8 15 2 3</rect></_>
    <_>
      <rect>
        8 17 1 1</rect></_>
    <_>
      <rect>
        8 17 1 2</rect></_>
    <_>
      <rect>
        8 17 2 1</rect></_>
    <_>
      <rect>
        8 17 2 2</rect></_>
    <_>
      <rect>
        8 17 3 2</rect></_>
    <_>
      <rect>
        8 17 4 5</rect></_>
    <_>
      <rect>
        8 18 1 1</rect></_>
    <_>
      <rect>
        8 18 1 2</rect></_>
    <_>
      <rect>
        8 18 2 1</rect></_>
    <_>
      <rect>
        8 18 2 2</rect></_>
    <_>
      <rect>
        8 19 1 1</rect></_>
    <_>
      <rect>
        8 19 2 1</rect></_>
    <_>
      <rect>
        8 19 2 2</rect></_>
    <_>
      <rect>
        8 20 1 1</rect></_>
    <_>
      <rect>
        8 20 2 2</rect></_>
    <_>
      <rect>
        8 21 2 1</rect></_>
    <_>
      <rect>
        9 11 3 5</rect></_>
    <_>
      <rect>
        9 14 1 3</rect></_>
    <_>
      <rect>
        9 16 2 1</rect></_>
    <_>
      <rect>
        9 17 1 1</rect></_>
    <_>
      <rect>
        9 17 3 3</rect></_>
    <_>
      <rect>
        9 18 1 1</rect></_>
    <_>
      <rect>
        9 18 1 2</rect></_>
    <_>
      <rect>
        9 18 2 1</rect></_>
    <_>
      <rect>
        9 18 2 2</rect></_>
    <_>
      <rect>
        9 18 3 2</rect></_>
    <_>
      <rect>
        9 19 1 1</rect></_>
    <_>
      <rect>
        9 20 1 1</rect></_>
    <_>
      <rect>
        9 21 1 1</rect></_>
    <_>
      <rect>
        10 6 3 6</rect></_>
    <_>
      <rect>
        10 13 3 5</rect></_>
    <_>
      <rect>
        10 16 2 3</rect></_>
    <_>
      <rect>
        10 19 1 2</rect></_>
    <_>
      <rect>
        11 7 3 8</rect></_>
    <_>
      <rect>
        11 8 3 6</rect></_>
    <_>
      <rect>
        11 12 3 4</rect></_>
    <_>
      <rect>
        11 19 1 2</rect></_></features></cascade>
</opencv_storage>
