<?xml version="1.0"?>
<opencv_storage>
<stage16>
  <maxWeakCount>10</maxWeakCount>
  <stageThreshold>-1.1334218978881836e+00</stageThreshold>
  <weakClassifiers>
    <_>
      <internalNodes>
        0 -1 12257 -1714455304 1792736346 -719986251 -1368991508
        1171432618 92816910 16853965 1345394570</internalNodes>
      <leafValues>
        -5.9124088287353516e-01 5.3996735811233521e-01</leafValues></_>
    <_>
      <internalNodes>
        0 -1 13831 -1648733947 -462063600 -1536535239 -1135862033
        1569980253 -643771773 262298196 -340967408</internalNodes>
      <leafValues>
        -4.7135841846466064e-01 4.5685616135597229e-01</leafValues></_>
    <_>
      <internalNodes>
        0 -1 12931 2112675012 73793538 74761980 236254965 1075875146
        -925449660 684106891 1162141579</internalNodes>
      <leafValues>
        -7.3296856880187988e-01 3.2502683997154236e-01</leafValues></_>
    <_>
      <internalNodes>
        0 -1 11478 405765949 -1589639645 -14607023 -1913595 952957821
        -2007334730 -2144319172 -139255566</internalNodes>
      <leafValues>
        -4.9580991268157959e-01 4.3829867243766785e-01</leafValues></_>
    <_>
      <internalNodes>
        0 -1 3954 1090690355 -115557797 -1324825235 1977415466
        -459408983 -1174083416 -1959899953 1055682398</internalNodes>
      <leafValues>
        -5.4043918848037720e-01 3.9050006866455078e-01</leafValues></_>
    <_>
      <internalNodes>
        0 -1 4199 -622884209 -659016164 -1140189507 -664996474
        1079505598 -746464802 731739161 -628808709</internalNodes>
      <leafValues>
        -5.1201206445693970e-01 4.5542749762535095e-01</leafValues></_>
    <_>
      <internalNodes>
        0 -1 11389 1508636331 313728 -1832769109 -1436896965 1904858363
        -1064589290 814744323 -386210018</internalNodes>
      <leafValues>
        -4.9740117788314819e-01 4.7853624820709229e-01</leafValues></_>
    <_>
      <internalNodes>
        0 -1 2228 -1813789561 1073722807 -25349661 2113605631 303089198
        901046513 -1823277690 -873213005</internalNodes>
      <leafValues>
        -4.1074261069297791e-01 5.8561199903488159e-01</leafValues></_>
    <_>
      <internalNodes>
        0 -1 9286 -1157646130 638638289 -262990465 -1349391487 414257511
        748084677 1079505805 -1464569919</internalNodes>
      <leafValues>
        -5.0093120336532593e-01 4.7787740826606750e-01</leafValues></_>
    <_>
      <internalNodes>
        0 -1 5618 -645925121 -1699060353 -1359511682 1341493247
        -1107460161 -963281099 393497693 -56139873</internalNodes>
      <leafValues>
        -3.6971032619476318e-01 6.5144068002700806e-01</leafValues></_></weakClassifiers></stage16>
</opencv_storage>
