<?xml version="1.0"?>
<opencv_storage>
<stage20>
  <maxWeakCount>10</maxWeakCount>
  <stageThreshold>-7.8915983438491821e-01</stageThreshold>
  <weakClassifiers>
    <_>
      <internalNodes>
        0 -1 5434 1809967085 1114042 871235326 1148385019 -638596738
        342019323 979237631 880246014</internalNodes>
      <leafValues>
        -4.7967478632926941e-01 5.4297691583633423e-01</leafValues></_>
    <_>
      <internalNodes>
        0 -1 5537 -471665502 54136991 1142820040 -1558852273 -62667128
        606861602 2089803855 1164434639</internalNodes>
      <leafValues>
        -6.2186187505722046e-01 3.5207358002662659e-01</leafValues></_>
    <_>
      <internalNodes>
        0 -1 2163 -743417977 -1737415701 1074007174 1574769034 152170407
        -112944532 1511952331 1497321435</internalNodes>
      <leafValues>
        -4.5408743619918823e-01 4.4950631260871887e-01</leafValues></_>
    <_>
      <internalNodes>
        0 -1 3845 -797164780 -707943997 -1726403005 572955030 1079274371
        161007756 -575589113 686438819</internalNodes>
      <leafValues>
        -6.5951883792877197e-01 2.9319661855697632e-01</leafValues></_>
    <_>
      <internalNodes>
        0 -1 12158 1349906644 -1832645674 -1987492202 710475829
        -798424908 -56968672 810305972 2144628341</internalNodes>
      <leafValues>
        -7.0365047454833984e-01 2.8251954913139343e-01</leafValues></_>
    <_>
      <internalNodes>
        0 -1 3608 -49964465 1255211359 3270097 473989641 38002944
        -1950255280 516538829 -134484065</internalNodes>
      <leafValues>
        -4.3021082878112793e-01 4.9540308117866516e-01</leafValues></_>
    <_>
      <internalNodes>
        0 -1 9285 -642106134 -1602096422 -755954398 -1146651616
        978346959 506741551 998514763 -1440444344</internalNodes>
      <leafValues>
        -6.0261309146881104e-01 3.5155317187309265e-01</leafValues></_>
    <_>
      <internalNodes>
        0 -1 12264 1690616011 -578810676 -725480802 -736724308 572608031
        -1104623576 1614024875 1821165603</internalNodes>
      <leafValues>
        -5.3993737697601318e-01 4.2059403657913208e-01</leafValues></_>
    <_>
      <internalNodes>
        0 -1 9326 535797723 -790235439 1697807199 -1114507282
        -1883246993 -1544093729 1997335531 -919772745</internalNodes>
      <leafValues>
        -4.0242466330528259e-01 5.8599567413330078e-01</leafValues></_>
    <_>
      <internalNodes>
        0 -1 12228 2036628728 -1843783787 1904630858 774368028 72170424
        -1997569365 -2018966395 -407985656</internalNodes>
      <leafValues>
        -6.2525582313537598e-01 4.1501423716545105e-01</leafValues></_></weakClassifiers></stage20>
</opencv_storage>
