<?xml version="1.0"?>
<opencv_storage>
<stage4>
  <maxWeakCount>7</maxWeakCount>
  <stageThreshold>-7.6334029436111450e-01</stageThreshold>
  <weakClassifiers>
    <_>
      <internalNodes>
        0 -1 11372 -100345384 2060599632 419436940 -1637990274
        -1333413756 822921440 1631787707 993700543</internalNodes>
      <leafValues>
        -6.3347762823104858e-01 6.2375378608703613e-01</leafValues></_>
    <_>
      <internalNodes>
        0 -1 12291 -787953456 -37793843 -193322122 -1098452 -1257337138
        -1073758340 -1078063885 -202658891</internalNodes>
      <leafValues>
        -4.5194905996322632e-01 6.5258932113647461e-01</leafValues></_>
    <_>
      <internalNodes>
        0 -1 909 -620018289 571403019 1171218815 658897303 1210372347
        -1342119903 -270840613 1109391191</internalNodes>
      <leafValues>
        -5.8590650558471680e-01 5.2341759204864502e-01</leafValues></_>
    <_>
      <internalNodes>
        0 -1 11399 -1263986180 -244821680 88605849 -716636055
        -2096955154 -207388544 671107823 1028326153</internalNodes>
      <leafValues>
        -6.6720056533813477e-01 4.7888520359992981e-01</leafValues></_>
    <_>
      <internalNodes>
        0 -1 11309 -593757224 -787873126 -1055354560 1629161496
        -1710579016 -1467481528 689617836 1273461700</internalNodes>
      <leafValues>
        -7.4377000331878662e-01 4.1047170758247375e-01</leafValues></_>
    <_>
      <internalNodes>
        0 -1 8337 -641017665 -38982632 352300575 1607417007 -1153069105
        -1169405867 225803775 -335606531</internalNodes>
      <leafValues>
        -4.6197327971458435e-01 7.8810209035873413e-01</leafValues></_>
    <_>
      <internalNodes>
        0 -1 6874 -803157936 2133856610 -2147448744 1560641633 574653338
        -1205202816 75680251 85671945</internalNodes>
      <leafValues>
        -6.5263932943344116e-01 5.3031259775161743e-01</leafValues></_></weakClassifiers></stage4>
</opencv_storage>
