<?xml version="1.0"?>
<opencv_storage>
<stage2>
  <maxWeakCount>6</maxWeakCount>
  <stageThreshold>-1.6461852788925171e+00</stageThreshold>
  <weakClassifiers>
    <_>
      <internalNodes>
        0 -1 11400 -753905416 -149842560 -1803550484 1158742280
        -1324830372 1401233608 557550 1049703042</internalNodes>
      <leafValues>
        -7.6228207349777222e-01 6.2515830993652344e-01</leafValues></_>
    <_>
      <internalNodes>
        0 -1 9429 1359532760 -738613092 100614141 -1727034674 -85542226
        -1350330126 774589439 -1690352897</internalNodes>
      <leafValues>
        -5.0821202993392944e-01 6.9723999500274658e-01</leafValues></_>
    <_>
      <internalNodes>
        0 -1 4315 -796854064 -654299134 1292902656 1402028303
        -2112585488 1342308480 805347978 50544779</internalNodes>
      <leafValues>
        -7.3637825250625610e-01 5.1205706596374512e-01</leafValues></_>
    <_>
      <internalNodes>
        0 -1 5371 -887357518 -719998976 419482624 1363623938 -1052406912
        823165066 1762115755 733184711</internalNodes>
      <leafValues>
        -7.2759854793548584e-01 5.3415185213088989e-01</leafValues></_>
    <_>
      <internalNodes>
        0 -1 12212 -762781480 1904214148 1409296603 285548544 1107855498
        16941186 16887439 285540489</internalNodes>
      <leafValues>
        -7.6931667327880859e-01 4.4432660937309265e-01</leafValues></_>
    <_>
      <internalNodes>
        0 -1 9237 -45026562 -1316814720 -788495844 1057726616
        -1155358532 -1157103552 414775178 -632188162</internalNodes>
      <leafValues>
        -6.5258336067199707e-01 5.4863417148590088e-01</leafValues></_></weakClassifiers></stage2>
</opencv_storage>
