<?xml version="1.0"?>
<opencv_storage>
<stage6>
  <maxWeakCount>7</maxWeakCount>
  <stageThreshold>-8.7981265783309937e-01</stageThreshold>
  <weakClassifiers>
    <_>
      <internalNodes>
        0 -1 8277 1460067508 -558900161 1073397692 -360586 -2122921553
        1063223247 -1342507026 1200324602</internalNodes>
      <leafValues>
        -5.0381678342819214e-01 6.3053297996520996e-01</leafValues></_>
    <_>
      <internalNodes>
        0 -1 9319 496164848 2000637879 144987255 -1052106629 -459158857
        1042860449 -1044362918 -882175989</internalNodes>
      <leafValues>
        -5.6558096408843994e-01 4.8304736614227295e-01</leafValues></_>
    <_>
      <internalNodes>
        0 -1 11371 1350824156 -40691240 -520087236 -149470639 189770494
        -39745504 155329082 -955289301</internalNodes>
      <leafValues>
        -5.3375679254531860e-01 4.8510524630546570e-01</leafValues></_>
    <_>
      <internalNodes>
        0 -1 7980 -255728957 -588773809 -722410159 -993673129 1901716114
        -1415726449 -774769709 754181371</internalNodes>
      <leafValues>
        -5.8192098140716553e-01 4.8048564791679382e-01</leafValues></_>
    <_>
      <internalNodes>
        0 -1 10368 -99106722 -258099056 268958 -595548960 1275125432
        586128034 1971342629 1797245451</internalNodes>
      <leafValues>
        -6.4686340093612671e-01 4.2141121625900269e-01</leafValues></_>
    <_>
      <internalNodes>
        0 -1 10360 -82257735 -8538951 1960658777 1844428799 -4458769
        1069504508 -1135216753 -1175478302</internalNodes>
      <leafValues>
        -5.3161168098449707e-01 5.6462550163269043e-01</leafValues></_>
    <_>
      <internalNodes>
        0 -1 5499 -731071519 1885476164 -2079805251 -180549485
        -603969612 1521050504 -1534386179 1135542916</internalNodes>
      <leafValues>
        -7.1810215711593628e-01 4.4222909212112427e-01</leafValues></_></weakClassifiers></stage6>
</opencv_storage>
