<?xml version="1.0"?>
<opencv_storage>
<stage19>
  <maxWeakCount>9</maxWeakCount>
  <stageThreshold>-6.7321908473968506e-01</stageThreshold>
  <weakClassifiers>
    <_>
      <internalNodes>
        0 -1 9172 1682466316 -1222794964 -715394993 479889160 1862332216
        -2049634824 1531965969 202387202</internalNodes>
      <leafValues>
        -6.2105262279510498e-01 5.1287126541137695e-01</leafValues></_>
    <_>
      <internalNodes>
        0 -1 11428 -209901528 -770724424 -1312705057 -1072555574
        914091680 267090499 -746551445 -2107699206</internalNodes>
      <leafValues>
        -5.4367297887802124e-01 3.5713496804237366e-01</leafValues></_>
    <_>
      <internalNodes>
        0 -1 8097 -816641806 -980414078 133235 -772674005 -1340852844
        -1094778079 -380408725 -54992412</internalNodes>
      <leafValues>
        -4.6898013353347778e-01 4.3735438585281372e-01</leafValues></_>
    <_>
      <internalNodes>
        0 -1 4849 -122160185 -1685388553 -1828068131 -8283440 831032007
        -1080970725 1054421777 1009784444</internalNodes>
      <leafValues>
        -4.5739036798477173e-01 4.4527301192283630e-01</leafValues></_>
    <_>
      <internalNodes>
        0 -1 10324 -1091433229 -1678032903 -1074053129 -1582302226
        2128653173 -1649447049 -1300562128 -391155933</internalNodes>
      <leafValues>
        -4.1712310910224915e-01 5.0623995065689087e-01</leafValues></_>
    <_>
      <internalNodes>
        0 -1 12309 -1845090105 1914192396 564697813 -120256035
        -679586370 -447989673 721305667 -385783807</internalNodes>
      <leafValues>
        -4.7246497869491577e-01 4.5924705266952515e-01</leafValues></_>
    <_>
      <internalNodes>
        0 -1 9229 -472393603 859083332 549484647 1768961935 -748677386
        -1190597969 -33242919 1065744005</internalNodes>
      <leafValues>
        -5.0910449028015137e-01 4.4354331493377686e-01</leafValues></_>
    <_>
      <internalNodes>
        0 -1 8168 -616826369 492661333 -2097545475 -1099045840
        -1081363593 -1081541823 -21099017 -51394018</internalNodes>
      <leafValues>
        -3.7045097351074219e-01 6.2834995985031128e-01</leafValues></_>
    <_>
      <internalNodes>
        0 -1 2431 1113447233 1158512683 1251132943 -918185665 420602561
        -2111781205 -1845316892 -988717336</internalNodes>
      <leafValues>
        -5.0448167324066162e-01 4.8984128236770630e-01</leafValues></_></weakClassifiers></stage19>
</opencv_storage>
