<?xml version="1.0"?>
<opencv_storage>
<stage9>
  <maxWeakCount>7</maxWeakCount>
  <stageThreshold>-1.0381735563278198e+00</stageThreshold>
  <weakClassifiers>
    <_>
      <internalNodes>
        0 -1 8099 -90125128 -74725360 -603561223 1463245821 -524555063
        -392305954 -860143414 1379564</internalNodes>
      <leafValues>
        -7.2504705190658569e-01 5.6095588207244873e-01</leafValues></_>
    <_>
      <internalNodes>
        0 -1 3999 -1170871765 -265965033 -2129734479 1696944283
        -1430333732 196111130 -1929120735 1338921967</internalNodes>
      <leafValues>
        -5.4919624328613281e-01 4.2595905065536499e-01</leafValues></_>
    <_>
      <internalNodes>
        0 -1 5202 2138570494 1767134548 1074778296 139497639 67237974
        143764104 1730708135 -864110113</internalNodes>
      <leafValues>
        -5.7705307006835938e-01 4.2912572622299194e-01</leafValues></_>
    <_>
      <internalNodes>
        0 -1 9380 1471141504 -849918463 109230292 2031115378 -1700446134
        252140931 1765822860 1037006843</internalNodes>
      <leafValues>
        -7.3645323514938354e-01 3.0511578917503357e-01</leafValues></_>
    <_>
      <internalNodes>
        0 -1 9269 -183506179 2035639260 128347505 991305052 -1383533604
        -882496850 -103927061 1452796608</internalNodes>
      <leafValues>
        -5.4075050354003906e-01 4.1930535435676575e-01</leafValues></_>
    <_>
      <internalNodes>
        0 -1 7926 -2122191416 -679350728 1360286019 1604624386
        -840898408 -425937027 48360127 1035144591</internalNodes>
      <leafValues>
        -6.9394624233245850e-01 3.6642113327980042e-01</leafValues></_>
    <_>
      <internalNodes>
        0 -1 889 -525348909 -134910096 -553834585 -738761429 -2136014989
        -120561884 -397602080 -682376989</internalNodes>
      <leafValues>
        -5.0335496664047241e-01 5.4699015617370605e-01</leafValues></_></weakClassifiers></stage9>
</opencv_storage>
