<?xml version="1.0"?>
<opencv_storage>
<stage18>
  <maxWeakCount>9</maxWeakCount>
  <stageThreshold>-1.0894280672073364e+00</stageThreshold>
  <weakClassifiers>
    <_>
      <internalNodes>
        0 -1 11372 -366587568 1524548122 439097158 810181712 -2078957088
        992985520 1398485690 992672508</internalNodes>
      <leafValues>
        -6.8878716230392456e-01 5.0760829448699951e-01</leafValues></_>
    <_>
      <internalNodes>
        0 -1 8177 -219232420 -775896377 2079650577 -1487328891
        -319096490 2135235457 2130796412 1743757185</internalNodes>
      <leafValues>
        -5.2940356731414795e-01 3.8377022743225098e-01</leafValues></_>
    <_>
      <internalNodes>
        0 -1 1078 -1527257259 -1596925690 1217765513 -1618681085
        -95122347 466145040 -385642257 2110111655</internalNodes>
      <leafValues>
        -4.4195306301116943e-01 4.5907142758369446e-01</leafValues></_>
    <_>
      <internalNodes>
        0 -1 11455 991537567 -1467557616 1579949314 -323567158
        1024524640 807480369 2141261243 83959091</internalNodes>
      <leafValues>
        -6.5221154689788818e-01 3.1800028681755066e-01</leafValues></_>
    <_>
      <internalNodes>
        0 -1 5553 2046849999 -154111030 -47091713 433807389 -257089234
        -1353338433 -882117151 1643607435</internalNodes>
      <leafValues>
        -5.4818218946456909e-01 3.7375560402870178e-01</leafValues></_>
    <_>
      <internalNodes>
        0 -1 6679 -481980512 -404818398 857044741 -1049083479
        -1604464231 -315757984 -84436871 184664709</internalNodes>
      <leafValues>
        -6.1772477626800537e-01 3.5155984759330750e-01</leafValues></_>
    <_>
      <internalNodes>
        0 -1 11392 1381013457 1621590928 -1201589835 1156546125
        285469038 337744298 500916105 -545600994</internalNodes>
      <leafValues>
        -5.1378095149993896e-01 4.7848531603813171e-01</leafValues></_>
    <_>
      <internalNodes>
        0 -1 4051 1109080626 -1379626960 554177971 -1764274278
        1315124356 1056418198 -926302012 1577050606</internalNodes>
      <leafValues>
        -6.4754807949066162e-01 3.6832496523857117e-01</leafValues></_>
    <_>
      <internalNodes>
        0 -1 13570 301456895 537137958 134792324 -1190027194 -652093374
        -106243580 -1424830389 -1142541837</internalNodes>
      <leafValues>
        -4.7630339860916138e-01 4.8672518134117126e-01</leafValues></_></weakClassifiers></stage18>
</opencv_storage>
