<?xml version="1.0"?>
<opencv_storage>
<stage14>
  <maxWeakCount>8</maxWeakCount>
  <stageThreshold>-1.3704357147216797e+00</stageThreshold>
  <weakClassifiers>
    <_>
      <internalNodes>
        0 -1 10302 -1072824288 -2006658232 -397909173 -1941423071
        -1258008900 90173531 1922188668 1592929638</internalNodes>
      <leafValues>
        -7.5117373466491699e-01 5.1282054185867310e-01</leafValues></_>
    <_>
      <internalNodes>
        0 -1 11399 -1834535688 -641041079 -1930950948 -590560178
        -2021159452 1635762317 228715231 1545114505</internalNodes>
      <leafValues>
        -6.4641755819320679e-01 3.4802907705307007e-01</leafValues></_>
    <_>
      <internalNodes>
        0 -1 4122 -1761086647 -1032672493 -1844969028 -505223161
        -1207481356 432143704 1475227968 1624667392</internalNodes>
      <leafValues>
        -6.4368706941604614e-01 3.3538943529129028e-01</leafValues></_>
    <_>
      <internalNodes>
        0 -1 3868 1600826303 -116086247 -290579921 -1255972027
        1091043063 -2013238839 -873470049 -385883321</internalNodes>
      <leafValues>
        -4.1752097010612488e-01 5.1795041561126709e-01</leafValues></_>
    <_>
      <internalNodes>
        0 -1 8129 -1626669572 524231959 -1628181774 -1074663793
        -81002515 463469181 1490810614 -721692982</internalNodes>
      <leafValues>
        -4.4161042571067810e-01 5.0661456584930420e-01</leafValues></_>
    <_>
      <internalNodes>
        0 -1 7696 -1353320357 145638420 270692639 -85949795 -2109813522
        1812201616 1058165635 -6363219</internalNodes>
      <leafValues>
        -5.4195082187652588e-01 4.6303033828735352e-01</leafValues></_>
    <_>
      <internalNodes>
        0 -1 6798 -1009260618 -102877436 -1684615997 271174753
        -573935560 -7275644 652404978 95175385</internalNodes>
      <leafValues>
        -6.5944057703018188e-01 3.8864520192146301e-01</leafValues></_>
    <_>
      <internalNodes>
        0 -1 6532 -1437064617 -436526377 1226978304 1378913919
        -572713705 608218125 -305825334 -1173519441</internalNodes>
      <leafValues>
        -5.5979102849960327e-01 4.1824853420257568e-01</leafValues></_></weakClassifiers></stage14>
</opencv_storage>
