<?xml version="1.0"?>
<opencv_storage>
<stage10>
  <maxWeakCount>11</maxWeakCount>
  <stageThreshold>-7.7417945861816406e-01</stageThreshold>
  <weakClassifiers>
    <_>
      <internalNodes>
        0 -1 125 815002043 -688130061 1336529651 -145230509 -1535707308
        -684200365 266008946 861663859</internalNodes>
      <leafValues>
        -1.8552875518798828e-01 6.2434965372085571e-01</leafValues></_>
    <_>
      <internalNodes>
        0 -1 8076 -246357014 1332695966 1881166930 30177617 -1055827909
        1358730272 -921775235 -583190177</internalNodes>
      <leafValues>
        -4.2196303606033325e-01 4.0071615576744080e-01</leafValues></_>
    <_>
      <internalNodes>
        0 -1 14371 -888424527 -99961097 -1789965485 -1024473981
        -885011316 -888631654 1226616693 -1060899633</internalNodes>
      <leafValues>
        -3.4854802489280701e-01 4.6846047043800354e-01</leafValues></_>
    <_>
      <internalNodes>
        0 -1 10359 -1332717992 -722647464 -1061027389 -943388971
        -2120112990 -737606528 -553334861 418079221</internalNodes>
      <leafValues>
        -5.5942010879516602e-01 3.0107390880584717e-01</leafValues></_>
    <_>
      <internalNodes>
        0 -1 2834 -855654400 -1764410119 -1004513835 1163871618
        -1610352889 828545706 1699126581 273105315</internalNodes>
      <leafValues>
        -7.3041766881942749e-01 1.9503831863403320e-01</leafValues></_>
    <_>
      <internalNodes>
        0 -1 12228 290609660 -56863248 -2026497684 1429555655 243400862
        -1719263204 571875215 315231434</internalNodes>
      <leafValues>
        -5.8003616333007812e-01 2.9906338453292847e-01</leafValues></_>
    <_>
      <internalNodes>
        0 -1 8760 -615657525 -1144525880 -1191252841 -661676149
        450866039 -1016170049 -1141446179 -202962955</internalNodes>
      <leafValues>
        -3.2812595367431641e-01 5.7804912328720093e-01</leafValues></_>
    <_>
      <internalNodes>
        0 -1 6895 -1875865528 21595993 -989851427 1958744065 1854055610
        120178325 419558062 1077723179</internalNodes>
      <leafValues>
        -5.4562938213348389e-01 3.2802337408065796e-01</leafValues></_>
    <_>
      <internalNodes>
        0 -1 11104 1395384507 1816458257 -787336294 -201157882
        -1014518510 1171415376 -701322271 1426991473</internalNodes>
      <leafValues>
        -5.6680417060852051e-01 3.1445485353469849e-01</leafValues></_>
    <_>
      <internalNodes>
        0 -1 3776 -1126183915 -270917800 -1518372952 -1809033287
        1718807382 -1812561989 -277383298 -1625622529</internalNodes>
      <leafValues>
        -3.8483232259750366e-01 5.0056809186935425e-01</leafValues></_>
    <_>
      <internalNodes>
        0 -1 8128 896596824 -580335467 -529975041 2138658889 -1858957381
        -1097185765 -1560196422 -1096987988</internalNodes>
      <leafValues>
        -3.7796735763549805e-01 5.0628495216369629e-01</leafValues></_></weakClassifiers></stage10>
</opencv_storage>
