<?xml version="1.0"?>
<opencv_storage>
<stage11>
  <maxWeakCount>8</maxWeakCount>
  <stageThreshold>-8.0676531791687012e-01</stageThreshold>
  <weakClassifiers>
    <_>
      <internalNodes>
        0 -1 5567 -184499520 -16728063 779150464 1563247892 1694614664
        -1794555648 202408344 119997968</internalNodes>
      <leafValues>
        -4.5555555820465088e-01 5.8245611190795898e-01</leafValues></_>
    <_>
      <internalNodes>
        0 -1 2488 -122234928 -235609950 293844563 -1077828966 -503274784
        -1614458432 1013257691 -814853013</internalNodes>
      <leafValues>
        -3.5703313350677490e-01 5.9959083795547485e-01</leafValues></_>
    <_>
      <internalNodes>
        0 -1 13071 -134102964 -235977664 -1085561432 1431508280
        -2102878199 -1330276481 -2126606104 -1080092929</internalNodes>
      <leafValues>
        -3.6571609973907471e-01 5.4828697443008423e-01</leafValues></_>
    <_>
      <internalNodes>
        0 -1 5520 -164568696 1912456384 405868296 -266075640 -1911512901
        856032414 1011918267 -954531829</internalNodes>
      <leafValues>
        -4.4552382826805115e-01 4.7273805737495422e-01</leafValues></_>
    <_>
      <internalNodes>
        0 -1 12270 -1222354460 -140033872 -560794179 -148910535
        -1697731921 -1960443716 -68421245 -1087484869</internalNodes>
      <leafValues>
        -4.1695165634155273e-01 5.2716368436813354e-01</leafValues></_>
    <_>
      <internalNodes>
        0 -1 678 1351085816 -88606006 419742032 1124292972 1111550938
        193864531 2140779143 1584372356</internalNodes>
      <leafValues>
        -5.8983945846557617e-01 4.4689816236495972e-01</leafValues></_>
    <_>
      <internalNodes>
        0 -1 12327 1470759328 -41385758 1108487572 -1849532344 4907187
        -889157352 219229579 -250622070</internalNodes>
      <leafValues>
        -4.9008616805076599e-01 4.7938439249992371e-01</leafValues></_>
    <_>
      <internalNodes>
        0 -1 6373 1444654396 -876371454 160596395 -1008859380
        -1847398268 -259915257 -1395424855 1178322255</internalNodes>
      <leafValues>
        -5.5454999208450317e-01 4.2620816826820374e-01</leafValues></_></weakClassifiers></stage11>
</opencv_storage>
