<?xml version="1.0"?>
<opencv_storage>
<stage13>
  <maxWeakCount>11</maxWeakCount>
  <stageThreshold>-1.1045361757278442e+00</stageThreshold>
  <weakClassifiers>
    <_>
      <internalNodes>
        0 -1 13649 1751771891 -1434350627 1577021423 -1460967812
        -890300360 736867259 -117560580 -393463218</internalNodes>
      <leafValues>
        -1.5826702117919922e-01 6.3081860542297363e-01</leafValues></_>
    <_>
      <internalNodes>
        0 -1 11318 -638236743 -389859899 -33751149 -322787793
        -1178714206 -1150474327 318026727 -11554812</internalNodes>
      <leafValues>
        -3.5712391138076782e-01 4.4772735238075256e-01</leafValues></_>
    <_>
      <internalNodes>
        0 -1 14226 1127212379 641833709 -730622157 -1605477483
        -1827083198 -1313763149 14714307 -1396432623</internalNodes>
      <leafValues>
        -3.8657918572425842e-01 4.0508547425270081e-01</leafValues></_>
    <_>
      <internalNodes>
        0 -1 11399 2133159161 1455188849 1866002414 462450540 -210624589
        -1639580747 -1886650497 -1464111217</internalNodes>
      <leafValues>
        -3.4239187836647034e-01 4.9654120206832886e-01</leafValues></_>
    <_>
      <internalNodes>
        0 -1 5178 -2142786597 1940278257 1744807285 19056127 -1814098287
        -353377321 -1026555963 -620828193</internalNodes>
      <leafValues>
        -3.2746389508247375e-01 5.3790986537933350e-01</leafValues></_>
    <_>
      <internalNodes>
        0 -1 6599 -1627212558 -1119538158 -2108852028 706831243
        229015614 -1369388663 1714507482 2072584856</internalNodes>
      <leafValues>
        -5.5935442447662354e-01 3.4331521391868591e-01</leafValues></_>
    <_>
      <internalNodes>
        0 -1 8138 -147922880 -934583701 1917656680 -227419776 -737911396
        1256166922 1029337211 130765898</internalNodes>
      <leafValues>
        -6.8222564458847046e-01 2.5928339362144470e-01</leafValues></_>
    <_>
      <internalNodes>
        0 -1 149 74247804 227258200 268861583 -69531309 118615383
        -1186896840 96813454 1932413256</internalNodes>
      <leafValues>
        -5.7730579376220703e-01 3.1592240929603577e-01</leafValues></_>
    <_>
      <internalNodes>
        0 -1 14422 -982718561 -75298929 1824803739 555290673 -645829681
        767300412 -2077825397 149881678</internalNodes>
      <leafValues>
        -4.4499418139457703e-01 4.0955686569213867e-01</leafValues></_>
    <_>
      <internalNodes>
        0 -1 4309 1915161141 388083792 -1944940105 -781948607 207167984
        -562648493 -2044791033 1496737092</internalNodes>
      <leafValues>
        -4.8358166217803955e-01 3.8566267490386963e-01</leafValues></_>
    <_>
      <internalNodes>
        0 -1 12291 -30220907 -931196803 895706617 -138640066 -1080824837
        -1227087886 -1764282565 -1690032789</internalNodes>
      <leafValues>
        -3.2429265975952148e-01 5.6865507364273071e-01</leafValues></_></weakClassifiers></stage13>
</opencv_storage>
