<?xml version="1.0"?>
<opencv_storage>
<stage26>
  <maxWeakCount>12</maxWeakCount>
  <stageThreshold>-8.4367465972900391e-01</stageThreshold>
  <weakClassifiers>
    <_>
      <internalNodes>
        0 -1 431 1939783640 804621384 10911992 -1832901432 511997761
        933380068 62583295 -726459006</internalNodes>
      <leafValues>
        -2.7849587798118591e-01 5.7561653852462769e-01</leafValues></_>
    <_>
      <internalNodes>
        0 -1 6804 -68571173 -1734639985 512302206 1568560677 -82328426
        -659039774 -1288901137 -1148240548</internalNodes>
      <leafValues>
        -1.9889672100543976e-01 6.4544326066970825e-01</leafValues></_>
    <_>
      <internalNodes>
        0 -1 11829 1148255031 2122364545 416213919 -530128109 738378297
        -1347405833 419175451 -1966070267</internalNodes>
      <leafValues>
        -3.4663438796997070e-01 4.4350984692573547e-01</leafValues></_>
    <_>
      <internalNodes>
        0 -1 13735 1575202743 491683599 -973264649 -1175083277
        1299503012 2029846527 885529687 -2114085741</internalNodes>
      <leafValues>
        -3.2008224725723267e-01 5.7044494152069092e-01</leafValues></_>
    <_>
      <internalNodes>
        0 -1 13625 -114590761 -1602229287 -1249956533 140869623
        -1121000036 -1467712197 -1172832419 -1284276259</internalNodes>
      <leafValues>
        -2.6719591021537781e-01 5.9238058328628540e-01</leafValues></_>
    <_>
      <internalNodes>
        0 -1 2628 -298783642 -428679425 1849092423 -1594726284 178439321
        -311046827 750638607 -920689025</internalNodes>
      <leafValues>
        -3.7918579578399658e-01 4.6221810579299927e-01</leafValues></_>
    <_>
      <internalNodes>
        0 -1 13079 1532774508 -741500411 1351160848 588516993
        -1692366478 210174065 -1744500560 1605620411</internalNodes>
      <leafValues>
        -4.8860710859298706e-01 4.0059134364128113e-01</leafValues></_>
    <_>
      <internalNodes>
        0 -1 12329 -214249035 -567097165 -964892875 -452794909
        -1165214181 -1695465739 -2048997211 -90337271</internalNodes>
      <leafValues>
        -2.8431820869445801e-01 6.4802718162536621e-01</leafValues></_>
    <_>
      <internalNodes>
        0 -1 14941 -1712837187 533774753 698409647 1109417108 613017038
        1081674248 -938450432 10185618</internalNodes>
      <leafValues>
        -5.3687351942062378e-01 3.6539912223815918e-01</leafValues></_>
    <_>
      <internalNodes>
        0 -1 2822 -390092283 -1380436483 -1426065929 -1116704141
        68611094 2124381669 1576166866 -1582082597</internalNodes>
      <leafValues>
        -3.9766332507133484e-01 4.7014412283897400e-01</leafValues></_>
    <_>
      <internalNodes>
        0 -1 12249 1127398491 -1144310887 -1510146309 -1212446055
        -161816881 -270021940 -512039 -1079836945</internalNodes>
      <leafValues>
        -3.0509608983993530e-01 6.1709898710250854e-01</leafValues></_>
    <_>
      <internalNodes>
        0 -1 8161 -16728456 -1283427251 -1735122710 1026561809
        -1399802456 -629143394 -2046014518 -337366335</internalNodes>
      <leafValues>
        -4.4210714101791382e-01 4.5554134249687195e-01</leafValues></_></weakClassifiers></stage26>
</opencv_storage>
