<?xml version="1.0"?>
<opencv_storage>
<stage8>
  <maxWeakCount>9</maxWeakCount>
  <stageThreshold>-6.1234444379806519e-01</stageThreshold>
  <weakClassifiers>
    <_>
      <internalNodes>
        0 -1 11350 -685803553 -397419409 1408597953 -1427240345
        498970608 -296274144 1417002725 1735874557</internalNodes>
      <leafValues>
        -2.4340176582336426e-01 6.3176530599594116e-01</leafValues></_>
    <_>
      <internalNodes>
        0 -1 342 -1702890497 -923756169 1190843315 -1300303373 55959041
        -111808172 1257764977 -211029765</internalNodes>
      <leafValues>
        -3.4690433740615845e-01 5.5824822187423706e-01</leafValues></_>
    <_>
      <internalNodes>
        0 -1 9023 991162347 993259299 1471609872 1147202839 1058501349
        -261119777 -1248874352 -205576329</internalNodes>
      <leafValues>
        -3.6945101618766785e-01 4.8403564095497131e-01</leafValues></_>
    <_>
      <internalNodes>
        0 -1 13702 -271375967 -435713129 -133742243 -521726604
        -1824464806 1296347706 -1920737234 -531827155</internalNodes>
      <leafValues>
        -4.1737595200538635e-01 4.2136085033416748e-01</leafValues></_>
    <_>
      <internalNodes>
        0 -1 12277 622379212 1283860668 1008290815 130614220 -1766936056
        39599793 901564654 730465721</internalNodes>
      <leafValues>
        -7.0850360393524170e-01 2.4404285848140717e-01</leafValues></_>
    <_>
      <internalNodes>
        0 -1 12204 -1880035792 -1825322896 -63323303 -138768551
        629577942 349157106 139988158 790564031</internalNodes>
      <leafValues>
        -5.4833775758743286e-01 3.3266636729240417e-01</leafValues></_>
    <_>
      <internalNodes>
        0 -1 6328 325176043 684970758 -351631461 -769735226 1261524749
        -1255174257 1039917186 -960575961</internalNodes>
      <leafValues>
        -4.8749786615371704e-01 4.2886507511138916e-01</leafValues></_>
    <_>
      <internalNodes>
        0 -1 7947 -200138514 1304773078 -242593704 64321410 -267347661
        631623837 -608116209 1289088268</internalNodes>
      <leafValues>
        -6.0080361366271973e-01 3.3923599123954773e-01</leafValues></_>
    <_>
      <internalNodes>
        0 -1 6317 -2111773957 1361256639 1672097765 -795353611 931071749
        883680518 -439422571 -1497493649</internalNodes>
      <leafValues>
        -3.9749866724014282e-01 4.7611755132675171e-01</leafValues></_></weakClassifiers></stage8>
</opencv_storage>
