<?xml version="1.0"?>
<opencv_storage>
<stage29>
  <maxWeakCount>9</maxWeakCount>
  <stageThreshold>-7.0705950260162354e-01</stageThreshold>
  <weakClassifiers>
    <_>
      <internalNodes>
        0 -1 14385 -948940385 -932910824 980839483 1747251957
        -1757036475 -1574409074 -558436832 -2137982071</internalNodes>
      <leafValues>
        -1.5343914926052094e-01 6.2915325164794922e-01</leafValues></_>
    <_>
      <internalNodes>
        0 -1 3705 1424115525 -226947044 -160530497 268529939 -182381203
        -747283987 -376612062 -1545475246</internalNodes>
      <leafValues>
        -3.3919316530227661e-01 4.7300487756729126e-01</leafValues></_>
    <_>
      <internalNodes>
        0 -1 3806 -1799635193 -678027914 66267198 1636056887 228112261
        -1918529595 -1198607188 -5274202</internalNodes>
      <leafValues>
        -2.6411452889442444e-01 6.5021252632141113e-01</leafValues></_>
    <_>
      <internalNodes>
        0 -1 14348 -860787811 1392461996 -1342382149 1362305403
        553573000 -1162879560 2017361535 -351426360</internalNodes>
      <leafValues>
        -3.3105856180191040e-01 5.3729820251464844e-01</leafValues></_>
    <_>
      <internalNodes>
        0 -1 8728 1964225043 1141720592 336599617 1109116237 1367407764
        -1912479743 -350586341 1327046777</internalNodes>
      <leafValues>
        -5.2777528762817383e-01 3.7689676880836487e-01</leafValues></_>
    <_>
      <internalNodes>
        0 -1 11420 -1785108555 1466123191 1511560583 -1097912875
        319925471 -20987330 -134511107 -1197263750</internalNodes>
      <leafValues>
        -2.9996001720428467e-01 6.3091248273849487e-01</leafValues></_>
    <_>
      <internalNodes>
        0 -1 9186 -766702456 -1425813037 1351143697 138727492 -601816989
        -1071521498 16842817 1778779306</internalNodes>
      <leafValues>
        -6.4011722803115845e-01 3.2911446690559387e-01</leafValues></_>
    <_>
      <internalNodes>
        0 -1 13175 1925894407 -260036081 1526338383 1403510043
        1139658227 1737350079 -1593845023 -899469073</internalNodes>
      <leafValues>
        -3.6650657653808594e-01 5.9856212139129639e-01</leafValues></_>
    <_>
      <internalNodes>
        0 -1 861 -215773097 1596532649 -692115244 2099997480 -1111698368
        -1121138075 -1078698475 -104602621</internalNodes>
      <leafValues>
        -2.8435751795768738e-01 6.6894721984863281e-01</leafValues></_></weakClassifiers></stage29>
</opencv_storage>
