<?xml version="1.0"?>
<opencv_storage>
<stage18>
  <maxWeakCount>12</maxWeakCount>
  <stageThreshold>-8.3030003309249878e-01</stageThreshold>
  <weakClassifiers>
    <_>
      <internalNodes>
        0 -1 298 -2054746097 -985532878 -1275135819 2115327013
        -2137469088 -1756343226 2034988276 514348341</internalNodes>
      <leafValues>
        -3.9831933379173279e-01 5.1434510946273804e-01</leafValues></_>
    <_>
      <internalNodes>
        0 -1 12237 -206313499 -1700658461 2121993141 636399339
        1805867521 468240190 2107400020 -268829794</internalNodes>
      <leafValues>
        -3.0728960037231445e-01 4.6222811937332153e-01</leafValues></_>
    <_>
      <internalNodes>
        0 -1 10381 -35612368 1360307495 -682752961 1482699289
        -1531931472 1556621611 227869646 -407304040</internalNodes>
      <leafValues>
        -4.0826192498207092e-01 3.4660017490386963e-01</leafValues></_>
    <_>
      <internalNodes>
        0 -1 6913 -1109727729 713771663 -1091174931 -1418723409
        -1016663815 309194185 -1958165169 -387056513</internalNodes>
      <leafValues>
        -3.1373074650764465e-01 4.6850591897964478e-01</leafValues></_>
    <_>
      <internalNodes>
        0 -1 1992 1783571966 189270217 -1877583358 336356929 141641760
        641882704 76466767 -1212195253</internalNodes>
      <leafValues>
        -5.2331906557083130e-01 3.0328726768493652e-01</leafValues></_>
    <_>
      <internalNodes>
        0 -1 6704 454611100 -1030749935 1344285843 2109203987 -636948264
        -1647752936 -1476318741 437978635</internalNodes>
      <leafValues>
        -4.8755085468292236e-01 3.2581004500389099e-01</leafValues></_>
    <_>
      <internalNodes>
        0 -1 13589 1642809805 1176854201 1910570877 -1540679287
        1593100444 -1482212161 2115649067 -1491693669</internalNodes>
      <leafValues>
        -3.9849865436553955e-01 4.2585331201553345e-01</leafValues></_>
    <_>
      <internalNodes>
        0 -1 10380 -291860972 1609513921 819453876 255016319 -1210255473
        -1613412894 -520349256 -1615698006</internalNodes>
      <leafValues>
        -3.9008793234825134e-01 4.4145494699478149e-01</leafValues></_>
    <_>
      <internalNodes>
        0 -1 14313 1227602781 -879272340 -280348305 36277882 -746669860
        -1146372625 711613242 -349446132</internalNodes>
      <leafValues>
        -3.4905198216438293e-01 4.9311786890029907e-01</leafValues></_>
    <_>
      <internalNodes>
        0 -1 12205 -2314659 -255928712 1072897915 -1241951399
        -1614097747 -1914510413 -1864130834 -1683843126</internalNodes>
      <leafValues>
        -3.3087015151977539e-01 5.2773708105087280e-01</leafValues></_>
    <_>
      <internalNodes>
        0 -1 2633 -743388221 -2063497986 -925661963 1176094727
        1517176579 47110340 1625179979 1160794624</internalNodes>
      <leafValues>
        -5.3574603796005249e-01 3.4153625369071960e-01</leafValues></_>
    <_>
      <internalNodes>
        0 -1 6965 -939468800 -262921712 -1654333027 -1403771004
        -2129476933 1141994542 -1831810360 -625277970</internalNodes>
      <leafValues>
        -4.4738507270812988e-01 4.1590511798858643e-01</leafValues></_></weakClassifiers></stage18>
</opencv_storage>
