<?xml version="1.0"?>
<opencv_storage>
<stage24>
  <maxWeakCount>12</maxWeakCount>
  <stageThreshold>-7.1551978588104248e-01</stageThreshold>
  <weakClassifiers>
    <_>
      <internalNodes>
        0 -1 3652 1459969621 -1129366955 -1191386089 -1927253455
        933798465 -1763625413 -134416523 724071030</internalNodes>
      <leafValues>
        -3.1746032834053040e-01 5.5258464813232422e-01</leafValues></_>
    <_>
      <internalNodes>
        0 -1 2266 -1789114885 760219605 530439989 665116533 -1354348113
        488066334 -144220353 -608571071</internalNodes>
      <leafValues>
        -2.9780921339988708e-01 4.8075726628303528e-01</leafValues></_>
    <_>
      <internalNodes>
        0 -1 10387 676577476 1342457431 -2119533667 362943747 2099577264
        -1186385471 -1459515688 1629504041</internalNodes>
      <leafValues>
        -5.3375369310379028e-01 2.8577280044555664e-01</leafValues></_>
    <_>
      <internalNodes>
        0 -1 9308 -776446204 -2085367148 167789739 595140841 1627599635
        1817815178 16892169 1823312160</internalNodes>
      <leafValues>
        -5.6585729122161865e-01 2.6179558038711548e-01</leafValues></_>
    <_>
      <internalNodes>
        0 -1 5727 1046415635 -136474693 -1074707245 -92604963
        -1164505441 -402792970 -1029903175 -109341453</internalNodes>
      <leafValues>
        -2.6203605532646179e-01 6.3392931222915649e-01</leafValues></_>
    <_>
      <internalNodes>
        0 -1 9331 -71391521 462283493 -835638300 747339348 -1907955038
        -1716653894 586546412 -1403521645</internalNodes>
      <leafValues>
        -3.4366714954376221e-01 5.3313881158828735e-01</leafValues></_>
    <_>
      <internalNodes>
        0 -1 11334 -1866694491 -275754878 -1238546118 2061507493
        291857884 -1806341464 1941347878 713951810</internalNodes>
      <leafValues>
        -4.8586207628250122e-01 3.4759494662284851e-01</leafValues></_>
    <_>
      <internalNodes>
        0 -1 10332 -1612989281 -353219621 1912279220 -877348376
        821057143 -151036958 2003009440 -320280140</internalNodes>
      <leafValues>
        -2.9049712419509888e-01 6.0505765676498413e-01</leafValues></_>
    <_>
      <internalNodes>
        0 -1 15347 899086295 -2089249206 -562127762 1179380184
        1975025546 -143041076 1751307986 -1078247740</internalNodes>
      <leafValues>
        -3.5498526692390442e-01 5.2571821212768555e-01</leafValues></_>
    <_>
      <internalNodes>
        0 -1 10011 907706800 273680652 245634695 111299624 1779476736
        -823426795 1502292045 707723839</internalNodes>
      <leafValues>
        -5.8843463659286499e-01 3.3235606551170349e-01</leafValues></_>
    <_>
      <internalNodes>
        0 -1 9394 -1741576651 617228062 1815864093 -1801124729 695539923
        1840906555 194163819 1245610728</internalNodes>
      <leafValues>
        -4.5904245972633362e-01 3.9942467212677002e-01</leafValues></_>
    <_>
      <internalNodes>
        0 -1 8088 -159005608 -736272887 -834634145 477311289 -955409490
        -1163259335 1716704955 -884486181</internalNodes>
      <leafValues>
        -3.8430300354957581e-01 4.7354656457901001e-01</leafValues></_></weakClassifiers></stage24>
</opencv_storage>
