<?xml version="1.0"?>
<opencv_storage>
<stage4>
  <maxWeakCount>7</maxWeakCount>
  <stageThreshold>-1.2606276273727417e+00</stageThreshold>
  <weakClassifiers>
    <_>
      <internalNodes>
        0 -1 2361 -708902401 -1953800251 -2001217315 23982045 -323957042
        1158182486 -51381281 1151332333</internalNodes>
      <leafValues>
        -3.8600450754165649e-01 6.3481551408767700e-01</leafValues></_>
    <_>
      <internalNodes>
        0 -1 12068 2070919931 1215816059 846493244 -1057685771
        -151493537 -814352393 1953906478 -568919238</internalNodes>
      <leafValues>
        -4.0585738420486450e-01 5.5149477720260620e-01</leafValues></_>
    <_>
      <internalNodes>
        0 -1 3774 101945027 352617991 -610578049 -2079276972 1107764032
        -31922765 -665857230 -1555828361</internalNodes>
      <leafValues>
        -5.0232982635498047e-01 4.2881739139556885e-01</leafValues></_>
    <_>
      <internalNodes>
        0 -1 9149 -169359483 -1355821088 -798924809 716424163 1568505599
        -1357032296 1557945695 -373170352</internalNodes>
      <leafValues>
        -4.1899409890174866e-01 4.9620392918586731e-01</leafValues></_>
    <_>
      <internalNodes>
        0 -1 9374 1479315537 -1778437125 -1569557319 -1087292097
        -1454599728 -833945061 1024464813 -1698752358</internalNodes>
      <leafValues>
        -4.0915432572364807e-01 5.2959734201431274e-01</leafValues></_>
    <_>
      <internalNodes>
        0 -1 1027 -1285453885 -1836795405 -648814749 393003211
        1346634240 2087727506 -1705163455 1148217127</internalNodes>
      <leafValues>
        -5.8435457944869995e-01 3.8339042663574219e-01</leafValues></_>
    <_>
      <internalNodes>
        0 -1 11117 -585630478 260140224 -938189790 1284969442 1572848735
        1167954442 1243137740 -579774125</internalNodes>
      <leafValues>
        -5.4249787330627441e-01 3.9883857965469360e-01</leafValues></_></weakClassifiers></stage4>
</opencv_storage>
