<?xml version="1.0"?>
<opencv_storage>
<stage28>
  <maxWeakCount>11</maxWeakCount>
  <stageThreshold>-1.3233422040939331e+00</stageThreshold>
  <weakClassifiers>
    <_>
      <internalNodes>
        0 -1 14400 -289702099 1818426487 -1419003406 1152686955
        -1855586616 73444539 971167363 283347439</internalNodes>
      <leafValues>
        -1.8565022945404053e-01 6.4031827449798584e-01</leafValues></_>
    <_>
      <internalNodes>
        0 -1 12207 1263896596 74436305 658045119 1371184718 -232085604
        1785734692 1484534775 1861013711</internalNodes>
      <leafValues>
        -3.8584682345390320e-01 4.2439618706703186e-01</leafValues></_>
    <_>
      <internalNodes>
        0 -1 2203 1714587739 293223280 1810928597 1964850560 620013409
        -914819303 -1613838619 -624351268</internalNodes>
      <leafValues>
        -3.3095368742942810e-01 5.2047204971313477e-01</leafValues></_>
    <_>
      <internalNodes>
        0 -1 6912 -1073353178 -1571438305 537362762 -1530838908
        -1023115215 270951968 -686259447 1317489401</internalNodes>
      <leafValues>
        -5.4258668422698975e-01 3.4555274248123169e-01</leafValues></_>
    <_>
      <internalNodes>
        0 -1 14848 -1921430179 153611772 -1128329254 1362930860
        -1229219813 -300413419 -1424052460 -1204187981</internalNodes>
      <leafValues>
        -4.0197658538818359e-01 4.9668109416961670e-01</leafValues></_>
    <_>
      <internalNodes>
        0 -1 14447 -558308583 -146164340 -1627393707 -1186970967
        471841695 954883855 121421864 1848341043</internalNodes>
      <leafValues>
        -3.7762376666069031e-01 5.2305167913436890e-01</leafValues></_>
    <_>
      <internalNodes>
        0 -1 13618 603806483 -1067424705 1801281462 -1838580260
        942766487 -1250016440 -458346999 -813691645</internalNodes>
      <leafValues>
        -4.2048752307891846e-01 5.0851964950561523e-01</leafValues></_>
    <_>
      <internalNodes>
        0 -1 9197 -613087529 149055236 141395941 279379254 -625839197
        -1986150173 -1112735301 -97560341</internalNodes>
      <leafValues>
        -2.7974143624305725e-01 6.9120585918426514e-01</leafValues></_>
    <_>
      <internalNodes>
        0 -1 11300 -30338983 1949552787 -1929560353 -40286683 2142313398
        -1195822147 -1520786695 -1179966386</internalNodes>
      <leafValues>
        -3.1201583147048950e-01 6.4225190877914429e-01</leafValues></_>
    <_>
      <internalNodes>
        0 -1 2605 1510528717 -1844727423 1094997061 -2008547071
        -2136763125 178916826 -813526976 -1541864557</internalNodes>
      <leafValues>
        -4.1440859436988831e-01 5.2660542726516724e-01</leafValues></_>
    <_>
      <internalNodes>
        0 -1 4310 1346355347 615843383 -1073781907 -1556761602 441773559
        1883002749 -1409326180 -1425218733</internalNodes>
      <leafValues>
        -3.6588397622108459e-01 6.0837519168853760e-01</leafValues></_></weakClassifiers></stage28>
</opencv_storage>
