<?xml version="1.0"?>
<opencv_storage>
<stage9>
  <maxWeakCount>11</maxWeakCount>
  <stageThreshold>-7.0707011222839355e-01</stageThreshold>
  <weakClassifiers>
    <_>
      <internalNodes>
        0 -1 11915 1166521519 618690492 1455341565 1559273023
        -1115771460 -1913258755 -166007634 1012799615</internalNodes>
      <leafValues>
        -3.1672596931457520e-01 5.8738988637924194e-01</leafValues></_>
    <_>
      <internalNodes>
        0 -1 11254 -541331545 721418499 -1275168012 -352826617 871445371
        2080373419 1448911857 -293737883</internalNodes>
      <leafValues>
        -3.6267653107643127e-01 5.0390833616256714e-01</leafValues></_>
    <_>
      <internalNodes>
        0 -1 10037 -720015762 -41396370 1885062470 -923440928 -977111021
        -2054795054 -758098539 1507404499</internalNodes>
      <leafValues>
        -4.5904701948165894e-01 3.6269333958625793e-01</leafValues></_>
    <_>
      <internalNodes>
        0 -1 13599 1531695453 1778424992 -58966854 -171263790 2022682684
        -1153113081 837111955 468170967</internalNodes>
      <leafValues>
        -4.0678334236145020e-01 4.2611008882522583e-01</leafValues></_>
    <_>
      <internalNodes>
        0 -1 8209 2035677709 1408571271 322148047 -1524553955 1235286418
        578078824 -265750123 1640895151</internalNodes>
      <leafValues>
        -5.6217569112777710e-01 3.1985986232757568e-01</leafValues></_>
    <_>
      <internalNodes>
        0 -1 13029 178933920 -791120708 -1607289093 -733920503
        -588735099 1460155288 201624941 285213194</internalNodes>
      <leafValues>
        -6.9271129369735718e-01 2.7726870775222778e-01</leafValues></_>
    <_>
      <internalNodes>
        0 -1 14370 850287859 -498969966 1344050523 -520955293 1430930468
        -1334382319 -1704540573 -127085667</internalNodes>
      <leafValues>
        -4.3715962767601013e-01 4.5073488354682922e-01</leafValues></_>
    <_>
      <internalNodes>
        0 -1 3892 -1067543329 -1773476778 -2144758529 -2085371305
        -755573016 1837295676 -229612441 -1547666579</internalNodes>
      <leafValues>
        -4.4226890802383423e-01 4.5452553033828735e-01</leafValues></_>
    <_>
      <internalNodes>
        0 -1 11332 -857192084 2126086303 741153887 1063321761 1133525439
        -944537391 1946095007 1053246734</internalNodes>
      <leafValues>
        -5.0883030891418457e-01 4.1450789570808411e-01</leafValues></_>
    <_>
      <internalNodes>
        0 -1 8853 -1478399027 -1875792008 542346773 -590722931
        1115981780 -206934005 1110074121 1924345131</internalNodes>
      <leafValues>
        -4.9817559123039246e-01 4.0753871202468872e-01</leafValues></_>
    <_>
      <internalNodes>
        0 -1 12229 1463546079 1394108414 -1342947653 18934476
        -1091380482 1876994039 -2085957382 -72291511</internalNodes>
      <leafValues>
        -3.7287428975105286e-01 5.2449554204940796e-01</leafValues></_></weakClassifiers></stage9>
</opencv_storage>
