<?xml version="1.0"?>
<opencv_storage>
<stage22>
  <maxWeakCount>12</maxWeakCount>
  <stageThreshold>-1.0496242046356201e+00</stageThreshold>
  <weakClassifiers>
    <_>
      <internalNodes>
        0 -1 3688 -519534440 -712724320 1358101574 2145707484 -788603137
        688272358 1911946974 1515038442</internalNodes>
      <leafValues>
        -3.0422124266624451e-01 5.2269780635833740e-01</leafValues></_>
    <_>
      <internalNodes>
        0 -1 12170 1533149141 1133365992 -975090234 -2002067221
        2097068414 1490985572 -562519044 -870061327</internalNodes>
      <leafValues>
        -3.1651538610458374e-01 4.2743217945098877e-01</leafValues></_>
    <_>
      <internalNodes>
        0 -1 13530 1103348855 1917309781 -652529323 2013495610
        1325769918 776193155 348283782 -590595314</internalNodes>
      <leafValues>
        -3.6755058169364929e-01 3.8855057954788208e-01</leafValues></_>
    <_>
      <internalNodes>
        0 -1 5460 -1208174120 1564461849 -1207963792 -411329547
        -1946168526 -433261795 100004830 -1017055365</internalNodes>
      <leafValues>
        -3.5586863756179810e-01 4.1463154554367065e-01</leafValues></_>
    <_>
      <internalNodes>
        0 -1 13008 -1857382188 1945143993 2118063581 -36941615
        -564996613 -1286865859 -547128385 -15066313</internalNodes>
      <leafValues>
        -3.6229813098907471e-01 4.4815257191658020e-01</leafValues></_>
    <_>
      <internalNodes>
        0 -1 4286 -269690996 128246972 -1812991555 -2027448327 577951482
        602598377 -1438621842 -75544464</internalNodes>
      <leafValues>
        -3.4863716363906860e-01 4.3507152795791626e-01</leafValues></_>
    <_>
      <internalNodes>
        0 -1 6741 -680570179 -376272527 67578740 -188447432 -200808038
        -469003174 -2062421253 -2045964865</internalNodes>
      <leafValues>
        -3.3721148967742920e-01 4.6816292405128479e-01</leafValues></_>
    <_>
      <internalNodes>
        0 -1 9351 -390340093 -1005918575 -1985945575 -1065171453
        18679179 436234777 68075598 1093207082</internalNodes>
      <leafValues>
        -4.8904663324356079e-01 3.5131129622459412e-01</leafValues></_>
    <_>
      <internalNodes>
        0 -1 10352 -338009511 2073225616 1810366205 -1024297613
        -1745708545 -1215685014 -822001681 -2058469473</internalNodes>
      <leafValues>
        -3.6879298090934753e-01 4.5090079307556152e-01</leafValues></_>
    <_>
      <internalNodes>
        0 -1 8327 53944629 -1694782914 -1635886275 863111563 1063226111
        -390881772 -1292644170 -1593233372</internalNodes>
      <leafValues>
        -3.4790021181106567e-01 4.6340438723564148e-01</leafValues></_>
    <_>
      <internalNodes>
        0 -1 12250 -11889339 1018913274 921644029 972652992 -1670485130
        1071525399 2021547821 -1351153013</internalNodes>
      <leafValues>
        -3.6637264490127563e-01 4.5561748743057251e-01</leafValues></_>
    <_>
      <internalNodes>
        0 -1 1261 -883176637 -43714473 -1905776777 -1862862502
        1985463501 130641117 -287453007 -292795809</internalNodes>
      <leafValues>
        -3.1842374801635742e-01 5.2613413333892822e-01</leafValues></_></weakClassifiers></stage22>
</opencv_storage>
