<?xml version="1.0"?>
<opencv_storage>
<stage3>
  <maxWeakCount>8</maxWeakCount>
  <stageThreshold>-7.9410010576248169e-01</stageThreshold>
  <weakClassifiers>
    <_>
      <internalNodes>
        0 -1 12175 2141663231 -1431339029 2109648382 -1463487109
        1891418879 1007146583 -1246324483 -466766017</internalNodes>
      <leafValues>
        -2.4476650357246399e-01 7.4175196886062622e-01</leafValues></_>
    <_>
      <internalNodes>
        0 -1 2491 -184818971 -118112013 -555290057 -185749761 326398722
        -1279295631 -9276909 -83986603</internalNodes>
      <leafValues>
        -4.0022805333137512e-01 5.8836340904235840e-01</leafValues></_>
    <_>
      <internalNodes>
        0 -1 3998 -432036393 -1252332425 252136735 197655157 -294201967
        -834802603 -28156876 -1402531579</internalNodes>
      <leafValues>
        -4.4793406128883362e-01 5.2070587873458862e-01</leafValues></_>
    <_>
      <internalNodes>
        0 -1 14393 -1405876875 -1943363504 -1406943489 -328831546
        713715391 -13631750 702598380 -1407158120</internalNodes>
      <leafValues>
        -4.7525823116302490e-01 5.2007412910461426e-01</leafValues></_>
    <_>
      <internalNodes>
        0 -1 10257 -724823818 1325790663 -739752438 1655952539
        1980283423 1554280296 -2142177009 -858792474</internalNodes>
      <leafValues>
        -5.5641806125640869e-01 4.3067929148674011e-01</leafValues></_>
    <_>
      <internalNodes>
        0 -1 11392 895229436 1562205177 -709337159 1995449344 907578160
        -1871801181 468100597 983189122</internalNodes>
      <leafValues>
        -6.3606935739517212e-01 4.0420773625373840e-01</leafValues></_>
    <_>
      <internalNodes>
        0 -1 12839 -301075811 676125599 937030133 -1467039237 806734832
        -825211175 -1075951886 -544310820</internalNodes>
      <leafValues>
        -5.2063411474227905e-01 5.0810772180557251e-01</leafValues></_>
    <_>
      <internalNodes>
        0 -1 12560 203164087 428658655 -1107435913 -290922568 -643023492
        -37828612 -134717516 -1718350844</internalNodes>
      <leafValues>
        -4.6328249573707581e-01 5.7109737396240234e-01</leafValues></_></weakClassifiers></stage3>
</opencv_storage>
