<?xml version="1.0"?>
<opencv_storage>
<stage0>
  <maxWeakCount>6</maxWeakCount>
  <stageThreshold>-1.1710342168807983e+00</stageThreshold>
  <weakClassifiers>
    <_>
      <internalNodes>
        0 -1 2247 -708865825 -811256499 389544191 361230287 -123433217
        1369444308 2112158463 1960767487</internalNodes>
      <leafValues>
        -4.1736695170402527e-01 7.5012958049774170e-01</leafValues></_>
    <_>
      <internalNodes>
        0 -1 12270 -2107480884 1459986496 1141395484 1427308577
        -1759333654 -1432174432 421769387 321847979</internalNodes>
      <leafValues>
        -6.9150888919830322e-01 5.3767651319503784e-01</leafValues></_>
    <_>
      <internalNodes>
        0 -1 10077 -245497889 -2055127628 -554279298 -1570439453
        -705233665 98948927 1485499595 -658244353</internalNodes>
      <leafValues>
        -5.1980096101760864e-01 6.5377342700958252e-01</leafValues></_>
    <_>
      <internalNodes>
        0 -1 10300 -183240488 1898168561 1196691997 -584378823
        -263810904 -937332582 1796571039 1597968955</internalNodes>
      <leafValues>
        -5.3482395410537720e-01 6.5114730596542358e-01</leafValues></_>
    <_>
      <internalNodes>
        0 -1 10359 -258410824 -775945704 -1844444973 -909835567
        411797691 -2011103056 -83720261 409674667</internalNodes>
      <leafValues>
        -6.6063863039016724e-01 5.1516360044479370e-01</leafValues></_>
    <_>
      <internalNodes>
        0 -1 8076 -203530034 1303285970 -1870659566 -1561521462
        -658269217 1351975057 1267329259 1292169079</internalNodes>
      <leafValues>
        -6.8796569108963013e-01 4.7146865725517273e-01</leafValues></_></weakClassifiers></stage0>
</opencv_storage>
