<?xml version="1.0"?>
<opencv_storage>
<stage12>
  <maxWeakCount>12</maxWeakCount>
  <stageThreshold>-6.4814621210098267e-01</stageThreshold>
  <weakClassifiers>
    <_>
      <internalNodes>
        0 -1 5602 -1942466368 -1153885695 1429369809 1551647464
        -1516109432 -1365241064 942670008 454689809</internalNodes>
      <leafValues>
        -2.8976571559906006e-01 5.6418454647064209e-01</leafValues></_>
    <_>
      <internalNodes>
        0 -1 4051 -547356961 -535521033 1650687295 -959971777
        -1820822222 -1174673481 -201886633 -69778617</internalNodes>
      <leafValues>
        -3.6447301506996155e-01 4.7401914000511169e-01</leafValues></_>
    <_>
      <internalNodes>
        0 -1 13657 -579889133 -1178556126 1563896026 -1153172121
        2096963096 -1696628969 947843290 -439626829</internalNodes>
      <leafValues>
        -3.0563998222351074e-01 5.7366424798965454e-01</leafValues></_>
    <_>
      <internalNodes>
        0 -1 5637 1499092129 -260346599 -1258661579 2132152245
        -1826059815 -97621187 570950331 960891251</internalNodes>
      <leafValues>
        -3.8975343108177185e-01 4.4713959097862244e-01</leafValues></_>
    <_>
      <internalNodes>
        0 -1 8331 -796867072 -1859116747 1812354288 517834449 541076127
        475267100 1196787870 263755788</internalNodes>
      <leafValues>
        -5.5079466104507446e-01 3.2168820500373840e-01</leafValues></_>
    <_>
      <internalNodes>
        0 -1 11298 -168963619 -1725433116 -622118398 -343148093
        -1590598285 -2093548400 -2133858366 -55582898</internalNodes>
      <leafValues>
        -3.5633763670921326e-01 5.0637871026992798e-01</leafValues></_>
    <_>
      <internalNodes>
        0 -1 13029 446843084 -44455766 1654698239 -654240471 16942317
        -1651035362 104810719 487537704</internalNodes>
      <leafValues>
        -5.3393924236297607e-01 3.4047979116439819e-01</leafValues></_>
    <_>
      <internalNodes>
        0 -1 9973 1906812612 554767176 1745420320 -275974289 1489082824
        1341342197 -561837172 14817239</internalNodes>
      <leafValues>
        -5.9175068140029907e-01 3.1553784012794495e-01</leafValues></_>
    <_>
      <internalNodes>
        0 -1 6844 -437565658 83883902 -380670055 -648056962 -9340954
        -2003327001 -1883160577 -1409860809</internalNodes>
      <leafValues>
        -4.1276022791862488e-01 5.1073718070983887e-01</leafValues></_>
    <_>
      <internalNodes>
        0 -1 6617 1876250353 1550911245 -1422926177 -1085288847
        -1353332790 -1283242219 1342058312 -1170488048</internalNodes>
      <leafValues>
        -4.0531754493713379e-01 5.0648945569992065e-01</leafValues></_>
    <_>
      <internalNodes>
        0 -1 715 -319829837 333668064 1206841203 920475443 -1753198770
        -1243177885 -980263110 -540609181</internalNodes>
      <leafValues>
        -3.8768947124481201e-01 5.1474452018737793e-01</leafValues></_>
    <_>
      <internalNodes>
        0 -1 13686 -134363109 1969077448 -1141121424 -748553312
        -1504957750 -1360007461 1680371274 -1066533141</internalNodes>
      <leafValues>
        -3.7354990839958191e-01 5.4647493362426758e-01</leafValues></_></weakClassifiers></stage12>
</opencv_storage>
