<?xml version="1.0"?>
<opencv_storage>
<stage7>
  <maxWeakCount>9</maxWeakCount>
  <stageThreshold>-5.6882095336914062e-01</stageThreshold>
  <weakClassifiers>
    <_>
      <internalNodes>
        0 -1 4116 957501870 94106605 -1094731269 -136324623 -671460271
        1164902392 -22144809 1714150257</internalNodes>
      <leafValues>
        -4.5399698615074158e-01 5.5669659376144409e-01</leafValues></_>
    <_>
      <internalNodes>
        0 -1 14338 1224175327 753855339 876515323 -320148829 2137932169
        -35762504 -256223081 -1743622145</internalNodes>
      <leafValues>
        -3.9441725611686707e-01 4.9400573968887329e-01</leafValues></_>
    <_>
      <internalNodes>
        0 -1 534 -676167681 321603693 -570449103 273519681 -8650738
        -551741506 -1093550061 -23201819</internalNodes>
      <leafValues>
        -3.6523598432540894e-01 5.1591414213180542e-01</leafValues></_>
    <_>
      <internalNodes>
        0 -1 12206 1509578053 406861016 1402525125 435800286 -2043220484
        -366950948 -2107631382 737094786</internalNodes>
      <leafValues>
        -4.7250869870185852e-01 3.9680910110473633e-01</leafValues></_>
    <_>
      <internalNodes>
        0 -1 10352 -74331115 2008985043 -268585857 -2047216265
        -1345274979 -282371209 -1081796614 -563336551</internalNodes>
      <leafValues>
        -3.6926200985908508e-01 5.5113524198532104e-01</leafValues></_>
    <_>
      <internalNodes>
        0 -1 11075 1932602268 134370400 1352988796 2082481176 598268048
        -511524589 -1604557810 1054832975</internalNodes>
      <leafValues>
        -6.4587223529815674e-01 3.3646452426910400e-01</leafValues></_>
    <_>
      <internalNodes>
        0 -1 6397 -628059189 -4063808 -1275381765 -1008660505 -574034193
        -1108804630 -926831427 -75787523</internalNodes>
      <leafValues>
        -3.6743420362472534e-01 6.1144280433654785e-01</leafValues></_>
    <_>
      <internalNodes>
        0 -1 12270 -1944957524 -1250773036 -734580720 497277988
        -1710189937 -1347944283 -1288562021 311100602</internalNodes>
      <leafValues>
        -6.2686997652053833e-01 3.5267671942710876e-01</leafValues></_>
    <_>
      <internalNodes>
        0 -1 11064 1809000163 -1497247227 -1274752714 -1000336391
        1337154390 -611665536 -50444440 -672597565</internalNodes>
      <leafValues>
        -4.9445128440856934e-01 4.5259588956832886e-01</leafValues></_></weakClassifiers></stage7>
</opencv_storage>
