<?xml version="1.0"?>
<opencv_storage>
<stage17>
  <maxWeakCount>12</maxWeakCount>
  <stageThreshold>-9.6381342411041260e-01</stageThreshold>
  <weakClassifiers>
    <_>
      <internalNodes>
        0 -1 7900 -185186578 1321762430 -1426250680 139296638 100572090
        109559164 -1730314499 1754218047</internalNodes>
      <leafValues>
        -4.5454546809196472e-01 5.0161814689636230e-01</leafValues></_>
    <_>
      <internalNodes>
        0 -1 7682 990239502 857936400 -1844817166 1146522452 689396124
        -1792849726 -569692134 -984116348</internalNodes>
      <leafValues>
        -4.6267873048782349e-01 3.4138584136962891e-01</leafValues></_>
    <_>
      <internalNodes>
        0 -1 3891 593213335 1568392517 -1891665793 -852170265
        -1502017583 -1892761705 -1879421867 -1953528713</internalNodes>
      <leafValues>
        -3.4640711545944214e-01 4.4756048917770386e-01</leafValues></_>
    <_>
      <internalNodes>
        0 -1 11026 331413599 589385728 1360212323 -857346800 1398161620
        -1613622463 2032543810 2017623242</internalNodes>
      <leafValues>
        -4.9688556790351868e-01 2.8703430294990540e-01</leafValues></_>
    <_>
      <internalNodes>
        0 -1 4183 1159745768 -542238517 408970410 1921532200 -1979184648
        -16023464 706976459 49165997</internalNodes>
      <leafValues>
        -4.6648946404457092e-01 3.3175310492515564e-01</leafValues></_>
    <_>
      <internalNodes>
        0 -1 14909 -1977127 1509227684 -17904005 -618166622 1602188866
        -1111753411 1987114416 -938352751</internalNodes>
      <leafValues>
        -3.7682601809501648e-01 4.5924955606460571e-01</leafValues></_>
    <_>
      <internalNodes>
        0 -1 14284 -2088789089 -420623750 -1402151233 -256761992
        1055678175 -1846257765 2090651377 -172397720</internalNodes>
      <leafValues>
        -3.2739898562431335e-01 4.9415102601051331e-01</leafValues></_>
    <_>
      <internalNodes>
        0 -1 11270 -184497732 -2021341149 1951427701 -1224310373
        808508604 1831324811 139931340 834614734</internalNodes>
      <leafValues>
        -5.1779657602310181e-01 3.3124643564224243e-01</leafValues></_>
    <_>
      <internalNodes>
        0 -1 15446 -518896715 -346932530 -1129925057 -1849387780
        564838069 61254411 644166835 10176651</internalNodes>
      <leafValues>
        -4.2003083229064941e-01 4.0815615653991699e-01</leafValues></_>
    <_>
      <internalNodes>
        0 -1 9189 1133897433 -704000764 532512048 -1854718444 1071940670
        -4814863 2080464570 -1079923029</internalNodes>
      <leafValues>
        -3.3253997564315796e-01 5.2891582250595093e-01</leafValues></_>
    <_>
      <internalNodes>
        0 -1 2615 1907665899 529066280 1237340559 -2003099471 538083342
        1602808476 -1341562871 178696971</internalNodes>
      <leafValues>
        -5.0257235765457153e-01 3.4102210402488708e-01</leafValues></_>
    <_>
      <internalNodes>
        0 -1 5609 -1924374096 115952881 -697901161 -104956153
        -1218438008 -840300873 899041850 -1147783173</internalNodes>
      <leafValues>
        -3.9846935868263245e-01 4.5720684528350830e-01</leafValues></_></weakClassifiers></stage17>
</opencv_storage>
