<?xml version="1.0"?>
<opencv_storage>
<stage23>
  <maxWeakCount>14</maxWeakCount>
  <stageThreshold>-6.7589658498764038e-01</stageThreshold>
  <weakClassifiers>
    <_>
      <internalNodes>
        0 -1 6839 1017275456 1681375543 2013196092 -1107352667 393663796
        124835127 1374897710 386671487</internalNodes>
      <leafValues>
        -4.3195265531539917e-01 4.8896911740303040e-01</leafValues></_>
    <_>
      <internalNodes>
        0 -1 334 -753403409 -2111401507 535966531 1938441431 -1897378417
        1868959070 1240725251 -310258689</internalNodes>
      <leafValues>
        -2.3786631226539612e-01 5.2961927652359009e-01</leafValues></_>
    <_>
      <internalNodes>
        0 -1 14926 -943727299 -1830032965 -1141056075 1370033270
        -1507139761 161704184 -2080502749 -1934385786</internalNodes>
      <leafValues>
        -2.6469883322715759e-01 5.0625652074813843e-01</leafValues></_>
    <_>
      <internalNodes>
        0 -1 9284 -705143532 -1988603600 1420151313 1023742224
        1023854008 -1431064604 1100702426 282202136</internalNodes>
      <leafValues>
        -5.4612791538238525e-01 2.4889521300792694e-01</leafValues></_>
    <_>
      <internalNodes>
        0 -1 12170 1466957773 1401932515 -975090466 -777259797
        -277202052 2094836334 -58792963 -853411599</internalNodes>
      <leafValues>
        -2.4974754452705383e-01 5.6380313634872437e-01</leafValues></_>
    <_>
      <internalNodes>
        0 -1 4710 943867668 -1140041384 -1189880910 -120069930
        1457641206 -1702851589 -903560214 175921266</internalNodes>
      <leafValues>
        -4.9476063251495361e-01 3.1129044294357300e-01</leafValues></_>
    <_>
      <internalNodes>
        0 -1 6965 1079035004 1549229477 -451207394 1232371964 -801861959
        -1187827995 394300104 284557440</internalNodes>
      <leafValues>
        -5.1981586217880249e-01 2.9010841250419617e-01</leafValues></_>
    <_>
      <internalNodes>
        0 -1 14296 20663573 -927089867 -587207172 -350632010 -579182361
        -1409627735 741991150 -824598308</internalNodes>
      <leafValues>
        -3.3777001500129700e-01 4.8611184954643250e-01</leafValues></_>
    <_>
      <internalNodes>
        0 -1 13409 1599816860 1371850308 294679900 -773777010 1385091511
        -2116329449 -1809261743 826538878</internalNodes>
      <leafValues>
        -4.3444645404815674e-01 3.9442151784896851e-01</leafValues></_>
    <_>
      <internalNodes>
        0 -1 5449 -101196501 -2046559966 -53904055 843438071 1147013282
        -94443754 -430915607 -364389733</internalNodes>
      <leafValues>
        -3.2252439856529236e-01 5.3188931941986084e-01</leafValues></_>
    <_>
      <internalNodes>
        0 -1 4311 1611826181 262724795 -541252870 -79733550 1236788687
        -1412159498 -1006416801 -201117058</internalNodes>
      <leafValues>
        -3.6057183146476746e-01 4.4979146122932434e-01</leafValues></_>
    <_>
      <internalNodes>
        0 -1 10269 -111750526 1543635993 -1852465929 -1657388857
        1714735041 -1863293791 573800486 1097667627</internalNodes>
      <leafValues>
        -5.8409422636032104e-01 2.7693182229995728e-01</leafValues></_>
    <_>
      <internalNodes>
        0 -1 12316 -627555288 1002040401 -2073727092 630980801
        1150019728 -1117878141 92326053 798468231</internalNodes>
      <leafValues>
        -4.8192971944808960e-01 3.5570463538169861e-01</leafValues></_>
    <_>
      <internalNodes>
        0 -1 7061 -169634539 -1825578029 -300948097 1257099954
        1943742463 -621699617 -1242173777 -1201720387</internalNodes>
      <leafValues>
        -3.0972063541412354e-01 6.0712552070617676e-01</leafValues></_></weakClassifiers></stage23>
</opencv_storage>
