<?xml version="1.0"?>
<opencv_storage>
<stage15>
  <maxWeakCount>12</maxWeakCount>
  <stageThreshold>-1.4136705398559570e+00</stageThreshold>
  <weakClassifiers>
    <_>
      <internalNodes>
        0 -1 11980 1206515075 6471166 1995747327 1411127998 -436296522
        -1925269059 -597775313 524565693</internalNodes>
      <leafValues>
        -2.8518056869506836e-01 5.5939918756484985e-01</leafValues></_>
    <_>
      <internalNodes>
        0 -1 11320 2121775573 637003189 282301157 -386273786 -1938018317
        -19923718 768333150 -132129191</internalNodes>
      <leafValues>
        -3.2259726524353027e-01 4.7282657027244568e-01</leafValues></_>
    <_>
      <internalNodes>
        0 -1 6287 -158820182 -50064054 -2105469918 -1824046590
        -662007373 -1398619197 -1294948629 1406902717</internalNodes>
      <leafValues>
        -4.9702799320220947e-01 3.3766758441925049e-01</leafValues></_>
    <_>
      <internalNodes>
        0 -1 7557 1326010267 -1332506183 1418975957 -1607521817
        106312399 -1700740985 1832954631 585306755</internalNodes>
      <leafValues>
        -4.4750866293907166e-01 3.4228873252868652e-01</leafValues></_>
    <_>
      <internalNodes>
        0 -1 4225 -401045952 1041514882 -1466155978 1044983950 10993840
        -867495672 1342443919 152512643</internalNodes>
      <leafValues>
        -5.5005967617034912e-01 2.7440410852432251e-01</leafValues></_>
    <_>
      <internalNodes>
        0 -1 11278 -181340774 -1892448067 319936859 -426330989
        1009861945 -2004200399 1127739808 -2099350281</internalNodes>
      <leafValues>
        -4.7853505611419678e-01 3.3971616625785828e-01</leafValues></_>
    <_>
      <internalNodes>
        0 -1 11474 -55784169 1728082185 -860743075 -39616942 -288751977
        -38140741 -251516355 -75159380</internalNodes>
      <leafValues>
        -2.7628508210182190e-01 6.0555016994476318e-01</leafValues></_>
    <_>
      <internalNodes>
        0 -1 9163 -893661189 -780816910 -538300425 -1257670789
        -619587552 -1231946398 -176975062 -655196847</internalNodes>
      <leafValues>
        -3.3761125802993774e-01 5.2797651290893555e-01</leafValues></_>
    <_>
      <internalNodes>
        0 -1 7749 -1222278526 2015864346 337118740 305610984 -1037941318
        -1031097952 -1112522693 -675611350</internalNodes>
      <leafValues>
        -4.8158290982246399e-01 3.5957175493240356e-01</leafValues></_>
    <_>
      <internalNodes>
        0 -1 6977 1688524660 1647981403 1784405484 -585761971
        -1290723079 -48643375 825098478 -27393752</internalNodes>
      <leafValues>
        -4.1449511051177979e-01 4.6144053339958191e-01</leafValues></_>
    <_>
      <internalNodes>
        0 -1 1891 -1992329097 -148981485 -1409290283 -1006755213
        -1434506149 -2102854285 1806991907 -1147477517</internalNodes>
      <leafValues>
        -3.7092909216880798e-01 5.1453638076782227e-01</leafValues></_>
    <_>
      <internalNodes>
        0 -1 7954 708281339 -2019289701 -1280294921 -1083735622
        -1496273735 1228283957 1880370490 -911691734</internalNodes>
      <leafValues>
        -3.6903467774391174e-01 5.2759802341461182e-01</leafValues></_></weakClassifiers></stage15>
</opencv_storage>
