<?xml version="1.0"?>
<opencv_storage>
<stage16>
  <maxWeakCount>12</maxWeakCount>
  <stageThreshold>-8.4102582931518555e-01</stageThreshold>
  <weakClassifiers>
    <_>
      <internalNodes>
        0 -1 10256 -235788476 -287011336 -51881022 -1476002185 376494586
        1560215032 517748223 -1066584449</internalNodes>
      <leafValues>
        -3.0458971858024597e-01 5.3441470861434937e-01</leafValues></_>
    <_>
      <internalNodes>
        0 -1 331 -210267649 -265595197 2028728115 1403014931 -1335540151
        -268869799 -1030790129 -406038541</internalNodes>
      <leafValues>
        -2.9121485352516174e-01 5.0126159191131592e-01</leafValues></_>
    <_>
      <internalNodes>
        0 -1 3190 1667713498 -1753214848 1076916878 -208726320
        2066464767 -1999205486 -92152914 572264364</internalNodes>
      <leafValues>
        -4.5303457975387573e-01 3.3570575714111328e-01</leafValues></_>
    <_>
      <internalNodes>
        0 -1 13050 -1634697988 1542080137 339554301 467222863 163515919
        -1316870557 126489913 464195788</internalNodes>
      <leafValues>
        -4.6738082170486450e-01 3.1625771522521973e-01</leafValues></_>
    <_>
      <internalNodes>
        0 -1 1150 -945299039 1506162431 -67389249 -1173199761 70926512
        -55261825 -541142819 -766546209</internalNodes>
      <leafValues>
        -3.3127325773239136e-01 4.9179279804229736e-01</leafValues></_>
    <_>
      <internalNodes>
        0 -1 11365 -268717571 -685663871 -809934849 -945219669
        -1123102977 1017878893 37397246 -277165953</internalNodes>
      <leafValues>
        -3.1786242127418518e-01 5.2421605587005615e-01</leafValues></_>
    <_>
      <internalNodes>
        0 -1 5480 1932036080 982538421 -139971083 -558819039 -1657631557
        438502030 147997066 646905883</internalNodes>
      <leafValues>
        -4.6409341692924500e-01 3.6374741792678833e-01</leafValues></_>
    <_>
      <internalNodes>
        0 -1 13700 334678131 1113544889 1274710782 -188580085 -722182193
        -778072401 -629351509 -676669657</internalNodes>
      <leafValues>
        -3.8309472799301147e-01 4.5175400376319885e-01</leafValues></_>
    <_>
      <internalNodes>
        0 -1 13010 1160348560 -738162652 4297137 1124076189 -1592327484
        1057736467 699937472 1260872380</internalNodes>
      <leafValues>
        -6.1190891265869141e-01 2.8459292650222778e-01</leafValues></_>
    <_>
      <internalNodes>
        0 -1 14444 1064686427 -150242270 489126010 1485561195 1215164372
        -308794385 -599206060 -585369430</internalNodes>
      <leafValues>
        -3.3845189213752747e-01 5.4330193996429443e-01</leafValues></_>
    <_>
      <internalNodes>
        0 -1 9326 1529221268 1503206401 274372263 690071977 1261243881
        -1195664375 -127635573 2033944733</internalNodes>
      <leafValues>
        -4.3463847041130066e-01 4.1308605670928955e-01</leafValues></_>
    <_>
      <internalNodes>
        0 -1 8048 -1197450504 1512588613 -87869484 -753462758 135151851
        -915710079 136120831 994200385</internalNodes>
      <leafValues>
        -5.4466903209686279e-01 3.2340517640113831e-01</leafValues></_></weakClassifiers></stage16>
</opencv_storage>
