<?xml version="1.0"?>
<opencv_storage>
<stage6>
  <maxWeakCount>9</maxWeakCount>
  <stageThreshold>-6.3259816169738770e-01</stageThreshold>
  <weakClassifiers>
    <_>
      <internalNodes>
        0 -1 1845 -2081481084 1136672372 -180437250 1400634804
        -1679831868 -681099787 16760572 1408974655</internalNodes>
      <leafValues>
        -4.4817072153091431e-01 5.5204778909683228e-01</leafValues></_>
    <_>
      <internalNodes>
        0 -1 5528 -746548120 -728760123 1142076415 488898655 958409416
        -100661624 3287227 423834195</internalNodes>
      <leafValues>
        -5.3013378381729126e-01 3.8019984960556030e-01</leafValues></_>
    <_>
      <internalNodes>
        0 -1 12097 1912395195 1081154045 1023194548 -1138164817
        1979690684 2032121917 -867262017 -28542049</internalNodes>
      <leafValues>
        -4.3111890554428101e-01 5.0812816619873047e-01</leafValues></_>
    <_>
      <internalNodes>
        0 -1 6788 -181923596 2013606016 369116391 532942969 -1861656358
        -283113344 352321983 521801755</internalNodes>
      <leafValues>
        -5.6984883546829224e-01 3.3937546610832214e-01</leafValues></_>
    <_>
      <internalNodes>
        0 -1 3556 -749502325 -776667072 -1844232960 -338183309
        -1744778578 -1474106584 -1465284981 1542109487</internalNodes>
      <leafValues>
        -4.9874925613403320e-01 4.1035118699073792e-01</leafValues></_>
    <_>
      <internalNodes>
        0 -1 8238 -187250566 -176185011 -67155467 -1067171 1533351066
        -22966602 1432111803 -1423570100</internalNodes>
      <leafValues>
        -4.5242914557456970e-01 4.6420362591743469e-01</leafValues></_>
    <_>
      <internalNodes>
        0 -1 2047 258666415 662365576 -1504447236 -789150407 47043541
        -1221349683 -1799563777 -432038241</internalNodes>
      <leafValues>
        -4.3542885780334473e-01 4.9662384390830994e-01</leafValues></_>
    <_>
      <internalNodes>
        0 -1 12879 1467955453 -1614803508 1851217081 1332608001
        -1284536657 -1944158567 -823226737 -867303489</internalNodes>
      <leafValues>
        -3.7040284276008606e-01 5.7962739467620850e-01</leafValues></_>
    <_>
      <internalNodes>
        0 -1 10331 1650259128 -1067694395 1951535517 620960796
        -1395650119 -1744094917 1560426911 191988268</internalNodes>
      <leafValues>
        -5.8241277933120728e-01 3.8545376062393188e-01</leafValues></_></weakClassifiers></stage6>
</opencv_storage>
