<?xml version="1.0"?>
<opencv_storage>
<stage1>
  <maxWeakCount>6</maxWeakCount>
  <stageThreshold>-7.0918709039688110e-01</stageThreshold>
  <weakClassifiers>
    <_>
      <internalNodes>
        0 -1 13025 1993126596 -1977242010 16409672 134479498 -21862005
        -1400697970 -1434464369 -2138050901</internalNodes>
      <leafValues>
        -4.5869565010070801e-01 6.8365383148193359e-01</leafValues></_>
    <_>
      <internalNodes>
        0 -1 298 -707293025 -681200106 -1293948745 2137348005 -789020205
        -690858937 -640960770 1610577719</internalNodes>
      <leafValues>
        -5.4235523939132690e-01 5.8159512281417847e-01</leafValues></_>
    <_>
      <internalNodes>
        0 -1 6902 -566047352 -578392574 1929548117 323584263 476593290
        -116187103 402656906 -1089797621</internalNodes>
      <leafValues>
        -5.1357662677764893e-01 6.5697544813156128e-01</leafValues></_>
    <_>
      <internalNodes>
        0 -1 6828 1142003920 -547859311 304169177 1964934609 -1154315624
        -66846584 318971359 -1691389793</internalNodes>
      <leafValues>
        -4.3214973807334900e-01 6.7657357454299927e-01</leafValues></_>
    <_>
      <internalNodes>
        0 -1 12249 -768036640 -637617975 -1308854018 -240582515
        1045480699 -870004530 -1578620198 -578063649</internalNodes>
      <leafValues>
        -4.9728342890739441e-01 6.4502942562103271e-01</leafValues></_>
    <_>
      <internalNodes>
        0 -1 8237 1479071312 -75813849 1947869058 -586086836 436244872
        -802717694 1963133882 -1147942885</internalNodes>
      <leafValues>
        -4.9602735042572021e-01 6.1092323064804077e-01</leafValues></_></weakClassifiers></stage1>
</opencv_storage>
