<?xml version="1.0"?>
<opencv_storage>
<stage14>
  <maxWeakCount>11</maxWeakCount>
  <stageThreshold>-7.7883768081665039e-01</stageThreshold>
  <weakClassifiers>
    <_>
      <internalNodes>
        0 -1 2507 -1342427290 -1545068800 603918075 -1040199816
        -1951068608 1475215323 804615728 1206910583</internalNodes>
      <leafValues>
        -4.7269302606582642e-01 5.0668287277221680e-01</leafValues></_>
    <_>
      <internalNodes>
        0 -1 6504 -1859809190 -83498880 1610670148 963758855 -392508454
        252268677 805617813 1338013370</internalNodes>
      <leafValues>
        -5.3556114435195923e-01 3.1492573022842407e-01</leafValues></_>
    <_>
      <internalNodes>
        0 -1 13661 -573605769 1895392568 -1192364090 -750003680
        -2098131230 977194987 -394206994 -289022609</internalNodes>
      <leafValues>
        -2.9946237802505493e-01 5.2780532836914062e-01</leafValues></_>
    <_>
      <internalNodes>
        0 -1 5644 -1341009962 1899325161 817593724 -1085315979
        -1324838496 -128156029 353504143 -17446887</internalNodes>
      <leafValues>
        -3.7678381800651550e-01 4.3486082553863525e-01</leafValues></_>
    <_>
      <internalNodes>
        0 -1 656 -168044097 1996752381 -1871583709 1473402961 -6142674
        378755463 -1752907264 -977418779</internalNodes>
      <leafValues>
        -4.0773558616638184e-01 4.1445189714431763e-01</leafValues></_>
    <_>
      <internalNodes>
        0 -1 9260 -862149460 1895907577 -2122002001 500252853
        -1598910277 -1425373511 548472283 1798963753</internalNodes>
      <leafValues>
        -4.6593594551086426e-01 3.7928241491317749e-01</leafValues></_>
    <_>
      <internalNodes>
        0 -1 10810 -573603497 -1314497458 2127223695 -36606019 535453422
        -1805263012 -252117905 1574391807</internalNodes>
      <leafValues>
        -3.5149139165878296e-01 5.0805157423019409e-01</leafValues></_>
    <_>
      <internalNodes>
        0 -1 3713 2056224455 809680149 1819246544 -1871590151 1281342981
        -1434715020 1710750673 -1660959233</internalNodes>
      <leafValues>
        -3.5713738203048706e-01 4.9128332734107971e-01</leafValues></_>
    <_>
      <internalNodes>
        0 -1 6748 -1744252320 -266315288 -2085527343 1600222008
        671092216 -2004201304 1126170859 1868108307</internalNodes>
      <leafValues>
        -5.4941505193710327e-01 3.2783302664756775e-01</leafValues></_>
    <_>
      <internalNodes>
        0 -1 1841 1334698741 -1885926830 37488016 1515062210 263535535
        -1482013300 1605321784 -226022528</internalNodes>
      <leafValues>
        -4.9624946713447571e-01 3.7662029266357422e-01</leafValues></_>
    <_>
      <internalNodes>
        0 -1 12291 -629091948 474244096 575171002 -719781318 -1427392833
        981478959 244799 1125122441</internalNodes>
      <leafValues>
        -6.2317752838134766e-01 3.1614547967910767e-01</leafValues></_></weakClassifiers></stage14>
</opencv_storage>
