<?xml version="1.0"?>
<opencv_storage>
<stage12>
  <maxWeakCount>18</maxWeakCount>
  <stageThreshold>-1.0524047613143921e+00</stageThreshold>
  <weakClassifiers>
    <_>
      <internalNodes>
        0 -1 2539 -1761610799 587200592 -2033945 1064546399 -1812703465
        855308111 1732407811 -377556357</internalNodes>
      <leafValues>
        -7.9142980277538300e-02 5.8739560842514038e-01</leafValues></_>
    <_>
      <internalNodes>
        0 -1 12069 1375072817 547618700 1515913156 -1763918865
        1744563070 48933012 -1227707329 -1090256003</internalNodes>
      <leafValues>
        -3.4780371189117432e-01 3.3219552040100098e-01</leafValues></_>
    <_>
      <internalNodes>
        0 -1 5552 -289444838 -1872048604 554506513 1427061096 -277357084
        -1968504537 -1635504481 453466029</internalNodes>
      <leafValues>
        -3.6476260423660278e-01 2.7170184254646301e-01</leafValues></_>
    <_>
      <internalNodes>
        0 -1 7724 96552699 -795795197 -1095014787 282960141 1731568629
        -1078463119 1314074476 -90221227</internalNodes>
      <leafValues>
        -2.9124394059181213e-01 3.4934294223785400e-01</leafValues></_>
    <_>
      <internalNodes>
        0 -1 11106 19326627 -1375440500 -37992873 1323126722 928781968
        -1108732071 -741483460 1431976219</internalNodes>
      <leafValues>
        -4.6576952934265137e-01 2.1189834177494049e-01</leafValues></_>
    <_>
      <internalNodes>
        0 -1 12277 1974259144 1418073260 276867539 32115756 -863490112
        173070512 323812060 235542006</internalNodes>
      <leafValues>
        -5.5132341384887695e-01 2.1171949803829193e-01</leafValues></_>
    <_>
      <internalNodes>
        0 -1 13571 -674276897 1485232462 -790669062 -201774798
        2099193436 -148641 -17648610 1045953943</internalNodes>
      <leafValues>
        -2.9340109229087830e-01 3.9760234951972961e-01</leafValues></_>
    <_>
      <internalNodes>
        0 -1 6529 -1637638089 273794614 1060941814 -1721768262 98533572
        -136583843 -6968 -872774169</internalNodes>
      <leafValues>
        -3.0792269110679626e-01 3.6380591988563538e-01</leafValues></_>
    <_>
      <internalNodes>
        0 -1 425 -1309713229 -352927747 1127999198 1587443324 29282285
        -807725739 -469763402 1323302142</internalNodes>
      <leafValues>
        -3.2510375976562500e-01 3.7483212351799011e-01</leafValues></_>
    <_>
      <internalNodes>
        0 -1 11399 -1171950351 -4852767 1971033959 990346280 175341563
        -1093271631 -1543974913 -273941353</internalNodes>
      <leafValues>
        -2.2323612868785858e-01 5.0747728347778320e-01</leafValues></_>
    <_>
      <internalNodes>
        0 -1 4192 -901209086 -1858064708 1182814916 -1965235558
        -148045533 -22626015 -763706350 2025210066</internalNodes>
      <leafValues>
        -5.4761850833892822e-01 2.5059828162193298e-01</leafValues></_>
    <_>
      <internalNodes>
        0 -1 10426 1371379164 -560759919 1821602901 98533259 -1433627158
        -90502867 158812607 1752134735</internalNodes>
      <leafValues>
        -3.5276150703430176e-01 3.1833243370056152e-01</leafValues></_>
    <_>
      <internalNodes>
        0 -1 6500 1480649778 -817482181 -99349414 -898420801 284020087
        -2135432586 -1030307713 2140939915</internalNodes>
      <leafValues>
        -4.3744477629661560e-01 2.7779775857925415e-01</leafValues></_>
    <_>
      <internalNodes>
        0 -1 8037 -1257010036 86281482 -2133329334 546044500 -455157770
        86558852 -1095232177 1757544130</internalNodes>
      <leafValues>
        -5.9272736310958862e-01 2.0884439349174500e-01</leafValues></_>
    <_>
      <internalNodes>
        0 -1 5588 -628038650 -793227612 285836303 423009679 -1710086735
        -1432046612 675286096 412581787</internalNodes>
      <leafValues>
        -4.5480978488922119e-01 2.5586539506912231e-01</leafValues></_>
    <_>
      <internalNodes>
        0 -1 2094 -1236957489 -1957052289 1324276577 1195529334
        -1359149489 -1929880043 -976441790 -270739796</internalNodes>
      <leafValues>
        -3.2023319602012634e-01 3.9262598752975464e-01</leafValues></_>
    <_>
      <internalNodes>
        0 -1 10380 -795969104 2146902948 1579048251 -545440457
        -1740376136 -1632869400 -1057058535 -536895090</internalNodes>
      <leafValues>
        -3.0363705754280090e-01 4.2426177859306335e-01</leafValues></_>
    <_>
      <internalNodes>
        0 -1 12205 1910045937 -556612739 -1886130121 1173586905
        -722690520 -1463367047 -117126930 -1076168198</internalNodes>
      <leafValues>
        -2.7989566326141357e-01 4.4744744896888733e-01</leafValues></_></weakClassifiers></stage12>
</opencv_storage>
