<?xml version="1.0"?>
<opencv_storage>
<stage7>
  <maxWeakCount>14</maxWeakCount>
  <stageThreshold>-1.0223411321640015e+00</stageThreshold>
  <weakClassifiers>
    <_>
      <internalNodes>
        0 -1 4116 -1145318962 -963776300 -1413498113 -154761773
        -101034928 1158674262 2143165695 1450180407</internalNodes>
      <leafValues>
        -3.4499651193618774e-01 5.4539489746093750e-01</leafValues></_>
    <_>
      <internalNodes>
        0 -1 7852 -238182961 -275968690 -1308370898 182810623 -578900289
        220594166 -1182140165 -339739265</internalNodes>
      <leafValues>
        -2.9793679714202881e-01 4.4940385222434998e-01</leafValues></_>
    <_>
      <internalNodes>
        0 -1 11454 -381101870 1409811521 285357567 1599685229
        -1243508084 -7511588 273464046 523764795</internalNodes>
      <leafValues>
        -4.3354514241218567e-01 3.1588694453239441e-01</leafValues></_>
    <_>
      <internalNodes>
        0 -1 827 -76551473 1346763562 -1047027935 -748670621 -1906769917
        309387174 1932543235 2046031847</internalNodes>
      <leafValues>
        -3.9575356245040894e-01 3.5274618864059448e-01</leafValues></_>
    <_>
      <internalNodes>
        0 -1 8004 -612312928 -195524467 -1296493891 288166943 -771687288
        -99287008 989874831 1528758283</internalNodes>
      <leafValues>
        -4.3992602825164795e-01 3.0351495742797852e-01</leafValues></_>
    <_>
      <internalNodes>
        0 -1 12204 -884156164 -216930164 1970353727 831750649 1630599678
        -1109524437 120196863 54200359</internalNodes>
      <leafValues>
        -4.6866184473037720e-01 2.6833984255790710e-01</leafValues></_>
    <_>
      <internalNodes>
        0 -1 3552 1945369586 -779246877 1517998098 1554502671 532438447
        -735222087 -305165809 -139513061</internalNodes>
      <leafValues>
        -3.4631171822547913e-01 4.1004759073257446e-01</leafValues></_>
    <_>
      <internalNodes>
        0 -1 11392 2140936634 2014124504 -150323205 1342472865 961608635
        -2143366274 126002320 292226859</internalNodes>
      <leafValues>
        -5.9523552656173706e-01 2.2735063731670380e-01</leafValues></_>
    <_>
      <internalNodes>
        0 -1 11364 -573009718 -85752012 1352422527 -2683817 -1101223238
        -1831264151 304351483 193004731</internalNodes>
      <leafValues>
        -4.7761201858520508e-01 2.7883705496788025e-01</leafValues></_>
    <_>
      <internalNodes>
        0 -1 2126 12589450 -1258219085 84941400 858174934 -1878949850
        1369477399 -2136163075 857445147</internalNodes>
      <leafValues>
        -6.8484663963317871e-01 2.1581256389617920e-01</leafValues></_>
    <_>
      <internalNodes>
        0 -1 12229 1567551711 1434723846 746718846 289736084 1407201710
        -1090512234 -930574150 296036166</internalNodes>
      <leafValues>
        -5.0184988975524902e-01 2.8490826487541199e-01</leafValues></_>
    <_>
      <internalNodes>
        0 -1 1204 -610799902 359256138 -1756308514 971051138 273543904
        287307845 354156735 270213123</internalNodes>
      <leafValues>
        -5.4904830455780029e-01 2.5983601808547974e-01</leafValues></_>
    <_>
      <internalNodes>
        0 -1 10979 1430749421 243340820 1846989744 -1174242740 420234016
        -843964075 1471732653 1400403713</internalNodes>
      <leafValues>
        -4.8762938380241394e-01 2.9228904843330383e-01</leafValues></_>
    <_>
      <internalNodes>
        0 -1 8272 -440349070 -544471537 543455312 -1147425000 -474693405
        -359318800 2294002 -886625604</internalNodes>
      <leafValues>
        -3.9464703202247620e-01 3.6677825450897217e-01</leafValues></_></weakClassifiers></stage7>
</opencv_storage>
