<?xml version="1.0"?>
<opencv_storage>
<stage10>
  <maxWeakCount>16</maxWeakCount>
  <stageThreshold>-8.6174601316452026e-01</stageThreshold>
  <weakClassifiers>
    <_>
      <internalNodes>
        0 -1 9996 1968523206 1811969866 -120489030 -521050137
        -1243212624 -1383391521 -757563429 1352297727</internalNodes>
      <leafValues>
        -2.2366710007190704e-01 5.2532494068145752e-01</leafValues></_>
    <_>
      <internalNodes>
        0 -1 497 235929587 -5439512 -1059135308 -762329309 1051537397
        -2095747139 -136506402 -955297957</internalNodes>
      <leafValues>
        -3.3123844861984253e-01 3.6898723244667053e-01</leafValues></_>
    <_>
      <internalNodes>
        0 -1 7991 -268391712 -282708922 1893554894 -2081596342 -33969665
        1820384379 -457621254 -908311498</internalNodes>
      <leafValues>
        -4.1535440087318420e-01 2.7433499693870544e-01</leafValues></_>
    <_>
      <internalNodes>
        0 -1 2146 1543462079 -711043917 524645743 2067096881 -2061220147
        -270966861 1517311815 2029518135</internalNodes>
      <leafValues>
        -3.1124857068061829e-01 3.6522594094276428e-01</leafValues></_>
    <_>
      <internalNodes>
        0 -1 12228 -1658955524 1410954364 701634796 893345069
        -1916246120 -544305089 86646439 252379903</internalNodes>
      <leafValues>
        -4.7491088509559631e-01 2.6006066799163818e-01</leafValues></_>
    <_>
      <internalNodes>
        0 -1 12985 -158832449 -1849178978 1996307901 -870261730
        -1818599523 -106538354 -665019556 -11534580</internalNodes>
      <leafValues>
        -3.2622691988945007e-01 3.8618621230125427e-01</leafValues></_>
    <_>
      <internalNodes>
        0 -1 13050 -2054009332 1349124266 1429746164 1400315094
        578945038 1400317449 36578587 2005864827</internalNodes>
      <leafValues>
        -5.5211430788040161e-01 2.2617125511169434e-01</leafValues></_>
    <_>
      <internalNodes>
        0 -1 3774 1596454679 1263794759 -1944410893 -464388319
        -964982735 -45511422 -1926566281 -1895309449</internalNodes>
      <leafValues>
        -3.6826607584953308e-01 3.5131826996803284e-01</leafValues></_>
    <_>
      <internalNodes>
        0 -1 4856 2014053552 1275605808 193109314 2120733760 201427108
        -270303087 -1467317248 1001096483</internalNodes>
      <leafValues>
        -5.2377593517303467e-01 2.2744525969028473e-01</leafValues></_>
    <_>
      <internalNodes>
        0 -1 13632 -71574494 1560299976 -92089280 -1988003136 1251117582
        672926468 772600642 1208801223</internalNodes>
      <leafValues>
        -4.8949164152145386e-01 2.4055731296539307e-01</leafValues></_>
    <_>
      <internalNodes>
        0 -1 6289 -259784680 -1091960832 -955776766 -1280205754
        -784260598 -1468003701 -819414358 2143812319</internalNodes>
      <leafValues>
        -4.7515758872032166e-01 2.6132115721702576e-01</leafValues></_>
    <_>
      <internalNodes>
        0 -1 9333 -734068544 -735608315 -1392360381 -2063628213
        -652408440 -1466801478 1208164378 724532447</internalNodes>
      <leafValues>
        -5.0886017084121704e-01 2.3630221188068390e-01</leafValues></_>
    <_>
      <internalNodes>
        0 -1 3884 1412910671 -197092077 -1340179151 976377109
        -1078847622 -1570475301 -1073917599 -1125852367</internalNodes>
      <leafValues>
        -3.4743750095367432e-01 3.5405650734901428e-01</leafValues></_>
    <_>
      <internalNodes>
        0 -1 2584 -2103280460 -1140137797 -1274931841 295945892
        -1006611216 1492734357 1277231311 1580811127</internalNodes>
      <leafValues>
        -4.2436233162879944e-01 2.8874996304512024e-01</leafValues></_>
    <_>
      <internalNodes>
        0 -1 12868 2011952313 980362060 2136019039 -14673065 28609880
        725812301 513573434 -1175559572</internalNodes>
      <leafValues>
        -3.3719456195831299e-01 3.8262432813644409e-01</leafValues></_>
    <_>
      <internalNodes>
        0 -1 10302 -604446112 1515094051 -1265351436 37753570 1360221759
        115431762 1307464716 502405843</internalNodes>
      <leafValues>
        -5.8048582077026367e-01 2.3790831863880157e-01</leafValues></_></weakClassifiers></stage10>
</opencv_storage>
