<?xml version="1.0"?>
<opencv_storage>
<stage2>
  <maxWeakCount>8</maxWeakCount>
  <stageThreshold>-7.9142868518829346e-01</stageThreshold>
  <weakClassifiers>
    <_>
      <internalNodes>
        0 -1 4136 1463874752 1965244612 12345 2097746009 128 1342701570
        17826506 922944523</internalNodes>
      <leafValues>
        -4.0011447668075562e-01 6.3461089134216309e-01</leafValues></_>
    <_>
      <internalNodes>
        0 -1 12291 -234831736 -775421816 9224424 -719641522 -1672741752
        594542720 270183118 -10534709</internalNodes>
      <leafValues>
        -4.0060359239578247e-01 5.8973294496536255e-01</leafValues></_>
    <_>
      <internalNodes>
        0 -1 10300 -800001856 1547829264 1094717669 1427177525
        -1732194054 -2013265784 2106363 189727755</internalNodes>
      <leafValues>
        -5.9900933504104614e-01 4.2907014489173889e-01</leafValues></_>
    <_>
      <internalNodes>
        0 -1 2349 -244322381 -211824555 1192612693 -1818523381
        -1513763423 -1327280762 -1299264865 2010598215</internalNodes>
      <leafValues>
        -4.9977982044219971e-01 5.0420385599136353e-01</leafValues></_>
    <_>
      <internalNodes>
        0 -1 11502 1951456464 2031157448 273023571 -1183506432
        -2139075140 -2011671912 1476974847 -1156906613</internalNodes>
      <leafValues>
        -4.2009586095809937e-01 6.0296142101287842e-01</leafValues></_>
    <_>
      <internalNodes>
        0 -1 6902 -1613637168 -774016448 -1022591715 1999655440
        -2146920022 -75278333 436210603 -1617226609</internalNodes>
      <leafValues>
        -3.7249156832695007e-01 6.7040973901748657e-01</leafValues></_>
    <_>
      <internalNodes>
        0 -1 11420 -640105472 -677173997 2072697281 1594819097 862890664
        -760032602 -1311049507 -1291116533</internalNodes>
      <leafValues>
        -4.6615073084831238e-01 5.2224940061569214e-01</leafValues></_>
    <_>
      <internalNodes>
        0 -1 12249 -754931064 -645136384 1359484942 -1246691323
        -258946418 93112453 -1060966677 198150346</internalNodes>
      <leafValues>
        -6.1590367555618286e-01 4.0815162658691406e-01</leafValues></_></weakClassifiers></stage2>
</opencv_storage>
