<?xml version="1.0"?>
<opencv_storage>
<stage17>
  <maxWeakCount>17</maxWeakCount>
  <stageThreshold>-9.0461564064025879e-01</stageThreshold>
  <weakClassifiers>
    <_>
      <internalNodes>
        0 -1 8075 -490665434 -1027334302 47476474 684549501 38810097
        55623576 215813177 68582233</internalNodes>
      <leafValues>
        -4.8351648449897766e-01 4.4613051414489746e-01</leafValues></_>
    <_>
      <internalNodes>
        0 -1 1980 -269484033 -1083216024 -493091887 -220328975
        1050011385 -1217132722 -1085078020 -208730197</internalNodes>
      <leafValues>
        -2.6858735084533691e-01 3.7441474199295044e-01</leafValues></_>
    <_>
      <internalNodes>
        0 -1 4098 -1319116286 1741794483 1392971374 799058125
        -1437765376 -1394024893 -508288425 -876521131</internalNodes>
      <leafValues>
        -4.4131705164909363e-01 2.1349523961544037e-01</leafValues></_>
    <_>
      <internalNodes>
        0 -1 5496 -673167840 -574088512 956551335 29437036 1065992
        -1163194200 1140867535 185292297</internalNodes>
      <leafValues>
        -4.3173909187316895e-01 2.2801779210567474e-01</leafValues></_>
    <_>
      <internalNodes>
        0 -1 14950 2047857231 -712506712 -100855813 -112207582 780106259
        1565439899 -273714458 -570967209</internalNodes>
      <leafValues>
        -2.3084039986133575e-01 4.1647914052009583e-01</leafValues></_>
    <_>
      <internalNodes>
        0 -1 8049 -47875545 -1046423203 2056630231 1956532603 -385903576
        -102672157 447259277 -17184007</internalNodes>
      <leafValues>
        -2.3383910953998566e-01 4.2285573482513428e-01</leafValues></_>
    <_>
      <internalNodes>
        0 -1 13895 -613696337 92916768 1715941279 1496544243 -2135137289
        -2144489493 1136811504 -2002076950</internalNodes>
      <leafValues>
        -3.0323162674903870e-01 3.3450967073440552e-01</leafValues></_>
    <_>
      <internalNodes>
        0 -1 9398 -1078781443 -184559942 -984006017 2012467193
        -1700228884 1002257375 142377469 -1154860356</internalNodes>
      <leafValues>
        -2.2486545145511627e-01 4.3548443913459778e-01</leafValues></_>
    <_>
      <internalNodes>
        0 -1 4310 -1379939275 1157420799 268255198 2131951282 1603194301
        -1140046447 704578911 -346446249</internalNodes>
      <leafValues>
        -2.7211907505989075e-01 4.1220360994338989e-01</leafValues></_>
    <_>
      <internalNodes>
        0 -1 10280 1431977883 726924523 -990664973 -397432136 2122185968
        -52428803 2142199763 -393661127</internalNodes>
      <leafValues>
        -2.5570505857467651e-01 3.9100900292396545e-01</leafValues></_>
    <_>
      <internalNodes>
        0 -1 6227 1608507515 -16470888 1934671089 -216702878 1573776654
        -39452665 -93835323 -809811969</internalNodes>
      <leafValues>
        -2.2591260075569153e-01 4.8871159553527832e-01</leafValues></_>
    <_>
      <internalNodes>
        0 -1 8175 -1375787416 -320487383 348362904 1798526732 366571941
        27398917 84202688 322080808</internalNodes>
      <leafValues>
        -6.1802351474761963e-01 1.9457848370075226e-01</leafValues></_>
    <_>
      <internalNodes>
        0 -1 13700 1565967479 1785648393 -894400271 -92243581 1238480348
        -1968778105 1468985067 -326312177</internalNodes>
      <leafValues>
        -3.4429562091827393e-01 3.0764192342758179e-01</leafValues></_>
    <_>
      <internalNodes>
        0 -1 13030 -614528700 -74573540 163402045 2077582341 -367888602
        1325912983 984118325 -1346494123</internalNodes>
      <leafValues>
        -3.6154702305793762e-01 3.2628014683723450e-01</leafValues></_>
    <_>
      <internalNodes>
        0 -1 8865 -347232929 969744886 -1574819282 -380522921
        -1118009448 -131930188 1044105654 -176196494</internalNodes>
      <leafValues>
        -2.3803655803203583e-01 4.5171833038330078e-01</leafValues></_>
    <_>
      <internalNodes>
        0 -1 11389 697689468 -1768633212 -86508790 -829695357
        -1535082968 -1226439864 279036352 -869546417</internalNodes>
      <leafValues>
        -3.7829098105430603e-01 2.9912835359573364e-01</leafValues></_>
    <_>
      <internalNodes>
        0 -1 6909 -144640038 2010907266 57893296 354370337 -771715237
        -1321571310 67343803 472601138</internalNodes>
      <leafValues>
        -4.8434171080589294e-01 2.3035420477390289e-01</leafValues></_></weakClassifiers></stage17>
</opencv_storage>
