<?xml version="1.0"?>
<opencv_storage>
<stage24>
  <maxWeakCount>20</maxWeakCount>
  <stageThreshold>-9.8378980159759521e-01</stageThreshold>
  <weakClassifiers>
    <_>
      <internalNodes>
        0 -1 12265 1381140994 145280226 446563604 184438015 -866980137
        -696509235 1560176470 135097591</internalNodes>
      <leafValues>
        -3.4282585978507996e-01 4.5468842983245850e-01</leafValues></_>
    <_>
      <internalNodes>
        0 -1 15483 -1463812741 671804612 417915136 419684323 1868456227
        603027274 1324355617 -116132159</internalNodes>
      <leafValues>
        -2.5040325522422791e-01 3.4721279144287109e-01</leafValues></_>
    <_>
      <internalNodes>
        0 -1 12997 1258162557 1405872879 -605237303 1503887531
        -287413491 2096679100 -642020611 -270510965</internalNodes>
      <leafValues>
        -2.3500704765319824e-01 3.7203043699264526e-01</leafValues></_>
    <_>
      <internalNodes>
        0 -1 7556 -1404889905 -1674177078 -294147499 -1662733055
        612880317 -1464419609 2049515863 1847940096</internalNodes>
      <leafValues>
        -3.4974694252014160e-01 2.5673028826713562e-01</leafValues></_>
    <_>
      <internalNodes>
        0 -1 8121 -554982177 863349420 -1278301897 445222845 92569807
        -115074336 -1232823814 -16851749</internalNodes>
      <leafValues>
        -2.3045486211776733e-01 4.6929207444190979e-01</leafValues></_>
    <_>
      <internalNodes>
        0 -1 11392 1066277816 1480337818 398358525 1889338497 309376958
        1440699382 -1411341086 -1962233910</internalNodes>
      <leafValues>
        -2.9997381567955017e-01 3.1774964928627014e-01</leafValues></_>
    <_>
      <internalNodes>
        0 -1 8181 -21142380 -723032860 -714608267 1494581069 2138326273
        -287579739 -148722383 -1680027662</internalNodes>
      <leafValues>
        -2.8296101093292236e-01 3.6319899559020996e-01</leafValues></_>
    <_>
      <internalNodes>
        0 -1 14429 -5644495 -976281879 -1447179849 19756322 -298356293
        1238299258 -1595031887 -353637201</internalNodes>
      <leafValues>
        -2.2993949055671692e-01 4.2370980978012085e-01</leafValues></_>
    <_>
      <internalNodes>
        0 -1 6869 -938570153 100650390 -1260589220 -561185710
        -1521803216 -1164106988 793657394 -17986240</internalNodes>
      <leafValues>
        -3.4006515145301819e-01 2.9926124215126038e-01</leafValues></_>
    <_>
      <internalNodes>
        0 -1 10415 -224369428 34833412 336215304 523837533 -1064271840
        278810478 364006187 2134267629</internalNodes>
      <leafValues>
        -5.3575360774993896e-01 1.9936347007751465e-01</leafValues></_>
    <_>
      <internalNodes>
        0 -1 1075 -688461724 -1212523876 1785893085 137871586 1250525919
        -34021717 653965199 -724843702</internalNodes>
      <leafValues>
        -2.8024709224700928e-01 3.7242907285690308e-01</leafValues></_>
    <_>
      <internalNodes>
        0 -1 2734 -1087691214 -956030270 -721319675 721777202 1789875374
        975258297 906004170 207442431</internalNodes>
      <leafValues>
        -4.3127438426017761e-01 2.3732002079486847e-01</leafValues></_>
    <_>
      <internalNodes>
        0 -1 4366 -760296633 -1148219231 -638735733 -317611272
        -454590041 -1431604085 -60236013 -906168322</internalNodes>
      <leafValues>
        -1.8481409549713135e-01 5.3932237625122070e-01</leafValues></_>
    <_>
      <internalNodes>
        0 -1 10327 1683270192 827559604 -1564274576 556040208 729154724
        213869568 777154168 561858584</internalNodes>
      <leafValues>
        -5.8201694488525391e-01 1.8118777871131897e-01</leafValues></_>
    <_>
      <internalNodes>
        0 -1 2206 -727427105 -579353179 1904168303 -24092908 -1077589885
        752917907 1538813549 -20448654</internalNodes>
      <leafValues>
        -2.7649414539337158e-01 3.9383494853973389e-01</leafValues></_>
    <_>
      <internalNodes>
        0 -1 7791 -1092669680 2080382610 -1040663789 -324311393
        -581072516 -1423648081 -486879565 -72672210</internalNodes>
      <leafValues>
        -2.4903877079486847e-01 4.3059876561164856e-01</leafValues></_>
    <_>
      <internalNodes>
        0 -1 10202 -1324641021 -705434825 1352881299 1150442179
        856453593 814756780 1844170993 715350290</internalNodes>
      <leafValues>
        -3.7878498435020447e-01 2.9658246040344238e-01</leafValues></_>
    <_>
      <internalNodes>
        0 -1 2974 -469584094 366446132 873812276 -1294659420 -670714356
        1220577872 583623670 1180481791</internalNodes>
      <leafValues>
        -4.3467465043067932e-01 2.6201364398002625e-01</leafValues></_>
    <_>
      <internalNodes>
        0 -1 9197 -820866309 2036396969 -603674641 -275845553
        -1682181376 -323140957 -1678657064 -104892151</internalNodes>
      <leafValues>
        -2.5234967470169067e-01 4.5746549963951111e-01</leafValues></_>
    <_>
      <internalNodes>
        0 -1 12229 1433754699 2139244884 -1356846402 1603097058
        -1712155708 -662691076 -1397051206 -604708818</internalNodes>
      <leafValues>
        -2.7487975358963013e-01 3.9351493120193481e-01</leafValues></_></weakClassifiers></stage24>
</opencv_storage>
