<?xml version="1.0"?>
<opencv_storage>
<stage4>
  <maxWeakCount>11</maxWeakCount>
  <stageThreshold>-9.7326755523681641e-01</stageThreshold>
  <weakClassifiers>
    <_>
      <internalNodes>
        0 -1 2185 -1015699481 -654080197 -252529154 1352860983
        1098352111 905290933 -151787785 1945569279</internalNodes>
      <leafValues>
        -3.3041575551033020e-01 6.2416106462478638e-01</leafValues></_>
    <_>
      <internalNodes>
        0 -1 11228 -548415913 244107334 -486715706 -389328917
        -1795227394 229995519 -389721906 -857778337</internalNodes>
      <leafValues>
        -4.1618713736534119e-01 4.8463666439056396e-01</leafValues></_>
    <_>
      <internalNodes>
        0 -1 365 -620757001 127776193 -2147351833 -1340667253 134486995
        -1565168719 1676146639 1396133507</internalNodes>
      <leafValues>
        -4.4747766852378845e-01 3.5638540983200073e-01</leafValues></_>
    <_>
      <internalNodes>
        0 -1 12270 -1818214088 -1518959632 -1933918980 -37845964
        -579691011 -1975866134 732685115 1066014766</internalNodes>
      <leafValues>
        -5.3137147426605225e-01 2.8258389234542847e-01</leafValues></_>
    <_>
      <internalNodes>
        0 -1 12124 1442301859 -536502580 1442168110 -362306629
        -1848253732 -11164193 -588211073 -464531077</internalNodes>
      <leafValues>
        -3.9772209525108337e-01 4.2130121588706970e-01</leafValues></_>
    <_>
      <internalNodes>
        0 -1 12249 -1213160839 -16962272 -1522995457 -1246165975
        -19867905 -1917089327 -1696290066 -1679359288</internalNodes>
      <leafValues>
        -4.0714105963706970e-01 4.1807362437248230e-01</leafValues></_>
    <_>
      <internalNodes>
        0 -1 5426 -486576437 1845583803 -980791118 156801136 -939822916
        -1550247236 -282193360 1476394810</internalNodes>
      <leafValues>
        -4.8300576210021973e-01 3.3771312236785889e-01</leafValues></_>
    <_>
      <internalNodes>
        0 -1 7802 -641363242 -310046370 -1302457862 -1968873202
        -1789090051 -1381718290 -1851196168 1939601886</internalNodes>
      <leafValues>
        -4.6871143579483032e-01 3.5569027066230774e-01</leafValues></_>
    <_>
      <internalNodes>
        0 -1 10359 -1245957544 -240806248 -891649317 -650181415
        -1273446978 -936789248 -1812603991 1059262242</internalNodes>
      <leafValues>
        -5.1050072908401489e-01 3.2933983206748962e-01</leafValues></_>
    <_>
      <internalNodes>
        0 -1 9312 -5596408 -1422815980 1986281220 1609846056 221394078
        -482726758 2016491419 33953034</internalNodes>
      <leafValues>
        -5.8019918203353882e-01 2.9640144109725952e-01</leafValues></_>
    <_>
      <internalNodes>
        0 -1 4000 -385884006 -1805988582 2068963951 1971124798
        2096836960 -22382765 1937765442 -1157257</internalNodes>
      <leafValues>
        -4.9619990587234497e-01 3.3064472675323486e-01</leafValues></_></weakClassifiers></stage4>
</opencv_storage>
