<?xml version="1.0"?>
<opencv_storage>
<stage0>
  <maxWeakCount>8</maxWeakCount>
  <stageThreshold>-1.0368392467498779e+00</stageThreshold>
  <weakClassifiers>
    <_>
      <internalNodes>
        0 -1 6916 1595432912 1349529816 320011227 287769165 252756136
        268587777 438444459 750387</internalNodes>
      <leafValues>
        -5.7112824916839600e-01 6.1556965112686157e-01</leafValues></_>
    <_>
      <internalNodes>
        0 -1 8128 -717170448 -787935080 1342181461 526192669 -184516456
        -1181607760 1224776619 -1692860293</internalNodes>
      <leafValues>
        -4.2242333292961121e-01 6.1578619480133057e-01</leafValues></_>
    <_>
      <internalNodes>
        0 -1 10077 -247085338 -1484440092 -1740487038 -1566195038
        -773795393 227268815 -662071109 -1060377857</internalNodes>
      <leafValues>
        -5.3202688694000244e-01 5.0192499160766602e-01</leafValues></_>
    <_>
      <internalNodes>
        0 -1 11364 -53944120 1473351696 1354779738 1506220240
        -1467970838 1355284616 809937131 -2088566101</internalNodes>
      <leafValues>
        -5.1325327157974243e-01 5.0955337285995483e-01</leafValues></_>
    <_>
      <internalNodes>
        0 -1 12249 -267333472 -719323128 -1785671496 830537752
        -699346241 -645365631 -1412777797 -1819606326</internalNodes>
      <leafValues>
        -5.0312757492065430e-01 5.1556456089019775e-01</leafValues></_>
    <_>
      <internalNodes>
        0 -1 2612 -609242982 -206911793 -149055011 -574125061 1888835231
        1163634450 -1362116609 1289747451</internalNodes>
      <leafValues>
        -5.3259265422821045e-01 4.7653397917747498e-01</leafValues></_>
    <_>
      <internalNodes>
        0 -1 13050 -712516404 1572552708 1412970180 1430061282
        -785662310 -1862064504 36941823 -73461253</internalNodes>
      <leafValues>
        -4.8370695114135742e-01 5.9686225652694702e-01</leafValues></_>
    <_>
      <internalNodes>
        0 -1 8283 1481036018 280232019 285291293 22761805 302683040
        -1189085023 1509965498 453841487</internalNodes>
      <leafValues>
        -5.4059684276580811e-01 4.7408348321914673e-01</leafValues></_></weakClassifiers></stage0>
</opencv_storage>
