<?xml version="1.0"?>
<opencv_storage>
<stage11>
  <maxWeakCount>19</maxWeakCount>
  <stageThreshold>-9.9185407161712646e-01</stageThreshold>
  <weakClassifiers>
    <_>
      <internalNodes>
        0 -1 12905 2068797397 551873870 1314895758 -500838938
        -1884461882 511552247 -431165746 -999299745</internalNodes>
      <leafValues>
        -9.9188454449176788e-02 5.8699101209640503e-01</leafValues></_>
    <_>
      <internalNodes>
        0 -1 552 1858076223 -268981655 -1034452655 -141310721 245224725
        -181188255 -688568985 -134230673</internalNodes>
      <leafValues>
        -2.6241233944892883e-01 4.1222178936004639e-01</leafValues></_>
    <_>
      <internalNodes>
        0 -1 11023 -2017221863 1078194645 -134807553 -1573980754
        1566000982 -78185167 -80598727 -1145292027</internalNodes>
      <leafValues>
        -3.2373484969139099e-01 3.4493097662925720e-01</leafValues></_>
    <_>
      <internalNodes>
        0 -1 5577 -1101337050 709331802 -1596030438 -1344641171
        1430300437 -820016368 1474446106 2012615716</internalNodes>
      <leafValues>
        -5.1255792379379272e-01 2.1498955786228180e-01</leafValues></_>
    <_>
      <internalNodes>
        0 -1 6499 122463992 385908897 2047800050 -53836382 -976943852
        -989845916 -150722881 363012791</internalNodes>
      <leafValues>
        -5.2152949571609497e-01 1.8590620160102844e-01</leafValues></_>
    <_>
      <internalNodes>
        0 -1 12249 1403029528 -609735671 -1232046465 -1111949161
        -1638869281 -875568405 -1899353380 518987500</internalNodes>
      <leafValues>
        -4.8677513003349304e-01 1.9993034005165100e-01</leafValues></_>
    <_>
      <internalNodes>
        0 -1 2867 -1867514586 -746470411 -81411133 -1790541298
        -2133593147 33703281 421983711 55017602</internalNodes>
      <leafValues>
        -4.2269217967987061e-01 2.6970058679580688e-01</leafValues></_>
    <_>
      <internalNodes>
        0 -1 11360 -173058923 1937899210 1810844867 -829423761 595031418
        1950433279 853013718 -1259376690</internalNodes>
      <leafValues>
        -3.1708493828773499e-01 3.5179993510246277e-01</leafValues></_>
    <_>
      <internalNodes>
        0 -1 12250 1576707309 -570487109 1823419183 -1109879472
        -261738498 -1083921939 -1178980433 -1413903634</internalNodes>
      <leafValues>
        -2.7661567926406860e-01 4.0939909219741821e-01</leafValues></_>
    <_>
      <internalNodes>
        0 -1 7880 1140525572 254615188 -117404305 529382032 -2022086160
        -1021318962 1560815754 1097821730</internalNodes>
      <leafValues>
        -5.1789808273315430e-01 2.3197223246097565e-01</leafValues></_>
    <_>
      <internalNodes>
        0 -1 8167 -305048484 -203828216 -2093734465 1534543257
        -363681589 -1075127995 1378974139 -1388324195</internalNodes>
      <leafValues>
        -3.1495451927185059e-01 3.5739532113075256e-01</leafValues></_>
    <_>
      <internalNodes>
        0 -1 3538 -510664721 -1935033179 1950021330 -8190203 795316223
        -1568129163 2029543703 1071865793</internalNodes>
      <leafValues>
        -2.9701030254364014e-01 3.8681668043136597e-01</leafValues></_>
    <_>
      <internalNodes>
        0 -1 13673 1715405103 -419465430 -233375785 -601722052 254202498
        -277388953 -1548550198 -838690997</internalNodes>
      <leafValues>
        -3.5494276881217957e-01 3.4043997526168823e-01</leafValues></_>
    <_>
      <internalNodes>
        0 -1 6806 -318386917 1807447508 -2063216493 520050663 -277006888
        -1083150 1962311478 -82477225</internalNodes>
      <leafValues>
        -2.6234942674636841e-01 4.7036966681480408e-01</leafValues></_>
    <_>
      <internalNodes>
        0 -1 401 2080301003 -739845614 -866427133 -177453021 1257179678
        414523287 -935862485 1878356978</internalNodes>
      <leafValues>
        -3.3501452207565308e-01 3.9130803942680359e-01</leafValues></_>
    <_>
      <internalNodes>
        0 -1 12289 2137128447 -2104498014 -810686240 1133241039
        -2063922904 -809250734 -879225770 -1958367425</internalNodes>
      <leafValues>
        -3.2792273163795471e-01 3.9248183369636536e-01</leafValues></_>
    <_>
      <internalNodes>
        0 -1 565 301971247 -684945482 884076410 1772827895 1169592101
        -42062623 -633619211 -1073794577</internalNodes>
      <leafValues>
        -2.1572388708591461e-01 5.3047174215316772e-01</leafValues></_>
    <_>
      <internalNodes>
        0 -1 13649 1668019787 -353793069 374851546 -486652083
        -1652325230 -305947885 -51881346 -389743736</internalNodes>
      <leafValues>
        -3.6945688724517822e-01 3.4179455041885376e-01</leafValues></_>
    <_>
      <internalNodes>
        0 -1 6902 -13078376 -1722958895 -538567651 -1083752944
        -591907702 -707854870 -1172174581 -6589233</internalNodes>
      <leafValues>
        -3.4219798445701599e-01 3.6442044377326965e-01</leafValues></_></weakClassifiers></stage11>
</opencv_storage>
