<?xml version="1.0"?>
<opencv_storage>
<stage15>
  <maxWeakCount>19</maxWeakCount>
  <stageThreshold>-1.2188538312911987e+00</stageThreshold>
  <weakClassifiers>
    <_>
      <internalNodes>
        0 -1 614 1310708211 708802999 -1548836160 -491523597 64474385
        655480189 586860373 1892892975</internalNodes>
      <leafValues>
        -2.4354501068592072e-01 5.1434201002120972e-01</leafValues></_>
    <_>
      <internalNodes>
        0 -1 12193 1071455709 196021934 -573872803 1074446563 -599335076
        -548263849 -553788843 -882381964</internalNodes>
      <leafValues>
        -2.8007599711418152e-01 3.6800238490104675e-01</leafValues></_>
    <_>
      <internalNodes>
        0 -1 3256 -1894921278 -1075923036 43389020 1951850790 194105333
        -1410905728 630093262 327944460</internalNodes>
      <leafValues>
        -4.3289399147033691e-01 2.1871569752693176e-01</leafValues></_>
    <_>
      <internalNodes>
        0 -1 6895 -1835761640 837801601 -945243363 -64293038 537452971
        2125989264 610604778 1158611048</internalNodes>
      <leafValues>
        -4.1821551322937012e-01 2.2246879339218140e-01</leafValues></_>
    <_>
      <internalNodes>
        0 -1 6798 -964959716 435940627 -2110372314 86996257 -479762934
        -910331359 1948480390 1089922423</internalNodes>
      <leafValues>
        -4.6139737963676453e-01 2.1169146895408630e-01</leafValues></_>
    <_>
      <internalNodes>
        0 -1 12956 1152097047 -1211323380 1016839624 -2102424092
        -1160780730 422567349 -329438562 1144903343</internalNodes>
      <leafValues>
        -4.0816056728363037e-01 2.3984770476818085e-01</leafValues></_>
    <_>
      <internalNodes>
        0 -1 15428 -486015649 1430764009 -1373737430 -449971392
        859555207 -69863779 1516796867 -302121479</internalNodes>
      <leafValues>
        -2.3933437466621399e-01 4.4445163011550903e-01</leafValues></_>
    <_>
      <internalNodes>
        0 -1 13107 1916278973 1601455736 -1683789607 1482498298
        -1470916985 -1168634179 -140490839 -537934700</internalNodes>
      <leafValues>
        -2.4839383363723755e-01 4.0851739048957825e-01</leafValues></_>
    <_>
      <internalNodes>
        0 -1 5567 -825951032 1510948949 630297839 1853328464 -593298999
        -851758975 1283494059 1512781592</internalNodes>
      <leafValues>
        -3.5216701030731201e-01 3.0346080660820007e-01</leafValues></_>
    <_>
      <internalNodes>
        0 -1 478 409909833 1015214931 67502258 948736897 686001925
        -924324785 720081666 1330435007</internalNodes>
      <leafValues>
        -4.0533909201622009e-01 2.4909777939319611e-01</leafValues></_>
    <_>
      <internalNodes>
        0 -1 8897 592128775 -804077184 -162107017 -996703901 167747861
        -1129852579 -4786384 -166243515</internalNodes>
      <leafValues>
        -3.3907938003540039e-01 3.0922833085060120e-01</leafValues></_>
    <_>
      <internalNodes>
        0 -1 12249 829600808 2038237801 335071121 1035534579 -161967362
        -844498186 465727166 -728788340</internalNodes>
      <leafValues>
        -3.4261849522590637e-01 3.1979224085807800e-01</leafValues></_>
    <_>
      <internalNodes>
        0 -1 2605 963702765 -1102119954 1521450995 1954632975 -816982521
        176782990 -1929519917 -396462283</internalNodes>
      <leafValues>
        -3.1572088599205017e-01 3.4895738959312439e-01</leafValues></_>
    <_>
      <internalNodes>
        0 -1 5127 1360979775 932481219 1723851119 -1714045597 -203461675
        -555507465 -1193439275 -323162169</internalNodes>
      <leafValues>
        -2.4949055910110474e-01 4.3429172039031982e-01</leafValues></_>
    <_>
      <internalNodes>
        0 -1 9341 -1618312528 -96463 1414678372 -7559 -1785298296
        573969998 809699977 257687880</internalNodes>
      <leafValues>
        -4.7187882661819458e-01 2.4998025596141815e-01</leafValues></_>
    <_>
      <internalNodes>
        0 -1 12809 -915462083 -253697874 1903062491 -114661489
        2072201634 -1076443168 -48994318 -645764338</internalNodes>
      <leafValues>
        -3.2567259669303894e-01 3.3756124973297119e-01</leafValues></_>
    <_>
      <internalNodes>
        0 -1 9374 1622031728 350046745 -1533416008 -680257095 323848644
        692629509 872990817 -283733573</internalNodes>
      <leafValues>
        -3.4685882925987244e-01 3.4124693274497986e-01</leafValues></_>
    <_>
      <internalNodes>
        0 -1 9390 -1155793458 713056140 1451323866 457540489 -1025381805
        676191443 1199112200 1128595081</internalNodes>
      <leafValues>
        -5.3115463256835938e-01 2.0577439665794373e-01</leafValues></_>
    <_>
      <internalNodes>
        0 -1 2579 1182257079 2146446286 -1011847641 -621639049
        1846741691 2004766713 1303580155 -13339390</internalNodes>
      <leafValues>
        -2.9230594635009766e-01 3.9345771074295044e-01</leafValues></_></weakClassifiers></stage15>
</opencv_storage>
