<?xml version="1.0"?>
<opencv_storage>
<stage20>
  <maxWeakCount>20</maxWeakCount>
  <stageThreshold>-8.9615237712860107e-01</stageThreshold>
  <weakClassifiers>
    <_>
      <internalNodes>
        0 -1 12151 2002472611 -1427170822 524068326 -1963163649
        836229654 -1715418627 -569113473 -1006600343</internalNodes>
      <leafValues>
        -1.0712282359600067e-01 5.1956367492675781e-01</leafValues></_>
    <_>
      <internalNodes>
        0 -1 3714 2049439254 -1046158796 -1986671243 1312983377
        1121682449 -1720534027 585844305 -1888482057</internalNodes>
      <leafValues>
        -3.6832484602928162e-01 2.5532630085945129e-01</leafValues></_>
    <_>
      <internalNodes>
        0 -1 13734 -58862233 2037181573 -1267461392 2110651594
        2069387103 1249286919 1786889436 986397419</internalNodes>
      <leafValues>
        -2.6753368973731995e-01 3.0062085390090942e-01</leafValues></_>
    <_>
      <internalNodes>
        0 -1 2587 1044246471 -1298462142 -1224616746 -1636635100
        1519601159 -68240691 -570173619 -275724514</internalNodes>
      <leafValues>
        -2.7856042981147766e-01 2.9778289794921875e-01</leafValues></_>
    <_>
      <internalNodes>
        0 -1 9269 -1034753558 -258214434 -1755326606 960732957 -67765509
        -130582027 -679182889 -106037706</internalNodes>
      <leafValues>
        -2.3924486339092255e-01 3.6200132966041565e-01</leafValues></_>
    <_>
      <internalNodes>
        0 -1 7802 -126490625 2143625086 845628634 -1721423409 501000959
        -1391644930 -740559651 -67121441</internalNodes>
      <leafValues>
        -2.4250933527946472e-01 4.0616998076438904e-01</leafValues></_>
    <_>
      <internalNodes>
        0 -1 8869 244098178 1837537366 1900798806 1819656416 1296456666
        -1396750327 993016466 1297823223</internalNodes>
      <leafValues>
        -4.4929191470146179e-01 2.2491215169429779e-01</leafValues></_>
    <_>
      <internalNodes>
        0 -1 5609 -1857012608 297652690 1089948912 474416069 -1174775144
        -538307941 293605659 1604211442</internalNodes>
      <leafValues>
        -4.0426158905029297e-01 2.4603059887886047e-01</leafValues></_>
    <_>
      <internalNodes>
        0 -1 920 -1051665 -219268125 -2027804968 -414750486 -279677469
        1332692198 1494376957 -541632905</internalNodes>
      <leafValues>
        -2.6222077012062073e-01 3.8127908110618591e-01</leafValues></_>
    <_>
      <internalNodes>
        0 -1 5371 2079055876 494167389 1887597279 91244527 601542132
        -1446607414 1976176981 -110084089</internalNodes>
      <leafValues>
        -3.7622278928756714e-01 2.6864185929298401e-01</leafValues></_>
    <_>
      <internalNodes>
        0 -1 12222 -216585557 -1701850673 -83738384 -119411769
        -2044082243 -1536076144 1686379766 541315920</internalNodes>
      <leafValues>
        -3.6875677108764648e-01 2.6234358549118042e-01</leafValues></_>
    <_>
      <internalNodes>
        0 -1 12225 -1411444873 -782108186 -285233285 -873472054
        -447586961 -25884004 -840482667 -102499893</internalNodes>
      <leafValues>
        -2.3646433651447296e-01 4.2754465341567993e-01</leafValues></_>
    <_>
      <internalNodes>
        0 -1 5733 -408059385 1196379151 -16779529 -728605654 1537061051
        1542694740 1031557374 -394327894</internalNodes>
      <leafValues>
        -2.1938569843769073e-01 4.3803980946540833e-01</leafValues></_>
    <_>
      <internalNodes>
        0 -1 11420 -1667732297 -538949703 -77870656 489634492 872343246
        -138414353 -10755331 -1412449106</internalNodes>
      <leafValues>
        -2.3808430135250092e-01 4.4140440225601196e-01</leafValues></_>
    <_>
      <internalNodes>
        0 -1 4309 -1271449801 -14225116 909634879 2143268981 -1860524387
        -279926669 1062931869 1563653696</internalNodes>
      <leafValues>
        -3.0522733926773071e-01 3.4712046384811401e-01</leafValues></_>
    <_>
      <internalNodes>
        0 -1 6947 -101006811 183283199 -1177428943 -1410895875
        -1997812119 -1015823873 335582199 -1644505995</internalNodes>
      <leafValues>
        -2.9415875673294067e-01 3.7601622939109802e-01</leafValues></_>
    <_>
      <internalNodes>
        0 -1 12920 1138521106 653431345 421056892 -1949371589
        -1021228646 1200869825 1127010596 1039045423</internalNodes>
      <leafValues>
        -3.9603999257087708e-01 2.8440910577774048e-01</leafValues></_>
    <_>
      <internalNodes>
        0 -1 14363 1826590429 -492598357 469655483 -736400152 900447453
        -298914421 1316780005 -794194392</internalNodes>
      <leafValues>
        -3.0217745900154114e-01 3.7117129564285278e-01</leafValues></_>
    <_>
      <internalNodes>
        0 -1 400 2071645069 546853651 -730157312 -605135103 -1543561897
        -1577103849 301958003 -254897933</internalNodes>
      <leafValues>
        -3.0535978078842163e-01 3.5227641463279724e-01</leafValues></_>
    <_>
      <internalNodes>
        0 -1 9023 1532604166 1538522966 1451158359 161672975 -1118500300
        -1513246291 -1716044729 -944831833</internalNodes>
      <leafValues>
        -3.0455133318901062e-01 3.6911305785179138e-01</leafValues></_></weakClassifiers></stage20>
</opencv_storage>
