<?xml version="1.0"?>
<opencv_storage>
<stage23>
  <maxWeakCount>19</maxWeakCount>
  <stageThreshold>-8.2899647951126099e-01</stageThreshold>
  <weakClassifiers>
    <_>
      <internalNodes>
        0 -1 5344 -1561403229 -1254362943 -554180652 550137766 -33707851
        1080527998 -25991453 841025120</internalNodes>
      <leafValues>
        -2.5656223297119141e-01 4.7789996862411499e-01</leafValues></_>
    <_>
      <internalNodes>
        0 -1 646 -608510725 846884640 -819386699 -42987999 -733282068
        -1728686081 1484934799 1580451607</internalNodes>
      <leafValues>
        -2.6419028639793396e-01 3.3861538767814636e-01</leafValues></_>
    <_>
      <internalNodes>
        0 -1 11037 -41949233 -5949016 -589963269 1333088111 -100763954
        -35688354 1920488777 -41978041</internalNodes>
      <leafValues>
        -1.7998903989791870e-01 5.0594633817672729e-01</leafValues></_>
    <_>
      <internalNodes>
        0 -1 3965 -1275218971 -1564367927 -1113139841 -292751528
        -1045930826 -1188785 -479500164 -18191240</internalNodes>
      <leafValues>
        -2.0521971583366394e-01 5.4157108068466187e-01</leafValues></_>
    <_>
      <internalNodes>
        0 -1 2491 -1898215865 -1576929177 -110236525 119050515
        -1204201712 -1161210799 1264727559 -555456701</internalNodes>
      <leafValues>
        -4.7188875079154968e-01 2.6072150468826294e-01</leafValues></_>
    <_>
      <internalNodes>
        0 -1 4088 1557703932 -1418836900 -1842705953 525299026
        1851068400 -1080852128 842050015 468648519</internalNodes>
      <leafValues>
        -3.4176498651504517e-01 2.9939779639244080e-01</leafValues></_>
    <_>
      <internalNodes>
        0 -1 10174 -1120068163 -723813543 -1153860231 -843453447
        -1820239727 -395822404 -510768663 -1144391300</internalNodes>
      <leafValues>
        -2.1335135400295258e-01 5.1020616292953491e-01</leafValues></_>
    <_>
      <internalNodes>
        0 -1 9356 -11484968 600237263 -73269230 -1429256104 135309433
        72376840 914994229 273485105</internalNodes>
      <leafValues>
        -5.6034415960311890e-01 1.8322020769119263e-01</leafValues></_>
    <_>
      <internalNodes>
        0 -1 6867 -645812904 335053976 -99954424 -1991899388 -283733110
        -59786189 -357869432 678366320</internalNodes>
      <leafValues>
        -3.9273548126220703e-01 2.5589340925216675e-01</leafValues></_>
    <_>
      <internalNodes>
        0 -1 8297 -1728341705 -571806415 1007248824 208996646 1365744053
        447921138 -823026535 -11022816</internalNodes>
      <leafValues>
        -2.3131962120532990e-01 4.4771981239318848e-01</leafValues></_>
    <_>
      <internalNodes>
        0 -1 10838 -630934715 -1463378603 -1408514124 1845596597
        273917191 -342454237 -208400052 152049074</internalNodes>
      <leafValues>
        -3.9649325609207153e-01 2.6280182600021362e-01</leafValues></_>
    <_>
      <internalNodes>
        0 -1 11371 842680366 -252175236 -1224020679 462898817 62717119
        -225300943 1883922347 1811998795</internalNodes>
      <leafValues>
        -4.0119189023971558e-01 2.5653284788131714e-01</leafValues></_>
    <_>
      <internalNodes>
        0 -1 12291 -745501283 -923874786 41425336 933960710 -1126171291
        1061695624 519549726 -1183724416</internalNodes>
      <leafValues>
        -2.9057052731513977e-01 3.6600312590599060e-01</leafValues></_>
    <_>
      <internalNodes>
        0 -1 6136 -1799094665 337676112 -286469198 -50605597 -1519060245
        -334778377 1198892470 -840103949</internalNodes>
      <leafValues>
        -2.7585104107856750e-01 3.9307108521461487e-01</leafValues></_>
    <_>
      <internalNodes>
        0 -1 2924 1974599594 1293098003 -902149256 606648201 -1210565660
        1903445049 1543455743 -1608318173</internalNodes>
      <leafValues>
        -3.2287555932998657e-01 3.3753550052642822e-01</leafValues></_>
    <_>
      <internalNodes>
        0 -1 11527 -249173399 1538974688 -1594119553 824198919 553923897
        -1692430415 1741790319 -1981392604</internalNodes>
      <leafValues>
        -2.8786191344261169e-01 3.7157562375068665e-01</leafValues></_>
    <_>
      <internalNodes>
        0 -1 2665 1712771388 187442829 739324017 781895170 -534682884
        597043441 1095004223 1383289427</internalNodes>
      <leafValues>
        -4.5350563526153564e-01 2.3638048768043518e-01</leafValues></_>
    <_>
      <internalNodes>
        0 -1 13703 1846227435 1875061729 -10995293 -1718108548 144575672
        -872464495 -395638674 -655688300</internalNodes>
      <leafValues>
        -2.7610254287719727e-01 3.9789199829101562e-01</leafValues></_>
    <_>
      <internalNodes>
        0 -1 7917 1785386785 -1886665153 -2131158433 -1909209057
        -613437144 145283459 385206992 -979548394</internalNodes>
      <leafValues>
        -3.3618152141571045e-01 3.3211657404899597e-01</leafValues></_></weakClassifiers></stage23>
</opencv_storage>
