<?xml version="1.0"?>
<opencv_storage>
<stage8>
  <maxWeakCount>15</maxWeakCount>
  <stageThreshold>-1.4491055011749268e+00</stageThreshold>
  <weakClassifiers>
    <_>
      <internalNodes>
        0 -1 10224 -213178409 126320618 -622867250 -1565786133
        -605580289 1331686614 -2131241825 -925112353</internalNodes>
      <leafValues>
        -9.6117600798606873e-02 6.7373770475387573e-01</leafValues></_>
    <_>
      <internalNodes>
        0 -1 791 1120920199 -561906697 1398756951 -756370445 -1012680100
        1599281489 1943618263 2002517723</internalNodes>
      <leafValues>
        -4.0330964326858521e-01 3.8733133673667908e-01</leafValues></_>
    <_>
      <internalNodes>
        0 -1 12198 -142661461 1723840451 -146882098 2028797389 569670322
        -281586348 -1896512453 -733481985</internalNodes>
      <leafValues>
        -3.5875254869461060e-01 3.7251320481300354e-01</leafValues></_>
    <_>
      <internalNodes>
        0 -1 10991 -1848158682 67384844 -1743718156 1412843596
        -978166700 -981176044 -1057948466 276782461</internalNodes>
      <leafValues>
        -6.1367642879486084e-01 2.1090918779373169e-01</leafValues></_>
    <_>
      <internalNodes>
        0 -1 12288 -497289737 -897455894 1919863082 -1718625049
        611277278 748403201 1264144891 -56100517</internalNodes>
      <leafValues>
        -2.8262144327163696e-01 4.3980744481086731e-01</leafValues></_>
    <_>
      <internalNodes>
        0 -1 3735 -1841052089 1602460907 -1955979529 -780448139
        -616593939 -1122063195 -595873803 -341064219</internalNodes>
      <leafValues>
        -2.9036200046539307e-01 5.0410193204879761e-01</leafValues></_>
    <_>
      <internalNodes>
        0 -1 531 -136329377 1533858322 -394860784 -101917920 -1174827179
        -1921044159 -978988541 -206573069</internalNodes>
      <leafValues>
        -2.8751730918884277e-01 4.8340314626693726e-01</leafValues></_>
    <_>
      <internalNodes>
        0 -1 10301 -1130693517 -588521869 -79223805 896253813 -342132495
        -385908688 1113911027 2054675268</internalNodes>
      <leafValues>
        -3.9953157305717468e-01 3.7710553407669067e-01</leafValues></_>
    <_>
      <internalNodes>
        0 -1 8016 490717194 1504498673 458249162 1073349921 722628476
        287853434 1709925118 138637167</internalNodes>
      <leafValues>
        -5.5585545301437378e-01 2.6016947627067566e-01</leafValues></_>
    <_>
      <internalNodes>
        0 -1 8237 -361050502 2071555124 1410518452 -1659826876
        -117114184 875611200 1966299950 521399059</internalNodes>
      <leafValues>
        -5.1470971107482910e-01 2.7878621220588684e-01</leafValues></_>
    <_>
      <internalNodes>
        0 -1 5415 2123362855 969000423 -318640292 90195731 -356916537
        -901593979 -1284047285 -1149245681</internalNodes>
      <leafValues>
        -3.1123378872871399e-01 4.4936910271644592e-01</leafValues></_>
    <_>
      <internalNodes>
        0 -1 13618 1665860527 -1027480133 -692930819 -626989826
        686889626 -1411401326 -159613222 -539066583</internalNodes>
      <leafValues>
        -3.5513326525688171e-01 4.3058773875236511e-01</leafValues></_>
    <_>
      <internalNodes>
        0 -1 10053 1149488075 1497628483 118889233 -1810442265 266144960
        -17447965 1579272906 -771353753</internalNodes>
      <leafValues>
        -3.5045161843299866e-01 4.2320975661277771e-01</leafValues></_>
    <_>
      <internalNodes>
        0 -1 13807 -540947621 1286376971 -352749296 -1953765070
        2102488065 2014660257 1782802315 -870065169</internalNodes>
      <leafValues>
        -3.1022477149963379e-01 4.5359900593757629e-01</leafValues></_>
    <_>
      <internalNodes>
        0 -1 6551 -836799665 -5492602 1784825438 -655421489 -2062699080
        -1926876243 -922829187 -74478849</internalNodes>
      <leafValues>
        -3.0914753675460815e-01 4.9008035659790039e-01</leafValues></_></weakClassifiers></stage8>
</opencv_storage>
