<?xml version="1.0"?>
<opencv_storage>
<stage19>
  <maxWeakCount>22</maxWeakCount>
  <stageThreshold>-1.0093840360641479e+00</stageThreshold>
  <weakClassifiers>
    <_>
      <internalNodes>
        0 -1 3737 1343291590 -1686102659 -1425835465 -1876516815
        -2068051163 1999051831 -588628960 394925374</internalNodes>
      <leafValues>
        -3.5103926062583923e-01 4.4877287745475769e-01</leafValues></_>
    <_>
      <internalNodes>
        0 -1 2576 -497559820 1591634103 -1214911505 -1210306822
        1411469809 -1566474943 591545791 549131063</internalNodes>
      <leafValues>
        -3.1243345141410828e-01 2.8412243723869324e-01</leafValues></_>
    <_>
      <internalNodes>
        0 -1 12903 -1747885193 1189533996 -1328540930 915888885
        1437268108 -1111813703 879163511 -1120416567</internalNodes>
      <leafValues>
        -3.1565070152282715e-01 2.7854108810424805e-01</leafValues></_>
    <_>
      <internalNodes>
        0 -1 13050 -1660794268 -580181894 338720124 494087365 868689869
        -1878326461 705300873 1487106271</internalNodes>
      <leafValues>
        -4.2460590600967407e-01 2.1430388092994690e-01</leafValues></_>
    <_>
      <internalNodes>
        0 -1 14833 681592847 -861694164 -1576685965 1157869269
        2013128361 2092114342 1289307496 -1072570368</internalNodes>
      <leafValues>
        -3.2992750406265259e-01 2.6843082904815674e-01</leafValues></_>
    <_>
      <internalNodes>
        0 -1 12214 -1359022193 1376747171 -1346415311 -14275921
        -1292390619 -18263328 -1488994383 -43015464</internalNodes>
      <leafValues>
        -2.5488215684890747e-01 4.1617053747177124e-01</leafValues></_>
    <_>
      <internalNodes>
        0 -1 14926 -1391883852 -1846228440 -1986544207 428428356
        143282778 -1434279319 -1732342527 147474342</internalNodes>
      <leafValues>
        -3.3984330296516418e-01 2.8459951281547546e-01</leafValues></_>
    <_>
      <internalNodes>
        0 -1 5189 -1575488061 1260079112 -1189499594 1093310302
        1419553153 -418514068 -85268534 -952481841</internalNodes>
      <leafValues>
        -3.3286362886428833e-01 2.9662746191024780e-01</leafValues></_>
    <_>
      <internalNodes>
        0 -1 656 -551529762 -771599688 -2112763613 -1535108063
        -1977591576 -1905978130 846220879 1984419699</internalNodes>
      <leafValues>
        -3.9130094647407532e-01 2.5558659434318542e-01</leafValues></_>
    <_>
      <internalNodes>
        0 -1 8139 -142773182 -2145533749 339522167 -1298319583 -244645
        -940063463 1590879479 -1953720523</internalNodes>
      <leafValues>
        -3.0051138997077942e-01 3.3922919631004333e-01</leafValues></_>
    <_>
      <internalNodes>
        0 -1 7057 475758865 -809948781 33488699 -781665254 -2077050433
        -822100571 433831356 -168567639</internalNodes>
      <leafValues>
        -2.4900193512439728e-01 4.2595300078392029e-01</leafValues></_>
    <_>
      <internalNodes>
        0 -1 2536 -244732523 2096857767 -1395408909 -1658980753
        -312605488 -102994703 221988303 -313579811</internalNodes>
      <leafValues>
        -2.2701737284660339e-01 4.4276949763298035e-01</leafValues></_>
    <_>
      <internalNodes>
        0 -1 13005 -356526113 -39747764 1553465902 -1953768060
        1450966733 -1450930607 1082619779 -894665241</internalNodes>
      <leafValues>
        -2.6336777210235596e-01 3.7758034467697144e-01</leafValues></_>
    <_>
      <internalNodes>
        0 -1 5541 -342710 151374629 216827956 1641976213 726648135
        -219017072 604218505 -768562109</internalNodes>
      <leafValues>
        -3.6249446868896484e-01 2.8724464774131775e-01</leafValues></_>
    <_>
      <internalNodes>
        0 -1 9404 959142361 1579697310 1901894757 406643800 -1557888221
        -1893990398 158833899 726441216</internalNodes>
      <leafValues>
        -3.6038711667060852e-01 2.9496842622756958e-01</leafValues></_>
    <_>
      <internalNodes>
        0 -1 14961 -154796259 1343212527 -415519191 866806571 444892587
        348123067 -1744988380 -1415577861</internalNodes>
      <leafValues>
        -2.2963957488536835e-01 4.6261993050575256e-01</leafValues></_>
    <_>
      <internalNodes>
        0 -1 12206 1455047784 282341898 -1400788273 1230013347 186788560
        1795737808 440449712 500081800</internalNodes>
      <leafValues>
        -5.0390934944152832e-01 2.1288281679153442e-01</leafValues></_>
    <_>
      <internalNodes>
        0 -1 10262 -42016256 -1063086792 337347600 -325576571 1792958398
        389199991 1820220731 119432711</internalNodes>
      <leafValues>
        -4.8667955398559570e-01 2.1609672904014587e-01</leafValues></_>
    <_>
      <internalNodes>
        0 -1 1019 -1848729 1975686683 -1457131969 -1409762460 1016923811
        577678787 2029211135 -537174036</internalNodes>
      <leafValues>
        -2.6042321324348450e-01 4.1781127452850342e-01</leafValues></_>
    <_>
      <internalNodes>
        0 -1 8279 -63378932 -811745265 1367499186 -1070623757
        -1126630274 -1608987496 -1321173835 -2087474979</internalNodes>
      <leafValues>
        -3.3864167332649231e-01 3.2027131319046021e-01</leafValues></_>
    <_>
      <internalNodes>
        0 -1 7899 -1280857504 -1809474762 -1573270888 2090298513
        93952732 -1527816080 1669395966 1469843706</internalNodes>
      <leafValues>
        -4.6685272455215454e-01 2.4209827184677124e-01</leafValues></_>
    <_>
      <internalNodes>
        0 -1 5404 1443133947 -551701160 270659445 496076859 -1432339208
        -627281855 34624379 2032075583</internalNodes>
      <leafValues>
        -3.1606048345565796e-01 3.4755650162696838e-01</leafValues></_></weakClassifiers></stage19>
</opencv_storage>
