<?xml version="1.0"?>
<opencv_storage>
<stage14>
  <maxWeakCount>19</maxWeakCount>
  <stageThreshold>-1.1585940122604370e+00</stageThreshold>
  <weakClassifiers>
    <_>
      <internalNodes>
        0 -1 5239 -1438129369 -1401424070 -1745048012 -2075603397
        -2058025149 1459056447 -453081777 1928169147</internalNodes>
      <leafValues>
        -1.5314285457134247e-01 5.3364706039428711e-01</leafValues></_>
    <_>
      <internalNodes>
        0 -1 4078 -1263477560 -955516246 333274952 1374190411 -269498901
        118487238 -857785921 1208022638</internalNodes>
      <leafValues>
        -5.0426936149597168e-01 2.2457438707351685e-01</leafValues></_>
    <_>
      <internalNodes>
        0 -1 9910 1908474758 -1585088326 -1072139934 -859753096
        832337026 -1383331065 -763871522 1364330190</internalNodes>
      <leafValues>
        -4.8016223311424255e-01 2.0275968313217163e-01</leafValues></_>
    <_>
      <internalNodes>
        0 -1 6788 -651951395 -368115298 1540736093 -775056195 -16569974
        -1146286966 922821055 -150916369</internalNodes>
      <leafValues>
        -2.5635391473770142e-01 4.0913057327270508e-01</leafValues></_>
    <_>
      <internalNodes>
        0 -1 12278 -1279603791 -769487320 -315232357 -1651955523
        1235422138 1698811769 -1304723790 -475181444</internalNodes>
      <leafValues>
        -2.8264188766479492e-01 3.5410109162330627e-01</leafValues></_>
    <_>
      <internalNodes>
        0 -1 14257 255490301 -223271695 1591257437 -342155066 1607346425
        1574408177 -1079283928 -402536320</internalNodes>
      <leafValues>
        -3.4368565678596497e-01 3.1030923128128052e-01</leafValues></_>
    <_>
      <internalNodes>
        0 -1 2667 -1225 1608530719 678405941 -1090861244 1130300629
        1197798431 1259737087 1128364562</internalNodes>
      <leafValues>
        -3.2799828052520752e-01 3.0689746141433716e-01</leafValues></_>
    <_>
      <internalNodes>
        0 -1 10332 -671482561 -1548512867 -1258753732 -337995350
        -1703159049 -1191620767 896728712 -1440090080</internalNodes>
      <leafValues>
        -2.4464370310306549e-01 4.4303187727928162e-01</leafValues></_>
    <_>
      <internalNodes>
        0 -1 9702 807260756 -466534593 -227262753 -327753739 1488050324
        1624242643 -88556801 847585350</internalNodes>
      <leafValues>
        -4.3069750070571899e-01 2.7030116319656372e-01</leafValues></_>
    <_>
      <internalNodes>
        0 -1 11162 -954760527 -241007183 760275684 -405356349 -685066812
        776503940 -948677741 -137098993</internalNodes>
      <leafValues>
        -3.0408006906509399e-01 3.7353080511093140e-01</leafValues></_>
    <_>
      <internalNodes>
        0 -1 5125 679217849 356548933 -2128158800 1885503844 14822996
        -318421387 1805667120 4869727</internalNodes>
      <leafValues>
        -5.2286171913146973e-01 2.1976882219314575e-01</leafValues></_>
    <_>
      <internalNodes>
        0 -1 11332 -384249640 -64150508 -1397058156 2130706717 950543615
        -1758880101 -2058850099 218628363</internalNodes>
      <leafValues>
        -4.5979595184326172e-01 2.4842199683189392e-01</leafValues></_>
    <_>
      <internalNodes>
        0 -1 13081 -536886289 1392766123 886175097 -1825323585
        -1151950113 -362695754 1409486495 -68692225</internalNodes>
      <leafValues>
        -2.1275320649147034e-01 5.6476300954818726e-01</leafValues></_>
    <_>
      <internalNodes>
        0 -1 13071 -255743796 -611499989 1032040108 1502770040
        -1803450318 -1971249163 291317108 57153467</internalNodes>
      <leafValues>
        -4.7134736180305481e-01 2.5113978981971741e-01</leafValues></_>
    <_>
      <internalNodes>
        0 -1 15467 -154179758 1483374939 -924652024 23738505 -839064753
        434157374 -336525560 -1951404147</internalNodes>
      <leafValues>
        -3.5833761096000671e-01 3.1140109896659851e-01</leafValues></_>
    <_>
      <internalNodes>
        0 -1 9392 -719927848 -939959975 1052275701 -255899599
        -1115517963 876195124 1913057272 -1616245608</internalNodes>
      <leafValues>
        -3.1547415256500244e-01 3.6443623900413513e-01</leafValues></_>
    <_>
      <internalNodes>
        0 -1 12747 1870087639 -2008011590 255533045 -979207053 744230354
        -1153810571 -769483301 -982221024</internalNodes>
      <leafValues>
        -3.1356784701347351e-01 3.7711083889007568e-01</leafValues></_>
    <_>
      <internalNodes>
        0 -1 7526 -548799958 1275134052 573604440 268504153 -1005867808
        -322471670 -1758810595 1740190571</internalNodes>
      <leafValues>
        -4.8109206557273865e-01 2.3590035736560822e-01</leafValues></_>
    <_>
      <internalNodes>
        0 -1 8136 -980927286 2017091670 1240604029 -100910977 -299195604
        -88099142 -1158587274 -72469905</internalNodes>
      <leafValues>
        -3.1418839097023010e-01 3.9629384875297546e-01</leafValues></_></weakClassifiers></stage14>
</opencv_storage>
