<?xml version="1.0"?>
<opencv_storage>
<stage13>
  <maxWeakCount>18</maxWeakCount>
  <stageThreshold>-9.2159163951873779e-01</stageThreshold>
  <weakClassifiers>
    <_>
      <internalNodes>
        0 -1 3555 1624515298 -578811384 1924282032 830805383 89406119
        -1918552577 49454333 321886655</internalNodes>
      <leafValues>
        -3.1215971708297729e-01 4.7856268286705017e-01</leafValues></_>
    <_>
      <internalNodes>
        0 -1 10990 -202640436 541364446 -1299647746 2001819888
        1404760412 -815922838 -1815903233 1030977915</internalNodes>
      <leafValues>
        -3.7351706624031067e-01 2.8864824771881104e-01</leafValues></_>
    <_>
      <internalNodes>
        0 -1 1028 -1049 1980891131 -272644570 -1300694074 1309476359
        1205206971 -478157681 -683410314</internalNodes>
      <leafValues>
        -2.7222040295600891e-01 3.7791168689727783e-01</leafValues></_>
    <_>
      <internalNodes>
        0 -1 5326 -167271901 1023757505 2098247647 -1790583861
        -1527911795 -688863791 -78221099 -1337567421</internalNodes>
      <leafValues>
        -3.3542305231094360e-01 3.0959764122962952e-01</leafValues></_>
    <_>
      <internalNodes>
        0 -1 6748 -888651552 -648269672 -669950503 1427149321 1209139848
        2110480456 1090719883 1534005536</internalNodes>
      <leafValues>
        -4.6201398968696594e-01 2.4017873406410217e-01</leafValues></_>
    <_>
      <internalNodes>
        0 -1 14454 2083443695 17484426 -58999301 1370486634 -772903428
        -623908282 -85044839 -658771778</internalNodes>
      <leafValues>
        -2.7974835038185120e-01 3.9801114797592163e-01</leafValues></_>
    <_>
      <internalNodes>
        0 -1 9374 -122759723 -1455601705 -302842371 -13550211 453549561
        -1710530439 1064347791 -2368005</internalNodes>
      <leafValues>
        -2.4763807654380798e-01 4.9014744162559509e-01</leafValues></_>
    <_>
      <internalNodes>
        0 -1 5637 -51360575 1892288029 272915001 970065737 -1171781496
        -1200740432 1630013627 960954713</internalNodes>
      <leafValues>
        -3.3340296149253845e-01 3.3547973632812500e-01</leafValues></_>
    <_>
      <internalNodes>
        0 -1 13711 -11028553 2102262766 -21530882 -1863017778 253747356
        -1348763766 1779367143 -922778169</internalNodes>
      <leafValues>
        -2.9982629418373108e-01 3.9710623025894165e-01</leafValues></_>
    <_>
      <internalNodes>
        0 -1 9300 -279448826 -2101919367 -40302386 -979085484 1476743424
        193953767 1023957519 1628196980</internalNodes>
      <leafValues>
        -5.5604195594787598e-01 2.1150684356689453e-01</leafValues></_>
    <_>
      <internalNodes>
        0 -1 9431 -1574511405 463919051 1212214715 1105248019
        -1636917513 -1157413873 -1635837384 -1471805869</internalNodes>
      <leafValues>
        -3.0093961954116821e-01 3.8619461655616760e-01</leafValues></_>
    <_>
      <internalNodes>
        0 -1 12204 -135726496 1400619620 -214658765 1373297309 741662037
        -1083272266 162269503 1054378667</internalNodes>
      <leafValues>
        -4.0598741173744202e-01 2.7676478028297424e-01</leafValues></_>
    <_>
      <internalNodes>
        0 -1 5587 -5385141 1670336514 1304821811 57948322 -1349888314
        1925962155 -1004391970 822214011</internalNodes>
      <leafValues>
        -3.8742482662200928e-01 2.8614962100982666e-01</leafValues></_>
    <_>
      <internalNodes>
        0 -1 6937 937823888 953900240 -619919600 -1727911311 -814729088
        -1900494070 1424051129 1961969953</internalNodes>
      <leafValues>
        -4.5293962955474854e-01 2.5481116771697998e-01</leafValues></_>
    <_>
      <internalNodes>
        0 -1 7617 2062680009 1997261963 1325534034 1426992069
        -1648675668 -309603040 501876834 -257546777</internalNodes>
      <leafValues>
        -3.4555280208587646e-01 3.4299015998840332e-01</leafValues></_>
    <_>
      <internalNodes>
        0 -1 12333 1284351165 -4652624 1861340341 -235462573 196798387
        -1348390518 2081604605 -791029538</internalNodes>
      <leafValues>
        -2.5150352716445923e-01 4.7183060646057129e-01</leafValues></_>
    <_>
      <internalNodes>
        0 -1 658 -254357298 296428687 -813317375 31609680 173638724
        467747502 2020648531 1401673668</internalNodes>
      <leafValues>
        -4.0788114070892334e-01 2.9941326379776001e-01</leafValues></_>
    <_>
      <internalNodes>
        0 -1 4136 -1555903136 1437556932 743714041 1143688858 470845608
        -1232731700 268438527 1733062192</internalNodes>
      <leafValues>
        -4.6564275026321411e-01 2.5150892138481140e-01</leafValues></_></weakClassifiers></stage13>
</opencv_storage>
