<?xml version="1.0"?>
<opencv_storage>
<cascade>
  <stageType>BOOST</stageType>
  <featureType>LBP</featureType>
  <height>40</height>
  <width>40</width>
  <stageParams>
    <boostType>GAB</boostType>
    <minHitRate>9.9900001287460327e-01</minHitRate>
    <maxFalseAlarm>5.0000000000000000e-01</maxFalseAlarm>
    <weightTrimRate>9.4999999999999996e-01</weightTrimRate>
    <maxDepth>1</maxDepth>
    <maxWeakCount>100</maxWeakCount></stageParams>
  <featureParams>
    <maxCatCount>256</maxCatCount>
    <featSize>1</featSize></featureParams>
  <stageNum>19</stageNum>
  <stages>
    <!-- stage 0 -->
    <_>
      <maxWeakCount>4</maxWeakCount>
      <stageThreshold>-1.2924193143844604e+00</stageThreshold>
      <weakClassifiers>
        <_>
          <internalNodes>
            0 -1 41 33990186 1009780914 -1097771569 1433532223
            1143319487 816014781 -370648833 -251921475</internalNodes>
          <leafValues>
            -7.7194195985794067e-01 6.8460357189178467e-01</leafValues></_>
        <_>
          <internalNodes>
            0 -1 90 184484527 -733760750 1438888384 -686577916 207032057
            -136213579 528690941 -75681353</internalNodes>
          <leafValues>
            -7.2671490907669067e-01 4.9410426616668701e-01</leafValues></_>
        <_>
          <internalNodes>
            0 -1 26 -92888342 1966137309 -1786440325 -336121 5087478
            687129363 697279483 -35017</internalNodes>
          <leafValues>
            -6.8574893474578857e-01 4.2030346393585205e-01</leafValues></_>
        <_>
          <internalNodes>
            0 -1 177 1917318997 1077958407 -1827480161 -1363098966
            1910498815 -343277397 -900797457 -1929610273</internalNodes>
          <leafValues>
            -5.6455910205841064e-01 5.1970016956329346e-01</leafValues></_></weakClassifiers></_>
    <!-- stage 1 -->
    <_>
      <maxWeakCount>6</maxWeakCount>
      <stageThreshold>-9.8713791370391846e-01</stageThreshold>
      <weakClassifiers>
        <_>
          <internalNodes>
            0 -1 37 -1023431954 -645926913 -549483526 -80019521 16712958
            -1182855169 805244351 -8440009</internalNodes>
          <leafValues>
            -4.8936170339584351e-01 6.9522440433502197e-01</leafValues></_>
        <_>
          <internalNodes>
            0 -1 129 1095352520 1515133021 1443433131 521606433
            -1251240774 -1406532736 -1816987653 -1709244357</internalNodes>
          <leafValues>
            -5.0814533233642578e-01 5.9575623273849487e-01</leafValues></_>
        <_>
          <internalNodes>
            0 -1 21 1077013111 521352023 1192598014 -1083072038
            536961364 1043413643 32370534 1001089003</internalNodes>
          <leafValues>
            -7.5131273269653320e-01 4.1000020503997803e-01</leafValues></_>
        <_>
          <internalNodes>
            0 -1 155 -784217934 352567306 1090536324 55812505 -100532072
            -1197471542 1763949448 -2104556561</internalNodes>
          <leafValues>
            -5.6454485654830933e-01 5.1454991102218628e-01</leafValues></_>
        <_>
          <internalNodes>
            0 -1 167 -1711237904 -653720551 -2146946605 1360088081
            -1303318310 -2134900576 -2136941585 -1962704757</internalNodes>
          <leafValues>
            -4.4567871093750000e-01 6.7965632677078247e-01</leafValues></_>
        <_>
          <internalNodes>
            0 -1 163 -780738320 -182114129 -1018163024 1461179471
            -2144566646 -400538200 141715931 -1978793761</internalNodes>
          <leafValues>
            -4.6850228309631348e-01 6.1917889118194580e-01</leafValues></_></weakClassifiers></_>
    <!-- stage 2 -->
    <_>
      <maxWeakCount>7</maxWeakCount>
      <stageThreshold>-7.5447654724121094e-01</stageThreshold>
      <weakClassifiers>
        <_>
          <internalNodes>
            0 -1 100 -385925251 418885173 -16842753 -54624769
            -1375780993 -1929953409 -1384237569 24461183</internalNodes>
          <leafValues>
            -5.3274816274642944e-01 6.1717194318771362e-01</leafValues></_>
        <_>
          <internalNodes>
            0 -1 149 -788496160 -149352446 1095778513 555029129
            -2004836152 -2013265760 39133 404295843</internalNodes>
          <leafValues>
            -6.2298285961151123e-01 4.7011852264404297e-01</leafValues></_>
        <_>
          <internalNodes>
            0 -1 111 -670506792 -787986288 1235765757 -779810711
            -1375684168 -1870659352 538049951 -1962211249</internalNodes>
          <leafValues>
            -4.8624470829963684e-01 5.6433534622192383e-01</leafValues></_>
        <_>
          <internalNodes>
            0 -1 160 -261045808 2132939024 322965640 83951828 -939474808
            -1608511344 2114184 991297579</internalNodes>
          <leafValues>
            -6.0554242134094238e-01 4.2973402142524719e-01</leafValues></_>
        <_>
          <internalNodes>
            0 -1 110 -457379640 1578189264 1134839 420937853 -1735884664
            1579384968 1367454650 -15265606</internalNodes>
          <leafValues>
            -5.7221692800521851e-01 4.8876631259918213e-01</leafValues></_>
        <_>
          <internalNodes>
            0 -1 4 -738401813 -267328003 1236474170 -44313631 14069166
            548939957 1337977854 1725902845</internalNodes>
          <leafValues>
            -6.6598850488662720e-01 3.8959851861000061e-01</leafValues></_>
        <_>
          <internalNodes>
            0 -1 150 -204214056 -582155179 1884295639 1564481624
            -2147298888 -1728053216 284199423 -1962275045</internalNodes>
          <leafValues>
            -4.2059960961341858e-01 6.5538573265075684e-01</leafValues></_></weakClassifiers></_>
    <!-- stage 3 -->
    <_>
      <maxWeakCount>7</maxWeakCount>
      <stageThreshold>-1.1699701547622681e+00</stageThreshold>
      <weakClassifiers>
        <_>
          <internalNodes>
            0 -1 16 1577773582 840170111 1574920157 1920195965
            1143787439 1979579351 -254854209 855109287</internalNodes>
          <leafValues>
            -7.3626375198364258e-01 5.7131212949752808e-01</leafValues></_>
        <_>
          <internalNodes>
            0 -1 44 -889740561 -1248680457 -364119041 -657289609
            148875517 -1107841067 1842842363 -134924871</internalNodes>
          <leafValues>
            -5.4133242368698120e-01 4.8747071623802185e-01</leafValues></_>
        <_>
          <internalNodes>
            0 -1 137 -19398657 1056167767 1591137231 1212545781
            2034465711 -1191454431 -1429939489 708149077</internalNodes>
          <leafValues>
            -5.5442881584167480e-01 4.5995125174522400e-01</leafValues></_>
        <_>
          <internalNodes>
            0 -1 88 801979173 643167191 -507389985 1047828267 1737437171
            -72761676 -21813257 -792367319</internalNodes>
          <leafValues>
            -6.0865008831024170e-01 3.6854448914527893e-01</leafValues></_>
        <_>
          <internalNodes>
            0 -1 56 -841554004 -745099881 -245854209 -1791317446
            -2117095940 -797648945 -1612765697 238226868</internalNodes>
          <leafValues>
            -6.8187332153320312e-01 3.0979064106941223e-01</leafValues></_>
        <_>
          <internalNodes>
            0 -1 176 -679481545 1362121267 -8454145 -1910177793
            1845491701 -32769 -285245441 -285310977</internalNodes>
          <leafValues>
            -4.3043115735054016e-01 5.5620855093002319e-01</leafValues></_>
        <_>
          <internalNodes>
            0 -1 1 -1593839633 -244121763 -607004298 -243674096 37694654
            1617259033 1974814194 -213994757</internalNodes>
          <leafValues>
            -5.8861917257308960e-01 3.9143478870391846e-01</leafValues></_></weakClassifiers></_>
    <!-- stage 4 -->
    <_>
      <maxWeakCount>8</maxWeakCount>
      <stageThreshold>-1.0256608724594116e+00</stageThreshold>
      <weakClassifiers>
        <_>
          <internalNodes>
            0 -1 25 1626825326 -1576782031 1071503294 -16714440
            1157066103 973229068 79643700 2146917103</internalNodes>
          <leafValues>
            -6.7414635419845581e-01 5.4090452194213867e-01</leafValues></_>
        <_>
          <internalNodes>
            0 -1 43 -1052675 -856075 -64009 -2194476 208023271
            -604569601 1467418615 -809565433</internalNodes>
          <leafValues>
            -4.4576856493949890e-01 5.2219796180725098e-01</leafValues></_>
        <_>
          <internalNodes>
            0 -1 51 -1561358353 1918401784 -209801222 -147195918
            -1560629258 -1183613321 -239079950 -147591</internalNodes>
          <leafValues>
            -4.5295241475105286e-01 4.8943018913269043e-01</leafValues></_>
        <_>
          <internalNodes>
            0 -1 153 1448596823 783241563 -908488227 1711603658
            -712792345 -2138433885 -141825649 -866124821</internalNodes>
          <leafValues>
            -4.7420069575309753e-01 4.2059180140495300e-01</leafValues></_>
        <_>
          <internalNodes>
            0 -1 117 -214773168 -674581246 1922069049 521728564
            -967786112 -1996226009 323678459 959271369</internalNodes>
          <leafValues>
            -5.0636017322540283e-01 4.1479486227035522e-01</leafValues></_>
        <_>
          <internalNodes>
            0 -1 81 -336598161 1271648478 -804990507 1926477947
            1936794111 -1336872030 -3973005 -142640771</internalNodes>
          <leafValues>
            -4.9987420439720154e-01 4.1820016503334045e-01</leafValues></_>
        <_>
          <internalNodes>
            0 -1 172 -484320695 1996310096 1811742268 1941593855
            -1498106632 1560048759 -1094912036 -1077995529</internalNodes>
          <leafValues>
            -4.3533259630203247e-01 5.2086532115936279e-01</leafValues></_>
        <_>
          <internalNodes>
            0 -1 99 -171433760 1363202077 -786137702 297402811 -96177696
            -549419852 220250126 -1760619765</internalNodes>
          <leafValues>
            -5.6802421808242798e-01 4.0233767032623291e-01</leafValues></_></weakClassifiers></_>
    <!-- stage 5 -->
    <_>
      <maxWeakCount>8</maxWeakCount>
      <stageThreshold>-8.2900273799896240e-01</stageThreshold>
      <weakClassifiers>
        <_>
          <internalNodes>
            0 -1 53 -1356649942 206623547 -994326033 22135053 -988549633
            -2068976998 -238070401 -789788603</internalNodes>
          <leafValues>
            -5.6605422496795654e-01 5.4498660564422607e-01</leafValues></_>
        <_>
          <internalNodes>
            0 -1 66 -5266435 2130247597 -268501025 -537092721 1467953151
            -67895297 1341067191 -139262203</internalNodes>
          <leafValues>
            -4.5324358344078064e-01 4.9443078041076660e-01</leafValues></_>
        <_>
          <internalNodes>
            0 -1 24 -279450066 1040973310 271898588 -1112651164
            1088210303 855450746 1726631751 -3178745</internalNodes>
          <leafValues>
            -5.8731859922409058e-01 3.2937794923782349e-01</leafValues></_>
        <_>
          <internalNodes>
            0 -1 42 -497615762 1355922143 1678009375 305108335
            2130868243 829670935 -288667086 857145377</internalNodes>
          <leafValues>
            -6.4442831277847290e-01 3.0341655015945435e-01</leafValues></_>
        <_>
          <internalNodes>
            0 -1 6 -281557041 -255638150 1431386481 -141198890
            1118914384 1077130266 29649886 2012964799</internalNodes>
          <leafValues>
            -5.5850535631179810e-01 3.2884705066680908e-01</leafValues></_>
        <_>
          <internalNodes>
            0 -1 27 1893105839 806488316 -783425250 -251933263
            1103071480 299497501 -68645890 -156582211</internalNodes>
          <leafValues>
            -5.6997507810592651e-01 3.2250782847404480e-01</leafValues></_>
        <_>
          <internalNodes>
            0 -1 92 -251568013 -44268360 -1294276768 168412341
            -1331015083 -11622133 1939766257 2131195775</internalNodes>
          <leafValues>
            -5.6034475564956665e-01 3.6944279074668884e-01</leafValues></_>
        <_>
          <internalNodes>
            0 -1 184 -485687314 1946537989 -33368940 625792073
            -834350972 -568278779 -859139849 586111710</internalNodes>
          <leafValues>
            -5.3350955247879028e-01 3.9418751001358032e-01</leafValues></_></weakClassifiers></_>
    <!-- stage 6 -->
    <_>
      <maxWeakCount>9</maxWeakCount>
      <stageThreshold>-1.0906047821044922e+00</stageThreshold>
      <weakClassifiers>
        <_>
          <internalNodes>
            0 -1 113 217776811 1794109114 2046554609 -181141600
            805250744 -532491 -839245839 -168544338</internalNodes>
          <leafValues>
            -4.3821656703948975e-01 6.0677200555801392e-01</leafValues></_>
        <_>
          <internalNodes>
            0 -1 181 1998534453 106304567 -36438049 -459222817
            -659662133 1053701075 -891693121 -1930657825</internalNodes>
          <leafValues>
            -5.5742347240447998e-01 4.0459612011909485e-01</leafValues></_>
        <_>
          <internalNodes>
            0 -1 15 1928474599 -11446561 1004078411 -170450477 47574910
            1364688451 29206514 -71352646</internalNodes>
          <leafValues>
            -5.5744540691375732e-01 3.6191731691360474e-01</leafValues></_>
        <_>
          <internalNodes>
            0 -1 28 2142758382 -1085284565 -1334535681 -1366494834
            1175104479 -1625556980 1677594559 -503361786</internalNodes>
          <leafValues>
            -4.4377282261848450e-01 4.5655256509780884e-01</leafValues></_>
        <_>
          <internalNodes>
            0 -1 118 -76843205 183360248 -198000067 949590683 1468666167
            -1067827156 -246744178 -1057772609</internalNodes>
          <leafValues>
            -4.8660665750503540e-01 3.8394168019294739e-01</leafValues></_>
        <_>
          <internalNodes>
            0 -1 45 -123539729 -1114627756 1502502711 -188490415
            -386232835 -1309734516 -89408690 -394567</internalNodes>
          <leafValues>
            -4.9047052860260010e-01 4.0014281868934631e-01</leafValues></_>
        <_>
          <internalNodes>
            0 -1 78 -1023750116 -1566482032 -581659177 -485316109
            -388363404 -897545321 -919355943 637207993</internalNodes>
          <leafValues>
            -6.1801195144653320e-01 3.8022235035896301e-01</leafValues></_>
        <_>
          <internalNodes>
            0 -1 22 -429923677 -887997087 -1600268320 -20129460 4933071
            1481327440 575362407 2054939971</internalNodes>
          <leafValues>
            -6.5205311775207520e-01 2.8390604257583618e-01</leafValues></_>
        <_>
          <internalNodes>
            0 -1 161 1165959783 1332833043 1070392943 1496898702
            1142650441 825785278 1771717787 2065171135</internalNodes>
          <leafValues>
            -5.2312463521957397e-01 3.6480364203453064e-01</leafValues></_></weakClassifiers></_>
    <!-- stage 7 -->
    <_>
      <maxWeakCount>10</maxWeakCount>
      <stageThreshold>-7.7821636199951172e-01</stageThreshold>
      <weakClassifiers>
        <_>
          <internalNodes>
            0 -1 40 175091375 511692543 -12583142 977075194 142544438
            -629153921 2130445751 -143362049</internalNodes>
          <leafValues>
            -4.6119403839111328e-01 5.6180256605148315e-01</leafValues></_>
        <_>
          <internalNodes>
            0 -1 36 -5509129 -1114435 2147409397 -92975 267889607
            -1158483990 938938357 -604699643</internalNodes>
          <leafValues>
            -3.9370352029800415e-01 4.7001132369041443e-01</leafValues></_>
        <_>
          <internalNodes>
            0 -1 48 -1091701458 609996028 1904693533 -1297623673
            57869246 -297931855 -74948673 -109163989</internalNodes>
          <leafValues>
            -4.4129949808120728e-01 3.9661034941673279e-01</leafValues></_>
        <_>
          <internalNodes>
            0 -1 140 62616490 1756427303 2098980618 -771981489 523057080
            2142875644 371257528 -592503560</internalNodes>
          <leafValues>
            -5.6978833675384521e-01 2.9690366983413696e-01</leafValues></_>
        <_>
          <internalNodes>
            0 -1 185 -163121434 100967938 614615208 674161099 -804404739
            2060355757 -1361917522 1879045119</internalNodes>
          <leafValues>
            -5.5901157855987549e-01 3.3030685782432556e-01</leafValues></_>
        <_>
          <internalNodes>
            0 -1 11 -552977 851164631 -1684858593 1113265411 1157623620
            962816083 -542639097 -11206314</internalNodes>
          <leafValues>
            -5.0894546508789062e-01 3.6627483367919922e-01</leafValues></_>
        <_>
          <internalNodes>
            0 -1 87 1884432868 977336767 -2128159495 -420168779
            1952326647 -2371363 1950492161 -133935359</internalNodes>
          <leafValues>
            -5.1875847578048706e-01 3.7991315126419067e-01</leafValues></_>
        <_>
          <internalNodes>
            0 -1 19 -134613008 -170871815 -669491049 2144867393
            -214376454 -1749229640 -122671393 1692423953</internalNodes>
          <leafValues>
            -5.7562607526779175e-01 3.2552197575569153e-01</leafValues></_>
        <_>
          <internalNodes>
            0 -1 128 112001192 -1342766057 -715581986 924663317
            -1457829382 -665052998 1705705943 2071616415</internalNodes>
          <leafValues>
            -6.4492541551589966e-01 2.8203770518302917e-01</leafValues></_>
        <_>
          <internalNodes>
            0 -1 79 1558234391 -1232682829 -1019560073 -683263454
            1482411752 -1634357773 -540853313 -1824745055</internalNodes>
          <leafValues>
            -4.4569617509841919e-01 4.2589545249938965e-01</leafValues></_></weakClassifiers></_>
    <!-- stage 8 -->
    <_>
      <maxWeakCount>11</maxWeakCount>
      <stageThreshold>-1.1559226512908936e+00</stageThreshold>
      <weakClassifiers>
        <_>
          <internalNodes>
            0 -1 7 686755462 1892749680 -48688550 865146194 7450484
            820295681 1838897146 864496539</internalNodes>
          <leafValues>
            -7.1428573131561279e-01 4.8596525192260742e-01</leafValues></_>
        <_>
          <internalNodes>
            0 -1 89 -336649677 -495465881 -582643465 1050342029
            -313973771 -1146245940 -120696978 -238190817</internalNodes>
          <leafValues>
            -4.5252570509910583e-01 3.8991701602935791e-01</leafValues></_>
        <_>
          <internalNodes>
            0 -1 65 297991665 -140708363 1428541905 -286987056 143894743
            -56890521 188416129 -857898880</internalNodes>
          <leafValues>
            -4.0443086624145508e-01 4.0108013153076172e-01</leafValues></_>
        <_>
          <internalNodes>
            0 -1 54 -1900545 -553783592 -890253766 573566842 1443765591
            -90636418 -2101250 -1157627905</internalNodes>
          <leafValues>
            -3.3763837814331055e-01 4.9439153075218201e-01</leafValues></_>
        <_>
          <internalNodes>
            0 -1 178 -16816606 782757795 -939191788 -132104264
            -903109599 1281575435 501845152 623568287</internalNodes>
          <leafValues>
            -6.8053793907165527e-01 2.2961705923080444e-01</leafValues></_>
        <_>
          <internalNodes>
            0 -1 165 1887670352 -618002513 1162878301 287039819
            1831258362 -1298996970 88123579 287541275</internalNodes>
          <leafValues>
            -5.9290200471878052e-01 2.8352877497673035e-01</leafValues></_>
        <_>
          <internalNodes>
            0 -1 171 291476876 -638068129 402744926 1595886011
            -2090424084 1365911256 -1559435575 -616573043</internalNodes>
          <leafValues>
            -4.2143929004669189e-01 4.0402033925056458e-01</leafValues></_>
        <_>
          <internalNodes>
            0 -1 141 -572162612 -1646354373 1451261849 234904720
            -780596910 -1325391511 1799610233 -1603320143</internalNodes>
          <leafValues>
            -4.8360401391983032e-01 3.6502116918563843e-01</leafValues></_>
        <_>
          <internalNodes>
            0 -1 59 1869287015 239771804 -1451434652 626778134
            -453513739 -1631247077 -404031299 -203649257</internalNodes>
          <leafValues>
            -5.3133511543273926e-01 3.2884937524795532e-01</leafValues></_>
        <_>
          <internalNodes>
            0 -1 151 1596960517 1087936575 -183788665 -1028988515
            -913212049 -372430712 -637399922 -1401787925</internalNodes>
          <leafValues>
            -5.1606053113937378e-01 3.5176563262939453e-01</leafValues></_>
        <_>
          <internalNodes>
            0 -1 32 -2050492563 1779613159 -48147143 938872837
            1677539125 935858984 1736536948 1397842336</internalNodes>
          <leafValues>
            -6.3150125741958618e-01 2.8837582468986511e-01</leafValues></_></weakClassifiers></_>
    <!-- stage 9 -->
    <_>
      <maxWeakCount>10</maxWeakCount>
      <stageThreshold>-1.3803561925888062e+00</stageThreshold>
      <weakClassifiers>
        <_>
          <internalNodes>
            0 -1 83 416685584 -796989706 1263421973 -1052004770
            626466816 -1210116650 456613146 -1678248994</internalNodes>
          <leafValues>
            -2.8214284777641296e-01 5.7268518209457397e-01</leafValues></_>
        <_>
          <internalNodes>
            0 -1 34 -237502516 -53677732 -242676267 -246120104
            1486040800 -1610448156 1823672977 1869694862</internalNodes>
          <leafValues>
            -5.3088951110839844e-01 3.3554980158805847e-01</leafValues></_>
        <_>
          <internalNodes>
            0 -1 145 1363529976 -1856429345 1676765042 -1381021769
            -1064744736 989373651 167824216 1069371183</internalNodes>
          <leafValues>
            -5.3146052360534668e-01 3.0111381411552429e-01</leafValues></_>
        <_>
          <internalNodes>
            0 -1 76 -752881970 1490224859 1232663 471424256 -272084528
            2089240720 1242772399 -649729895</internalNodes>
          <leafValues>
            -4.1426399350166321e-01 3.8953009247779846e-01</leafValues></_>
        <_>
          <internalNodes>
            0 -1 146 -146684968 -2024024562 -423352513 -1688212586
            46605400 -904212963 -1408519543 707773066</internalNodes>
          <leafValues>
            -5.2111852169036865e-01 3.2007154822349548e-01</leafValues></_>
        <_>
          <internalNodes>
            0 -1 174 -180100968 -595088253 1195427167 1332340163
            -2007831350 -1668803143 -1821196833 -1103413854</internalNodes>
          <leafValues>
            -4.5683845877647400e-01 4.1497156023979187e-01</leafValues></_>
        <_>
          <internalNodes>
            0 -1 38 289012334 823300400 1946949643 -712932303 -858544035
            -239216496 -373244662 537513034</internalNodes>
          <leafValues>
            -5.6154578924179077e-01 3.3113718032836914e-01</leafValues></_>
        <_>
          <internalNodes>
            0 -1 85 -543719166 1606850388 1435870513 535945047 202357747
            228297940 1521469172 -675223136</internalNodes>
          <leafValues>
            -5.1210045814514160e-01 3.3695149421691895e-01</leafValues></_>
        <_>
          <internalNodes>
            0 -1 20 2135479128 -36540388 -1929326123 701003223
            -2125406138 -1415514097 1694585236 1978336729</internalNodes>
          <leafValues>
            -6.0407555103302002e-01 3.0591449141502380e-01</leafValues></_>
        <_>
          <internalNodes>
            0 -1 63 1921753044 -164570152 298424707 -168322926
            1654761429 -391971499 1770853273 -277669993</internalNodes>
          <leafValues>
            -4.5534998178482056e-01 4.0527185797691345e-01</leafValues></_></weakClassifiers></_>
    <!-- stage 10 -->
    <_>
      <maxWeakCount>11</maxWeakCount>
      <stageThreshold>-7.6374936103820801e-01</stageThreshold>
      <weakClassifiers>
        <_>
          <internalNodes>
            0 -1 74 -43305452 678985700 -268501059 -554291324 737879991
            -67371073 2145847045 -620476667</internalNodes>
          <leafValues>
            -2.8952261805534363e-01 5.6234329938888550e-01</leafValues></_>
        <_>
          <internalNodes>
            0 -1 101 1323262499 1278055888 2131598778 2100295096
            1782066869 -638920639 -177956169 -2277505</internalNodes>
          <leafValues>
            -4.3677768111228943e-01 3.7458318471908569e-01</leafValues></_>
        <_>
          <internalNodes>
            0 -1 119 -251136326 2136956031 -1350587020 389769724
            153131682 -1377876947 -1170941014 -834424995</internalNodes>
          <leafValues>
            -3.7876072525978088e-01 4.0209215879440308e-01</leafValues></_>
        <_>
          <internalNodes>
            0 -1 50 -514857362 102552793 -111550526 1565324674 576562991
            -111558216 1150389575 1064646567</internalNodes>
          <leafValues>
            -6.0224622488021851e-01 2.6613745093345642e-01</leafValues></_>
        <_>
          <internalNodes>
            0 -1 29 -798891341 437295601 -255197243 -54846249 493734879
            -251547447 1327650679 -570621435</internalNodes>
          <leafValues>
            -4.0833884477615356e-01 3.6958935856819153e-01</leafValues></_>
        <_>
          <internalNodes>
            0 -1 175 -1058028493 1033775312 -76919491 1071281211
            -190120501 -1564737178 -71779109 -977551350</internalNodes>
          <leafValues>
            -3.9319741725921631e-01 4.3952721357345581e-01</leafValues></_>
        <_>
          <internalNodes>
            0 -1 112 -842025178 -2003264642 -2058252087 -1934351923
            -644734651 -34596606 -1683641893 217478103</internalNodes>
          <leafValues>
            -6.1405605077743530e-01 2.9708173871040344e-01</leafValues></_>
        <_>
          <internalNodes>
            0 -1 136 1470102737 -84014917 -749747875 1467418643
            1009656819 -1153260910 -1875701061 -1960115301</internalNodes>
          <leafValues>
            -3.7403815984725952e-01 4.8078289628028870e-01</leafValues></_>
        <_>
          <internalNodes>
            0 -1 114 1360811480 903866018 1544087039 -1336281875
            693612049 2105469599 612087807 319223506</internalNodes>
          <leafValues>
            -4.9202367663383484e-01 3.5603553056716919e-01</leafValues></_>
        <_>
          <internalNodes>
            0 -1 164 -335708929 -21475971 -361443460 1460625372
            -1432568129 1072705532 -1342316584 -2089445318</internalNodes>
          <leafValues>
            -3.6577227711677551e-01 4.8233640193939209e-01</leafValues></_>
        <_>
          <internalNodes>
            0 -1 13 2136962694 818033077 -1392290357 -1229730994
            257870853 623353611 1121692237 -79342474</internalNodes>
          <leafValues>
            -5.0049591064453125e-01 3.4917846322059631e-01</leafValues></_></weakClassifiers></_>
    <!-- stage 11 -->
    <_>
      <maxWeakCount>12</maxWeakCount>
      <stageThreshold>-1.2915221452713013e+00</stageThreshold>
      <weakClassifiers>
        <_>
          <internalNodes>
            0 -1 39 306588736 2048152339 -1323858979 311492705 721199215
            312496195 1005429411 -1182195005</internalNodes>
          <leafValues>
            -5.2542370557785034e-01 4.9367088079452515e-01</leafValues></_>
        <_>
          <internalNodes>
            0 -1 162 -1152810356 -86032259 -578798755 656033881
            -890564466 -368575779 -1193309557 845402709</internalNodes>
          <leafValues>
            -4.8843598365783691e-01 2.9830461740493774e-01</leafValues></_>
        <_>
          <internalNodes>
            0 -1 107 -506310082 -320953283 -14760683 -1254405301
            -1583530209 -2113939047 1280760086 -2057765536</internalNodes>
          <leafValues>
            -4.3886539340019226e-01 3.4083202481269836e-01</leafValues></_>
        <_>
          <internalNodes>
            0 -1 133 -7801348 1919233571 461199335 -5137849 1233627119
            202309634 537283323 -2367749</internalNodes>
          <leafValues>
            -3.6614736914634705e-01 4.0323060750961304e-01</leafValues></_>
        <_>
          <internalNodes>
            0 -1 126 -7767175 -268775902 -1547684931 -17066927
            -182820952 234850991 1278999477 -646200801</internalNodes>
          <leafValues>
            -3.3432722091674805e-01 4.4819384813308716e-01</leafValues></_>
        <_>
          <internalNodes>
            0 -1 179 826769658 1969184934 805600972 362669787 -939945840
            834380773 596152973 791789503</internalNodes>
          <leafValues>
            -5.4319959878921509e-01 2.8593584895133972e-01</leafValues></_>
        <_>
          <internalNodes>
            0 -1 169 -158426627 2132473143 1796860925 985386788
            -1895891457 1548715288 87741144 -1619557632</internalNodes>
          <leafValues>
            -3.6379751563072205e-01 4.2943677306175232e-01</leafValues></_>
        <_>
          <internalNodes>
            0 -1 191 1606938679 1449580097 -352422286 -1096032308
            -537403991 -38806241 -290016518 -18047009</internalNodes>
          <leafValues>
            -3.8550841808319092e-01 4.3434110283851624e-01</leafValues></_>
        <_>
          <internalNodes>
            0 -1 97 -114363598 1514423574 1163255709 340663601
            -2107469381 -464479970 25531064 -2106879445</internalNodes>
          <leafValues>
            -4.4953680038452148e-01 3.7583738565444946e-01</leafValues></_>
        <_>
          <internalNodes>
            0 -1 125 2130575538 -1357645286 -413709984 -1316900075
            -1480170837 -781840325 1731978156 398409148</internalNodes>
          <leafValues>
            -6.2019568681716919e-01 2.5639641284942627e-01</leafValues></_>
        <_>
          <internalNodes>
            0 -1 72 -1055918987 1830521613 -595254530 -1714061299
            -657774849 -1429653091 1403239279 570538331</internalNodes>
          <leafValues>
            -5.0387412309646606e-01 3.3502230048179626e-01</leafValues></_>
        <_>
          <internalNodes>
            0 -1 12 -1044672848 822628211 386017663 302681359
            -1948388027 1381909520 111684378 1397969413</internalNodes>
          <leafValues>
            -6.2335616350173950e-01 2.6949071884155273e-01</leafValues></_></weakClassifiers></_>
    <!-- stage 12 -->
    <_>
      <maxWeakCount>12</maxWeakCount>
      <stageThreshold>-9.4687640666961670e-01</stageThreshold>
      <weakClassifiers>
        <_>
          <internalNodes>
            0 -1 58 585706016 -1474809569 -1073112618 1892729037
            -288356801 -270376874 1083338499 348627826</internalNodes>
          <leafValues>
            -8.1475126743316650e-01 4.5689496397972107e-01</leafValues></_>
        <_>
          <internalNodes>
            0 -1 115 1594317408 -280050300 604311338 72452311 -451918336
            -1999894304 1891296924 124771273</internalNodes>
          <leafValues>
            -5.7819235324859619e-01 2.8773397207260132e-01</leafValues></_>
        <_>
          <internalNodes>
            0 -1 75 908587279 -250349102 -751609601 -1375939151
            -1343411209 -68593825 -1060467257 -2051865251</internalNodes>
          <leafValues>
            -4.1231325268745422e-01 3.3008080720901489e-01</leafValues></_>
        <_>
          <internalNodes>
            0 -1 130 880275680 894900027 1627472076 655651225
            -2147479319 -2138767199 2690749 689009728</internalNodes>
          <leafValues>
            -6.1930960416793823e-01 2.2388690710067749e-01</leafValues></_>
        <_>
          <internalNodes>
            0 -1 23 1534805507 -637378933 -879345453 -114710458 89933320
            1217037971 1590102749 1610054484</internalNodes>
          <leafValues>
            -5.2243900299072266e-01 2.7419638633728027e-01</leafValues></_>
        <_>
          <internalNodes>
            0 -1 95 -1425054958 2113162368 1261388084 -1610625317
            151184602 -1718195048 1412419859 -512049019</internalNodes>
          <leafValues>
            -4.5981532335281372e-01 3.1881588697433472e-01</leafValues></_>
        <_>
          <internalNodes>
            0 -1 186 2127819875 -1566087581 1484804475 -1298605638
            994393093 1062969798 -605824626 1511972203</internalNodes>
          <leafValues>
            -4.3973147869110107e-01 3.3338028192520142e-01</leafValues></_>
        <_>
          <internalNodes>
            0 -1 159 2145903246 611733195 -2062322247 459298047
            1305520670 -119471226 -361062627 -8593611</internalNodes>
          <leafValues>
            -4.2080226540565491e-01 3.8406425714492798e-01</leafValues></_>
        <_>
          <internalNodes>
            0 -1 122 -151571595 889192191 2013261812 -717423057
            805011441 -50593921 -939573377 -95658185</internalNodes>
          <leafValues>
            -3.8994672894477844e-01 4.0958911180496216e-01</leafValues></_>
        <_>
          <internalNodes>
            0 -1 9 -653272876 -7902855 -100515822 1071149836 413260614
            849875448 51134586 1531793803</internalNodes>
          <leafValues>
            -5.8338564634323120e-01 2.8262487053871155e-01</leafValues></_>
        <_>
          <internalNodes>
            0 -1 123 1205073851 1372776051 290580555 -1086399760
            -1910521861 -661340472 865583037 -1212909110</internalNodes>
          <leafValues>
            -2.8159436583518982e-01 6.1434900760650635e-01</leafValues></_>
        <_>
          <internalNodes>
            0 -1 132 -141511592 2132621517 -1653812001 -1620431482
            -804722517 -1946107856 2690511 1002152225</internalNodes>
          <leafValues>
            -4.6541896462440491e-01 3.5119152069091797e-01</leafValues></_></weakClassifiers></_>
    <!-- stage 13 -->
    <_>
      <maxWeakCount>14</maxWeakCount>
      <stageThreshold>-8.4201139211654663e-01</stageThreshold>
      <weakClassifiers>
        <_>
          <internalNodes>
            0 -1 80 113967136 673816914 -174147746 906930520 677978934
            2136860978 1369967599 1971134741</internalNodes>
          <leafValues>
            -7.4000000953674316e-01 4.5259258151054382e-01</leafValues></_>
        <_>
          <internalNodes>
            0 -1 93 -1000397906 533880159 1298053428 796845335
            -1547730401 118652938 1218960804 -715995668</internalNodes>
          <leafValues>
            -4.7544249892234802e-01 3.5036212205886841e-01</leafValues></_>
        <_>
          <internalNodes>
            0 -1 91 -586201078 1353789661 1496346164 947718802
            -1354867391 -5724726 2019133516 2052668318</internalNodes>
          <leafValues>
            -5.6641054153442383e-01 2.3280844092369080e-01</leafValues></_>
        <_>
          <internalNodes>
            0 -1 157 -170075009 1967114843 -1186956424 1194507887
            -873530658 -86281999 1147665941 -571486689</internalNodes>
          <leafValues>
            -3.1765386462211609e-01 4.6501371264457703e-01</leafValues></_>
        <_>
          <internalNodes>
            0 -1 57 -1910053325 -70617711 -586810059 -1122184900
            -1447755664 -386863390 -955562958 -939470784</internalNodes>
          <leafValues>
            -4.6861600875854492e-01 3.3903437852859497e-01</leafValues></_>
        <_>
          <internalNodes>
            0 -1 134 -656996725 -1976647190 -1688910499 507303134
            1395376356 -1796643659 -1002978234 1411830011</internalNodes>
          <leafValues>
            -5.5878400802612305e-01 2.3947496712207794e-01</leafValues></_>
        <_>
          <internalNodes>
            0 -1 0 -23081142 -138083512 -566120152 -544923616 1577207363
            1594034801 1699177823 -4229821</internalNodes>
          <leafValues>
            -4.3493852019309998e-01 3.5385423898696899e-01</leafValues></_>
        <_>
          <internalNodes>
            0 -1 31 440395567 1037726930 -75556760 865080451 679590871
            -1935288169 -224670296 -1366520948</internalNodes>
          <leafValues>
            -4.1234692931175232e-01 3.9119619131088257e-01</leafValues></_>
        <_>
          <internalNodes>
            0 -1 106 2078768469 -764348 203534791 994041727 -599240552
            -542354956 1065057143 -98100988</internalNodes>
          <leafValues>
            -3.5989364981651306e-01 4.3697044253349304e-01</leafValues></_>
        <_>
          <internalNodes>
            0 -1 152 -732117571 899466653 -926070116 -656550705
            2039048711 516395876 -758625490 1918173012</internalNodes>
          <leafValues>
            -4.5758825540542603e-01 3.5663878917694092e-01</leafValues></_>
        <_>
          <internalNodes>
            0 -1 5 1586462928 -1462910793 -256697464 1693290701
            2010252556 -1374412152 1913258208 2147456952</internalNodes>
          <leafValues>
            -5.4013669490814209e-01 2.9246962070465088e-01</leafValues></_>
        <_>
          <internalNodes>
            0 -1 102 1919381616 1385252022 857765053 1394676622
            -379384830 856809011 992101276 1803284245</internalNodes>
          <leafValues>
            -6.0512089729309082e-01 2.6205179095268250e-01</leafValues></_>
        <_>
          <internalNodes>
            0 -1 71 2123789692 1916968963 1646544117 -503126304
            1754206783 1365510634 273683197 859008911</internalNodes>
          <leafValues>
            -6.1536955833435059e-01 2.6193895936012268e-01</leafValues></_>
        <_>
          <internalNodes>
            0 -1 98 1569383389 1903232092 438071469 -781278645
            1945171410 -857219851 1214801071 -370167669</internalNodes>
          <leafValues>
            -3.0547606945037842e-01 5.3592705726623535e-01</leafValues></_></weakClassifiers></_>
    <!-- stage 14 -->
    <_>
      <maxWeakCount>14</maxWeakCount>
      <stageThreshold>-1.2158888578414917e+00</stageThreshold>
      <weakClassifiers>
        <_>
          <internalNodes>
            0 -1 67 539635214 79100595 -645465712 -126718698 31395773
            -170662759 -586541028 1668017340</internalNodes>
          <leafValues>
            -7.2638434171676636e-01 4.5414036512374878e-01</leafValues></_>
        <_>
          <internalNodes>
            0 -1 182 735751714 146455299 507841645 1547762151 571776160
            136927232 2080817065 193347336</internalNodes>
          <leafValues>
            -5.6756138801574707e-01 2.8677114844322205e-01</leafValues></_>
        <_>
          <internalNodes>
            0 -1 14 -18699098 -184436403 1528663506 -163556900
            1419881813 -2128551912 495685106 422972638</internalNodes>
          <leafValues>
            -6.0695898532867432e-01 1.8501925468444824e-01</leafValues></_>
        <_>
          <internalNodes>
            0 -1 77 -659326479 -52232667 -1460478477 -651101839
            -51384437 -72682049 -290594917 968310273</internalNodes>
          <leafValues>
            -3.6330828070640564e-01 3.7695118784904480e-01</leafValues></_>
        <_>
          <internalNodes>
            0 -1 142 -172432352 -1867370576 -118194693 -1577241936
            -1405579521 2132118670 1721393383 -96681944</internalNodes>
          <leafValues>
            -3.8487604260444641e-01 3.4445586800575256e-01</leafValues></_>
        <_>
          <internalNodes>
            0 -1 173 171453952 360605523 -1243147465 335700519
            -1134804776 1432006075 559013994 1393134346</internalNodes>
          <leafValues>
            -7.1333467960357666e-01 1.8694214522838593e-01</leafValues></_>
        <_>
          <internalNodes>
            0 -1 96 -13119174 1942940977 1215160351 -2066522849
            -875593604 23333453 1205059223 -976040496</internalNodes>
          <leafValues>
            -4.2887714505195618e-01 3.1515291333198547e-01</leafValues></_>
        <_>
          <internalNodes>
            0 -1 139 494833336 1804985084 -1447304060 -1377909872
            1261431533 -465527652 686985352 -1937244089</internalNodes>
          <leafValues>
            -5.5346649885177612e-01 2.4206320941448212e-01</leafValues></_>
        <_>
          <internalNodes>
            0 -1 129 1103733454 -629370721 1389160329 824007953
            -1154547210 -150335269 -1821850856 -231242886</internalNodes>
          <leafValues>
            -4.1035291552543640e-01 3.3967411518096924e-01</leafValues></_>
        <_>
          <internalNodes>
            0 -1 70 -25407265 1542466301 -934504194 796625613 -713337102
            2079372391 -2014068758 -12190716</internalNodes>
          <leafValues>
            -3.6789420247077942e-01 4.1660356521606445e-01</leafValues></_>
        <_>
          <internalNodes>
            0 -1 180 -342313928 -86110243 -40181773 1034577272
            -2012829478 -1164965668 -1713719953 -751754783</internalNodes>
          <leafValues>
            -4.2345276474952698e-01 3.5502153635025024e-01</leafValues></_>
        <_>
          <internalNodes>
            0 -1 143 -37752999 -1363216584 1799879300 -282655387
            -638084710 -1712882923 -1715835183 -22822569</internalNodes>
          <leafValues>
            -3.0994218587875366e-01 5.0261956453323364e-01</leafValues></_>
        <_>
          <internalNodes>
            0 -1 183 1588070608 56486984 -568946280 357880593
            -2011641166 2024415976 -1459365235 598141563</internalNodes>
          <leafValues>
            -5.6536042690277100e-01 2.8420069813728333e-01</leafValues></_>
        <_>
          <internalNodes>
            0 -1 82 1459468457 -736889845 1564742980 1495712704
            -31956796 -116530995 -1316353711 -219328526</internalNodes>
          <leafValues>
            -3.9252266287803650e-01 4.0095269680023193e-01</leafValues></_></weakClassifiers></_>
    <!-- stage 15 -->
    <_>
      <maxWeakCount>12</maxWeakCount>
      <stageThreshold>-1.1435946226119995e+00</stageThreshold>
      <weakClassifiers>
        <_>
          <internalNodes>
            0 -1 156 16273866 904228088 222064128 499871599 1191002697
            1836958185 269764220 1514080273</internalNodes>
          <leafValues>
            -4.4242423772811890e-01 4.8662674427032471e-01</leafValues></_>
        <_>
          <internalNodes>
            0 -1 168 329057149 1388371021 -689189665 -631454517
            -913700785 -1618918456 -343916439 -1539154105</internalNodes>
          <leafValues>
            -4.2012706398963928e-01 3.3541935682296753e-01</leafValues></_>
        <_>
          <internalNodes>
            0 -1 8 -815053342 1079194193 -182240937 -149714870 601163072
            1613439015 597691989 1769087676</internalNodes>
          <leafValues>
            -6.2279796600341797e-01 2.4284254014492035e-01</leafValues></_>
        <_>
          <internalNodes>
            0 -1 69 -471176433 194568441 -489635361 -532578223 703594613
            -141366784 -372712720 -190129911</internalNodes>
          <leafValues>
            -5.2767282724380493e-01 2.2671912610530853e-01</leafValues></_>
        <_>
          <internalNodes>
            0 -1 47 1065544644 2075185490 -787614735 -1450145068
            687055807 -1196365633 1460798867 -278575611</internalNodes>
          <leafValues>
            -5.2682614326477051e-01 2.4786184728145599e-01</leafValues></_>
        <_>
          <internalNodes>
            0 -1 55 -1970546082 1880314110 -1305283121 -267203637
            445291173 1755465233 496919453 1922298960</internalNodes>
          <leafValues>
            -5.4046332836151123e-01 2.5757890939712524e-01</leafValues></_>
        <_>
          <internalNodes>
            0 -1 166 -258944930 19857930 1041814015 1380714590
            -620591714 886805782 -1744193464 499631027</internalNodes>
          <leafValues>
            -5.3165918588638306e-01 2.4496984481811523e-01</leafValues></_>
        <_>
          <internalNodes>
            0 -1 104 -681516257 618646090 -877598114 1147160329
            -223663182 -288551013 -611736861 -949238629</internalNodes>
          <leafValues>
            -4.3099981546401978e-01 3.4637901186943054e-01</leafValues></_>
        <_>
          <internalNodes>
            0 -1 144 1331249211 -350488602 -402674974 -1163153530
            623605306 -1479576585 1496773085 -1709185332</internalNodes>
          <leafValues>
            -3.7006917595863342e-01 4.0640789270401001e-01</leafValues></_>
        <_>
          <internalNodes>
            0 -1 105 1742503864 2113226968 -819875209 147343445
            -275099096 404396053 -879375368 1580428292</internalNodes>
          <leafValues>
            -5.6830477714538574e-01 2.6073262095451355e-01</leafValues></_>
        <_>
          <internalNodes>
            0 -1 17 995481677 855384101 420579339 -126713543 -775517567
            988477609 -1634606755 1061745184</internalNodes>
          <leafValues>
            -4.8140084743499756e-01 3.2136577367782593e-01</leafValues></_>
        <_>
          <internalNodes>
            0 -1 33 -577785786 1272336727 1695413677 377934244 72280064
            990525729 147575601 834214130</internalNodes>
          <leafValues>
            -6.2557995319366455e-01 2.6336163282394409e-01</leafValues></_></weakClassifiers></_>
    <!-- stage 16 -->
    <_>
      <maxWeakCount>15</maxWeakCount>
      <stageThreshold>-1.0112625360488892e+00</stageThreshold>
      <weakClassifiers>
        <_>
          <internalNodes>
            0 -1 52 1719085134 544299727 -1403541254 776253584 140619638
            980171466 898490887 71357320</internalNodes>
          <leafValues>
            -6.4549481868743896e-01 4.5782452821731567e-01</leafValues></_>
        <_>
          <internalNodes>
            0 -1 147 -433396656 621743557 -165992136 125361973
            -1988284152 1245448159 -983324102 823080478</internalNodes>
          <leafValues>
            -6.1924910545349121e-01 2.1729880571365356e-01</leafValues></_>
        <_>
          <internalNodes>
            0 -1 68 -338091826 794574239 -774224465 -318183936 554182647
            -1157530224 -179174511 1173838241</internalNodes>
          <leafValues>
            -5.3349852561950684e-01 2.4347914755344391e-01</leafValues></_>
        <_>
          <internalNodes>
            0 -1 189 -206903706 1344496707 1783121608 2123069929
            -1441822688 1806045866 -1333755780 2078993374</internalNodes>
          <leafValues>
            -4.7425431013107300e-01 2.9044222831726074e-01</leafValues></_>
        <_>
          <internalNodes>
            0 -1 86 2012790769 -409736996 -896706127 -206312556
            -1869411601 -1343276129 -385977409 -1172957679</internalNodes>
          <leafValues>
            -3.6692756414413452e-01 3.6731213331222534e-01</leafValues></_>
        <_>
          <internalNodes>
            0 -1 124 1673376953 -812626183 -1599968109 -1948735256
            -279379928 -560746617 2033282681 507658920</internalNodes>
          <leafValues>
            -4.5568308234214783e-01 2.9842948913574219e-01</leafValues></_>
        <_>
          <internalNodes>
            0 -1 116 -6307294 1406701562 -952728576 -2010121383
            -1409839961 -1732334193 1073650404 -496343180</internalNodes>
          <leafValues>
            -4.0574634075164795e-01 3.3788102865219116e-01</leafValues></_>
        <_>
          <internalNodes>
            0 -1 94 1125933968 2064943758 -1441418611 -1954700777
            -951102481 2039259032 -2075849064 -581182319</internalNodes>
          <leafValues>
            -4.4511660933494568e-01 3.1559699773788452e-01</leafValues></_>
        <_>
          <internalNodes>
            0 -1 154 -643830404 935220607 -11908129 1705993213
            1791930610 -1255995973 -1374618629 -1630023429</internalNodes>
          <leafValues>
            -3.5959285497665405e-01 3.9760679006576538e-01</leafValues></_>
        <_>
          <internalNodes>
            0 -1 35 -1718880791 1418939345 -1056845623 617673425
            -611213321 -1982570123 1518970067 915038009</internalNodes>
          <leafValues>
            -4.3762814998626709e-01 3.5362452268600464e-01</leafValues></_>
        <_>
          <internalNodes>
            0 -1 61 -336761033 -207426580 -957355199 -1456738312
            1258113529 -168429707 -1141047417 -67311523</internalNodes>
          <leafValues>
            -3.0410668253898621e-01 4.9190625548362732e-01</leafValues></_>
        <_>
          <internalNodes>
            0 -1 126 -1008632898 1872674490 -406818177 -278219690
            -37036100 -119668821 352025527 -1623207914</internalNodes>
          <leafValues>
            -3.7888541817665100e-01 4.0127825736999512e-01</leafValues></_>
        <_>
          <internalNodes>
            0 -1 120 364332772 162646421 495784981 1803377109 2028292624
            -2136412418 462761692 1807448851</internalNodes>
          <leafValues>
            -5.6771969795227051e-01 3.0242028832435608e-01</leafValues></_>
        <_>
          <internalNodes>
            0 -1 18 2080334547 820146038 1020948487 151172475 1258245101
            -622188546 1247736909 -360847739</internalNodes>
          <leafValues>
            -3.8887706398963928e-01 4.2116710543632507e-01</leafValues></_>
        <_>
          <internalNodes>
            0 -1 2 -288400657 -1071934944 716339935 2105108680
            -932355473 -816749141 -26255022 -542804631</internalNodes>
          <leafValues>
            -3.8360628485679626e-01 4.3145197629928589e-01</leafValues></_></weakClassifiers></_>
    <!-- stage 17 -->
    <_>
      <maxWeakCount>13</maxWeakCount>
      <stageThreshold>-1.0100207328796387e+00</stageThreshold>
      <weakClassifiers>
        <_>
          <internalNodes>
            0 -1 30 2015932332 152267200 -251596438 648102082 11077263
            139021754 1944733964 936470544</internalNodes>
          <leafValues>
            -6.1683601140975952e-01 4.5659950375556946e-01</leafValues></_>
        <_>
          <internalNodes>
            0 -1 64 -89555235 2130509284 -641740835 -134809700 -17879049
            -352649731 1877417879 -545040617</internalNodes>
          <leafValues>
            -3.5666927695274353e-01 4.0055242180824280e-01</leafValues></_>
        <_>
          <internalNodes>
            0 -1 170 -1351638433 1871581215 1743844090 2121037418
            -834742635 1824496515 -906924196 -1239336978</internalNodes>
          <leafValues>
            -3.1685155630111694e-01 4.2299756407737732e-01</leafValues></_>
        <_>
          <internalNodes>
            0 -1 188 2066479078 1966023782 201609930 226848139
            -368516608 -40941567 -1534803896 2146339311</internalNodes>
          <leafValues>
            -4.5287248492240906e-01 2.7749386429786682e-01</leafValues></_>
        <_>
          <internalNodes>
            0 -1 121 1472197182 2022615821 -1760512457 -1082160343
            1945455791 -635241259 1704214876 1337180353</internalNodes>
          <leafValues>
            -4.3103906512260437e-01 2.8937947750091553e-01</leafValues></_>
        <_>
          <internalNodes>
            0 -1 135 -385844012 -929091547 119248139 -1882715962
            -741823779 -1039546304 328960955 -1658868225</internalNodes>
          <leafValues>
            -4.3349882960319519e-01 3.0487379431724548e-01</leafValues></_>
        <_>
          <internalNodes>
            0 -1 109 1295906892 149486826 1133166675 203407404
            -1411667549 -458712661 1268368327 886624394</internalNodes>
          <leafValues>
            -5.5310279130935669e-01 2.4487844109535217e-01</leafValues></_>
        <_>
          <internalNodes>
            0 -1 172 -299638969 2130531928 2058120510 582901759
            1992144060 1557935228 -21039622 -15747073</internalNodes>
          <leafValues>
            -3.2378327846527100e-01 4.1585916280746460e-01</leafValues></_>
        <_>
          <internalNodes>
            0 -1 127 1093660692 -102039348 1452172831 -1222312306
            1231232133 -1444196910 -1681699967 290276557</internalNodes>
          <leafValues>
            -4.9826309084892273e-01 3.0762532353401184e-01</leafValues></_>
        <_>
          <internalNodes>
            0 -1 158 -1182840325 1602059047 1070427239 1037093583
            -1411739477 902610431 1438645496 -35850400</internalNodes>
          <leafValues>
            -3.1247851252555847e-01 4.6010589599609375e-01</leafValues></_>
        <_>
          <internalNodes>
            0 -1 49 -492804799 532446470 -788179749 2009012738
            1830817077 1531296526 181369320 464388376</internalNodes>
          <leafValues>
            -6.3261741399765015e-01 2.2005392611026764e-01</leafValues></_>
        <_>
          <internalNodes>
            0 -1 131 1456429306 -543859271 1178710183 -1352214040
            -1628677747 -1969895261 812987159 -1560215174</internalNodes>
          <leafValues>
            -4.0956595540046692e-01 3.5545706748962402e-01</leafValues></_>
        <_>
          <internalNodes>
            0 -1 187 2144303055 1894309256 -1971216346 572579467
            1469296949 1300367527 -888471221 -290866293</internalNodes>
          <leafValues>
            -3.8960075378417969e-01 3.9983323216438293e-01</leafValues></_></weakClassifiers></_>
    <!-- stage 18 -->
    <_>
      <maxWeakCount>13</maxWeakCount>
      <stageThreshold>-9.0513151884078979e-01</stageThreshold>
      <weakClassifiers>
        <_>
          <internalNodes>
            0 -1 138 797587210 -1119900128 -809574994 -637878706
            -272672964 -839197231 -855676939 99835897</internalNodes>
          <leafValues>
            -4.1421800851821899e-01 4.9282103776931763e-01</leafValues></_>
        <_>
          <internalNodes>
            0 -1 10 1579143143 -17289482 1805470618 198651204 1278431252
            -1169880622 -573846595 2078478673</internalNodes>
          <leafValues>
            -3.7980887293815613e-01 3.3222141861915588e-01</leafValues></_>
        <_>
          <internalNodes>
            0 -1 60 1849117728 1383393488 1780982041 777257431 519171671
            1942543388 -808612960 480095392</internalNodes>
          <leafValues>
            -6.3335305452346802e-01 1.9580118358135223e-01</leafValues></_>
        <_>
          <internalNodes>
            0 -1 192 -707279397 329322770 -1371097688 532396779
            -1210065281 -49163 -1360217934 -275775506</internalNodes>
          <leafValues>
            -2.7065274119377136e-01 4.8725986480712891e-01</leafValues></_>
        <_>
          <internalNodes>
            0 -1 148 1049475776 -1781431216 1532156415 1549140659
            -513353345 -1050735866 -1985378929 1317555294</internalNodes>
          <leafValues>
            -4.5276340842247009e-01 2.8690281510353088e-01</leafValues></_>
        <_>
          <internalNodes>
            0 -1 190 1585437262 1279975130 -502007143 -358691143
            1942287080 -875771770 1727584656 -340893281</internalNodes>
          <leafValues>
            -4.0629389882087708e-01 3.3036854863166809e-01</leafValues></_>
        <_>
          <internalNodes>
            0 -1 84 1436510191 -67467159 -132231688 -386937298
            -924856780 1572859005 1333757421 -545456132</internalNodes>
          <leafValues>
            -3.4180095791816711e-01 4.1915011405944824e-01</leafValues></_>
        <_>
          <internalNodes>
            0 -1 62 -38734352 -164237008 -644219183 -155209711
            1071120567 -897324073 1047267523 505480209</internalNodes>
          <leafValues>
            -5.3217244148254395e-01 2.6203849911689758e-01</leafValues></_>
        <_>
          <internalNodes>
            0 -1 108 1414790969 1292929067 -1718355201 -751329222
            995618603 -1930503542 1324008737 880690298</internalNodes>
          <leafValues>
            -3.8079702854156494e-01 3.5405042767524719e-01</leafValues></_>
        <_>
          <internalNodes>
            0 -1 73 1285023410 1402987483 1331412473 -520058466
            -191134520 1410457859 -154268196 -1401479587</internalNodes>
          <leafValues>
            -4.7421211004257202e-01 3.3753660321235657e-01</leafValues></_>
        <_>
          <internalNodes>
            0 -1 103 -894966142 307756191 -32014117 -925134115
            -1442105600 -1559443175 1188736765 1274561863</internalNodes>
          <leafValues>
            -5.1320552825927734e-01 2.7695077657699585e-01</leafValues></_>
        <_>
          <internalNodes>
            0 -1 46 487587515 -167585447 -1856899979 -505629444
            573476739 -125129471 642212327 -338057792</internalNodes>
          <leafValues>
            -3.8895902037620544e-01 3.9057859778404236e-01</leafValues></_>
        <_>
          <internalNodes>
            0 -1 3 -1168140705 1611172423 15986784 174262711 -1527154821
            810233191 1625639768 -67649629</internalNodes>
          <leafValues>
            -3.3380189538002014e-01 4.4156298041343689e-01</leafValues></_></weakClassifiers></_></stages>
  <features>
    <_>
      <rect>
        0 8 5 5</rect></_>
    <_>
      <rect>
        0 10 11 6</rect></_>
    <_>
      <rect>
        0 12 4 6</rect></_>
    <_>
      <rect>
        0 16 4 6</rect></_>
    <_>
      <rect>
        1 2 12 10</rect></_>
    <_>
      <rect>
        1 3 6 12</rect></_>
    <_>
      <rect>
        1 10 6 6</rect></_>
    <_>
      <rect>
        1 11 10 7</rect></_>
    <_>
      <rect>
        1 13 6 6</rect></_>
    <_>
      <rect>
        2 1 8 7</rect></_>
    <_>
      <rect>
        2 10 4 6</rect></_>
    <_>
      <rect>
        2 17 7 6</rect></_>
    <_>
      <rect>
        2 19 8 6</rect></_>
    <_>
      <rect>
        2 20 6 5</rect></_>
    <_>
      <rect>
        3 2 8 11</rect></_>
    <_>
      <rect>
        3 8 8 9</rect></_>
    <_>
      <rect>
        3 10 12 8</rect></_>
    <_>
      <rect>
        3 15 5 8</rect></_>
    <_>
      <rect>
        3 20 4 6</rect></_>
    <_>
      <rect>
        4 0 10 5</rect></_>
    <_>
      <rect>
        4 4 6 7</rect></_>
    <_>
      <rect>
        4 8 6 8</rect></_>
    <_>
      <rect>
        4 11 7 2</rect></_>
    <_>
      <rect>
        4 13 3 6</rect></_>
    <_>
      <rect>
        5 10 7 4</rect></_>
    <_>
      <rect>
        5 11 6 6</rect></_>
    <_>
      <rect>
        6 5 7 10</rect></_>
    <_>
      <rect>
        6 5 9 9</rect></_>
    <_>
      <rect>
        6 6 8 5</rect></_>
    <_>
      <rect>
        6 8 7 3</rect></_>
    <_>
      <rect>
        6 9 8 4</rect></_>
    <_>
      <rect>
        6 13 8 6</rect></_>
    <_>
      <rect>
        6 14 4 4</rect></_>
    <_>
      <rect>
        7 1 4 10</rect></_>
    <_>
      <rect>
        7 1 7 7</rect></_>
    <_>
      <rect>
        7 3 10 10</rect></_>
    <_>
      <rect>
        7 5 6 5</rect></_>
    <_>
      <rect>
        7 7 7 7</rect></_>
    <_>
      <rect>
        7 7 9 9</rect></_>
    <_>
      <rect>
        7 10 6 9</rect></_>
    <_>
      <rect>
        7 10 7 5</rect></_>
    <_>
      <rect>
        7 12 9 6</rect></_>
    <_>
      <rect>
        7 20 5 4</rect></_>
    <_>
      <rect>
        8 5 6 5</rect></_>
    <_>
      <rect>
        8 5 7 9</rect></_>
    <_>
      <rect>
        8 6 8 9</rect></_>
    <_>
      <rect>
        8 7 5 3</rect></_>
    <_>
      <rect>
        8 7 6 4</rect></_>
    <_>
      <rect>
        8 7 9 5</rect></_>
    <_>
      <rect>
        8 8 2 8</rect></_>
    <_>
      <rect>
        8 9 5 6</rect></_>
    <_>
      <rect>
        8 10 6 6</rect></_>
    <_>
      <rect>
        8 14 5 5</rect></_>
    <_>
      <rect>
        8 14 9 5</rect></_>
    <_>
      <rect>
        8 15 6 3</rect></_>
    <_>
      <rect>
        8 20 8 5</rect></_>
    <_>
      <rect>
        9 1 6 10</rect></_>
    <_>
      <rect>
        9 8 3 3</rect></_>
    <_>
      <rect>
        9 8 9 9</rect></_>
    <_>
      <rect>
        9 13 7 5</rect></_>
    <_>
      <rect>
        9 14 5 6</rect></_>
    <_>
      <rect>
        9 14 8 3</rect></_>
    <_>
      <rect>
        10 1 4 4</rect></_>
    <_>
      <rect>
        10 3 5 5</rect></_>
    <_>
      <rect>
        10 3 6 5</rect></_>
    <_>
      <rect>
        10 5 4 4</rect></_>
    <_>
      <rect>
        10 5 6 5</rect></_>
    <_>
      <rect>
        10 10 7 6</rect></_>
    <_>
      <rect>
        10 12 3 4</rect></_>
    <_>
      <rect>
        10 12 8 4</rect></_>
    <_>
      <rect>
        10 19 3 2</rect></_>
    <_>
      <rect>
        10 22 5 4</rect></_>
    <_>
      <rect>
        11 1 9 4</rect></_>
    <_>
      <rect>
        11 3 4 9</rect></_>
    <_>
      <rect>
        11 6 6 4</rect></_>
    <_>
      <rect>
        11 7 3 5</rect></_>
    <_>
      <rect>
        11 17 3 3</rect></_>
    <_>
      <rect>
        12 0 6 4</rect></_>
    <_>
      <rect>
        12 2 6 9</rect></_>
    <_>
      <rect>
        12 3 5 10</rect></_>
    <_>
      <rect>
        12 7 5 5</rect></_>
    <_>
      <rect>
        12 8 7 5</rect></_>
    <_>
      <rect>
        12 9 4 6</rect></_>
    <_>
      <rect>
        12 14 6 2</rect></_>
    <_>
      <rect>
        12 15 5 4</rect></_>
    <_>
      <rect>
        12 16 4 4</rect></_>
    <_>
      <rect>
        13 1 4 4</rect></_>
    <_>
      <rect>
        13 5 5 4</rect></_>
    <_>
      <rect>
        13 5 6 6</rect></_>
    <_>
      <rect>
        13 7 6 5</rect></_>
    <_>
      <rect>
        13 8 4 6</rect></_>
    <_>
      <rect>
        13 14 3 3</rect></_>
    <_>
      <rect>
        13 15 4 3</rect></_>
    <_>
      <rect>
        13 16 4 4</rect></_>
    <_>
      <rect>
        13 18 2 3</rect></_>
    <_>
      <rect>
        13 18 3 3</rect></_>
    <_>
      <rect>
        13 18 4 3</rect></_>
    <_>
      <rect>
        13 20 4 2</rect></_>
    <_>
      <rect>
        13 21 2 2</rect></_>
    <_>
      <rect>
        13 21 3 2</rect></_>
    <_>
      <rect>
        14 1 7 9</rect></_>
    <_>
      <rect>
        14 8 3 6</rect></_>
    <_>
      <rect>
        14 12 3 3</rect></_>
    <_>
      <rect>
        14 14 3 3</rect></_>
    <_>
      <rect>
        14 15 8 6</rect></_>
    <_>
      <rect>
        14 17 3 2</rect></_>
    <_>
      <rect>
        14 18 3 2</rect></_>
    <_>
      <rect>
        14 18 5 3</rect></_>
    <_>
      <rect>
        14 18 6 6</rect></_>
    <_>
      <rect>
        14 18 7 5</rect></_>
    <_>
      <rect>
        14 19 3 2</rect></_>
    <_>
      <rect>
        14 25 4 2</rect></_>
    <_>
      <rect>
        15 4 7 9</rect></_>
    <_>
      <rect>
        15 8 3 6</rect></_>
    <_>
      <rect>
        15 14 3 2</rect></_>
    <_>
      <rect>
        15 15 3 3</rect></_>
    <_>
      <rect>
        15 15 3 4</rect></_>
    <_>
      <rect>
        15 16 3 1</rect></_>
    <_>
      <rect>
        15 16 8 4</rect></_>
    <_>
      <rect>
        15 17 2 3</rect></_>
    <_>
      <rect>
        15 18 4 2</rect></_>
    <_>
      <rect>
        15 18 4 3</rect></_>
    <_>
      <rect>
        16 5 5 5</rect></_>
    <_>
      <rect>
        16 15 5 7</rect></_>
    <_>
      <rect>
        16 16 2 2</rect></_>
    <_>
      <rect>
        16 16 3 3</rect></_>
    <_>
      <rect>
        16 17 2 2</rect></_>
    <_>
      <rect>
        16 18 3 1</rect></_>
    <_>
      <rect>
        16 18 3 2</rect></_>
    <_>
      <rect>
        16 19 2 2</rect></_>
    <_>
      <rect>
        16 19 4 1</rect></_>
    <_>
      <rect>
        16 19 4 2</rect></_>
    <_>
      <rect>
        16 20 3 2</rect></_>
    <_>
      <rect>
        16 20 3 5</rect></_>
    <_>
      <rect>
        16 20 8 5</rect></_>
    <_>
      <rect>
        16 21 3 2</rect></_>
    <_>
      <rect>
        16 23 3 2</rect></_>
    <_>
      <rect>
        17 0 6 7</rect></_>
    <_>
      <rect>
        17 11 4 5</rect></_>
    <_>
      <rect>
        17 12 4 8</rect></_>
    <_>
      <rect>
        17 14 4 4</rect></_>
    <_>
      <rect>
        17 15 2 2</rect></_>
    <_>
      <rect>
        17 16 1 2</rect></_>
    <_>
      <rect>
        17 16 2 2</rect></_>
    <_>
      <rect>
        17 16 2 3</rect></_>
    <_>
      <rect>
        17 16 3 2</rect></_>
    <_>
      <rect>
        17 17 2 2</rect></_>
    <_>
      <rect>
        17 19 2 1</rect></_>
    <_>
      <rect>
        17 19 2 2</rect></_>
    <_>
      <rect>
        17 19 3 1</rect></_>
    <_>
      <rect>
        17 22 3 1</rect></_>
    <_>
      <rect>
        18 4 6 10</rect></_>
    <_>
      <rect>
        18 5 7 5</rect></_>
    <_>
      <rect>
        18 11 7 8</rect></_>
    <_>
      <rect>
        18 15 2 2</rect></_>
    <_>
      <rect>
        18 15 2 3</rect></_>
    <_>
      <rect>
        18 15 3 3</rect></_>
    <_>
      <rect>
        18 16 2 2</rect></_>
    <_>
      <rect>
        18 16 2 4</rect></_>
    <_>
      <rect>
        18 17 2 2</rect></_>
    <_>
      <rect>
        18 17 3 1</rect></_>
    <_>
      <rect>
        18 18 1 1</rect></_>
    <_>
      <rect>
        18 18 2 2</rect></_>
    <_>
      <rect>
        18 18 3 1</rect></_>
    <_>
      <rect>
        18 19 1 1</rect></_>
    <_>
      <rect>
        18 19 2 2</rect></_>
    <_>
      <rect>
        18 20 2 2</rect></_>
    <_>
      <rect>
        18 22 3 1</rect></_>
    <_>
      <rect>
        19 5 5 6</rect></_>
    <_>
      <rect>
        19 17 1 2</rect></_>
    <_>
      <rect>
        19 17 2 2</rect></_>
    <_>
      <rect>
        19 17 3 2</rect></_>
    <_>
      <rect>
        19 18 1 1</rect></_>
    <_>
      <rect>
        19 18 1 2</rect></_>
    <_>
      <rect>
        19 18 2 1</rect></_>
    <_>
      <rect>
        19 19 1 2</rect></_>
    <_>
      <rect>
        20 6 5 10</rect></_>
    <_>
      <rect>
        20 6 6 9</rect></_>
    <_>
      <rect>
        20 15 5 6</rect></_>
    <_>
      <rect>
        20 16 2 2</rect></_>
    <_>
      <rect>
        20 17 1 2</rect></_>
    <_>
      <rect>
        21 7 5 8</rect></_>
    <_>
      <rect>
        21 14 3 6</rect></_>
    <_>
      <rect>
        21 19 2 2</rect></_>
    <_>
      <rect>
        22 0 6 10</rect></_>
    <_>
      <rect>
        22 4 6 11</rect></_>
    <_>
      <rect>
        24 16 4 6</rect></_>
    <_>
      <rect>
        24 17 5 6</rect></_>
    <_>
      <rect>
        25 3 5 11</rect></_>
    <_>
      <rect>
        25 4 5 11</rect></_>
    <_>
      <rect>
        25 9 4 7</rect></_>
    <_>
      <rect>
        25 11 5 7</rect></_>
    <_>
      <rect>
        28 6 4 11</rect></_></features></cascade>
</opencv_storage>
