<?xml version="1.0"?>
<opencv_storage>
<stage7>
  <maxWeakCount>10</maxWeakCount>
  <stageThreshold>-7.7821636199951172e-01</stageThreshold>
  <weakClassifiers>
    <_>
      <internalNodes>
        0 -1 23169 175091375 511692543 -12583142 977075194 142544438
        -629153921 2130445751 -143362049</internalNodes>
      <leafValues>
        -4.6119403839111328e-01 5.6180256605148315e-01</leafValues></_>
    <_>
      <internalNodes>
        0 -1 22581 -5509129 -1114435 2147409397 -92975 267889607
        -1158483990 938938357 -604699643</internalNodes>
      <leafValues>
        -3.9370352029800415e-01 4.7001132369041443e-01</leafValues></_>
    <_>
      <internalNodes>
        0 -1 25632 -1091701458 609996028 1904693533 -1297623673 57869246
        -297931855 -74948673 -109163989</internalNodes>
      <leafValues>
        -4.4129949808120728e-01 3.9661034941673279e-01</leafValues></_>
    <_>
      <internalNodes>
        0 -1 46851 62616490 1756427303 2098980618 -771981489 523057080
        2142875644 371257528 -592503560</internalNodes>
      <leafValues>
        -5.6978833675384521e-01 2.9690366983413696e-01</leafValues></_>
    <_>
      <internalNodes>
        0 -1 54710 -163121434 100967938 614615208 674161099 -804404739
        2060355757 -1361917522 1879045119</internalNodes>
      <leafValues>
        -5.5901157855987549e-01 3.3030685782432556e-01</leafValues></_>
    <_>
      <internalNodes>
        0 -1 8919 -552977 851164631 -1684858593 1113265411 1157623620
        962816083 -542639097 -11206314</internalNodes>
      <leafValues>
        -5.0894546508789062e-01 3.6627483367919922e-01</leafValues></_>
    <_>
      <internalNodes>
        0 -1 37785 1884432868 977336767 -2128159495 -420168779
        1952326647 -2371363 1950492161 -133935359</internalNodes>
      <leafValues>
        -5.1875847578048706e-01 3.7991315126419067e-01</leafValues></_>
    <_>
      <internalNodes>
        0 -1 13121 -134613008 -170871815 -669491049 2144867393
        -214376454 -1749229640 -122671393 1692423953</internalNodes>
      <leafValues>
        -5.7562607526779175e-01 3.2552197575569153e-01</leafValues></_>
    <_>
      <internalNodes>
        0 -1 45159 112001192 -1342766057 -715581986 924663317
        -1457829382 -665052998 1705705943 2071616415</internalNodes>
      <leafValues>
        -6.4492541551589966e-01 2.8203770518302917e-01</leafValues></_>
    <_>
      <internalNodes>
        0 -1 35239 1558234391 -1232682829 -1019560073 -683263454
        1482411752 -1634357773 -540853313 -1824745055</internalNodes>
      <leafValues>
        -4.4569617509841919e-01 4.2589545249938965e-01</leafValues></_></weakClassifiers></stage7>
</opencv_storage>
