<?xml version="1.0"?>
<opencv_storage>
<stage4>
  <maxWeakCount>8</maxWeakCount>
  <stageThreshold>-1.0256608724594116e+00</stageThreshold>
  <weakClassifiers>
    <_>
      <internalNodes>
        0 -1 17545 1626825326 -1576782031 1071503294 -16714440
        1157066103 973229068 79643700 2146917103</internalNodes>
      <leafValues>
        -6.7414635419845581e-01 5.4090452194213867e-01</leafValues></_>
    <_>
      <internalNodes>
        0 -1 25379 -1052675 -856075 -64009 -2194476 208023271 -604569601
        1467418615 -809565433</internalNodes>
      <leafValues>
        -4.4576856493949890e-01 5.2219796180725098e-01</leafValues></_>
    <_>
      <internalNodes>
        0 -1 25905 -1561358353 1918401784 -209801222 -147195918
        -1560629258 -1183613321 -239079950 -147591</internalNodes>
      <leafValues>
        -4.5295241475105286e-01 4.8943018913269043e-01</leafValues></_>
    <_>
      <internalNodes>
        0 -1 48516 1448596823 783241563 -908488227 1711603658 -712792345
        -2138433885 -141825649 -866124821</internalNodes>
      <leafValues>
        -4.7420069575309753e-01 4.2059180140495300e-01</leafValues></_>
    <_>
      <internalNodes>
        0 -1 42960 -214773168 -674581246 1922069049 521728564 -967786112
        -1996226009 323678459 959271369</internalNodes>
      <leafValues>
        -5.0636017322540283e-01 4.1479486227035522e-01</leafValues></_>
    <_>
      <internalNodes>
        0 -1 35759 -336598161 1271648478 -804990507 1926477947
        1936794111 -1336872030 -3973005 -142640771</internalNodes>
      <leafValues>
        -4.9987420439720154e-01 4.1820016503334045e-01</leafValues></_>
    <_>
      <internalNodes>
        0 -1 50681 -484320695 1996310096 1811742268 1941593855
        -1498106632 1560048759 -1094912036 -1077995529</internalNodes>
      <leafValues>
        -4.3533259630203247e-01 5.2086532115936279e-01</leafValues></_>
    <_>
      <internalNodes>
        0 -1 39020 -171433760 1363202077 -786137702 297402811 -96177696
        -549419852 220250126 -1760619765</internalNodes>
      <leafValues>
        -5.6802421808242798e-01 4.0233767032623291e-01</leafValues></_></weakClassifiers></stage4>
</opencv_storage>
