<?xml version="1.0"?>
<opencv_storage>
<stage1>
  <maxWeakCount>6</maxWeakCount>
  <stageThreshold>-9.8713791370391846e-01</stageThreshold>
  <weakClassifiers>
    <_>
      <internalNodes>
        0 -1 22836 -1023431954 -645926913 -549483526 -80019521 16712958
        -1182855169 805244351 -8440009</internalNodes>
      <leafValues>
        -4.8936170339584351e-01 6.9522440433502197e-01</leafValues></_>
    <_>
      <internalNodes>
        0 -1 45208 1095352520 1515133021 1443433131 521606433
        -1251240774 -1406532736 -1816987653 -1709244357</internalNodes>
      <leafValues>
        -5.0814533233642578e-01 5.9575623273849487e-01</leafValues></_>
    <_>
      <internalNodes>
        0 -1 14197 1077013111 521352023 1192598014 -1083072038 536961364
        1043413643 32370534 1001089003</internalNodes>
      <leafValues>
        -7.5131273269653320e-01 4.1000020503997803e-01</leafValues></_>
    <_>
      <internalNodes>
        0 -1 48710 -784217934 352567306 1090536324 55812505 -100532072
        -1197471542 1763949448 -2104556561</internalNodes>
      <leafValues>
        -5.6454485654830933e-01 5.1454991102218628e-01</leafValues></_>
    <_>
      <internalNodes>
        0 -1 49055 -1711237904 -653720551 -2146946605 1360088081
        -1303318310 -2134900576 -2136941585 -1962704757</internalNodes>
      <leafValues>
        -4.4567871093750000e-01 6.7965632677078247e-01</leafValues></_>
    <_>
      <internalNodes>
        0 -1 48875 -780738320 -182114129 -1018163024 1461179471
        -2144566646 -400538200 141715931 -1978793761</internalNodes>
      <leafValues>
        -4.6850228309631348e-01 6.1917889118194580e-01</leafValues></_></weakClassifiers></stage1>
</opencv_storage>
