<?xml version="1.0"?>
<opencv_storage>
<stage6>
  <maxWeakCount>9</maxWeakCount>
  <stageThreshold>-1.0906047821044922e+00</stageThreshold>
  <weakClassifiers>
    <_>
      <internalNodes>
        0 -1 42385 217776811 1794109114 2046554609 -181141600 805250744
        -532491 -839245839 -168544338</internalNodes>
      <leafValues>
        -4.3821656703948975e-01 6.0677200555801392e-01</leafValues></_>
    <_>
      <internalNodes>
        0 -1 53335 1998534453 106304567 -36438049 -459222817 -659662133
        1053701075 -891693121 -1930657825</internalNodes>
      <leafValues>
        -5.5742347240447998e-01 4.0459612011909485e-01</leafValues></_>
    <_>
      <internalNodes>
        0 -1 11098 1928474599 -11446561 1004078411 -170450477 47574910
        1364688451 29206514 -71352646</internalNodes>
      <leafValues>
        -5.5744540691375732e-01 3.6191731691360474e-01</leafValues></_>
    <_>
      <internalNodes>
        0 -1 19864 2142758382 -1085284565 -1334535681 -1366494834
        1175104479 -1625556980 1677594559 -503361786</internalNodes>
      <leafValues>
        -4.4377282261848450e-01 4.5655256509780884e-01</leafValues></_>
    <_>
      <internalNodes>
        0 -1 43003 -76843205 183360248 -198000067 949590683 1468666167
        -1067827156 -246744178 -1057772609</internalNodes>
      <leafValues>
        -4.8660665750503540e-01 3.8394168019294739e-01</leafValues></_>
    <_>
      <internalNodes>
        0 -1 25515 -123539729 -1114627756 1502502711 -188490415
        -386232835 -1309734516 -89408690 -394567</internalNodes>
      <leafValues>
        -4.9047052860260010e-01 4.0014281868934631e-01</leafValues></_>
    <_>
      <internalNodes>
        0 -1 35142 -1023750116 -1566482032 -581659177 -485316109
        -388363404 -897545321 -919355943 637207993</internalNodes>
      <leafValues>
        -6.1801195144653320e-01 3.8022235035896301e-01</leafValues></_>
    <_>
      <internalNodes>
        0 -1 14555 -429923677 -887997087 -1600268320 -20129460 4933071
        1481327440 575362407 2054939971</internalNodes>
      <leafValues>
        -6.5205311775207520e-01 2.8390604257583618e-01</leafValues></_>
    <_>
      <internalNodes>
        0 -1 48861 1165959783 1332833043 1070392943 1496898702
        1142650441 825785278 1771717787 2065171135</internalNodes>
      <leafValues>
        -5.2312463521957397e-01 3.6480364203453064e-01</leafValues></_></weakClassifiers></stage6>
</opencv_storage>
