<?xml version="1.0"?>
<opencv_storage>
<stage19>
  <maxWeakCount>14</maxWeakCount>
  <stageThreshold>-1.1677043437957764e+00</stageThreshold>
  <weakClassifiers>
    <_>
      <internalNodes>
        0 -1 50577 1036 2027577654 -857246724 430519892 718453306
        1595421446 795716252 71898389</internalNodes>
      <leafValues>
        -6.1702126264572144e-01 4.5986780524253845e-01</leafValues></_>
    <_>
      <internalNodes>
        0 -1 35154 -823159682 -458759685 2063581183 -369445909
        -1879105668 -320393491 -536908291 -286248980</internalNodes>
      <leafValues>
        -3.4067231416702271e-01 3.8465633988380432e-01</leafValues></_>
    <_>
      <internalNodes>
        0 -1 48073 1073739759 100595197 -554172754 -221249801 452689006
        -822100225 -51271570 -228229249</internalNodes>
      <leafValues>
        -2.9263019561767578e-01 4.3528050184249878e-01</leafValues></_>
    <_>
      <internalNodes>
        0 -1 58959 2012203999 1659169698 2083192739 1743716283
        2139062212 -4198674 -16842818 -1008312342</internalNodes>
      <leafValues>
        -3.2843461632728577e-01 4.0084195137023926e-01</leafValues></_>
    <_>
      <internalNodes>
        0 -1 43145 1601629821 -367105091 -931209536 -776224777 985316799
        530516143 1890121963 -606662</internalNodes>
      <leafValues>
        -3.1683599948883057e-01 4.3356522917747498e-01</leafValues></_>
    <_>
      <internalNodes>
        0 -1 33834 1711169616 -433807608 1665151068 -911617455
        1223974995 2047761867 1216673886 -39068993</internalNodes>
      <leafValues>
        -4.8927775025367737e-01 2.9901933670043945e-01</leafValues></_>
    <_>
      <internalNodes>
        0 -1 36509 -618086 -571469168 1041208695 986959745 1082980915
        2084051116 2140708806 2062046637</internalNodes>
      <leafValues>
        -4.1329160332679749e-01 3.3729842305183411e-01</leafValues></_>
    <_>
      <internalNodes>
        0 -1 38966 1565149154 1588627041 -1920833712 500110091
        -1692469082 -1145339686 -2129400293 -1639460734</internalNodes>
      <leafValues>
        -4.2194306850433350e-01 3.4294015169143677e-01</leafValues></_>
    <_>
      <internalNodes>
        0 -1 7544 -279066712 -883545383 1468206898 219488368 1129931312
        -932812607 403122342 2146685439</internalNodes>
      <leafValues>
        -4.1916647553443909e-01 3.2515186071395874e-01</leafValues></_>
    <_>
      <internalNodes>
        0 -1 24762 -266867190 1901079069 1728157595 1665283035
        -1362433367 1346929723 -1181187627 810287865</internalNodes>
      <leafValues>
        -5.7560741901397705e-01 2.3126612603664398e-01</leafValues></_>
    <_>
      <internalNodes>
        0 -1 34569 -1389036807 16957671 24264375 -1961617423 -398882375
        759759018 1848836285 994552510</internalNodes>
      <leafValues>
        -3.8252454996109009e-01 3.7586554884910583e-01</leafValues></_>
    <_>
      <internalNodes>
        0 -1 39221 -104269128 1526238365 734720119 1598341143 -389506626
        -657813325 256426009 -854990265</internalNodes>
      <leafValues>
        -3.5281455516815186e-01 4.3179017305374146e-01</leafValues></_>
    <_>
      <internalNodes>
        0 -1 48910 -1401017252 -1930408577 -533946500 822499454
        -1971773832 828450109 -1550723084 2955551</internalNodes>
      <leafValues>
        -7.3406749963760376e-01 1.9570110738277435e-01</leafValues></_>
    <_>
      <internalNodes>
        0 -1 53893 182368020 -2131969441 1536655188 53720997 1103225018
        -1973406747 -729231588 -784213867</internalNodes>
      <leafValues>
        -4.7729530930519104e-01 2.9572916030883789e-01</leafValues></_></weakClassifiers></stage19>
</opencv_storage>
