<?xml version="1.0"?>
<opencv_storage>
<stage15>
  <maxWeakCount>12</maxWeakCount>
  <stageThreshold>-1.1435946226119995e+00</stageThreshold>
  <weakClassifiers>
    <_>
      <internalNodes>
        0 -1 48718 16273866 904228088 222064128 499871599 1191002697
        1836958185 269764220 1514080273</internalNodes>
      <leafValues>
        -4.4242423772811890e-01 4.8662674427032471e-01</leafValues></_>
    <_>
      <internalNodes>
        0 -1 49883 329057149 1388371021 -689189665 -631454517 -913700785
        -1618918456 -343916439 -1539154105</internalNodes>
      <leafValues>
        -4.2012706398963928e-01 3.3541935682296753e-01</leafValues></_>
    <_>
      <internalNodes>
        0 -1 5289 -815053342 1079194193 -182240937 -149714870 601163072
        1613439015 597691989 1769087676</internalNodes>
      <leafValues>
        -6.2279796600341797e-01 2.4284254014492035e-01</leafValues></_>
    <_>
      <internalNodes>
        0 -1 31306 -471176433 194568441 -489635361 -532578223 703594613
        -141366784 -372712720 -190129911</internalNodes>
      <leafValues>
        -5.2767282724380493e-01 2.2671912610530853e-01</leafValues></_>
    <_>
      <internalNodes>
        0 -1 25598 1065544644 2075185490 -787614735 -1450145068
        687055807 -1196365633 1460798867 -278575611</internalNodes>
      <leafValues>
        -5.2682614326477051e-01 2.4786184728145599e-01</leafValues></_>
    <_>
      <internalNodes>
        0 -1 26716 -1970546082 1880314110 -1305283121 -267203637
        445291173 1755465233 496919453 1922298960</internalNodes>
      <leafValues>
        -5.4046332836151123e-01 2.5757890939712524e-01</leafValues></_>
    <_>
      <internalNodes>
        0 -1 48966 -258944930 19857930 1041814015 1380714590 -620591714
        886805782 -1744193464 499631027</internalNodes>
      <leafValues>
        -5.3165918588638306e-01 2.4496984481811523e-01</leafValues></_>
    <_>
      <internalNodes>
        0 -1 40861 -681516257 618646090 -877598114 1147160329 -223663182
        -288551013 -611736861 -949238629</internalNodes>
      <leafValues>
        -4.3099981546401978e-01 3.4637901186943054e-01</leafValues></_>
    <_>
      <internalNodes>
        0 -1 46946 1331249211 -350488602 -402674974 -1163153530
        623605306 -1479576585 1496773085 -1709185332</internalNodes>
      <leafValues>
        -3.7006917595863342e-01 4.0640789270401001e-01</leafValues></_>
    <_>
      <internalNodes>
        0 -1 40943 1742503864 2113226968 -819875209 147343445 -275099096
        404396053 -879375368 1580428292</internalNodes>
      <leafValues>
        -5.6830477714538574e-01 2.6073262095451355e-01</leafValues></_>
    <_>
      <internalNodes>
        0 -1 11839 995481677 855384101 420579339 -126713543 -775517567
        988477609 -1634606755 1061745184</internalNodes>
      <leafValues>
        -4.8140084743499756e-01 3.2136577367782593e-01</leafValues></_>
    <_>
      <internalNodes>
        0 -1 22031 -577785786 1272336727 1695413677 377934244 72280064
        990525729 147575601 834214130</internalNodes>
      <leafValues>
        -6.2557995319366455e-01 2.6336163282394409e-01</leafValues></_></weakClassifiers></stage15>
</opencv_storage>
