<?xml version="1.0"?>
<opencv_storage>
<stage12>
  <maxWeakCount>12</maxWeakCount>
  <stageThreshold>-9.4687640666961670e-01</stageThreshold>
  <weakClassifiers>
    <_>
      <internalNodes>
        0 -1 28338 585706016 -1474809569 -1073112618 1892729037
        -288356801 -270376874 1083338499 348627826</internalNodes>
      <leafValues>
        -8.1475126743316650e-01 4.5689496397972107e-01</leafValues></_>
    <_>
      <internalNodes>
        0 -1 42898 1594317408 -280050300 604311338 72452311 -451918336
        -1999894304 1891296924 124771273</internalNodes>
      <leafValues>
        -5.7819235324859619e-01 2.8773397207260132e-01</leafValues></_>
    <_>
      <internalNodes>
        0 -1 33282 908587279 -250349102 -751609601 -1375939151
        -1343411209 -68593825 -1060467257 -2051865251</internalNodes>
      <leafValues>
        -4.1231325268745422e-01 3.3008080720901489e-01</leafValues></_>
    <_>
      <internalNodes>
        0 -1 45221 880275680 894900027 1627472076 655651225 -2147479319
        -2138767199 2690749 689009728</internalNodes>
      <leafValues>
        -6.1930960416793823e-01 2.2388690710067749e-01</leafValues></_>
    <_>
      <internalNodes>
        0 -1 14739 1534805507 -637378933 -879345453 -114710458 89933320
        1217037971 1590102749 1610054484</internalNodes>
      <leafValues>
        -5.2243900299072266e-01 2.7419638633728027e-01</leafValues></_>
    <_>
      <internalNodes>
        0 -1 38843 -1425054958 2113162368 1261388084 -1610625317
        151184602 -1718195048 1412419859 -512049019</internalNodes>
      <leafValues>
        -4.5981532335281372e-01 3.1881588697433472e-01</leafValues></_>
    <_>
      <internalNodes>
        0 -1 58069 2127819875 -1566087581 1484804475 -1298605638
        994393093 1062969798 -605824626 1511972203</internalNodes>
      <leafValues>
        -4.3973147869110107e-01 3.3338028192520142e-01</leafValues></_>
    <_>
      <internalNodes>
        0 -1 48820 2145903246 611733195 -2062322247 459298047 1305520670
        -119471226 -361062627 -8593611</internalNodes>
      <leafValues>
        -4.2080226540565491e-01 3.8406425714492798e-01</leafValues></_>
    <_>
      <internalNodes>
        0 -1 44224 -151571595 889192191 2013261812 -717423057 805011441
        -50593921 -939573377 -95658185</internalNodes>
      <leafValues>
        -3.8994672894477844e-01 4.0958911180496216e-01</leafValues></_>
    <_>
      <internalNodes>
        0 -1 7013 -653272876 -7902855 -100515822 1071149836 413260614
        849875448 51134586 1531793803</internalNodes>
      <leafValues>
        -5.8338564634323120e-01 2.8262487053871155e-01</leafValues></_>
    <_>
      <internalNodes>
        0 -1 44998 1205073851 1372776051 290580555 -1086399760
        -1910521861 -661340472 865583037 -1212909110</internalNodes>
      <leafValues>
        -2.8159436583518982e-01 6.1434900760650635e-01</leafValues></_>
    <_>
      <internalNodes>
        0 -1 45269 -141511592 2132621517 -1653812001 -1620431482
        -804722517 -1946107856 2690511 1002152225</internalNodes>
      <leafValues>
        -4.6541896462440491e-01 3.5119152069091797e-01</leafValues></_></weakClassifiers></stage12>
</opencv_storage>
