<?xml version="1.0"?>
<opencv_storage>
<stage8>
  <maxWeakCount>11</maxWeakCount>
  <stageThreshold>-1.1559226512908936e+00</stageThreshold>
  <weakClassifiers>
    <_>
      <internalNodes>
        0 -1 5092 686755462 1892749680 -48688550 865146194 7450484
        820295681 1838897146 864496539</internalNodes>
      <leafValues>
        -7.1428573131561279e-01 4.8596525192260742e-01</leafValues></_>
    <_>
      <internalNodes>
        0 -1 37995 -336649677 -495465881 -582643465 1050342029
        -313973771 -1146245940 -120696978 -238190817</internalNodes>
      <leafValues>
        -4.5252570509910583e-01 3.8991701602935791e-01</leafValues></_>
    <_>
      <internalNodes>
        0 -1 30556 297991665 -140708363 1428541905 -286987056 143894743
        -56890521 188416129 -857898880</internalNodes>
      <leafValues>
        -4.0443086624145508e-01 4.0108013153076172e-01</leafValues></_>
    <_>
      <internalNodes>
        0 -1 26342 -1900545 -553783592 -890253766 573566842 1443765591
        -90636418 -2101250 -1157627905</internalNodes>
      <leafValues>
        -3.3763837814331055e-01 4.9439153075218201e-01</leafValues></_>
    <_>
      <internalNodes>
        0 -1 52217 -16816606 782757795 -939191788 -132104264 -903109599
        1281575435 501845152 623568287</internalNodes>
      <leafValues>
        -6.8053793907165527e-01 2.2961705923080444e-01</leafValues></_>
    <_>
      <internalNodes>
        0 -1 48918 1887670352 -618002513 1162878301 287039819 1831258362
        -1298996970 88123579 287541275</internalNodes>
      <leafValues>
        -5.9290200471878052e-01 2.8352877497673035e-01</leafValues></_>
    <_>
      <internalNodes>
        0 -1 50647 291476876 -638068129 402744926 1595886011 -2090424084
        1365911256 -1559435575 -616573043</internalNodes>
      <leafValues>
        -4.2143929004669189e-01 4.0402033925056458e-01</leafValues></_>
    <_>
      <internalNodes>
        0 -1 46889 -572162612 -1646354373 1451261849 234904720
        -780596910 -1325391511 1799610233 -1603320143</internalNodes>
      <leafValues>
        -4.8360401391983032e-01 3.6502116918563843e-01</leafValues></_>
    <_>
      <internalNodes>
        0 -1 28788 1869287015 239771804 -1451434652 626778134 -453513739
        -1631247077 -404031299 -203649257</internalNodes>
      <leafValues>
        -5.3133511543273926e-01 3.2884937524795532e-01</leafValues></_>
    <_>
      <internalNodes>
        0 -1 47999 1596960517 1087936575 -183788665 -1028988515
        -913212049 -372430712 -637399922 -1401787925</internalNodes>
      <leafValues>
        -5.1606053113937378e-01 3.5176563262939453e-01</leafValues></_>
    <_>
      <internalNodes>
        0 -1 20679 -2050492563 1779613159 -48147143 938872837 1677539125
        935858984 1736536948 1397842336</internalNodes>
      <leafValues>
        -6.3150125741958618e-01 2.8837582468986511e-01</leafValues></_></weakClassifiers></stage8>
</opencv_storage>
