<?xml version="1.0"?>
<opencv_storage>
<stage5>
  <maxWeakCount>8</maxWeakCount>
  <stageThreshold>-8.2900273799896240e-01</stageThreshold>
  <weakClassifiers>
    <_>
      <internalNodes>
        0 -1 26288 -1356649942 206623547 -994326033 22135053 -988549633
        -2068976998 -238070401 -789788603</internalNodes>
      <leafValues>
        -5.6605422496795654e-01 5.4498660564422607e-01</leafValues></_>
    <_>
      <internalNodes>
        0 -1 30579 -5266435 2130247597 -268501025 -537092721 1467953151
        -67895297 1341067191 -139262203</internalNodes>
      <leafValues>
        -4.5324358344078064e-01 4.9443078041076660e-01</leafValues></_>
    <_>
      <internalNodes>
        0 -1 17448 -279450066 1040973310 271898588 -1112651164
        1088210303 855450746 1726631751 -3178745</internalNodes>
      <leafValues>
        -5.8731859922409058e-01 3.2937794923782349e-01</leafValues></_>
    <_>
      <internalNodes>
        0 -1 24034 -497615762 1355922143 1678009375 305108335 2130868243
        829670935 -288667086 857145377</internalNodes>
      <leafValues>
        -6.4442831277847290e-01 3.0341655015945435e-01</leafValues></_>
    <_>
      <internalNodes>
        0 -1 4930 -281557041 -255638150 1431386481 -141198890 1118914384
        1077130266 29649886 2012964799</internalNodes>
      <leafValues>
        -5.5850535631179810e-01 3.2884705066680908e-01</leafValues></_>
    <_>
      <internalNodes>
        0 -1 19758 1893105839 806488316 -783425250 -251933263 1103071480
        299497501 -68645890 -156582211</internalNodes>
      <leafValues>
        -5.6997507810592651e-01 3.2250782847404480e-01</leafValues></_>
    <_>
      <internalNodes>
        0 -1 38646 -251568013 -44268360 -1294276768 168412341
        -1331015083 -11622133 1939766257 2131195775</internalNodes>
      <leafValues>
        -5.6034475564956665e-01 3.6944279074668884e-01</leafValues></_>
    <_>
      <internalNodes>
        0 -1 54414 -485687314 1946537989 -33368940 625792073 -834350972
        -568278779 -859139849 586111710</internalNodes>
      <leafValues>
        -5.3350955247879028e-01 3.9418751001358032e-01</leafValues></_></weakClassifiers></stage5>
</opencv_storage>
