<?xml version="1.0"?>
<opencv_storage>
<stage9>
  <maxWeakCount>10</maxWeakCount>
  <stageThreshold>-1.3803561925888062e+00</stageThreshold>
  <weakClassifiers>
    <_>
      <internalNodes>
        0 -1 36249 416685584 -796989706 1263421973 -1052004770 626466816
        -1210116650 456613146 -1678248994</internalNodes>
      <leafValues>
        -2.8214284777641296e-01 5.7268518209457397e-01</leafValues></_>
    <_>
      <internalNodes>
        0 -1 22067 -237502516 -53677732 -242676267 -246120104 1486040800
        -1610448156 1823672977 1869694862</internalNodes>
      <leafValues>
        -5.3088951110839844e-01 3.3554980158805847e-01</leafValues></_>
    <_>
      <internalNodes>
        0 -1 46953 1363529976 -1856429345 1676765042 -1381021769
        -1064744736 989373651 167824216 1069371183</internalNodes>
      <leafValues>
        -5.3146052360534668e-01 3.0111381411552429e-01</leafValues></_>
    <_>
      <internalNodes>
        0 -1 34100 -752881970 1490224859 1232663 471424256 -272084528
        2089240720 1242772399 -649729895</internalNodes>
      <leafValues>
        -4.1426399350166321e-01 3.8953009247779846e-01</leafValues></_>
    <_>
      <internalNodes>
        0 -1 47000 -146684968 -2024024562 -423352513 -1688212586
        46605400 -904212963 -1408519543 707773066</internalNodes>
      <leafValues>
        -5.2111852169036865e-01 3.2007154822349548e-01</leafValues></_>
    <_>
      <internalNodes>
        0 -1 50688 -180100968 -595088253 1195427167 1332340163
        -2007831350 -1668803143 -1821196833 -1103413854</internalNodes>
      <leafValues>
        -4.5683845877647400e-01 4.1497156023979187e-01</leafValues></_>
    <_>
      <internalNodes>
        0 -1 22860 289012334 823300400 1946949643 -712932303 -858544035
        -239216496 -373244662 537513034</internalNodes>
      <leafValues>
        -5.6154578924179077e-01 3.3113718032836914e-01</leafValues></_>
    <_>
      <internalNodes>
        0 -1 36379 -543719166 1606850388 1435870513 535945047 202357747
        228297940 1521469172 -675223136</internalNodes>
      <leafValues>
        -5.1210045814514160e-01 3.3695149421691895e-01</leafValues></_>
    <_>
      <internalNodes>
        0 -1 13666 2135479128 -36540388 -1929326123 701003223
        -2125406138 -1415514097 1694585236 1978336729</internalNodes>
      <leafValues>
        -6.0407555103302002e-01 3.0591449141502380e-01</leafValues></_>
    <_>
      <internalNodes>
        0 -1 30332 1921753044 -164570152 298424707 -168322926 1654761429
        -391971499 1770853273 -277669993</internalNodes>
      <leafValues>
        -4.5534998178482056e-01 4.0527185797691345e-01</leafValues></_></weakClassifiers></stage9>
</opencv_storage>
