<?xml version="1.0"?>
<opencv_storage>
<stage16>
  <maxWeakCount>15</maxWeakCount>
  <stageThreshold>-1.0112625360488892e+00</stageThreshold>
  <weakClassifiers>
    <_>
      <internalNodes>
        0 -1 26256 1719085134 544299727 -1403541254 776253584 140619638
        980171466 898490887 71357320</internalNodes>
      <leafValues>
        -6.4549481868743896e-01 4.5782452821731567e-01</leafValues></_>
    <_>
      <internalNodes>
        0 -1 47097 -433396656 621743557 -165992136 125361973 -1988284152
        1245448159 -983324102 823080478</internalNodes>
      <leafValues>
        -6.1924910545349121e-01 2.1729880571365356e-01</leafValues></_>
    <_>
      <internalNodes>
        0 -1 31261 -338091826 794574239 -774224465 -318183936 554182647
        -1157530224 -179174511 1173838241</internalNodes>
      <leafValues>
        -5.3349852561950684e-01 2.4347914755344391e-01</leafValues></_>
    <_>
      <internalNodes>
        0 -1 58808 -206903706 1344496707 1783121608 2123069929
        -1441822688 1806045866 -1333755780 2078993374</internalNodes>
      <leafValues>
        -4.7425431013107300e-01 2.9044222831726074e-01</leafValues></_>
    <_>
      <internalNodes>
        0 -1 37339 2012790769 -409736996 -896706127 -206312556
        -1869411601 -1343276129 -385977409 -1172957679</internalNodes>
      <leafValues>
        -3.6692756414413452e-01 3.6731213331222534e-01</leafValues></_>
    <_>
      <internalNodes>
        0 -1 45033 1673376953 -812626183 -1599968109 -1948735256
        -279379928 -560746617 2033282681 507658920</internalNodes>
      <leafValues>
        -4.5568308234214783e-01 2.9842948913574219e-01</leafValues></_>
    <_>
      <internalNodes>
        0 -1 42899 -6307294 1406701562 -952728576 -2010121383
        -1409839961 -1732334193 1073650404 -496343180</internalNodes>
      <leafValues>
        -4.0574634075164795e-01 3.3788102865219116e-01</leafValues></_>
    <_>
      <internalNodes>
        0 -1 38836 1125933968 2064943758 -1441418611 -1954700777
        -951102481 2039259032 -2075849064 -581182319</internalNodes>
      <leafValues>
        -4.4511660933494568e-01 3.1559699773788452e-01</leafValues></_>
    <_>
      <internalNodes>
        0 -1 48709 -643830404 935220607 -11908129 1705993213 1791930610
        -1255995973 -1374618629 -1630023429</internalNodes>
      <leafValues>
        -3.5959285497665405e-01 3.9760679006576538e-01</leafValues></_>
    <_>
      <internalNodes>
        0 -1 22375 -1718880791 1418939345 -1056845623 617673425
        -611213321 -1982570123 1518970067 915038009</internalNodes>
      <leafValues>
        -4.3762814998626709e-01 3.5362452268600464e-01</leafValues></_>
    <_>
      <internalNodes>
        0 -1 28878 -336761033 -207426580 -957355199 -1456738312
        1258113529 -168429707 -1141047417 -67311523</internalNodes>
      <leafValues>
        -3.0410668253898621e-01 4.9190625548362732e-01</leafValues></_>
    <_>
      <internalNodes>
        0 -1 45096 -1008632898 1872674490 -406818177 -278219690
        -37036100 -119668821 352025527 -1623207914</internalNodes>
      <leafValues>
        -3.7888541817665100e-01 4.0127825736999512e-01</leafValues></_>
    <_>
      <internalNodes>
        0 -1 43086 364332772 162646421 495784981 1803377109 2028292624
        -2136412418 462761692 1807448851</internalNodes>
      <leafValues>
        -5.6771969795227051e-01 3.0242028832435608e-01</leafValues></_>
    <_>
      <internalNodes>
        0 -1 12267 2080334547 820146038 1020948487 151172475 1258245101
        -622188546 1247736909 -360847739</internalNodes>
      <leafValues>
        -3.8887706398963928e-01 4.2116710543632507e-01</leafValues></_>
    <_>
      <internalNodes>
        0 -1 1774 -288400657 -1071934944 716339935 2105108680 -932355473
        -816749141 -26255022 -542804631</internalNodes>
      <leafValues>
        -3.8360628485679626e-01 4.3145197629928589e-01</leafValues></_></weakClassifiers></stage16>
</opencv_storage>
