<?xml version="1.0"?>
<opencv_storage>
<stage14>
  <maxWeakCount>14</maxWeakCount>
  <stageThreshold>-1.2158888578414917e+00</stageThreshold>
  <weakClassifiers>
    <_>
      <internalNodes>
        0 -1 31115 539635214 79100595 -645465712 -126718698 31395773
        -170662759 -586541028 1668017340</internalNodes>
      <leafValues>
        -7.2638434171676636e-01 4.5414036512374878e-01</leafValues></_>
    <_>
      <internalNodes>
        0 -1 53713 735751714 146455299 507841645 1547762151 571776160
        136927232 2080817065 193347336</internalNodes>
      <leafValues>
        -5.6756138801574707e-01 2.8677114844322205e-01</leafValues></_>
    <_>
      <internalNodes>
        0 -1 10286 -18699098 -184436403 1528663506 -163556900 1419881813
        -2128551912 495685106 422972638</internalNodes>
      <leafValues>
        -6.0695898532867432e-01 1.8501925468444824e-01</leafValues></_>
    <_>
      <internalNodes>
        0 -1 34908 -659326479 -52232667 -1460478477 -651101839 -51384437
        -72682049 -290594917 968310273</internalNodes>
      <leafValues>
        -3.6330828070640564e-01 3.7695118784904480e-01</leafValues></_>
    <_>
      <internalNodes>
        0 -1 46937 -172432352 -1867370576 -118194693 -1577241936
        -1405579521 2132118670 1721393383 -96681944</internalNodes>
      <leafValues>
        -3.8487604260444641e-01 3.4445586800575256e-01</leafValues></_>
    <_>
      <internalNodes>
        0 -1 50682 171453952 360605523 -1243147465 335700519 -1134804776
        1432006075 559013994 1393134346</internalNodes>
      <leafValues>
        -7.1333467960357666e-01 1.8694214522838593e-01</leafValues></_>
    <_>
      <internalNodes>
        0 -1 38850 -13119174 1942940977 1215160351 -2066522849
        -875593604 23333453 1205059223 -976040496</internalNodes>
      <leafValues>
        -4.2887714505195618e-01 3.1515291333198547e-01</leafValues></_>
    <_>
      <internalNodes>
        0 -1 46732 494833336 1804985084 -1447304060 -1377909872
        1261431533 -465527652 686985352 -1937244089</internalNodes>
      <leafValues>
        -5.5346649885177612e-01 2.4206320941448212e-01</leafValues></_>
    <_>
      <internalNodes>
        0 -1 45208 1103733454 -629370721 1389160329 824007953
        -1154547210 -150335269 -1821850856 -231242886</internalNodes>
      <leafValues>
        -4.1035291552543640e-01 3.3967411518096924e-01</leafValues></_>
    <_>
      <internalNodes>
        0 -1 31815 -25407265 1542466301 -934504194 796625613 -713337102
        2079372391 -2014068758 -12190716</internalNodes>
      <leafValues>
        -3.6789420247077942e-01 4.1660356521606445e-01</leafValues></_>
    <_>
      <internalNodes>
        0 -1 52277 -342313928 -86110243 -40181773 1034577272 -2012829478
        -1164965668 -1713719953 -751754783</internalNodes>
      <leafValues>
        -4.2345276474952698e-01 3.5502153635025024e-01</leafValues></_>
    <_>
      <internalNodes>
        0 -1 46945 -37752999 -1363216584 1799879300 -282655387
        -638084710 -1712882923 -1715835183 -22822569</internalNodes>
      <leafValues>
        -3.0994218587875366e-01 5.0261956453323364e-01</leafValues></_>
    <_>
      <internalNodes>
        0 -1 53928 1588070608 56486984 -568946280 357880593 -2011641166
        2024415976 -1459365235 598141563</internalNodes>
      <leafValues>
        -5.6536042690277100e-01 2.8420069813728333e-01</leafValues></_>
    <_>
      <internalNodes>
        0 -1 35820 1459468457 -736889845 1564742980 1495712704 -31956796
        -116530995 -1316353711 -219328526</internalNodes>
      <leafValues>
        -3.9252266287803650e-01 4.0095269680023193e-01</leafValues></_></weakClassifiers></stage14>
</opencv_storage>
