<?xml version="1.0"?>
<opencv_storage>
<stage13>
  <maxWeakCount>14</maxWeakCount>
  <stageThreshold>-1.2417634725570679e+00</stageThreshold>
  <weakClassifiers>
    <_>
      <internalNodes>
        0 -1 9182 353480450 659195958 -1856425250 146604253 1141493418
        1682111134 -2084811852 32574292</internalNodes>
      <leafValues>
        -4.8592412471771240e-01 4.6247348189353943e-01</leafValues></_>
    <_>
      <internalNodes>
        0 -1 12250 -1032065392 170565798 1897265116 1467232258
        -646394642 -2006546354 271624959 489966854</internalNodes>
      <leafValues>
        -5.3118163347244263e-01 2.3437850177288055e-01</leafValues></_>
    <_>
      <internalNodes>
        0 -1 855 -1612982102 -877537963 -221580463 -138525360 -790082933
        -783793373 -1576910152 -950801672</internalNodes>
      <leafValues>
        -3.9552623033523560e-01 3.1147250533103943e-01</leafValues></_>
    <_>
      <internalNodes>
        0 -1 12877 -214981713 1918316318 678927824 450839192 -1853119753
        74701078 898504178 1122714844</internalNodes>
      <leafValues>
        -4.7656279802322388e-01 2.5980809330940247e-01</leafValues></_>
    <_>
      <internalNodes>
        0 -1 9138 953725079 -1081299364 -1878232262 -1277580707
        -934029350 1837003238 -1473158475 2109895895</internalNodes>
      <leafValues>
        -4.1588234901428223e-01 2.8809514641761780e-01</leafValues></_>
    <_>
      <internalNodes>
        0 -1 2323 -1009925250 1441919277 -20981967 -596418703 146326447
        -1021150089 -1392544739 -667724417</internalNodes>
      <leafValues>
        -3.1636920571327209e-01 3.9245206117630005e-01</leafValues></_>
    <_>
      <internalNodes>
        0 -1 13029 1444852455 1409840767 -266880196 1488731455
        -824409145 -1435612223 -20669698 -1943321089</internalNodes>
      <leafValues>
        -3.5990932583808899e-01 3.5878458619117737e-01</leafValues></_>
    <_>
      <internalNodes>
        0 -1 12228 -2124162924 -1870992691 -679680054 -136387201
        -943855742 -753971431 -1619405601 -685812721</internalNodes>
      <leafValues>
        -3.8676214218139648e-01 3.6770525574684143e-01</leafValues></_>
    <_>
      <internalNodes>
        0 -1 11393 -893728040 1530067290 -133650024 1562228157 205509768
        1213009597 1493420686 459568341</internalNodes>
      <leafValues>
        -6.3826006650924683e-01 2.2830976545810699e-01</leafValues></_>
    <_>
      <internalNodes>
        0 -1 4000 -260971682 1044320344 1080624527 -1954643728 327534903
        -832130898 -1736323467 261089532</internalNodes>
      <leafValues>
        -4.4158375263214111e-01 3.1293067336082458e-01</leafValues></_>
    <_>
      <internalNodes>
        0 -1 10368 -2045279481 1383154113 -297679314 -726826091
        1410326000 -12660236 -607273176 2028665815</internalNodes>
      <leafValues>
        -4.1097998619079590e-01 3.3403003215789795e-01</leafValues></_>
    <_>
      <internalNodes>
        0 -1 11448 -1817450305 -340264011 405899869 -1819754727
        2012872139 -626890758 1348730607 -1435504869</internalNodes>
      <leafValues>
        -2.7978968620300293e-01 5.1791930198669434e-01</leafValues></_>
    <_>
      <internalNodes>
        0 -1 5370 456659102 1095161422 2018602751 189256024 1260438508
        -1547383970 180243271 1811937887</internalNodes>
      <leafValues>
        -4.4838574528694153e-01 3.2728424668312073e-01</leafValues></_>
    <_>
      <internalNodes>
        0 -1 13719 1260032022 -112228730 -2052341590 2146950634
        1500955083 -626391684 60259191 1194320606</internalNodes>
      <leafValues>
        -4.6933594346046448e-01 3.0379268527030945e-01</leafValues></_></weakClassifiers></stage13>
</opencv_storage>
