<?xml version="1.0"?>
<opencv_storage>
<stage20>
  <maxWeakCount>15</maxWeakCount>
  <stageThreshold>-1.1791112422943115e+00</stageThreshold>
  <weakClassifiers>
    <_>
      <internalNodes>
        0 -1 12070 -145336574 466947604 -1721846404 455270108 316309184
        2012741460 771523642 79586590</internalNodes>
      <leafValues>
        -3.3994588255882263e-01 4.8599469661712646e-01</leafValues></_>
    <_>
      <internalNodes>
        0 -1 10388 -1294933386 2054313886 -391528001 -259476006
        -144835139 1315724923 -2012805956 -839845374</internalNodes>
      <leafValues>
        -3.4767961502075195e-01 3.3084145188331604e-01</leafValues></_>
    <_>
      <internalNodes>
        0 -1 11442 -770480222 -130158961 -266202732 1964538422
        -621022469 -657221577 -304030499 410437896</internalNodes>
      <leafValues>
        -3.8497722148895264e-01 3.1093686819076538e-01</leafValues></_>
    <_>
      <internalNodes>
        0 -1 3882 1280082012 485250268 -2058396073 -925102875 564462207
        -305647491 166470258 170013526</internalNodes>
      <leafValues>
        -5.4881155490875244e-01 2.0706799626350403e-01</leafValues></_>
    <_>
      <internalNodes>
        0 -1 9348 1549173698 2078249370 133224686 2082507360 135761806
        -182447221 43748384 1983084219</internalNodes>
      <leafValues>
        -5.1240092515945435e-01 2.3009066283702850e-01</leafValues></_>
    <_>
      <internalNodes>
        0 -1 6927 -1383113408 -727409350 -1193812228 22250001 -233074554
        -2019433253 -62871330 -2129434394</internalNodes>
      <leafValues>
        -4.1277012228965759e-01 2.8598856925964355e-01</leafValues></_>
    <_>
      <internalNodes>
        0 -1 13852 -1402216398 -1705536056 1092500191 1342231333
        -44302912 -485103392 -399591461 996908030</internalNodes>
      <leafValues>
        -4.1990709304809570e-01 3.0209228396415710e-01</leafValues></_>
    <_>
      <internalNodes>
        0 -1 11364 -2064099808 -489245221 -225444350 -1783250778
        -2004549407 -1166440383 2058094822 170656522</internalNodes>
      <leafValues>
        -5.3274184465408325e-01 2.4944141507148743e-01</leafValues></_>
    <_>
      <internalNodes>
        0 -1 10237 -260103553 1218605724 -51468034 -503638744 1863288004
        1326400019 -603943459 -171059857</internalNodes>
      <leafValues>
        -3.4462869167327881e-01 4.0749406814575195e-01</leafValues></_>
    <_>
      <internalNodes>
        0 -1 980 -167580094 -1767811218 -978895488 -1323051581 536965135
        75202367 -374292252 7849705</internalNodes>
      <leafValues>
        -5.1844567060470581e-01 2.7074900269508362e-01</leafValues></_>
    <_>
      <internalNodes>
        0 -1 9221 -179660175 -653823180 2051553357 940316877 361190173
        1866673467 9208157 1279273013</internalNodes>
      <leafValues>
        -4.3975198268890381e-01 3.0417546629905701e-01</leafValues></_>
    <_>
      <internalNodes>
        0 -1 6903 1001433866 1234600839 -1495327265 891973509 -325220747
        -157220155 -323706877 -1411273510</internalNodes>
      <leafValues>
        -3.9343237876892090e-01 3.4404218196868896e-01</leafValues></_>
    <_>
      <internalNodes>
        0 -1 8202 -2069009178 1382847316 1104431956 -680783676 977468136
        -735882543 -2069627360 1881347574</internalNodes>
      <leafValues>
        -5.1125591993331909e-01 2.8391203284263611e-01</leafValues></_>
    <_>
      <internalNodes>
        0 -1 6910 -1701639735 -1140872772 171205463 -608183659 -4204145
        2131162832 -536933873 -79301892</internalNodes>
      <leafValues>
        -2.7471020817756653e-01 5.1457077264785767e-01</leafValues></_>
    <_>
      <internalNodes>
        0 -1 3845 -261168736 576086956 -1257874912 1528288856
        -1685388997 142754481 128869934 463205164</internalNodes>
      <leafValues>
        -5.6244689226150513e-01 2.7416092157363892e-01</leafValues></_></weakClassifiers></stage20>
</opencv_storage>
