<?xml version="1.0"?>
<opencv_storage>
<stage18>
  <maxWeakCount>16</maxWeakCount>
  <stageThreshold>-1.2242063283920288e+00</stageThreshold>
  <weakClassifiers>
    <_>
      <internalNodes>
        0 -1 6690 1059979802 223879792 889397998 10488420 -2098554134
        280015682 906010755 539228925</internalNodes>
      <leafValues>
        -5.3333336114883423e-01 4.4044944643974304e-01</leafValues></_>
    <_>
      <internalNodes>
        0 -1 10272 -445077859 1247436811 1287140859 -884445982
        2067252759 -196644355 -20394536 1145815769</internalNodes>
      <leafValues>
        -3.3865147829055786e-01 3.2787537574768066e-01</leafValues></_>
    <_>
      <internalNodes>
        0 -1 8217 1520378393 -17368349 -1535537079 -1216907265
        -1271826440 -1191595843 -1646292724 -16972921</internalNodes>
      <leafValues>
        -2.7727407217025757e-01 4.1368883848190308e-01</leafValues></_>
    <_>
      <internalNodes>
        0 -1 12176 -294333525 -1648845859 -1542100947 -1660625618
        -779881706 -780994785 -1311174470 -380358</internalNodes>
      <leafValues>
        -2.8533971309661865e-01 3.9174881577491760e-01</leafValues></_>
    <_>
      <internalNodes>
        0 -1 6829 -27984369 1897921031 -95094629 1359192222 1979475415
        1922071659 1894409830 -583311621</internalNodes>
      <leafValues>
        -3.7221679091453552e-01 3.3608755469322205e-01</leafValues></_>
    <_>
      <internalNodes>
        0 -1 12230 -138170093 -1357709542 -851138606 2012872010
        169708234 -1447251774 -581304353 -1761929205</internalNodes>
      <leafValues>
        -2.8309896588325500e-01 4.1479468345642090e-01</leafValues></_>
    <_>
      <internalNodes>
        0 -1 10395 -365767404 -541155216 -1781277336 -669990645
        -771293313 -1100192396 -951101269 214506687</internalNodes>
      <leafValues>
        -4.3760049343109131e-01 2.7113166451454163e-01</leafValues></_>
    <_>
      <internalNodes>
        0 -1 9291 -222572926 2040527940 2022996058 -632220361 -99998276
        -1034048475 1937268927 421595154</internalNodes>
      <leafValues>
        -4.5287635922431946e-01 2.7002793550491333e-01</leafValues></_>
    <_>
      <internalNodes>
        0 -1 5562 178803081 -1643440763 -857877061 364876823 1544062555
        -662332160 1286449365 352589316</internalNodes>
      <leafValues>
        -4.9408113956451416e-01 2.4406194686889648e-01</leafValues></_>
    <_>
      <internalNodes>
        0 -1 955 973289408 1434400165 34555120 1070957442 1481521254
        1561302899 101328830 2078373130</internalNodes>
      <leafValues>
        -5.6300663948059082e-01 2.1978348493576050e-01</leafValues></_>
    <_>
      <internalNodes>
        0 -1 929 -149192661 -578549075 479821347 387686415 -967904905
        -2003695577 -522586825 343929027</internalNodes>
      <leafValues>
        -4.5565792918205261e-01 2.5672397017478943e-01</leafValues></_>
    <_>
      <internalNodes>
        0 -1 12994 1401159888 1954558774 2000156165 533126044 1766846924
        -157591640 254162220 464225778</internalNodes>
      <leafValues>
        -5.1880812644958496e-01 2.5844267010688782e-01</leafValues></_>
    <_>
      <internalNodes>
        0 -1 7344 -1314913162 -614659868 162894554 2069492277 2070788851
        -328346445 -232209711 36384388</internalNodes>
      <leafValues>
        -4.9650341272354126e-01 2.5268563628196716e-01</leafValues></_>
    <_>
      <internalNodes>
        0 -1 5388 1597525375 514476347 1051963175 1523485412 1446993838
        -598815400 -671121441 -50402112</internalNodes>
      <leafValues>
        -2.9737070202827454e-01 4.4400903582572937e-01</leafValues></_>
    <_>
      <internalNodes>
        0 -1 9174 -60705697 -1956697821 1192909106 1935085302
        -1710356577 1076524334 280163287 1329758143</internalNodes>
      <leafValues>
        -3.5737928748130798e-01 3.6896467208862305e-01</leafValues></_>
    <_>
      <internalNodes>
        0 -1 10247 567347118 842418903 278629670 1436158011 135323224
        1147950767 1235760045 -399413598</internalNodes>
      <leafValues>
        -5.3441572189331055e-01 2.6775804162025452e-01</leafValues></_></weakClassifiers></stage18>
</opencv_storage>
