<?xml version="1.0"?>
<opencv_storage>
<stage5>
  <maxWeakCount>12</maxWeakCount>
  <stageThreshold>-1.3003692626953125e+00</stageThreshold>
  <weakClassifiers>
    <_>
      <internalNodes>
        0 -1 9147 1966972446 3211967 -1860992002 146342477 350557436
        1221694171 412340208 16026181</internalNodes>
      <leafValues>
        -5.5271565914154053e-01 4.9772772192955017e-01</leafValues></_>
    <_>
      <internalNodes>
        0 -1 13029 1410240524 -693355660 1379907388 1345008895
        -825474112 1311902427 -1966241042 136027855</internalNodes>
      <leafValues>
        -6.2545806169509888e-01 2.7350586652755737e-01</leafValues></_>
    <_>
      <internalNodes>
        0 -1 8067 -1237511137 939518669 293053678 -1535268236 -50929701
        -101034662 -2687011 -36341772</internalNodes>
      <leafValues>
        -3.7869367003440857e-01 4.4604125618934631e-01</leafValues></_>
    <_>
      <internalNodes>
        0 -1 10188 -144704187 360705533 1077369086 33810479 1365046906
        -715794984 -1728070405 -355043124</internalNodes>
      <leafValues>
        -3.8300997018814087e-01 3.9513698220252991e-01</leafValues></_>
    <_>
      <internalNodes>
        0 -1 9293 1392956379 -549917604 57845968 -1255982849 1414876574
        -193575718 2081402583 -1221635173</internalNodes>
      <leafValues>
        -3.8128748536109924e-01 3.9963534474372864e-01</leafValues></_>
    <_>
      <internalNodes>
        0 -1 5539 -689970453 -1323188769 -616956120 536937686 -749605249
        -581070849 -294411529 1489485559</internalNodes>
      <leafValues>
        -3.9954811334609985e-01 4.0550509095191956e-01</leafValues></_>
    <_>
      <internalNodes>
        0 -1 11310 840901261 1973756714 -1697702180 1273997993
        -1318341202 1170215605 -494306273 -490489173</internalNodes>
      <leafValues>
        -4.1551634669303894e-01 4.0132245421409607e-01</leafValues></_>
    <_>
      <internalNodes>
        0 -1 2387 -236403433 -569005058 1153820501 -716134232 1343489493
        273026171 1414916933 711016629</internalNodes>
      <leafValues>
        -5.4077494144439697e-01 2.9303494095802307e-01</leafValues></_>
    <_>
      <internalNodes>
        0 -1 9374 -43189312 -1089805729 -1070638740 2087955998
        -1558923418 -145661354 1908533227 -682290130</internalNodes>
      <leafValues>
        -5.0937223434448242e-01 3.4343871474266052e-01</leafValues></_>
    <_>
      <internalNodes>
        0 -1 6925 -1227469371 326363079 -154206786 2080031223 -181879604
        1449046255 -552150313 254150867</internalNodes>
      <leafValues>
        -4.6123850345611572e-01 3.8535133004188538e-01</leafValues></_>
    <_>
      <internalNodes>
        0 -1 9327 -286219104 -135059971 1085740476 -1717629189
        1895932723 -265259839 -376458100 -1901674117</internalNodes>
      <leafValues>
        -5.7162141799926758e-01 3.0293312668800354e-01</leafValues></_>
    <_>
      <internalNodes>
        0 -1 8168 -34361138 -150044457 1347368478 1941321898 -239864859
        1886146177 -737319262 1397706629</internalNodes>
      <leafValues>
        -5.0630605220794678e-01 3.5750293731689453e-01</leafValues></_></weakClassifiers></stage5>
</opencv_storage>
