<?xml version="1.0"?>
<opencv_storage>
<stage14>
  <maxWeakCount>13</maxWeakCount>
  <stageThreshold>-8.2656568288803101e-01</stageThreshold>
  <weakClassifiers>
    <_>
      <internalNodes>
        0 -1 11399 1745767072 -1945997330 -575787408 2019917818
        1297960359 -187304489 -975545206 1079471550</internalNodes>
      <leafValues>
        -2.7411943674087524e-01 5.0234341621398926e-01</leafValues></_>
    <_>
      <internalNodes>
        0 -1 8244 -612421325 -812680602 -961500531 -379928925
        -1653219441 -839682577 -1342775909 -1208224822</internalNodes>
      <leafValues>
        -2.2101831436157227e-01 4.9085998535156250e-01</leafValues></_>
    <_>
      <internalNodes>
        0 -1 11301 2078837516 1533781796 -612986050 -1693466665
        -977465907 -2028748001 -1409986607 -1189491077</internalNodes>
      <leafValues>
        -3.6001157760620117e-01 3.3253613114356995e-01</leafValues></_>
    <_>
      <internalNodes>
        0 -1 10387 1760551554 724361887 1071623775 1091813528 24641328
        1352759467 493250817 1595202069</internalNodes>
      <leafValues>
        -5.9209340810775757e-01 2.0763051509857178e-01</leafValues></_>
    <_>
      <internalNodes>
        0 -1 11400 -232810773 -57670708 -1209309655 1196393764 794105276
        -269755585 -1116754196 -905207877</internalNodes>
      <leafValues>
        -3.6791664361953735e-01 3.6684417724609375e-01</leafValues></_>
    <_>
      <internalNodes>
        0 -1 6591 1843166557 -540082459 2146369267 978353912 2147421034
        -836851015 1273109995 -625258216</internalNodes>
      <leafValues>
        -3.0353954434394836e-01 4.2934054136276245e-01</leafValues></_>
    <_>
      <internalNodes>
        0 -1 3763 -662920121 -101241161 -1271581149 2099625527 674137415
        -1967928065 -1272148641 -324731801</internalNodes>
      <leafValues>
        -3.2819679379463196e-01 4.2400091886520386e-01</leafValues></_>
    <_>
      <internalNodes>
        0 -1 11373 -1810661190 -997203762 -449980982 1569067402
        1309386237 -110428321 1877154173 382601386</internalNodes>
      <leafValues>
        -5.0469338893890381e-01 2.8992670774459839e-01</leafValues></_>
    <_>
      <internalNodes>
        0 -1 2227 -632760103 -196784660 370263221 -37375542 -1651884771
        -1091301502 -712144879 -234100775</internalNodes>
      <leafValues>
        -3.7062931060791016e-01 3.7532594799995422e-01</leafValues></_>
    <_>
      <internalNodes>
        0 -1 5461 -574283260 -801050273 -10018555 805368922 -1454331377
        -585502977 540204067 -2003831766</internalNodes>
      <leafValues>
        -4.2777839303016663e-01 3.1162410974502563e-01</leafValues></_>
    <_>
      <internalNodes>
        0 -1 11365 44302368 -864492695 320580348 1398338490 -895359058
        1516816237 -567159364 319189544</internalNodes>
      <leafValues>
        -7.3500889539718628e-01 2.0038034021854401e-01</leafValues></_>
    <_>
      <internalNodes>
        0 -1 6838 -1881526317 -622942735 -17092236 -1353339977 -24197278
        -1224351786 -59843107 -239804973</internalNodes>
      <leafValues>
        -3.3950123190879822e-01 4.2209607362747192e-01</leafValues></_>
    <_>
      <internalNodes>
        0 -1 11193 -211813036 -1840013307 -1723649560 -2063343378
        -1606945805 1461007513 1947517111 4649547</internalNodes>
      <leafValues>
        -5.0303077697753906e-01 2.7204465866088867e-01</leafValues></_></weakClassifiers></stage14>
</opencv_storage>
