<?xml version="1.0"?>
<opencv_storage>
<stage4>
  <maxWeakCount>10</maxWeakCount>
  <stageThreshold>-8.5820031166076660e-01</stageThreshold>
  <weakClassifiers>
    <_>
      <internalNodes>
        0 -1 8016 197988936 200286974 -644271942 -1980694380 1577063832
        1206459679 -866126594 91447519</internalNodes>
      <leafValues>
        -6.1538463830947876e-01 5.1448988914489746e-01</leafValues></_>
    <_>
      <internalNodes>
        0 -1 6599 1465860110 607567416 -1636905550 174312160 -572524565
        1288624092 433311735 586649285</internalNodes>
      <leafValues>
        -7.2005653381347656e-01 2.7631393074989319e-01</leafValues></_>
    <_>
      <internalNodes>
        0 -1 2297 -697377365 -571122275 -973423341 -9246270 -570556757
        -707405808 -525673581 -519902886</internalNodes>
      <leafValues>
        -3.6567676067352295e-01 5.0934207439422607e-01</leafValues></_>
    <_>
      <internalNodes>
        0 -1 9207 1065296407 1071581951 -562716034 -1076780293 -19998764
        -2264715 1282178559 -45747481</internalNodes>
      <leafValues>
        -4.0768650174140930e-01 4.6427631378173828e-01</leafValues></_>
    <_>
      <internalNodes>
        0 -1 4018 -1107352116 -201768275 974533878 965763280 -1276466802
        130877588 -1159537940 2010379723</internalNodes>
      <leafValues>
        -6.2505280971527100e-01 2.8334382176399231e-01</leafValues></_>
    <_>
      <internalNodes>
        0 -1 12249 1492825075 -222974473 -34999574 -705300561 1656853481
        565264829 -1158886488 293294225</internalNodes>
      <leafValues>
        -5.7716506719589233e-01 2.8055980801582336e-01</leafValues></_>
    <_>
      <internalNodes>
        0 -1 11036 -209455115 1394595276 -551365890 39700700 -199363329
        1124984575 954642638 4789256</internalNodes>
      <leafValues>
        -5.5521005392074585e-01 3.3536991477012634e-01</leafValues></_>
    <_>
      <internalNodes>
        0 -1 987 -2013904642 -136857074 1088924330 -162142016 1374995781
        1648622116 -656212186 1087474404</internalNodes>
      <leafValues>
        -5.9032255411148071e-01 3.0150395631790161e-01</leafValues></_>
    <_>
      <internalNodes>
        0 -1 4009 1341054201 1949725567 -1270706790 678363072 1873005707
        -313208769 -87886529 -80226829</internalNodes>
      <leafValues>
        -4.4005075097084045e-01 4.2129158973693848e-01</leafValues></_>
    <_>
      <internalNodes>
        0 -1 11421 -570192460 -9060398 2077652466 -69580000 806399974
        939339772 715903438 -1618258997</internalNodes>
      <leafValues>
        -4.4082164764404297e-01 3.9917308092117310e-01</leafValues></_></weakClassifiers></stage4>
</opencv_storage>
