<?xml version="1.0"?>
<opencv_storage>
<stage15>
  <maxWeakCount>15</maxWeakCount>
  <stageThreshold>-1.0226058959960938e+00</stageThreshold>
  <weakClassifiers>
    <_>
      <internalNodes>
        0 -1 10332 601635904 -1967592308 1304759360 766354007 1018753216
        -1229926773 232551936 117732684</internalNodes>
      <leafValues>
        -5.3642386198043823e-01 4.5853194594383240e-01</leafValues></_>
    <_>
      <internalNodes>
        0 -1 10339 715342786 985440947 301862930 -3182288 -826455109
        -2004316251 374819891 -972214607</internalNodes>
      <leafValues>
        -4.2518672347068787e-01 2.8015679121017456e-01</leafValues></_>
    <_>
      <internalNodes>
        0 -1 12836 -924858733 1480768132 339923616 -1001458136 143891968
        1227552336 1993508356 1074789727</internalNodes>
      <leafValues>
        -4.4309198856353760e-01 2.6679870486259460e-01</leafValues></_>
    <_>
      <internalNodes>
        0 -1 10381 -917493676 -547893208 1722707922 -687739692 347795466
        -2083411452 -1827794453 587453959</internalNodes>
      <leafValues>
        -5.1275205612182617e-01 2.0597951114177704e-01</leafValues></_>
    <_>
      <internalNodes>
        0 -1 1051 55543458 -8792705 -1593922720 299833698 -416559546
        1361036322 -221128495 633760804</internalNodes>
      <leafValues>
        -5.7840973138809204e-01 1.8798275291919708e-01</leafValues></_>
    <_>
      <internalNodes>
        0 -1 5086 -354488959 1548033812 -350494753 982079262 331993361
        -559134590 65112346 144956602</internalNodes>
      <leafValues>
        -4.0069937705993652e-01 2.8977286815643311e-01</leafValues></_>
    <_>
      <internalNodes>
        0 -1 9347 -1500022868 -1572739577 1848470755 -1414467954
        1608880332 -343394856 997264773 -539759934</internalNodes>
      <leafValues>
        -4.4436234235763550e-01 2.8349712491035461e-01</leafValues></_>
    <_>
      <internalNodes>
        0 -1 6578 2061228559 458575716 -606209028 -605701300 2113465599
        -876868246 1274868601 -117507549</internalNodes>
      <leafValues>
        -3.0512279272079468e-01 4.6347153186798096e-01</leafValues></_>
    <_>
      <internalNodes>
        0 -1 10361 362743327 -2143583354 -50267266 -108855441 -2820109
        1859025998 -967784796 -175699217</internalNodes>
      <leafValues>
        -3.5593095421791077e-01 3.8953590393066406e-01</leafValues></_>
    <_>
      <internalNodes>
        0 -1 12249 -1852126446 1951665558 2113418234 1435911444
        1113690296 544297337 -137796118 22544803</internalNodes>
      <leafValues>
        -6.5616673231124878e-01 2.1724195778369904e-01</leafValues></_>
    <_>
      <internalNodes>
        0 -1 11372 -49065048 -41079996 -1013310767 -141735905
        -1845497940 1217465835 -420209201 -151607186</internalNodes>
      <leafValues>
        -3.9001971483230591e-01 3.5521838068962097e-01</leafValues></_>
    <_>
      <internalNodes>
        0 -1 2165 1071152710 -1211619541 -2011531133 -19544810
        1049454074 -1534440247 743136823 2071978843</internalNodes>
      <leafValues>
        -4.3310219049453735e-01 3.1576108932495117e-01</leafValues></_>
    <_>
      <internalNodes>
        0 -1 12236 -1869691223 1968348434 -70692155 2003249352
        -2091710533 -2122184917 1422053631 1706284291</internalNodes>
      <leafValues>
        -4.1683635115623474e-01 3.3955958485603333e-01</leafValues></_>
    <_>
      <internalNodes>
        0 -1 10301 -16250532 -913315530 -280425392 -703968041
        -1911883994 1247928427 -1597560341 58493007</internalNodes>
      <leafValues>
        -5.1338654756546021e-01 2.8202325105667114e-01</leafValues></_>
    <_>
      <internalNodes>
        0 -1 7842 -399759270 -584987310 -144213034 608336918 -503856693
        -313644330 185617179 1750208853</internalNodes>
      <leafValues>
        -5.6007468700408936e-01 2.3126585781574249e-01</leafValues></_></weakClassifiers></stage15>
</opencv_storage>
