<?xml version="1.0"?>
<opencv_storage>
<stage17>
  <maxWeakCount>15</maxWeakCount>
  <stageThreshold>-1.1781606674194336e+00</stageThreshold>
  <weakClassifiers>
    <_>
      <internalNodes>
        0 -1 6644 328401414 277803804 429380528 707709156 1574955470
        1284025796 891880177 6752356</internalNodes>
      <leafValues>
        -6.6296297311782837e-01 4.3186813592910767e-01</leafValues></_>
    <_>
      <internalNodes>
        0 -1 7840 1565360719 524067822 1864302334 -2022391184 1572847100
        1872176940 1560248180 -425596331</internalNodes>
      <leafValues>
        -3.0192342400550842e-01 3.5887655615806580e-01</leafValues></_>
    <_>
      <internalNodes>
        0 -1 9207 -1224891757 1026646879 -1431206542 -1290034473
        -1638541989 -678881449 1074555835 -45916289</internalNodes>
      <leafValues>
        -3.4487277269363403e-01 3.1430560350418091e-01</leafValues></_>
    <_>
      <internalNodes>
        0 -1 6798 217587294 -1762201446 1053851704 -2004876659
        -829665522 887931828 885185430 1116574235</internalNodes>
      <leafValues>
        -6.3006532192230225e-01 1.7387731373310089e-01</leafValues></_>
    <_>
      <internalNodes>
        0 -1 4208 -707924897 2138525183 1902640639 -303714253 -810553685
        -990380417 1442099466 -52999043</internalNodes>
      <leafValues>
        -2.4450410902500153e-01 4.7652536630630493e-01</leafValues></_>
    <_>
      <internalNodes>
        0 -1 10352 -1870738880 954240373 846786283 1057553699 -640447932
        490283926 808770416 487589242</internalNodes>
      <leafValues>
        -6.2892007827758789e-01 1.7981240153312683e-01</leafValues></_>
    <_>
      <internalNodes>
        0 -1 1043 1177083470 -190947325 333509792 -1925180599 1456395270
        -1082417002 -1290788332 5374309</internalNodes>
      <leafValues>
        -5.7536238431930542e-01 2.0903265476226807e-01</leafValues></_>
    <_>
      <internalNodes>
        0 -1 11311 -1787491782 -1915780986 -1887198020 -790391645
        67223528 -1186903905 1333012733 -1878067541</internalNodes>
      <leafValues>
        -5.0896447896957397e-01 2.1620026230812073e-01</leafValues></_>
    <_>
      <internalNodes>
        0 -1 2615 -1867895246 1400986855 -1901981509 496972255
        -1074892895 1057622572 -1283899653 457771930</internalNodes>
      <leafValues>
        -4.6392676234245300e-01 2.5290042161941528e-01</leafValues></_>
    <_>
      <internalNodes>
        0 -1 2632 -235093601 -1052719094 -28903937 1697008503 1398076766
        737624846 478214375 -224838518</internalNodes>
      <leafValues>
        -3.6815381050109863e-01 3.4206688404083252e-01</leafValues></_>
    <_>
      <internalNodes>
        0 -1 9184 1025396318 310496997 -2028898726 203866871 370696028
        75188058 925045744 1421505748</internalNodes>
      <leafValues>
        -5.9455037117004395e-01 2.2565244138240814e-01</leafValues></_>
    <_>
      <internalNodes>
        0 -1 7619 -1026223487 529997215 -992788517 -12772013 -1930094471
        -22268852 365608792 -1904542450</internalNodes>
      <leafValues>
        -3.3522215485572815e-01 3.8431185483932495e-01</leafValues></_>
    <_>
      <internalNodes>
        0 -1 8090 -33880162 2143606780 -778011234 -610231661 -2056730868
        -203943975 1074016171 -167969123</internalNodes>
      <leafValues>
        -3.7289977073669434e-01 3.6551699042320251e-01</leafValues></_>
    <_>
      <internalNodes>
        0 -1 11341 1881088662 -1277214386 -799220582 -1291433961
        -154732361 -531692399 -48437185 1106269996</internalNodes>
      <leafValues>
        -4.3713313341140747e-01 3.0270871520042419e-01</leafValues></_>
    <_>
      <internalNodes>
        0 -1 11364 -52958558 1970608127 -224209758 -632384633 1792747242
        -1716432382 2124777686 -1903400866</internalNodes>
      <leafValues>
        -3.9951559901237488e-01 3.2859307527542114e-01</leafValues></_></weakClassifiers></stage17>
</opencv_storage>
