<?xml version="1.0"?>
<opencv_storage>
<stage11>
  <maxWeakCount>14</maxWeakCount>
  <stageThreshold>-9.1628253459930420e-01</stageThreshold>
  <weakClassifiers>
    <_>
      <internalNodes>
        0 -1 6910 -1979526704 -1141210896 40250192 171150036 -1081386551
        -148450160 -540546482 387037823</internalNodes>
      <leafValues>
        -2.8005656599998474e-01 5.2245968580245972e-01</leafValues></_>
    <_>
      <internalNodes>
        0 -1 12213 302012054 925106850 -236781254 -1857779978 465130714
        353002634 1496321531 133377727</internalNodes>
      <leafValues>
        -5.3082066774368286e-01 2.5456410646438599e-01</leafValues></_>
    <_>
      <internalNodes>
        0 -1 7697 -106956969 2107437285 1030027390 1970255980 -582095373
        1492642416 -1457067297 -1068762659</internalNodes>
      <leafValues>
        -2.6482713222503662e-01 4.6936005353927612e-01</leafValues></_>
    <_>
      <internalNodes>
        0 -1 4113 1301143584 -552191450 -1742938112 -585315784
        -695238498 393729543 -92288439 1968225118</internalNodes>
      <leafValues>
        -6.5548193454742432e-01 1.7141571640968323e-01</leafValues></_>
    <_>
      <internalNodes>
        0 -1 5619 3589327 -747149485 -6064541 -823919915 -2107323801
        -168641194 444919759 -967846049</internalNodes>
      <leafValues>
        -3.6824291944503784e-01 3.6642083525657654e-01</leafValues></_>
    <_>
      <internalNodes>
        0 -1 11427 -336795421 -83957585 2067755793 926374589 -67657729
        -470485003 -135273717 -99560103</internalNodes>
      <leafValues>
        -3.3880469202995300e-01 4.0485230088233948e-01</leafValues></_>
    <_>
      <internalNodes>
        0 -1 8238 -1178775582 2030276640 -1295062390 1029496965
        -1256719282 -1198472830 784832878 121739921</internalNodes>
      <leafValues>
        -4.7274178266525269e-01 3.0677443742752075e-01</leafValues></_>
    <_>
      <internalNodes>
        0 -1 923 -223088953 -215947300 -1056513164 436708096 -1440788921
        -263689612 1089979335 -715695782</internalNodes>
      <leafValues>
        -3.8958385586738586e-01 3.5854929685592651e-01</leafValues></_>
    <_>
      <internalNodes>
        0 -1 13810 -2109299324 -246299168 252339066 1599974604
        1321681499 335921299 1034533867 137419157</internalNodes>
      <leafValues>
        -5.1875877380371094e-01 2.8545060753822327e-01</leafValues></_>
    <_>
      <internalNodes>
        0 -1 11333 1601735176 -212935993 219560158 1091565141 1850464141
        -368716672 -746393115 1596518819</internalNodes>
      <leafValues>
        -5.2412551641464233e-01 2.5728988647460938e-01</leafValues></_>
    <_>
      <internalNodes>
        0 -1 6806 535786765 1065715177 -806377293 -1380077570 -287351332
        2144286707 -1906379393 -167020701</internalNodes>
      <leafValues>
        -3.7188288569450378e-01 4.1770431399345398e-01</leafValues></_>
    <_>
      <internalNodes>
        0 -1 9347 2082960630 -1555093937 1848631242 -1941511676
        -1623974676 -1379175998 1003518959 -77380450</internalNodes>
      <leafValues>
        -4.9164479970932007e-01 3.3578610420227051e-01</leafValues></_>
    <_>
      <internalNodes>
        0 -1 10388 358060096 1902143280 -763341301 -712969534 1447427150
        1180052094 1217114666 1436639130</internalNodes>
      <leafValues>
        -5.6699889898300171e-01 2.8987485170364380e-01</leafValues></_>
    <_>
      <internalNodes>
        0 -1 10177 -445794390 885845230 1695868414 -1365475187
        1373230916 2137944309 -653570189 223675107</internalNodes>
      <leafValues>
        -6.3898724317550659e-01 2.1102432906627655e-01</leafValues></_></weakClassifiers></stage11>
</opencv_storage>
