<?xml version="1.0"?>
<opencv_storage>
<stage0>
  <maxWeakCount>7</maxWeakCount>
  <stageThreshold>-1.0730088949203491e+00</stageThreshold>
  <weakClassifiers>
    <_>
      <internalNodes>
        0 -1 12249 -793075278 1907666162 872084202 1439847410 1667543736
        543228280 863754154 289608187</internalNodes>
      <leafValues>
        -6.0927617549896240e-01 6.2639284133911133e-01</leafValues></_>
    <_>
      <internalNodes>
        0 -1 11393 -223688056 2063781896 -1878489056 1432220061
        1445889736 1480593536 1918937802 -671091457</internalNodes>
      <leafValues>
        -5.7305169105529785e-01 5.8713108301162720e-01</leafValues></_>
    <_>
      <internalNodes>
        0 -1 12257 -251363196 -2883480 1494287074 -47204262 1083228410
        612952231 1108943033 -610583621</internalNodes>
      <leafValues>
        -5.4188185930252075e-01 4.9365046620368958e-01</leafValues></_>
    <_>
      <internalNodes>
        0 -1 3805 -183050290 471239812 596953074 1002930758 1364981758
        267311272 -1060636433 63171290</internalNodes>
      <leafValues>
        -6.6614145040512085e-01 4.0993338823318481e-01</leafValues></_>
    <_>
      <internalNodes>
        0 -1 11448 -607993656 -90836784 598016 -1862158195 168296648
        1343423362 227500 -1290842167</internalNodes>
      <leafValues>
        -6.3124650716781616e-01 3.8542532920837402e-01</leafValues></_>
    <_>
      <internalNodes>
        0 -1 13789 -792551264 -144632813 15139352 1600509811 -833842514
        1091767951 1158582202 -438319217</internalNodes>
      <leafValues>
        -4.9625796079635620e-01 5.1635450124740601e-01</leafValues></_>
    <_>
      <internalNodes>
        0 -1 11311 -713621454 -537722230 -1727463304 -641007478
        1078815224 -1339443027 -1198315045 336064235</internalNodes>
      <leafValues>
        -6.7207425832748413e-01 3.9670190215110779e-01</leafValues></_></weakClassifiers></stage0>
</opencv_storage>
