<?xml version="1.0"?>
<opencv_storage>
<stage2>
  <maxWeakCount>9</maxWeakCount>
  <stageThreshold>-1.1562368869781494e+00</stageThreshold>
  <weakClassifiers>
    <_>
      <internalNodes>
        0 -1 2457 -861503288 2136277620 -1945986486 859898560 2015367304
        2141667456 813484698 651625195</internalNodes>
      <leafValues>
        -6.2103503942489624e-01 5.7142859697341919e-01</leafValues></_>
    <_>
      <internalNodes>
        0 -1 11263 -698379354 269680790 1896901660 17815422 -1877876246
        423643184 1347667151 1222635738</internalNodes>
      <leafValues>
        -5.9725522994995117e-01 4.1686224937438965e-01</leafValues></_>
    <_>
      <internalNodes>
        0 -1 11420 1108328960 -237639739 270258404 1601032663 454599336
        404881537 306237528 991650321</internalNodes>
      <leafValues>
        -7.8665083646774292e-01 3.1939616799354553e-01</leafValues></_>
    <_>
      <internalNodes>
        0 -1 8203 -1727988786 1472614478 402838034 1528205455 -545131064
        1879347338 858389295 1463022331</internalNodes>
      <leafValues>
        -6.2418103218078613e-01 3.6362051963806152e-01</leafValues></_>
    <_>
      <internalNodes>
        0 -1 15998 -107241334 -884899704 -1879031724 1073807746
        -771587446 557056 419472046 1095205514</internalNodes>
      <leafValues>
        -5.3474789857864380e-01 4.4076737761497498e-01</leafValues></_>
    <_>
      <internalNodes>
        0 -1 941 -665737014 -549210876 729976493 1398006737 -1059991424
        1158145602 -398089529 1360523168</internalNodes>
      <leafValues>
        -5.5728352069854736e-01 4.2554527521133423e-01</leafValues></_>
    <_>
      <internalNodes>
        0 -1 12961 1348193500 -607136702 469859328 1364695069 1307476180
        1208886276 1294184602 -679000373</internalNodes>
      <leafValues>
        -4.7509294748306274e-01 5.1934516429901123e-01</leafValues></_>
    <_>
      <internalNodes>
        0 -1 10414 -108865344 -649992977 -1608460893 -47968827
        -1710624017 -29211556 1216929723 -7678578</internalNodes>
      <leafValues>
        -4.1450506448745728e-01 6.0132515430450439e-01</leafValues></_>
    <_>
      <internalNodes>
        0 -1 8955 2105382382 855685610 412456446 966873336 344013818
        952740232 1552521901 13864185</internalNodes>
      <leafValues>
        -7.4687600135803223e-01 3.3991214632987976e-01</leafValues></_></weakClassifiers></stage2>
</opencv_storage>
