<?xml version="1.0"?>
<opencv_storage>
<stage19>
  <maxWeakCount>14</maxWeakCount>
  <stageThreshold>-9.3378967046737671e-01</stageThreshold>
  <weakClassifiers>
    <_>
      <internalNodes>
        0 -1 9137 493204996 151012590 -1655065938 146841800 2014328908
        193536112 734010327 88149585</internalNodes>
      <leafValues>
        -5.5126297473907471e-01 4.4509103894233704e-01</leafValues></_>
    <_>
      <internalNodes>
        0 -1 6760 -786571027 1694229164 -18686089 976437212 -1644192282
        -360932290 -1191510533 -274397164</internalNodes>
      <leafValues>
        -2.7791142463684082e-01 3.9125338196754456e-01</leafValues></_>
    <_>
      <internalNodes>
        0 -1 9312 -294665633 -136125634 854767227 1533557684 -1703420576
        -1439371739 -1418922727 -111408933</internalNodes>
      <leafValues>
        -2.6458621025085449e-01 4.2999345064163208e-01</leafValues></_>
    <_>
      <internalNodes>
        0 -1 582 1769465791 -318300444 1869574483 -1008906276 -206584393
        1233114216 1709065968 -750258574</internalNodes>
      <leafValues>
        -2.4998727440834045e-01 4.4639617204666138e-01</leafValues></_>
    <_>
      <internalNodes>
        0 -1 13030 -34029520 1327503058 -1779492466 -996847510
        -804731650 913875454 2136932605 856359173</internalNodes>
      <leafValues>
        -5.4048746824264526e-01 2.1589493751525879e-01</leafValues></_>
    <_>
      <internalNodes>
        0 -1 14282 1392450707 1886871387 -1429333990 36370098
        -1114912316 -1577024484 -217797856 -182463749</internalNodes>
      <leafValues>
        -3.5582414269447327e-01 3.4513083100318909e-01</leafValues></_>
    <_>
      <internalNodes>
        0 -1 4239 -299636013 -613966214 586847466 1072050410 -15471919
        -138949537 1125578751 -467962417</internalNodes>
      <leafValues>
        -3.1461989879608154e-01 4.0315011143684387e-01</leafValues></_>
    <_>
      <internalNodes>
        0 -1 11271 1770504 833598176 325183878 1091429202 -358165765
        1560316016 -208360191 1428013713</internalNodes>
      <leafValues>
        -6.4343619346618652e-01 2.2441855072975159e-01</leafValues></_>
    <_>
      <internalNodes>
        0 -1 3011 393296980 501041943 14428949 -1617039287 265897439
        -1807432 2134467119 976845876</internalNodes>
      <leafValues>
        -3.7745633721351624e-01 3.3963221311569214e-01</leafValues></_>
    <_>
      <internalNodes>
        0 -1 14370 -721827671 -501613909 -2120638468 -793787652
        -1914764661 60011895 -235137389 -1570768355</internalNodes>
      <leafValues>
        -3.2838359475135803e-01 4.0603017807006836e-01</leafValues></_>
    <_>
      <internalNodes>
        0 -1 12279 -775234653 -1082402422 -1862672610 -662077342
        -1370675298 -321640800 -312999953 973306759</internalNodes>
      <leafValues>
        -3.3310741186141968e-01 3.9329388737678528e-01</leafValues></_>
    <_>
      <internalNodes>
        0 -1 8027 -1521914778 -1633645110 260005168 1213267787
        -2061602097 -704924096 -1171750436 1963023967</internalNodes>
      <leafValues>
        -5.0978267192840576e-01 2.5691026449203491e-01</leafValues></_>
    <_>
      <internalNodes>
        0 -1 9285 -921754096 -269250466 -250617396 1953965179 -775802722
        -181055229 -298528282 -584031891</internalNodes>
      <leafValues>
        -4.2040112614631653e-01 3.2205289602279663e-01</leafValues></_>
    <_>
      <internalNodes>
        0 -1 15323 1214250011 184723293 -1769745810 1645360090 965718200
        501935325 -2129647480 -800867590</internalNodes>
      <leafValues>
        -3.5989165306091309e-01 3.7370654940605164e-01</leafValues></_></weakClassifiers></stage19>
</opencv_storage>
