<?xml version="1.0"?>
<opencv_storage>
<stage21>
  <maxWeakCount>16</maxWeakCount>
  <stageThreshold>-1.0385935306549072e+00</stageThreshold>
  <weakClassifiers>
    <_>
      <internalNodes>
        0 -1 8277 1680302168 -290705746 68239700 -1372834048 1062478976
        -422552076 121923066 1597198483</internalNodes>
      <leafValues>
        -3.0960264801979065e-01 4.9540901184082031e-01</leafValues></_>
    <_>
      <internalNodes>
        0 -1 9232 -847270151 1330124370 -1928575142 -935329458
        -1837644602 1983912310 -139020526 1588563020</internalNodes>
      <leafValues>
        -3.3129844069480896e-01 3.6042615771293640e-01</leafValues></_>
    <_>
      <internalNodes>
        0 -1 8183 41149457 -639203927 -83906821 -578958593 1419208078
        -1644214338 1980468682 -256473562</internalNodes>
      <leafValues>
        -3.1953114271163940e-01 3.6571615934371948e-01</leafValues></_>
    <_>
      <internalNodes>
        0 -1 10103 2075718031 -710031394 -4281363 225891345 1610577518
        865985057 -637788296 -453095173</internalNodes>
      <leafValues>
        -2.9845231771469116e-01 4.1096714138984680e-01</leafValues></_>
    <_>
      <internalNodes>
        0 -1 618 -1615274117 -712683769 -352850611 -319976069
        -1113745013 -408909510 1671803099 -647892133</internalNodes>
      <leafValues>
        -2.8750157356262207e-01 4.6049174666404724e-01</leafValues></_>
    <_>
      <internalNodes>
        0 -1 6953 1520641 -1342103773 -462020642 -68981837 -107940702
        -1775598909 -2137806870 1324291154</internalNodes>
      <leafValues>
        -4.4159030914306641e-01 2.9698804020881653e-01</leafValues></_>
    <_>
      <internalNodes>
        0 -1 12182 158638598 309853696 425619738 1105713868 583488196
        74305236 157013980 134441161</internalNodes>
      <leafValues>
        -6.4144879579544067e-01 1.8884745240211487e-01</leafValues></_>
    <_>
      <internalNodes>
        0 -1 5169 -137584579 1554994653 -1113395329 -2007064843
        126271155 -1899012450 -1077759673 -1639849</internalNodes>
      <leafValues>
        -2.9081889986991882e-01 4.5093628764152527e-01</leafValues></_>
    <_>
      <internalNodes>
        0 -1 5427 201157867 1085504915 29094740 -596452796 -1074554457
        -684373335 997913561 -809452050</internalNodes>
      <leafValues>
        -3.4492942690849304e-01 3.7466594576835632e-01</leafValues></_>
    <_>
      <internalNodes>
        0 -1 14874 -234362277 -2023107247 -1361075444 -1174172233
        1461316264 126056249 -2064259350 -419963627</internalNodes>
      <leafValues>
        -3.0050554871559143e-01 4.3740645051002502e-01</leafValues></_>
    <_>
      <internalNodes>
        0 -1 10394 1091457160 2132188211 957843344 -1626424556
        -1867513711 -544065299 -528301224 1116361565</internalNodes>
      <leafValues>
        -4.7786548733711243e-01 2.9889091849327087e-01</leafValues></_>
    <_>
      <internalNodes>
        0 -1 6938 -1920367685 1262502040 1706664472 218325119 -44050242
        -708732792 -1334392381 54984735</internalNodes>
      <leafValues>
        -4.5245707035064697e-01 2.9291978478431702e-01</leafValues></_>
    <_>
      <internalNodes>
        0 -1 2118 -1849978597 -549912151 -269791883 -68437583 -4703790
        -1076546377 -1524679331 2139991129</internalNodes>
      <leafValues>
        -3.2878354191780090e-01 4.3575200438499451e-01</leafValues></_>
    <_>
      <internalNodes>
        0 -1 6944 511945314 -2134524137 229009023 -808253904 -717682161
        -2080546618 2048976643 -1519016134</internalNodes>
      <leafValues>
        -4.1974449157714844e-01 3.2882443070411682e-01</leafValues></_>
    <_>
      <internalNodes>
        0 -1 11243 1899784372 1636548108 -1295480070 355876972
        1611833891 1672291407 665868646 1166691581</internalNodes>
      <leafValues>
        -5.5073636770248413e-01 2.6435118913650513e-01</leafValues></_>
    <_>
      <internalNodes>
        0 -1 14890 1787551752 -1867986424 -678346609 82254356 1238276293
        -1092156059 1391516335 597903027</internalNodes>
      <leafValues>
        -5.3166264295578003e-01 2.4402508139610291e-01</leafValues></_></weakClassifiers></stage21>
</opencv_storage>
