<?xml version="1.0"?>
<opencv_storage>
<stage3>
  <maxWeakCount>8</maxWeakCount>
  <stageThreshold>-9.3483042716979980e-01</stageThreshold>
  <weakClassifiers>
    <_>
      <internalNodes>
        0 -1 11392 -16723456 1901281863 2069625058 322847091 2009398466
        2002464851 1398206636 322834715</internalNodes>
      <leafValues>
        -5.3800296783447266e-01 5.8437097072601318e-01</leafValues></_>
    <_>
      <internalNodes>
        0 -1 13766 -229408758 1372291200 1074806790 1359429770
        -248868690 318767770 2048840974 1396431858</internalNodes>
      <leafValues>
        -5.0488942861557007e-01 4.7295919060707092e-01</leafValues></_>
    <_>
      <internalNodes>
        0 -1 12963 1936433322 1967628370 1409286218 1078108299
        -1064590424 1342226600 1118494927 -1861486177</internalNodes>
      <leafValues>
        -5.0473171472549438e-01 4.6655979752540588e-01</leafValues></_>
    <_>
      <internalNodes>
        0 -1 15434 -619982710 1403453486 268435456 1360334855 -796138872
        1375928321 41982698 1360239243</internalNodes>
      <leafValues>
        -4.7843435406684875e-01 5.0368863344192505e-01</leafValues></_>
    <_>
      <internalNodes>
        0 -1 12270 -687677266 -617237846 324212485 2008889095 -203447137
        -1157376754 -671903297 -80129566</internalNodes>
      <leafValues>
        -4.1093179583549500e-01 5.6409639120101929e-01</leafValues></_>
    <_>
      <internalNodes>
        0 -1 8107 381133919 -2119725329 889186030 -235425793 341759199
        -168115986 -565537061 -245319849</internalNodes>
      <leafValues>
        -4.4271144270896912e-01 5.3607738018035889e-01</leafValues></_>
    <_>
      <internalNodes>
        0 -1 11454 -268249912 -168943415 -1014480691 -175779 -1937185589
        -653258591 50964425 -619048549</internalNodes>
      <leafValues>
        -4.8728695511817932e-01 5.2785199880599976e-01</leafValues></_>
    <_>
      <internalNodes>
        0 -1 8327 -102966582 -720646144 69206048 286377984 -822050608
        2097297 268567169 1398524875</internalNodes>
      <leafValues>
        -5.0660210847854614e-01 4.8668929934501648e-01</leafValues></_></weakClassifiers></stage3>
</opencv_storage>
