<?xml version="1.0"?>
<opencv_storage>
<stage16>
  <maxWeakCount>15</maxWeakCount>
  <stageThreshold>-9.2115628719329834e-01</stageThreshold>
  <weakClassifiers>
    <_>
      <internalNodes>
        0 -1 5381 796411292 669451006 787521498 167840496 1060853163
        267651325 -1099030696 448192413</internalNodes>
      <leafValues>
        -3.2703861594200134e-01 4.9245089292526245e-01</leafValues></_>
    <_>
      <internalNodes>
        0 -1 10340 1983042999 -27344291 -170801915 -93664517 -321162407
        -290669589 -156278785 -1142519693</internalNodes>
      <leafValues>
        -2.1231347322463989e-01 5.0446140766143799e-01</leafValues></_>
    <_>
      <internalNodes>
        0 -1 11287 -1736960249 2138822391 2053669626 1000288239
        320669180 1756354555 2133571392 -297918482</internalNodes>
      <leafValues>
        -3.3712479472160339e-01 3.2503649592399597e-01</leafValues></_>
    <_>
      <internalNodes>
        0 -1 4060 -147030437 1954501799 1514210711 945698136 -673343162
        -185174999 1936978194 67423139</internalNodes>
      <leafValues>
        -3.7777990102767944e-01 2.9063662886619568e-01</leafValues></_>
    <_>
      <internalNodes>
        0 -1 12251 490486677 1078872448 -922695888 -746654391
        -2035940982 1480777723 431579982 1171738615</internalNodes>
      <leafValues>
        -4.3926942348480225e-01 2.4789071083068848e-01</leafValues></_>
    <_>
      <internalNodes>
        0 -1 9319 -2954329 -10229998 -1619044234 -1218448681 -1498028035
        -1344477411 1467205981 -557894857</internalNodes>
      <leafValues>
        -3.0418768525123596e-01 4.1197118163108826e-01</leafValues></_>
    <_>
      <internalNodes>
        0 -1 10278 1025981992 867529770 -1861923722 -408027008
        1998280302 338275566 2002112039 -333772432</internalNodes>
      <leafValues>
        -4.9917808175086975e-01 2.6493433117866516e-01</leafValues></_>
    <_>
      <internalNodes>
        0 -1 870 1117974239 -763308089 -634151676 1325496455 1391381847
        -1134796938 -562068137 -664317740</internalNodes>
      <leafValues>
        -3.3574190735816956e-01 3.7455919384956360e-01</leafValues></_>
    <_>
      <internalNodes>
        0 -1 8184 922437087 1673637347 685621247 -4603905 1405339522
        -771799293 2143483463 -723319201</internalNodes>
      <leafValues>
        -2.8242424130439758e-01 4.4748568534851074e-01</leafValues></_>
    <_>
      <internalNodes>
        0 -1 12270 -1661294145 -874135622 1373181743 2142828291
        -134749041 -1627990649 -134751273 -44149902</internalNodes>
      <leafValues>
        -2.8864067792892456e-01 4.4973355531692505e-01</leafValues></_>
    <_>
      <internalNodes>
        0 -1 9253 -161838018 -772581655 410696053 2071075857 -651242438
        -76033854 148790385 -582876786</internalNodes>
      <leafValues>
        -3.3443036675453186e-01 4.0036168694496155e-01</leafValues></_>
    <_>
      <internalNodes>
        0 -1 8245 427137559 -206667810 1393622469 -5572944 1293331901
        -51062794 -1508990066 -7224393</internalNodes>
      <leafValues>
        -2.9670464992523193e-01 4.6469488739967346e-01</leafValues></_>
    <_>
      <internalNodes>
        0 -1 9293 268868300 -95749582 56631016 -1314840370 1455775882
        1727153659 1388277747 463958851</internalNodes>
      <leafValues>
        -5.9763586521148682e-01 2.4830068647861481e-01</leafValues></_>
    <_>
      <internalNodes>
        0 -1 11449 -286873397 -70315005 -1637731073 -1760218185
        -404544837 -1591257994 -2010191877 -375453969</internalNodes>
      <leafValues>
        -2.9520654678344727e-01 4.7051984071731567e-01</leafValues></_>
    <_>
      <internalNodes>
        0 -1 2115 -1277973 1073036352 2146690474 -36178548 920972714
        1476138796 -62353286 -1020074038</internalNodes>
      <leafValues>
        -3.3307605981826782e-01 4.0159037709236145e-01</leafValues></_></weakClassifiers></stage16>
</opencv_storage>
