<?xml version="1.0"?>
<opencv_storage>
<stage9>
  <maxWeakCount>12</maxWeakCount>
  <stageThreshold>-1.3157593011856079e+00</stageThreshold>
  <weakClassifiers>
    <_>
      <internalNodes>
        0 -1 5459 1148440060 37011068 -994382963 238202108 1089882092
        209014142 -34668750 586935718</internalNodes>
      <leafValues>
        -2.8125000000000000e-01 5.2177697420120239e-01</leafValues></_>
    <_>
      <internalNodes>
        0 -1 12142 962027443 -144813076 2111806974 -808547585 954068990
        -1361801522 -1244546098 -40850726</internalNodes>
      <leafValues>
        -2.7927783131599426e-01 4.5242574810981750e-01</leafValues></_>
    <_>
      <internalNodes>
        0 -1 9231 1345751759 -1674125610 947832214 -1920248684
        -875312502 -1971913136 -273483013 -140282344</internalNodes>
      <leafValues>
        -3.6745205521583557e-01 3.5434576869010925e-01</leafValues></_>
    <_>
      <internalNodes>
        0 -1 13009 1146463878 -1949541454 518781064 1088714468
        -1006456176 507032848 1018598069 807697910</internalNodes>
      <leafValues>
        -6.1657899618148804e-01 2.1519352495670319e-01</leafValues></_>
    <_>
      <internalNodes>
        0 -1 6918 -536096161 -594618789 1491630070 -21663809 -467020564
        -581740986 2083242283 -288481437</internalNodes>
      <leafValues>
        -3.5168302059173584e-01 3.9760717749595642e-01</leafValues></_>
    <_>
      <internalNodes>
        0 -1 3972 -733523321 287626431 -235552525 465623042 -923010306
        2084891384 -1544369154 600305914</internalNodes>
      <leafValues>
        -5.1359158754348755e-01 2.6874098181724548e-01</leafValues></_>
    <_>
      <internalNodes>
        0 -1 9269 1762204396 -1485902934 -386395512 -1314464262
        1210087533 1539523411 -904553938 1986513725</internalNodes>
      <leafValues>
        -6.2741941213607788e-01 2.4543370306491852e-01</leafValues></_>
    <_>
      <internalNodes>
        0 -1 12249 2040510835 2113318226 1062899928 1305771998
        -429412168 1832180717 -81004578 427956217</internalNodes>
      <leafValues>
        -5.2175515890121460e-01 2.7166882157325745e-01</leafValues></_>
    <_>
      <internalNodes>
        0 -1 988 1794353355 -10280800 1358064827 -552564037 -178923259
        1465367623 -489562379 1080362190</internalNodes>
      <leafValues>
        -4.8744499683380127e-01 3.0885553359985352e-01</leafValues></_>
    <_>
      <internalNodes>
        0 -1 12152 2136241030 -1873485089 1008039221 1292242479
        -773850280 75601803 59322568 -912542534</internalNodes>
      <leafValues>
        -4.3654581904411316e-01 3.4401360154151917e-01</leafValues></_>
    <_>
      <internalNodes>
        0 -1 11435 -492617725 -627923787 -1177135804 -130363309
        -868103717 1357799943 853383384 495539506</internalNodes>
      <leafValues>
        -4.9918875098228455e-01 3.0059871077537537e-01</leafValues></_>
    <_>
      <internalNodes>
        0 -1 9320 -335486997 842555462 190823350 801142730 877649850
        -659270248 1125097423 -277953</internalNodes>
      <leafValues>
        -4.1698092222213745e-01 3.7524220347404480e-01</leafValues></_></weakClassifiers></stage9>
</opencv_storage>
