<?xml version="1.0"?>
<opencv_storage>
<stage6>
  <maxWeakCount>12</maxWeakCount>
  <stageThreshold>-7.8773778676986694e-01</stageThreshold>
  <weakClassifiers>
    <_>
      <internalNodes>
        0 -1 8098 767500808 263201846 582692922 -1984331106 1079647800
        1198543669 1610610059 1432469725</internalNodes>
      <leafValues>
        -5.5061179399490356e-01 4.8911976814270020e-01</leafValues></_>
    <_>
      <internalNodes>
        0 -1 6768 1139801183 -889240961 184186614 -1564835969 -562160310
        1476392818 -52284215 -137996965</internalNodes>
      <leafValues>
        -3.6432585120201111e-01 4.5326304435729980e-01</leafValues></_>
    <_>
      <internalNodes>
        0 -1 10359 1055305248 1760356139 988529712 288598331 -1008683028
        1159947764 1600480181 1400582971</internalNodes>
      <leafValues>
        -6.7482107877731323e-01 2.2233216464519501e-01</leafValues></_>
    <_>
      <internalNodes>
        0 -1 13735 -353378161 1881295523 -430710122 548066259
        -1877741713 1082251841 1829750655 139452268</internalNodes>
      <leafValues>
        -4.9990510940551758e-01 2.9223290085792542e-01</leafValues></_>
    <_>
      <internalNodes>
        0 -1 2459 1291767334 -975988267 -97333232 -1979537088 -174225280
        -706281161 -119344198 -679284914</internalNodes>
      <leafValues>
        -5.1357287168502808e-01 2.9901987314224243e-01</leafValues></_>
    <_>
      <internalNodes>
        0 -1 3908 2147196895 900130758 -61689 2143702678 -71581701
        382095310 -2748590 -408760434</internalNodes>
      <leafValues>
        -3.4289130568504333e-01 4.6112635731697083e-01</leafValues></_>
    <_>
      <internalNodes>
        0 -1 6868 -50341222 1949310551 -1192751410 319466126 393564772
        810572514 -1767771166 140062639</internalNodes>
      <leafValues>
        -6.2728959321975708e-01 2.5727203488349915e-01</leafValues></_>
    <_>
      <internalNodes>
        0 -1 8246 1214227719 -1868381309 -507346626 -634493710 746966190
        -93939953 -521409809 141514311</internalNodes>
      <leafValues>
        -4.7009336948394775e-01 3.5198390483856201e-01</leafValues></_>
    <_>
      <internalNodes>
        0 -1 12229 -1879197497 1442766207 -9064598 497670394 911562927
        -1134863329 -2024298006 -1558654209</internalNodes>
      <leafValues>
        -3.7091228365898132e-01 4.6125298738479614e-01</leafValues></_>
    <_>
      <internalNodes>
        0 -1 11381 -998259577 276481355 -100684488 1473985851
        -1594657290 1430417503 1436661247 -637115425</internalNodes>
      <leafValues>
        -3.6272904276847839e-01 4.5520809292793274e-01</leafValues></_>
    <_>
      <internalNodes>
        0 -1 11407 1208273929 -590172229 -1316013116 2144120399
        -1300885284 1568680109 1341071854 -1687522044</internalNodes>
      <leafValues>
        -4.6344310045242310e-01 3.7192171812057495e-01</leafValues></_>
    <_>
      <internalNodes>
        0 -1 2225 -461904272 -145437944 -1389335196 1976946626 135619354
        815841995 -357885690 1903423235</internalNodes>
      <leafValues>
        -5.7077753543853760e-01 2.9767164587974548e-01</leafValues></_></weakClassifiers></stage6>
</opencv_storage>
