<?xml version="1.0"?>
<opencv_storage>
<stage12>
  <maxWeakCount>14</maxWeakCount>
  <stageThreshold>-9.8617208003997803e-01</stageThreshold>
  <weakClassifiers>
    <_>
      <internalNodes>
        0 -1 5546 732639876 511117495 671154730 79761384 -7434944
        1987354488 -539238438 1385233403</internalNodes>
      <leafValues>
        -3.6900368332862854e-01 4.8820179700851440e-01</leafValues></_>
    <_>
      <internalNodes>
        0 -1 10280 -58817057 -328250065 15679294 -395089930 -262254137
        -1342867519 -53674599 -1145417633</internalNodes>
      <leafValues>
        -2.5155428051948547e-01 4.5621708035469055e-01</leafValues></_>
    <_>
      <internalNodes>
        0 -1 11448 -672675108 -355222531 1215942161 -1306812519
        1809557450 -76329512 -1067198411 -450831783</internalNodes>
      <leafValues>
        -3.6801943182945251e-01 3.3858054876327515e-01</leafValues></_>
    <_>
      <internalNodes>
        0 -1 13050 1970696750 -1173732849 1961753322 352353519
        -286337170 -1701383433 -209889417 -712080324</internalNodes>
      <leafValues>
        -4.6988126635551453e-01 2.6153084635734558e-01</leafValues></_>
    <_>
      <internalNodes>
        0 -1 9292 592137742 -658103627 138148564 725862604 1717272556
        -971738954 457668542 1716723509</internalNodes>
      <leafValues>
        -6.0223221778869629e-01 2.0229128003120422e-01</leafValues></_>
    <_>
      <internalNodes>
        0 -1 7878 473666591 1069852622 1551214524 323263454 -1202312249
        797860212 -1662104200 -429468430</internalNodes>
      <leafValues>
        -4.3901318311691284e-01 2.8820565342903137e-01</leafValues></_>
    <_>
      <internalNodes>
        0 -1 4099 -17610986 -269024466 -1425726322 -2106349412
        1491131254 -221915462 -368842253 -1973245225</internalNodes>
      <leafValues>
        -3.9772444963455200e-01 3.5350197553634644e-01</leafValues></_>
    <_>
      <internalNodes>
        0 -1 13601 -15730186 220314421 -75333281 36159555 -232785269
        -267952499 -433870037 37740059</internalNodes>
      <leafValues>
        -4.6363648772239685e-01 2.8790605068206787e-01</leafValues></_>
    <_>
      <internalNodes>
        0 -1 12946 1156040128 956942775 -1581640102 991851026
        -1177042236 939497360 260021210 1897505631</internalNodes>
      <leafValues>
        -5.2439552545547485e-01 2.4966576695442200e-01</leafValues></_>
    <_>
      <internalNodes>
        0 -1 544 -958741288 1869988062 2043793649 -943234975 -925810518
        -1966599814 -1918346907 1140872703</internalNodes>
      <leafValues>
        -5.3090864419937134e-01 2.7864202857017517e-01</leafValues></_>
    <_>
      <internalNodes>
        0 -1 2603 1094173839 -136317479 1094407130 570821622 -710945779
        -1207983049 -267371709 1604467508</internalNodes>
      <leafValues>
        -4.7400990128517151e-01 3.1345468759536743e-01</leafValues></_>
    <_>
      <internalNodes>
        0 -1 11319 -1097693675 2002116855 -2064056520 -824605149
        586738088 1895113901 -1249370836 2083159714</internalNodes>
      <leafValues>
        -4.8773896694183350e-01 2.8142249584197998e-01</leafValues></_>
    <_>
      <internalNodes>
        0 -1 10353 -801096386 -774042526 -263005985 352922731 1427934814
        -551113588 542596221 1398519938</internalNodes>
      <leafValues>
        -5.2382087707519531e-01 2.7678483724594116e-01</leafValues></_>
    <_>
      <internalNodes>
        0 -1 1044 -424523615 1457464079 -191442254 111203700 -588472256
        -1070355701 -1002986877 1153494934</internalNodes>
      <leafValues>
        -5.0715547800064087e-01 2.8717076778411865e-01</leafValues></_></weakClassifiers></stage12>
</opencv_storage>
