<?xml version="1.0"?>
<opencv_storage>
<cascade>
  <stageType>BOOST</stageType>
  <featureType>LBP</featureType>
  <height>40</height>
  <width>40</width>
  <stageParams>
    <boostType>GAB</boostType>
    <minHitRate>9.9900001287460327e-01</minHitRate>
    <maxFalseAlarm>5.0000000000000000e-01</maxFalseAlarm>
    <weightTrimRate>9.4999999999999996e-01</weightTrimRate>
    <maxDepth>1</maxDepth>
    <maxWeakCount>100</maxWeakCount></stageParams>
  <featureParams>
    <maxCatCount>256</maxCatCount>
    <featSize>1</featSize></featureParams>
  <stageNum>20</stageNum>
  <stages>
    <!-- stage 0 -->
    <_>
      <maxWeakCount>4</maxWeakCount>
      <stageThreshold>-4.7807398438453674e-01</stageThreshold>
      <weakClassifiers>
        <_>
          <internalNodes>
            0 -1 27 -1970623954 -1202678861 -729576961 -10401465 9538559
            549692053 -19943701 -4257</internalNodes>
          <leafValues>
            -9.3359893560409546e-01 7.5789940357208252e-01</leafValues></_>
        <_>
          <internalNodes>
            0 -1 37 -923030801 -468475041 1019319295 -142507237
            171385083 -1163752313 765923327 -16385</internalNodes>
          <leafValues>
            -6.8711638450622559e-01 6.5836834907531738e-01</leafValues></_>
        <_>
          <internalNodes>
            0 -1 6 -58898441 -120073739 659620337 -35876603 1313687807
            1671336082 1999176671 1610044679</internalNodes>
          <leafValues>
            -7.1612882614135742e-01 5.3489410877227783e-01</leafValues></_>
        <_>
          <internalNodes>
            0 -1 128 2045380375 1342187394 16866198 -724695273
            -1045478738 -864016247 -490096561 -286364333</internalNodes>
          <leafValues>
            -6.7695415019989014e-01 6.0774725675582886e-01</leafValues></_></weakClassifiers></_>
    <!-- stage 1 -->
    <_>
      <maxWeakCount>5</maxWeakCount>
      <stageThreshold>-1.0607215166091919e+00</stageThreshold>
      <weakClassifiers>
        <_>
          <internalNodes>
            0 -1 42 178662958 684775131 -1658482199 -1661894411
            1268394751 -120596001 -5316357 -542909445</internalNodes>
          <leafValues>
            -8.4761905670166016e-01 6.4725738763809204e-01</leafValues></_>
        <_>
          <internalNodes>
            0 -1 48 -1190662211 -1193494021 286860149 -33688211
            178987519 -124012287 1330315541 -863173628</internalNodes>
          <leafValues>
            -6.3044035434722900e-01 5.8520936965942383e-01</leafValues></_>
        <_>
          <internalNodes>
            0 -1 69 -728351171 -119791694 -4925987 -589933321
            -1277084517 -1079062113 2101942799 -80777472</internalNodes>
          <leafValues>
            -5.5801349878311157e-01 6.1841005086898804e-01</leafValues></_>
        <_>
          <internalNodes>
            0 -1 74 618603203 -759697134 1476489904 -1086670808
            1682708890 -348204580 1814563978 -79990639</internalNodes>
          <leafValues>
            -6.9882559776306152e-01 5.2366781234741211e-01</leafValues></_>
        <_>
          <internalNodes>
            0 -1 19 -1377849621 -1819092998 -1023021005 -241979257
            183340015 885404158 -626871413 -143920149</internalNodes>
          <leafValues>
            -7.2474002838134766e-01 4.5202341675758362e-01</leafValues></_></weakClassifiers></_>
    <!-- stage 2 -->
    <_>
      <maxWeakCount>6</maxWeakCount>
      <stageThreshold>-1.2621737718582153e+00</stageThreshold>
      <weakClassifiers>
        <_>
          <internalNodes>
            0 -1 30 -805860690 -42339361 -652872482 542964545 16452539
            687954367 1259408779 -76107345</internalNodes>
          <leafValues>
            -7.6470589637756348e-01 6.3466441631317139e-01</leafValues></_>
        <_>
          <internalNodes>
            0 -1 28 -266641 334147322 -1050053 1962082302 1212059647
            -1744830465 -20545 -134217793</internalNodes>
          <leafValues>
            -5.6423842906951904e-01 6.1629331111907959e-01</leafValues></_>
        <_>
          <internalNodes>
            0 -1 39 -1141952514 -188163705 -242436203 -209810983
            1262038413 -1162810193 1269499223 -817904123</internalNodes>
          <leafValues>
            -5.8596009016036987e-01 5.4462444782257080e-01</leafValues></_>
        <_>
          <internalNodes>
            0 -1 96 1602994940 201375744 -719078681 1511221903
            -1127686679 -1999744344 -1899045759 -335544341</internalNodes>
          <leafValues>
            -5.7638090848922729e-01 5.6217610836029053e-01</leafValues></_>
        <_>
          <internalNodes>
            0 -1 2 -624177161 -880058993 344441 -827340800 141668
            1828915217 1252221683 2132798206</internalNodes>
          <leafValues>
            -6.8041062355041504e-01 4.7075876593589783e-01</leafValues></_>
        <_>
          <internalNodes>
            0 -1 83 1794076443 1633156084 -949678082 1079495321
            -1549514885 144923219 -607851187 -392434290</internalNodes>
          <leafValues>
            -6.2043261528015137e-01 5.1948249340057373e-01</leafValues></_></weakClassifiers></_>
    <!-- stage 3 -->
    <_>
      <maxWeakCount>7</maxWeakCount>
      <stageThreshold>-8.5135531425476074e-01</stageThreshold>
      <weakClassifiers>
        <_>
          <internalNodes>
            0 -1 134 1600005927 41288310 -1580328486 450377215
            -609016382 -1362464757 -825443400 2128494059</internalNodes>
          <leafValues>
            -6.9430893659591675e-01 5.9832286834716797e-01</leafValues></_>
        <_>
          <internalNodes>
            0 -1 56 -268455939 -1610940421 -830554113 -541171795
            536817663 -336405569 2146373533 -1112555</internalNodes>
          <leafValues>
            -5.3397548198699951e-01 6.1458688974380493e-01</leafValues></_>
        <_>
          <internalNodes>
            0 -1 66 -570753796 -1739518899 -669985203 -363673025
            1754849007 992487946 679873215 -1350358613</internalNodes>
          <leafValues>
            -5.6872773170471191e-01 5.1003742218017578e-01</leafValues></_>
        <_>
          <internalNodes>
            0 -1 115 -3401516 1058243665 1529041183 -45709263
            -1399155526 -1156247550 -1591104535 1762345727</internalNodes>
          <leafValues>
            -6.1066257953643799e-01 4.7407376766204834e-01</leafValues></_>
        <_>
          <internalNodes>
            0 -1 8 1923271679 -548469537 1599554961 -674905829 269937371
            1494418177 1474683342 -2119089</internalNodes>
          <leafValues>
            -6.0071188211441040e-01 4.8067143559455872e-01</leafValues></_>
        <_>
          <internalNodes>
            0 -1 76 -183536677 1062963451 -1901198599 238800746
            -1213508776 -1888498178 1970265983 2145386431</internalNodes>
          <leafValues>
            -5.3068900108337402e-01 5.6738060712814331e-01</leafValues></_>
        <_>
          <internalNodes>
            0 -1 143 -206439186 1359298851 -1206979384 1763422377
            -1021184850 26790282 671278074 2146386050</internalNodes>
          <leafValues>
            -5.7385075092315674e-01 5.7803153991699219e-01</leafValues></_></weakClassifiers></_>
    <!-- stage 4 -->
    <_>
      <maxWeakCount>6</maxWeakCount>
      <stageThreshold>-1.3390154838562012e+00</stageThreshold>
      <weakClassifiers>
        <_>
          <internalNodes>
            0 -1 73 -1370801433 -326960287 -197083171 -658185231
            676868071 -52237603 177014959 1035927586</internalNodes>
          <leafValues>
            -6.4583331346511841e-01 6.1597937345504761e-01</leafValues></_>
        <_>
          <internalNodes>
            0 -1 21 -286265681 -25264258 -1073774610 -1367343106
            1149224639 -430114953 -134258769 -8388609</internalNodes>
          <leafValues>
            -5.2991324663162231e-01 5.7044845819473267e-01</leafValues></_>
        <_>
          <internalNodes>
            0 -1 32 -521308324 -132255596 -746193891 -698603 -325485317
            -1977028419 -70565990 1275420417</internalNodes>
          <leafValues>
            -7.1652287244796753e-01 4.2339378595352173e-01</leafValues></_>
        <_>
          <internalNodes>
            0 -1 13 -687866973 352204363 1374490561 -858560032 43675399
            -1939048186 1352880437 1456434672</internalNodes>
          <leafValues>
            -6.6214460134506226e-01 4.6212708950042725e-01</leafValues></_>
        <_>
          <internalNodes>
            0 -1 25 -1035277325 414383950 -1290021417 -120127475
            1321307899 -335377279 1406994163 -745057328</internalNodes>
          <leafValues>
            -5.8378052711486816e-01 5.7056421041488647e-01</leafValues></_>
        <_>
          <internalNodes>
            0 -1 100 -1546767499 1624360635 -989616642 -587279265
            -287086466 -121310119 -1027248825 -146002121</internalNodes>
          <leafValues>
            -5.8690530061721802e-01 5.2918761968612671e-01</leafValues></_></weakClassifiers></_>
    <!-- stage 5 -->
    <_>
      <maxWeakCount>7</maxWeakCount>
      <stageThreshold>-8.4157127141952515e-01</stageThreshold>
      <weakClassifiers>
        <_>
          <internalNodes>
            0 -1 60 -1343280625 1337962303 1946154868 721420142
            267333631 -536870929 -34955 -689209489</internalNodes>
          <leafValues>
            -5.5614268779754639e-01 6.3352650403976440e-01</leafValues></_>
        <_>
          <internalNodes>
            0 -1 49 -1497452545 -73859143 -1073807883 -330243 517220863
            -1368592513 1130316119 -572538672</internalNodes>
          <leafValues>
            -4.5148971676826477e-01 6.1450868844985962e-01</leafValues></_>
        <_>
          <internalNodes>
            0 -1 55 1349760688 -254750001 -2118051363 -2170657
            -1063771923 -88622456 587596693 -929168635</internalNodes>
          <leafValues>
            -5.7879394292831421e-01 4.8906967043876648e-01</leafValues></_>
        <_>
          <internalNodes>
            0 -1 41 -488395025 -57356260 -1220414076 899170577
            -1426084129 -1674989040 -1700558139 2137751561</internalNodes>
          <leafValues>
            -6.2916415929794312e-01 4.3915405869483948e-01</leafValues></_>
        <_>
          <internalNodes>
            0 -1 34 822271475 487056214 -1155509263 -1212166080
            -1970288749 177954343 1090667635 286421041</internalNodes>
          <leafValues>
            -6.5445619821548462e-01 4.1863951086997986e-01</leafValues></_>
        <_>
          <internalNodes>
            0 -1 137 -1573239343 -286501505 -46799849 2089439267
            -411372355 -72068714 -1897362947 -21327386</internalNodes>
          <leafValues>
            -5.3916782140731812e-01 5.3699749708175659e-01</leafValues></_>
        <_>
          <internalNodes>
            0 -1 117 -1177513764 -1254358766 1754403921 1440946206
            -2080241184 193463244 558585022 520424971</internalNodes>
          <leafValues>
            -7.0883578062057495e-01 4.2668390274047852e-01</leafValues></_></weakClassifiers></_>
    <!-- stage 6 -->
    <_>
      <maxWeakCount>7</maxWeakCount>
      <stageThreshold>-8.5931879281997681e-01</stageThreshold>
      <weakClassifiers>
        <_>
          <internalNodes>
            0 -1 10 -352329777 1073872887 -524460 -1353842689 41910036
            4194175 91717615 1879048191</internalNodes>
          <leafValues>
            -4.8866498470306396e-01 6.2919312715530396e-01</leafValues></_>
        <_>
          <internalNodes>
            0 -1 95 -674968374 2106675016 -451573250 1396117657 1230538
            1527529744 606336927 -1821441265</internalNodes>
          <leafValues>
            -5.3354120254516602e-01 5.1179552078247070e-01</leafValues></_>
        <_>
          <internalNodes>
            0 -1 24 -6029390 -4718668 -1073745451 -536890140 -1648956749
            2142363508 1421743667 -1129849</internalNodes>
          <leafValues>
            -4.9688616394996643e-01 5.4030227661132812e-01</leafValues></_>
        <_>
          <internalNodes>
            0 -1 97 -108732464 1506027616 287150584 994574355
            -1182222164 470417576 405375401 -214206054</internalNodes>
          <leafValues>
            -5.6399053335189819e-01 4.8948824405670166e-01</leafValues></_>
        <_>
          <internalNodes>
            0 -1 102 -36382004 -33843320 1078370492 462915670 281163816
            973801608 536883016 462094351</internalNodes>
          <leafValues>
            -7.0131015777587891e-01 4.0448302030563354e-01</leafValues></_>
        <_>
          <internalNodes>
            0 -1 130 1367012008 1936425087 303254022 -2019120637
            470926059 1211013506 290287211 -618831385</internalNodes>
          <leafValues>
            -6.3084793090820312e-01 4.4819638133049011e-01</leafValues></_>
        <_>
          <internalNodes>
            0 -1 145 -751044474 536938498 637575519 537944179
            -1589516084 -2138628078 -960911329 261875883</internalNodes>
          <leafValues>
            -6.4053815603256226e-01 4.5798417925834656e-01</leafValues></_></weakClassifiers></_>
    <!-- stage 7 -->
    <_>
      <maxWeakCount>7</maxWeakCount>
      <stageThreshold>-7.9538917541503906e-01</stageThreshold>
      <weakClassifiers>
        <_>
          <internalNodes>
            0 -1 108 909242816 1935946045 1398895064 1400795647
            539066536 -2143735895 326155261 439424370</internalNodes>
          <leafValues>
            -4.8883375525474548e-01 6.3536918163299561e-01</leafValues></_>
        <_>
          <internalNodes>
            0 -1 98 -670761776 -225443784 -1849650983 1561815247
            -1064131678 -1702361974 411607227 454758319</internalNodes>
          <leafValues>
            -5.6755393743515015e-01 5.0218015909194946e-01</leafValues></_>
        <_>
          <internalNodes>
            0 -1 92 1364745368 -137248704 100700573 1292977669
            1660955194 -1196915584 285407655 285806571</internalNodes>
          <leafValues>
            -6.9861179590225220e-01 3.9648470282554626e-01</leafValues></_>
        <_>
          <internalNodes>
            0 -1 31 -193536394 846909693 134220807 272565663 -1236121579
            1981913810 -1289578421 -552122558</internalNodes>
          <leafValues>
            -6.7244404554367065e-01 4.1942015290260315e-01</leafValues></_>
        <_>
          <internalNodes>
            0 -1 140 -268382016 -770858748 73549824 2139162652
            -1877429112 -1870626783 -1758925763 -1148514164</internalNodes>
          <leafValues>
            -5.5056953430175781e-01 5.0784301757812500e-01</leafValues></_>
        <_>
          <internalNodes>
            0 -1 88 -108739136 -1506268 -1689464579 1398604354
            -2036675158 -32476064 234924459 -902328641</internalNodes>
          <leafValues>
            -5.1126974821090698e-01 5.6981575489044189e-01</leafValues></_>
        <_>
          <internalNodes>
            0 -1 71 2004883098 -586153975 68359957 520161091 -796883560
            184647812 1079591170 -1143257469</internalNodes>
          <leafValues>
            -5.5147957801818848e-01 5.3437554836273193e-01</leafValues></_></weakClassifiers></_>
    <!-- stage 8 -->
    <_>
      <maxWeakCount>7</maxWeakCount>
      <stageThreshold>-8.2605046033859253e-01</stageThreshold>
      <weakClassifiers>
        <_>
          <internalNodes>
            0 -1 29 2146414506 -57671699 1929314039 -923283457
            1341065101 1917824975 2135906053 -34664699</internalNodes>
          <leafValues>
            -5.0526314973831177e-01 6.1785715818405151e-01</leafValues></_>
        <_>
          <internalNodes>
            0 -1 81 1283391491 1411241744 2098263331 -568987392
            2030769861 -1866413051 -256608048 -1424809374</internalNodes>
          <leafValues>
            -6.8276423215866089e-01 3.8910785317420959e-01</leafValues></_>
        <_>
          <internalNodes>
            0 -1 35 -789452689 953173264 1614815296 1351241777
            1339065175 -187592575 -528182752 -1073047408</internalNodes>
          <leafValues>
            -5.5928665399551392e-01 4.3877652287483215e-01</leafValues></_>
        <_>
          <internalNodes>
            0 -1 26 -147198497 1065414746 -167406091 -34598127 177261483
            2055790976 1415659895 -656850547</internalNodes>
          <leafValues>
            -5.6121462583541870e-01 4.4157946109771729e-01</leafValues></_>
        <_>
          <internalNodes>
            0 -1 101 -551921845 -807940974 2097246905 508028394
            -50160984 718217221 -702338208 469584195</internalNodes>
          <leafValues>
            -5.7131034135818481e-01 4.4093134999275208e-01</leafValues></_>
        <_>
          <internalNodes>
            0 -1 78 -1493184103 -1996864673 -738081595 1589252327
            -406206983 -357775717 -746143615 -1601767013</internalNodes>
          <leafValues>
            -5.2633911371231079e-01 5.0823420286178589e-01</leafValues></_>
        <_>
          <internalNodes>
            0 -1 99 -1066355268 -800409744 -1878929968 -712717411
            -443997838 -225033007 -292729435 -73070079</internalNodes>
          <leafValues>
            -4.6475052833557129e-01 5.7148182392120361e-01</leafValues></_></weakClassifiers></_>
    <!-- stage 9 -->
    <_>
      <maxWeakCount>6</maxWeakCount>
      <stageThreshold>-1.2028889656066895e+00</stageThreshold>
      <weakClassifiers>
        <_>
          <internalNodes>
            0 -1 18 1341124590 1073654526 -807424065 -1963003905
            1140821678 1895825138 2147422143 -269021633</internalNodes>
          <leafValues>
            -5.1585012674331665e-01 5.8889853954315186e-01</leafValues></_>
        <_>
          <internalNodes>
            0 -1 44 -421532053 -775781871 -1323123391 -706968059
            -2075546038 1226358792 -1729788009 134318665</internalNodes>
          <leafValues>
            -5.7335627079010010e-01 4.2321285605430603e-01</leafValues></_>
        <_>
          <internalNodes>
            0 -1 129 -706618152 362138197 1401180584 1561837569
            -1857122150 2137527476 -2096920753 36668203</internalNodes>
          <leafValues>
            -5.3456622362136841e-01 4.4432234764099121e-01</leafValues></_>
        <_>
          <internalNodes>
            0 -1 54 1461780441 -202707522 -1141908075 -83976292
            603893759 -85270593 2146373111 -6355945</internalNodes>
          <leafValues>
            -4.6711105108261108e-01 5.4463583230972290e-01</leafValues></_>
        <_>
          <internalNodes>
            0 -1 109 -82030344 1553409037 1096603021 1339883966
            -1726941048 4661256 35357115 -1726255877</internalNodes>
          <leafValues>
            -6.1959117650985718e-01 4.3099635839462280e-01</leafValues></_>
        <_>
          <internalNodes>
            0 -1 124 1207300594 -183234447 -250006143 1431109969
            -1607808850 1880101281 420772685 407587983</internalNodes>
          <leafValues>
            -6.4775031805038452e-01 4.0226557850837708e-01</leafValues></_></weakClassifiers></_>
    <!-- stage 10 -->
    <_>
      <maxWeakCount>7</maxWeakCount>
      <stageThreshold>-8.4824782609939575e-01</stageThreshold>
      <weakClassifiers>
        <_>
          <internalNodes>
            0 -1 51 -959602036 1162900244 -678300912 897992137 550841303
            -444332924 95488129 229439392</internalNodes>
          <leafValues>
            -7.3542600870132446e-01 5.1996868848800659e-01</leafValues></_>
        <_>
          <internalNodes>
            0 -1 52 1351876468 1966969828 -1336176803 -253305788
            1376566175 -271254128 831208187 -456325995</internalNodes>
          <leafValues>
            -5.0647187232971191e-01 4.6690878272056580e-01</leafValues></_>
        <_>
          <internalNodes>
            0 -1 58 -94389444 1493171966 -1 -588251137 -134266945
            -1279295570 2146381581 -5911291</internalNodes>
          <leafValues>
            -4.4105279445648193e-01 5.4022288322448730e-01</leafValues></_>
        <_>
          <internalNodes>
            0 -1 22 2125973471 -1142751632 -1103676629 -539146440
            1513102181 -1209575307 1427596585 -14208747</internalNodes>
          <leafValues>
            -4.4457495212554932e-01 5.3252452611923218e-01</leafValues></_>
        <_>
          <internalNodes>
            0 -1 141 -861997306 -1043602785 -8211586 138414506 542428416
            270395529 -1474573723 1025760078</internalNodes>
          <leafValues>
            -6.7950141429901123e-01 3.6002472043037415e-01</leafValues></_>
        <_>
          <internalNodes>
            0 -1 104 1533361981 1897496730 -906963203 2116132945
            -586149088 -64194136 308018842 221005353</internalNodes>
          <leafValues>
            -5.9878432750701904e-01 3.7940993905067444e-01</leafValues></_>
        <_>
          <internalNodes>
            0 -1 67 -1065775043 143823908 -1072655906 -837775295
            -925622191 -1031794447 -395798463 -1916204163</internalNodes>
          <leafValues>
            -6.4831125736236572e-01 3.8541007041931152e-01</leafValues></_></weakClassifiers></_>
    <!-- stage 11 -->
    <_>
      <maxWeakCount>7</maxWeakCount>
      <stageThreshold>-1.2061381340026855e+00</stageThreshold>
      <weakClassifiers>
        <_>
          <internalNodes>
            0 -1 82 23021062 33670228 -796351504 -657157903 -1987792513
            -1069006711 -268287688 -2098314295</internalNodes>
          <leafValues>
            -6.0071301460266113e-01 5.4817545413970947e-01</leafValues></_>
        <_>
          <internalNodes>
            0 -1 14 -64457264 -729230795 -1555561292 -13336463
            1512090362 -201270990 1194197843 1607951759</internalNodes>
          <leafValues>
            -6.1750483512878418e-01 3.9107683300971985e-01</leafValues></_>
        <_>
          <internalNodes>
            0 -1 68 1348608180 -435140352 -804980737 -705690475
            1897994237 -123383535 2021737521 -349223164</internalNodes>
          <leafValues>
            -6.1765366792678833e-01 3.7648546695709229e-01</leafValues></_>
        <_>
          <internalNodes>
            0 -1 62 -655445244 236881801 -775734948 277224915
            -1110638469 -1776283029 -351907634 -1517783100</internalNodes>
          <leafValues>
            -7.0453280210494995e-01 2.8926897048950195e-01</leafValues></_>
        <_>
          <internalNodes>
            0 -1 65 -366534016 2052539424 68232446 754959839 -2036776397
            -342786008 -976674278 -615526238</internalNodes>
          <leafValues>
            -7.3789286613464355e-01 2.7755096554756165e-01</leafValues></_>
        <_>
          <internalNodes>
            0 -1 84 2046582486 1892700389 37034631 -895445438
            -1430569645 -561439590 866238343 1398003923</internalNodes>
          <leafValues>
            -5.9882211685180664e-01 3.8485357165336609e-01</leafValues></_>
        <_>
          <internalNodes>
            0 -1 72 -103057415 1887105496 -985426447 -731520632
            1807365821 -25253157 -1032877477 -189766891</internalNodes>
          <leafValues>
            -4.8029083013534546e-01 4.9493566155433655e-01</leafValues></_></weakClassifiers></_>
    <!-- stage 12 -->
    <_>
      <maxWeakCount>8</maxWeakCount>
      <stageThreshold>-7.1338194608688354e-01</stageThreshold>
      <weakClassifiers>
        <_>
          <internalNodes>
            0 -1 20 1658020582 570724725 1466683890 -82796452 1190489719
            839063120 75989729 1870842712</internalNodes>
          <leafValues>
            -6.5079367160797119e-01 5.3205126523971558e-01</leafValues></_>
        <_>
          <internalNodes>
            0 -1 135 -679508441 218062811 -562045736 -193134593 -285279
            -524289 -536887825 -807469057</internalNodes>
          <leafValues>
            -4.0625226497650146e-01 5.0739204883575439e-01</leafValues></_>
        <_>
          <internalNodes>
            0 -1 5 -96215062 1896008208 1478743042 1471387808
            -2146786097 -1358427581 314593383 -12061149</internalNodes>
          <leafValues>
            -4.9356368184089661e-01 4.6405625343322754e-01</leafValues></_>
        <_>
          <internalNodes>
            0 -1 118 1161556696 10552414 1162040401 1900282231 210836687
            467141701 -585245707 -570733669</internalNodes>
          <leafValues>
            -4.8544731736183167e-01 4.4136866927146912e-01</leafValues></_>
        <_>
          <internalNodes>
            0 -1 43 -697375034 -205618445 -2113656056 50512931 539164906
            1932747149 -60176070 1418040352</internalNodes>
          <leafValues>
            -7.1005535125732422e-01 3.0176901817321777e-01</leafValues></_>
        <_>
          <internalNodes>
            0 -1 0 -887950198 -872285938 33670338 -448759413 -888803174
            -987225692 325120178 1166572459</internalNodes>
          <leafValues>
            -7.0038878917694092e-01 3.0094173550605774e-01</leafValues></_>
        <_>
          <internalNodes>
            0 -1 47 -232572272 544273182 -1071603051 -236879715
            805518795 -660167520 1939873625 -1014300155</internalNodes>
          <leafValues>
            -6.5506619215011597e-01 3.6134856939315796e-01</leafValues></_>
        <_>
          <internalNodes>
            0 -1 125 -530441004 -1243971753 -1973631632 -744489617
            -1879006979 779554734 -1456876056 -1714812232</internalNodes>
          <leafValues>
            -4.9623385071754456e-01 4.8472785949707031e-01</leafValues></_></weakClassifiers></_>
    <!-- stage 13 -->
    <_>
      <maxWeakCount>9</maxWeakCount>
      <stageThreshold>-1.0203682184219360e+00</stageThreshold>
      <weakClassifiers>
        <_>
          <internalNodes>
            0 -1 131 724565794 2120220346 529009152 648732663 288853431
            1086344512 1971298273 1531959295</internalNodes>
          <leafValues>
            -4.7584187984466553e-01 5.7186013460159302e-01</leafValues></_>
        <_>
          <internalNodes>
            0 -1 45 1268488519 771396405 -1995896496 -1798185003
            -387735617 782152065 1772219007 67483685</internalNodes>
          <leafValues>
            -5.9815549850463867e-01 3.8953083753585815e-01</leafValues></_>
        <_>
          <internalNodes>
            0 -1 59 -236871625 1614897653 -729689808 -1837055759
            -2033121537 -507977063 -1073740749 -1354682302</internalNodes>
          <leafValues>
            -5.1823973655700684e-01 4.5317703485488892e-01</leafValues></_>
        <_>
          <internalNodes>
            0 -1 3 -830483889 -279073272 1777033002 2113874210 82789191
            -271330675 1644526095 -75533705</internalNodes>
          <leafValues>
            -4.7448813915252686e-01 5.0738161802291870e-01</leafValues></_>
        <_>
          <internalNodes>
            0 -1 133 1112538096 1489830127 -1993670223 -1929029123
            303612926 -1400077564 -366233375 -1561338417</internalNodes>
          <leafValues>
            -5.3914576768875122e-01 4.5296901464462280e-01</leafValues></_>
        <_>
          <internalNodes>
            0 -1 136 -221712290 1977030656 1025153448 2142243850
            -1031614566 1427238072 962642925 420207786</internalNodes>
          <leafValues>
            -6.0383236408233643e-01 3.8147607445716858e-01</leafValues></_>
        <_>
          <internalNodes>
            0 -1 142 -315628946 1862427204 -665431588 2109722946
            -760201076 -1408520157 243427482 1036741519</internalNodes>
          <leafValues>
            -5.9967172145843506e-01 3.9622718095779419e-01</leafValues></_>
        <_>
          <internalNodes>
            0 -1 126 -536877133 -1966101785 1298095489 1323236863
            -453057052 -1934827055 -671101566 -570565377</internalNodes>
          <leafValues>
            -4.9526175856590271e-01 5.1292496919631958e-01</leafValues></_>
        <_>
          <internalNodes>
            0 -1 93 1930916770 764134752 -1868486267 -2138839790
            1484861844 1008437664 1048584645 -677420797</internalNodes>
          <leafValues>
            -7.0784491300582886e-01 3.5961872339248657e-01</leafValues></_></weakClassifiers></_>
    <!-- stage 14 -->
    <_>
      <maxWeakCount>8</maxWeakCount>
      <stageThreshold>-9.3880856037139893e-01</stageThreshold>
      <weakClassifiers>
        <_>
          <internalNodes>
            0 -1 114 138949152 442238980 1346912426 490805163 167251930
            1599801045 -1961680898 939998989</internalNodes>
          <leafValues>
            -7.8975743055343628e-01 4.9182197451591492e-01</leafValues></_>
        <_>
          <internalNodes>
            0 -1 77 -456138483 1126825790 743865844 -1145307139
            787427323 175475740 170881274 -817380105</internalNodes>
          <leafValues>
            -4.0921080112457275e-01 4.9075117707252502e-01</leafValues></_>
        <_>
          <internalNodes>
            0 -1 138 -561840656 -795719597 -1921869858 361437703
            1530629599 -1279721449 140542386 -1029504445</internalNodes>
          <leafValues>
            -4.6783694624900818e-01 4.6536582708358765e-01</leafValues></_>
        <_>
          <internalNodes>
            0 -1 87 -839814450 2050164849 179374031 1026623749
            -1969631048 -53917030 -1330567000 -703912950</internalNodes>
          <leafValues>
            -5.3520339727401733e-01 4.0106043219566345e-01</leafValues></_>
        <_>
          <internalNodes>
            0 -1 94 1509902258 -827743218 -2093840479 -2067468965
            1322649612 444993944 227127716 1035966601</internalNodes>
          <leafValues>
            -6.6532808542251587e-01 3.2659548521041870e-01</leafValues></_>
        <_>
          <internalNodes>
            0 -1 63 822108551 -247442601 508821331 -1835212020 288636038
            -175377759 -514963865 -561331563</internalNodes>
          <leafValues>
            -5.2774697542190552e-01 4.2332711815834045e-01</leafValues></_>
        <_>
          <internalNodes>
            0 -1 106 1609425652 210256001 -781038782 1529457383
            -2100845645 684511402 36618503 950570057</internalNodes>
          <leafValues>
            -6.3777726888656616e-01 3.6709457635879517e-01</leafValues></_>
        <_>
          <internalNodes>
            0 -1 79 157348088 427294801 588264828 86134376 -1995904584
            -631183168 404826282 153303592</internalNodes>
          <leafValues>
            -7.1139609813690186e-01 3.0981352925300598e-01</leafValues></_></weakClassifiers></_>
    <!-- stage 15 -->
    <_>
      <maxWeakCount>8</maxWeakCount>
      <stageThreshold>-7.9344117641448975e-01</stageThreshold>
      <weakClassifiers>
        <_>
          <internalNodes>
            0 -1 89 -1462313002 642023748 281399514 1356711130
            1489388763 1151074377 -1870544689 605505605</internalNodes>
          <leafValues>
            -5.9765625000000000e-01 5.2491962909698486e-01</leafValues></_>
        <_>
          <internalNodes>
            0 -1 16 -668763452 -395194126 428457309 -157564399
            -389469211 -359997312 2111318975 2109805079</internalNodes>
          <leafValues>
            -5.9031492471694946e-01 3.4988540410995483e-01</leafValues></_>
        <_>
          <internalNodes>
            0 -1 15 -1521554178 -535471856 -1702129470 -1148595695
            436208347 1342914723 -2004843538 304328860</internalNodes>
          <leafValues>
            -6.9761216640472412e-01 2.9952949285507202e-01</leafValues></_>
        <_>
          <internalNodes>
            0 -1 123 -81931828 -73639847 -846271495 1173039929
            -1397980534 -339394483 -1579222377 -1333938500</internalNodes>
          <leafValues>
            -4.7570562362670898e-01 4.3417066335678101e-01</leafValues></_>
        <_>
          <internalNodes>
            0 -1 103 2128241147 1533102866 -1032388347 -1182746407
            797273787 1556105438 575524384 534750220</internalNodes>
          <leafValues>
            -5.9777235984802246e-01 3.8311323523521423e-01</leafValues></_>
        <_>
          <internalNodes>
            0 -1 1 -628185306 -1350561705 350060569 -620691451
            1778967333 -1694445551 716934106 2104723871</internalNodes>
          <leafValues>
            -6.0417371988296509e-01 3.5931923985481262e-01</leafValues></_>
        <_>
          <internalNodes>
            0 -1 23 1495932495 -3899070 1912883895 -68467964 1380319773
            982679969 2064984600 -75159551</internalNodes>
          <leafValues>
            -5.2853238582611084e-01 4.1986793279647827e-01</leafValues></_>
        <_>
          <internalNodes>
            0 -1 112 -145458210 2000164928 -1043271618 -1356733425
            397218712 -1440037876 -534535149 -233847671</internalNodes>
          <leafValues>
            -4.9612891674041748e-01 4.8204317688941956e-01</leafValues></_></weakClassifiers></_>
    <!-- stage 16 -->
    <_>
      <maxWeakCount>9</maxWeakCount>
      <stageThreshold>-8.0779981613159180e-01</stageThreshold>
      <weakClassifiers>
        <_>
          <internalNodes>
            0 -1 40 -1413176795 -1466900319 290468048 277908864
            146875835 -2087138189 1965056440 -416594664</internalNodes>
          <leafValues>
            -5.8766859769821167e-01 5.2599757909774780e-01</leafValues></_>
        <_>
          <internalNodes>
            0 -1 144 -140608009 -308621637 1677608259 202143595
            410525348 2144701431 1027569663 -630475025</internalNodes>
          <leafValues>
            -3.3393964171409607e-01 5.5209869146347046e-01</leafValues></_>
        <_>
          <internalNodes>
            0 -1 57 -1313873085 -603351013 990001109 -556967491
            1646659495 -332681414 1630552421 -859192880</internalNodes>
          <leafValues>
            -4.7371274232864380e-01 4.1315668821334839e-01</leafValues></_>
        <_>
          <internalNodes>
            0 -1 121 -570572677 532097599 1795391089 533053664
            -1462837014 895410173 1566007496 -8448257</internalNodes>
          <leafValues>
            -4.1106536984443665e-01 5.1270544528961182e-01</leafValues></_>
        <_>
          <internalNodes>
            0 -1 85 1338372951 -2762979 -1742605361 1072635743
            -1646765430 -1098771201 -1657015881 -927122065</internalNodes>
          <leafValues>
            -3.7897837162017822e-01 6.0135477781295776e-01</leafValues></_>
        <_>
          <internalNodes>
            0 -1 122 -1602200076 -537195773 1993852891 1767064325
            -369476168 972094717 721371150 388966923</internalNodes>
          <leafValues>
            -7.1467536687850952e-01 3.4051930904388428e-01</leafValues></_>
        <_>
          <internalNodes>
            0 -1 127 -1969372995 538614149 -993682220 1692905612
            1452294766 418138432 -1605482402 583327949</internalNodes>
          <leafValues>
            -7.1952408552169800e-01 3.0745846033096313e-01</leafValues></_>
        <_>
          <internalNodes>
            0 -1 132 -474352283 1995210367 2067726014 -1560444932
            -1258491016 1610463101 -1480589368 -1749051905</internalNodes>
          <leafValues>
            -4.1381627321243286e-01 5.7830089330673218e-01</leafValues></_>
        <_>
          <internalNodes>
            0 -1 110 -57342790 1574837274 -2043456481 1604911188
            -1489253662 -1987171632 173248138 655296527</internalNodes>
          <leafValues>
            -6.2824529409408569e-01 4.2365434765815735e-01</leafValues></_></weakClassifiers></_>
    <!-- stage 17 -->
    <_>
      <maxWeakCount>8</maxWeakCount>
      <stageThreshold>-1.3433187007904053e+00</stageThreshold>
      <weakClassifiers>
        <_>
          <internalNodes>
            0 -1 11 1740432318 -1207160432 285229973 583048409 145492782
            847388440 1353057095 1469792264</internalNodes>
          <leafValues>
            -6.3713079690933228e-01 5.1543945074081421e-01</leafValues></_>
        <_>
          <internalNodes>
            0 -1 91 1123894827 -535241586 1620107283 671208076
            1607483163 -536688590 2059422336 2098678016</internalNodes>
          <leafValues>
            -6.4734631776809692e-01 3.2776132225990295e-01</leafValues></_>
        <_>
          <internalNodes>
            0 -1 33 -113976528 -1659858544 458215891 -16046056 973283215
            1872176413 1183388003 -571517582</internalNodes>
          <leafValues>
            -5.2329427003860474e-01 4.1418072581291199e-01</leafValues></_>
        <_>
          <internalNodes>
            0 -1 36 1398228983 281299739 -1727971061 1591793434
            -29012155 1557786626 1761678625 -9494270</internalNodes>
          <leafValues>
            -4.4591507315635681e-01 4.7019818425178528e-01</leafValues></_>
        <_>
          <internalNodes>
            0 -1 61 -2018696913 -717693420 -954418505 217421892
            -46796123 982171680 1167244435 -24821752</internalNodes>
          <leafValues>
            -5.4383224248886108e-01 3.9200231432914734e-01</leafValues></_>
        <_>
          <internalNodes>
            0 -1 9 -173349010 -1079645950 -1977625574 -572276452
            574685430 -559281131 73208395 -550505826</internalNodes>
          <leafValues>
            -5.1389920711517334e-01 4.6280527114868164e-01</leafValues></_>
        <_>
          <internalNodes>
            0 -1 90 -890395833 -2070257057 167904406 -2012475143
            -861867980 -355137487 -645818163 -226334263</internalNodes>
          <leafValues>
            -4.7825849056243896e-01 4.9128937721252441e-01</leafValues></_>
        <_>
          <internalNodes>
            0 -1 86 -477237064 1010799617 896865261 -1175460594
            -1508766979 58237577 1109606417 1352976656</internalNodes>
          <leafValues>
            -6.5802472829818726e-01 3.4790802001953125e-01</leafValues></_></weakClassifiers></_>
    <!-- stage 18 -->
    <_>
      <maxWeakCount>10</maxWeakCount>
      <stageThreshold>-7.9080319404602051e-01</stageThreshold>
      <weakClassifiers>
        <_>
          <internalNodes>
            0 -1 120 -1365244120 1341132533 1237167580 161156148
            682667294 2014367279 229166395 1075580068</internalNodes>
          <leafValues>
            -6.9642859697341919e-01 5.1410657167434692e-01</leafValues></_>
        <_>
          <internalNodes>
            0 -1 46 -38863440 -334420875 -624327243 -2181904 1521976995
            -1884771528 1533962291 -130559</internalNodes>
          <leafValues>
            -4.8654961585998535e-01 4.0057244896888733e-01</leafValues></_>
        <_>
          <internalNodes>
            0 -1 4 318025710 1073768765 -627736313 -1878982655 867951571
            555909639 1103807673 -1205405782</internalNodes>
          <leafValues>
            -5.9804248809814453e-01 3.6369857192039490e-01</leafValues></_>
        <_>
          <internalNodes>
            0 -1 111 -1214644246 -577188469 -1337107173 -182282680
            -11248469 1233764491 848577193 1501560857</internalNodes>
          <leafValues>
            -5.4882490634918213e-01 3.5692596435546875e-01</leafValues></_>
        <_>
          <internalNodes>
            0 -1 105 776226968 -1761607148 -446839389 2137105515
            164318728 -771194725 -2104519617 1461423905</internalNodes>
          <leafValues>
            -6.7893803119659424e-01 3.0151504278182983e-01</leafValues></_>
        <_>
          <internalNodes>
            0 -1 70 -16232902 486687810 1532024400 528646258 -347976838
            1873433690 -978839880 -575993061</internalNodes>
          <leafValues>
            -5.4779934883117676e-01 3.7174910306930542e-01</leafValues></_>
        <_>
          <internalNodes>
            0 -1 53 -321730429 1086464080 1879205201 -552558505
            -1924553635 -2142129911 -861919753 281324383</internalNodes>
          <leafValues>
            -6.7373836040496826e-01 3.0549588799476624e-01</leafValues></_>
        <_>
          <internalNodes>
            0 -1 12 -913342188 -1173057399 -1635313500 -914358272
            1897121857 -1665138560 1878775287 1793462275</internalNodes>
          <leafValues>
            -5.5127292871475220e-01 4.0763026475906372e-01</leafValues></_>
        <_>
          <internalNodes>
            0 -1 116 -709050625 1415390284 1095143935 -938676394
            -1656488534 -128182319 1612503801 -14696549</internalNodes>
          <leafValues>
            -3.9092645049095154e-01 6.0572785139083862e-01</leafValues></_>
        <_>
          <internalNodes>
            0 -1 80 -129925531 -686010332 78066849 -1726939099
            -1296328160 -1944020326 -846541941 1293982804</internalNodes>
          <leafValues>
            -5.4842293262481689e-01 4.1940629482269287e-01</leafValues></_></weakClassifiers></_>
    <!-- stage 19 -->
    <_>
      <maxWeakCount>10</maxWeakCount>
      <stageThreshold>-9.4237011671066284e-01</stageThreshold>
      <weakClassifiers>
        <_>
          <internalNodes>
            0 -1 50 -1427758938 -1807723056 -201002415 -687171295
            647735540 813711376 -1204779367 1573683346</internalNodes>
          <leafValues>
            -9.0849673748016357e-01 4.7438752651214600e-01</leafValues></_>
        <_>
          <internalNodes>
            0 -1 113 2063497867 1946134461 1215719027 582479595
            1266669732 1213997366 1149038586 -658766083</internalNodes>
          <leafValues>
            -3.9377301931381226e-01 4.8520815372467041e-01</leafValues></_>
        <_>
          <internalNodes>
            0 -1 17 -780077184 -1719389872 -1056372495 2111654916
            152505003 1744978068 336450851 -1887210493</internalNodes>
          <leafValues>
            -5.9070068597793579e-01 3.4041801095008850e-01</leafValues></_>
        <_>
          <internalNodes>
            0 -1 75 817306772 -789958661 130391894 269013449 -226281216
            1719816384 2017749000 -1884518199</internalNodes>
          <leafValues>
            -6.4687502384185791e-01 2.9566898941993713e-01</leafValues></_>
        <_>
          <internalNodes>
            0 -1 38 1888571579 -2143203243 -712985517 -1126981247
            1430404031 853139550 1586395910 -2083958459</internalNodes>
          <leafValues>
            -5.5304282903671265e-01 3.6274194717407227e-01</leafValues></_>
        <_>
          <internalNodes>
            0 -1 64 -717569984 1501659874 -1059602123 1471595664
            1375742379 782885272 1259999966 1372832069</internalNodes>
          <leafValues>
            -5.4630923271179199e-01 3.6634716391563416e-01</leafValues></_>
        <_>
          <internalNodes>
            0 -1 119 -1797601464 -1687063099 1395818322 1802969303
            -1548660700 -2002198359 -1300461202 445223562</internalNodes>
          <leafValues>
            -6.9689399003982544e-01 2.9950639605522156e-01</leafValues></_>
        <_>
          <internalNodes>
            0 -1 7 -305992 -868859279 -1980019333 1769820314 1126581511
            1327309843 1497878003 -336632389</internalNodes>
          <leafValues>
            -4.3698614835739136e-01 5.2116990089416504e-01</leafValues></_>
        <_>
          <internalNodes>
            0 -1 139 -199868080 -251427576 1361494187 -646969350
            -2088441172 -2048819178 -929650198 511949930</internalNodes>
          <leafValues>
            -5.7951998710632324e-01 4.1081252694129944e-01</leafValues></_>
        <_>
          <internalNodes>
            0 -1 107 -332736440 1071387673 524542771 1171266970
            -919142256 289193524 1958567083 1661936667</internalNodes>
          <leafValues>
            -7.5102710723876953e-01 2.9490256309509277e-01</leafValues></_></weakClassifiers></_></stages>
  <features>
    <_>
      <rect>
        0 0 8 9</rect></_>
    <_>
      <rect>
        0 0 9 13</rect></_>
    <_>
      <rect>
        0 3 8 11</rect></_>
    <_>
      <rect>
        0 11 4 5</rect></_>
    <_>
      <rect>
        1 6 9 10</rect></_>
    <_>
      <rect>
        1 7 5 3</rect></_>
    <_>
      <rect>
        2 3 9 6</rect></_>
    <_>
      <rect>
        2 6 3 9</rect></_>
    <_>
      <rect>
        2 6 8 11</rect></_>
    <_>
      <rect>
        2 8 4 4</rect></_>
    <_>
      <rect>
        2 11 6 7</rect></_>
    <_>
      <rect>
        3 8 7 4</rect></_>
    <_>
      <rect>
        3 9 4 8</rect></_>
    <_>
      <rect>
        4 4 4 10</rect></_>
    <_>
      <rect>
        4 4 7 5</rect></_>
    <_>
      <rect>
        4 20 11 5</rect></_>
    <_>
      <rect>
        5 0 9 6</rect></_>
    <_>
      <rect>
        5 4 4 3</rect></_>
    <_>
      <rect>
        5 6 9 6</rect></_>
    <_>
      <rect>
        5 7 9 8</rect></_>
    <_>
      <rect>
        5 11 6 6</rect></_>
    <_>
      <rect>
        5 11 7 4</rect></_>
    <_>
      <rect>
        5 12 2 5</rect></_>
    <_>
      <rect>
        5 15 2 4</rect></_>
    <_>
      <rect>
        6 4 5 3</rect></_>
    <_>
      <rect>
        6 7 6 3</rect></_>
    <_>
      <rect>
        6 7 6 4</rect></_>
    <_>
      <rect>
        6 7 8 9</rect></_>
    <_>
      <rect>
        6 7 9 8</rect></_>
    <_>
      <rect>
        6 8 8 3</rect></_>
    <_>
      <rect>
        6 8 8 6</rect></_>
    <_>
      <rect>
        6 19 6 5</rect></_>
    <_>
      <rect>
        7 0 9 6</rect></_>
    <_>
      <rect>
        7 2 3 5</rect></_>
    <_>
      <rect>
        7 6 4 3</rect></_>
    <_>
      <rect>
        7 8 9 8</rect></_>
    <_>
      <rect>
        7 16 3 7</rect></_>
    <_>
      <rect>
        8 5 7 9</rect></_>
    <_>
      <rect>
        8 5 8 4</rect></_>
    <_>
      <rect>
        8 6 6 4</rect></_>
    <_>
      <rect>
        8 7 9 6</rect></_>
    <_>
      <rect>
        8 9 6 6</rect></_>
    <_>
      <rect>
        8 11 8 6</rect></_>
    <_>
      <rect>
        8 18 5 2</rect></_>
    <_>
      <rect>
        9 1 5 11</rect></_>
    <_>
      <rect>
        9 1 10 4</rect></_>
    <_>
      <rect>
        9 3 4 3</rect></_>
    <_>
      <rect>
        9 3 6 5</rect></_>
    <_>
      <rect>
        9 5 5 4</rect></_>
    <_>
      <rect>
        9 7 4 3</rect></_>
    <_>
      <rect>
        9 8 6 8</rect></_>
    <_>
      <rect>
        9 9 4 6</rect></_>
    <_>
      <rect>
        10 1 5 5</rect></_>
    <_>
      <rect>
        10 3 6 10</rect></_>
    <_>
      <rect>
        10 4 5 5</rect></_>
    <_>
      <rect>
        10 4 6 4</rect></_>
    <_>
      <rect>
        10 5 6 5</rect></_>
    <_>
      <rect>
        10 6 4 3</rect></_>
    <_>
      <rect>
        10 6 7 4</rect></_>
    <_>
      <rect>
        10 6 8 6</rect></_>
    <_>
      <rect>
        10 9 8 5</rect></_>
    <_>
      <rect>
        10 14 6 5</rect></_>
    <_>
      <rect>
        11 4 9 10</rect></_>
    <_>
      <rect>
        11 7 5 3</rect></_>
    <_>
      <rect>
        11 12 1 2</rect></_>
    <_>
      <rect>
        11 17 4 4</rect></_>
    <_>
      <rect>
        11 20 5 5</rect></_>
    <_>
      <rect>
        12 1 7 9</rect></_>
    <_>
      <rect>
        12 6 5 4</rect></_>
    <_>
      <rect>
        12 6 6 4</rect></_>
    <_>
      <rect>
        12 17 2 2</rect></_>
    <_>
      <rect>
        12 18 4 2</rect></_>
    <_>
      <rect>
        13 0 5 5</rect></_>
    <_>
      <rect>
        13 4 5 6</rect></_>
    <_>
      <rect>
        13 10 4 5</rect></_>
    <_>
      <rect>
        13 14 6 2</rect></_>
    <_>
      <rect>
        13 15 4 3</rect></_>
    <_>
      <rect>
        13 18 4 4</rect></_>
    <_>
      <rect>
        13 20 8 5</rect></_>
    <_>
      <rect>
        13 21 4 2</rect></_>
    <_>
      <rect>
        14 0 6 3</rect></_>
    <_>
      <rect>
        14 8 3 6</rect></_>
    <_>
      <rect>
        14 9 5 7</rect></_>
    <_>
      <rect>
        14 13 7 4</rect></_>
    <_>
      <rect>
        14 15 3 2</rect></_>
    <_>
      <rect>
        14 18 3 2</rect></_>
    <_>
      <rect>
        14 18 4 3</rect></_>
    <_>
      <rect>
        14 19 3 2</rect></_>
    <_>
      <rect>
        14 24 2 2</rect></_>
    <_>
      <rect>
        15 0 8 8</rect></_>
    <_>
      <rect>
        15 2 7 11</rect></_>
    <_>
      <rect>
        15 9 3 5</rect></_>
    <_>
      <rect>
        15 14 3 2</rect></_>
    <_>
      <rect>
        15 14 4 4</rect></_>
    <_>
      <rect>
        15 16 3 3</rect></_>
    <_>
      <rect>
        15 18 2 2</rect></_>
    <_>
      <rect>
        15 18 6 6</rect></_>
    <_>
      <rect>
        15 20 3 2</rect></_>
    <_>
      <rect>
        15 25 3 2</rect></_>
    <_>
      <rect>
        16 2 4 6</rect></_>
    <_>
      <rect>
        16 4 5 6</rect></_>
    <_>
      <rect>
        16 15 2 3</rect></_>
    <_>
      <rect>
        16 15 3 2</rect></_>
    <_>
      <rect>
        16 16 3 3</rect></_>
    <_>
      <rect>
        16 17 2 2</rect></_>
    <_>
      <rect>
        16 17 3 2</rect></_>
    <_>
      <rect>
        16 17 6 6</rect></_>
    <_>
      <rect>
        16 19 3 2</rect></_>
    <_>
      <rect>
        16 19 4 1</rect></_>
    <_>
      <rect>
        16 21 3 2</rect></_>
    <_>
      <rect>
        16 22 3 2</rect></_>
    <_>
      <rect>
        17 15 4 3</rect></_>
    <_>
      <rect>
        17 17 2 2</rect></_>
    <_>
      <rect>
        17 18 2 1</rect></_>
    <_>
      <rect>
        17 18 2 2</rect></_>
    <_>
      <rect>
        17 19 2 2</rect></_>
    <_>
      <rect>
        17 21 2 2</rect></_>
    <_>
      <rect>
        17 22 2 2</rect></_>
    <_>
      <rect>
        17 22 4 5</rect></_>
    <_>
      <rect>
        18 15 3 2</rect></_>
    <_>
      <rect>
        18 16 1 2</rect></_>
    <_>
      <rect>
        18 16 2 4</rect></_>
    <_>
      <rect>
        18 18 1 2</rect></_>
    <_>
      <rect>
        18 18 2 2</rect></_>
    <_>
      <rect>
        18 18 3 1</rect></_>
    <_>
      <rect>
        18 19 1 1</rect></_>
    <_>
      <rect>
        18 20 6 5</rect></_>
    <_>
      <rect>
        19 4 7 6</rect></_>
    <_>
      <rect>
        19 6 5 8</rect></_>
    <_>
      <rect>
        19 13 2 2</rect></_>
    <_>
      <rect>
        19 16 3 4</rect></_>
    <_>
      <rect>
        19 17 4 5</rect></_>
    <_>
      <rect>
        19 18 1 1</rect></_>
    <_>
      <rect>
        19 18 4 6</rect></_>
    <_>
      <rect>
        20 5 5 9</rect></_>
    <_>
      <rect>
        20 11 5 8</rect></_>
    <_>
      <rect>
        20 18 2 2</rect></_>
    <_>
      <rect>
        20 19 1 1</rect></_>
    <_>
      <rect>
        20 19 1 2</rect></_>
    <_>
      <rect>
        20 22 2 1</rect></_>
    <_>
      <rect>
        21 16 1 1</rect></_>
    <_>
      <rect>
        23 15 3 4</rect></_>
    <_>
      <rect>
        24 0 5 12</rect></_>
    <_>
      <rect>
        25 1 5 13</rect></_>
    <_>
      <rect>
        25 17 3 7</rect></_>
    <_>
      <rect>
        28 0 4 12</rect></_></features></cascade>
</opencv_storage>
