<?xml version="1.0"?>
<opencv_storage>
<stage20>
  <maxWeakCount>9</maxWeakCount>
  <stageThreshold>-8.9064937829971313e-01</stageThreshold>
  <weakClassifiers>
    <_>
      <internalNodes>
        0 -1 18104 1820256854 415983 -282066953 982712111 1962366801
        2054683639 2147442559 2063801470</internalNodes>
      <leafValues>
        -4.9174916744232178e-01 5.4218882322311401e-01</leafValues></_>
    <_>
      <internalNodes>
        0 -1 37864 1924092960 -1153785858 -1614820485 -1879121922
        -356537793 -545521797 -914419841 -838983693</internalNodes>
      <leafValues>
        -4.1690438985824585e-01 4.4782665371894836e-01</leafValues></_>
    <_>
      <internalNodes>
        0 -1 48765 -1780089107 1434180447 1061748603 1738678079
        -307514174 -84187341 -580387050 -822472897</internalNodes>
      <leafValues>
        -3.5082432627677917e-01 5.4001420736312866e-01</leafValues></_>
    <_>
      <internalNodes>
        0 -1 62079 -201862677 553845586 -14293122 266023913 -1140933378
        -1073758273 -6325258 -1073747458</internalNodes>
      <leafValues>
        -3.5940662026405334e-01 5.8034801483154297e-01</leafValues></_>
    <_>
      <internalNodes>
        0 -1 14621 1610564079 -850637290 1311706303 -1779019920
        1803310167 -143217199 -303757185 -78153456</internalNodes>
      <leafValues>
        -4.0509575605392456e-01 5.1582288742065430e-01</leafValues></_>
    <_>
      <internalNodes>
        0 -1 27889 1636939156 -1562135149 1359245456 21022921 3156283
        -2130529608 -666881354 -383759869</internalNodes>
      <leafValues>
        -5.8739089965820312e-01 3.8549122214317322e-01</leafValues></_>
    <_>
      <internalNodes>
        0 -1 3476 -1140785670 -1387970558 -1123988017 -1357548270
        143520782 -1610030795 975720459 1976397962</internalNodes>
      <leafValues>
        -6.2952727079391479e-01 3.4342002868652344e-01</leafValues></_>
    <_>
      <internalNodes>
        0 -1 23802 -228701880 1655833 1921336065 483443599 -540537648
        591571848 138498114 2086871675</internalNodes>
      <leafValues>
        -7.5828689336776733e-01 3.0078324675559998e-01</leafValues></_>
    <_>
      <internalNodes>
        0 -1 38709 1454074972 1907374744 706261663 1139386519 1120224648
        135791766 17871755 1428679185</internalNodes>
      <leafValues>
        -6.5391892194747925e-01 3.4521752595901489e-01</leafValues></_></weakClassifiers></stage20>
</opencv_storage>
