<?xml version="1.0"?>
<opencv_storage>
<stage3>
  <maxWeakCount>7</maxWeakCount>
  <stageThreshold>-8.5135531425476074e-01</stageThreshold>
  <weakClassifiers>
    <_>
      <internalNodes>
        0 -1 51644 1600005927 41288310 -1580328486 450377215 -609016382
        -1362464757 -825443400 2128494059</internalNodes>
      <leafValues>
        -6.9430893659591675e-01 5.9832286834716797e-01</leafValues></_>
    <_>
      <internalNodes>
        0 -1 30579 -268455939 -1610940421 -830554113 -541171795
        536817663 -336405569 2146373533 -1112555</internalNodes>
      <leafValues>
        -5.3397548198699951e-01 6.1458688974380493e-01</leafValues></_>
    <_>
      <internalNodes>
        0 -1 34301 -570753796 -1739518899 -669985203 -363673025
        1754849007 992487946 679873215 -1350358613</internalNodes>
      <leafValues>
        -5.6872773170471191e-01 5.1003742218017578e-01</leafValues></_>
    <_>
      <internalNodes>
        0 -1 47098 -3401516 1058243665 1529041183 -45709263 -1399155526
        -1156247550 -1591104535 1762345727</internalNodes>
      <leafValues>
        -6.1066257953643799e-01 4.7407376766204834e-01</leafValues></_>
    <_>
      <internalNodes>
        0 -1 7723 1923271679 -548469537 1599554961 -674905829 269937371
        1494418177 1474683342 -2119089</internalNodes>
      <leafValues>
        -6.0071188211441040e-01 4.8067143559455872e-01</leafValues></_>
    <_>
      <internalNodes>
        0 -1 38646 -183536677 1062963451 -1901198599 238800746
        -1213508776 -1888498178 1970265983 2145386431</internalNodes>
      <leafValues>
        -5.3068900108337402e-01 5.6738060712814331e-01</leafValues></_>
    <_>
      <internalNodes>
        0 -1 58629 -206439186 1359298851 -1206979384 1763422377
        -1021184850 26790282 671278074 2146386050</internalNodes>
      <leafValues>
        -5.7385075092315674e-01 5.7803153991699219e-01</leafValues></_></weakClassifiers></stage3>
</opencv_storage>
