<?xml version="1.0"?>
<opencv_storage>
<stage4>
  <maxWeakCount>6</maxWeakCount>
  <stageThreshold>-1.3390154838562012e+00</stageThreshold>
  <weakClassifiers>
    <_>
      <internalNodes>
        0 -1 37683 -1370801433 -326960287 -197083171 -658185231
        676868071 -52237603 177014959 1035927586</internalNodes>
      <leafValues>
        -6.4583331346511841e-01 6.1597937345504761e-01</leafValues></_>
    <_>
      <internalNodes>
        0 -1 17552 -286265681 -25264258 -1073774610 -1367343106
        1149224639 -430114953 -134258769 -8388609</internalNodes>
      <leafValues>
        -5.2991324663162231e-01 5.7044845819473267e-01</leafValues></_>
    <_>
      <internalNodes>
        0 -1 21949 -521308324 -132255596 -746193891 -698603 -325485317
        -1977028419 -70565990 1275420417</internalNodes>
      <leafValues>
        -7.1652287244796753e-01 4.2339378595352173e-01</leafValues></_>
    <_>
      <internalNodes>
        0 -1 13645 -687866973 352204363 1374490561 -858560032 43675399
        -1939048186 1352880437 1456434672</internalNodes>
      <leafValues>
        -6.6214460134506226e-01 4.6212708950042725e-01</leafValues></_>
    <_>
      <internalNodes>
        0 -1 19961 -1035277325 414383950 -1290021417 -120127475
        1321307899 -335377279 1406994163 -745057328</internalNodes>
      <leafValues>
        -5.8378052711486816e-01 5.7056421041488647e-01</leafValues></_>
    <_>
      <internalNodes>
        0 -1 44133 -1546767499 1624360635 -989616642 -587279265
        -287086466 -121310119 -1027248825 -146002121</internalNodes>
      <leafValues>
        -5.8690530061721802e-01 5.2918761968612671e-01</leafValues></_></weakClassifiers></stage4>
</opencv_storage>
