<?xml version="1.0"?>
<opencv_storage>
<stage7>
  <maxWeakCount>7</maxWeakCount>
  <stageThreshold>-7.9538917541503906e-01</stageThreshold>
  <weakClassifiers>
    <_>
      <internalNodes>
        0 -1 45221 909242816 1935946045 1398895064 1400795647 539066536
        -2143735895 326155261 439424370</internalNodes>
      <leafValues>
        -4.8883375525474548e-01 6.3536918163299561e-01</leafValues></_>
    <_>
      <internalNodes>
        0 -1 43411 -670761776 -225443784 -1849650983 1561815247
        -1064131678 -1702361974 411607227 454758319</internalNodes>
      <leafValues>
        -5.6755393743515015e-01 5.0218015909194946e-01</leafValues></_>
    <_>
      <internalNodes>
        0 -1 42833 1364745368 -137248704 100700573 1292977669 1660955194
        -1196915584 285407655 285806571</internalNodes>
      <leafValues>
        -6.9861179590225220e-01 3.9648470282554626e-01</leafValues></_>
    <_>
      <internalNodes>
        0 -1 21109 -193536394 846909693 134220807 272565663 -1236121579
        1981913810 -1289578421 -552122558</internalNodes>
      <leafValues>
        -6.7244404554367065e-01 4.1942015290260315e-01</leafValues></_>
    <_>
      <internalNodes>
        0 -1 53788 -268382016 -770858748 73549824 2139162652 -1877429112
        -1870626783 -1758925763 -1148514164</internalNodes>
      <leafValues>
        -5.5056953430175781e-01 5.0784301757812500e-01</leafValues></_>
    <_>
      <internalNodes>
        0 -1 41286 -108739136 -1506268 -1689464579 1398604354
        -2036675158 -32476064 234924459 -902328641</internalNodes>
      <leafValues>
        -5.1126974821090698e-01 5.6981575489044189e-01</leafValues></_>
    <_>
      <internalNodes>
        0 -1 36509 2004883098 -586153975 68359957 520161091 -796883560
        184647812 1079591170 -1143257469</internalNodes>
      <leafValues>
        -5.5147957801818848e-01 5.3437554836273193e-01</leafValues></_></weakClassifiers></stage7>
</opencv_storage>
