<?xml version="1.0"?>
<opencv_storage>
<stage25>
  <maxWeakCount>9</maxWeakCount>
  <stageThreshold>-8.7008750438690186e-01</stageThreshold>
  <weakClassifiers>
    <_>
      <internalNodes>
        0 -1 14890 -431955282 571527578 -1463705279 -1601134256
        1153027561 1947213874 1364238360 1912661057</internalNodes>
      <leafValues>
        -7.2054797410964966e-01 4.7931689023971558e-01</leafValues></_>
    <_>
      <internalNodes>
        0 -1 38843 1250048912 501187846 117653814 318560043 687932136
        1612055308 72577915 -1317321797</internalNodes>
      <leafValues>
        -5.8232992887496948e-01 3.1125435233116150e-01</leafValues></_>
    <_>
      <internalNodes>
        0 -1 48868 1529599473 -701880341 -210501903 -825605 -1360740579
        -705988123 -663306722 -42909889</internalNodes>
      <leafValues>
        -3.3453643321990967e-01 5.5901229381561279e-01</leafValues></_>
    <_>
      <internalNodes>
        0 -1 49646 1820089679 947737639 -1879047856 -2066826025
        1770722161 2119257345 -90845217 174352977</internalNodes>
      <leafValues>
        -5.9521800279617310e-01 3.1819126009941101e-01</leafValues></_>
    <_>
      <internalNodes>
        0 -1 46999 -1749170735 1867425962 -1151703555 1781198561
        -54847349 -1710285601 -1721901362 -1142054928</internalNodes>
      <leafValues>
        -3.6215841770172119e-01 5.5601435899734497e-01</leafValues></_>
    <_>
      <internalNodes>
        0 -1 41115 -112920150 -1264510370 1997115861 352981077
        -711402502 421612196 288436469 -1306962399</internalNodes>
      <leafValues>
        -5.3754353523254395e-01 3.8341766595840454e-01</leafValues></_>
    <_>
      <internalNodes>
        0 -1 53806 -1988373076 -421211581 -42209176 -1896121477
        -219962742 -852012559 -1477730801 -625762561</internalNodes>
      <leafValues>
        -4.2763286828994751e-01 4.9804767966270447e-01</leafValues></_>
    <_>
      <internalNodes>
        0 -1 48582 -556214888 1558392277 1320873909 -928943918 -31925198
        -1149286367 404390414 291439330</internalNodes>
      <leafValues>
        -5.8023953437805176e-01 3.5595229268074036e-01</leafValues></_>
    <_>
      <internalNodes>
        0 -1 42836 -353492170 314605612 -2078620001 139299200 85662389
        194513171 1795852416 -1417225986</internalNodes>
      <leafValues>
        -6.5770041942596436e-01 3.3996796607971191e-01</leafValues></_></weakClassifiers></stage25>
</opencv_storage>
