<?xml version="1.0"?>
<opencv_storage>
<stage18>
  <maxWeakCount>10</maxWeakCount>
  <stageThreshold>-7.9080319404602051e-01</stageThreshold>
  <weakClassifiers>
    <_>
      <internalNodes>
        0 -1 48757 -1365244120 1341132533 1237167580 161156148 682667294
        2014367279 229166395 1075580068</internalNodes>
      <leafValues>
        -6.9642859697341919e-01 5.1410657167434692e-01</leafValues></_>
    <_>
      <internalNodes>
        0 -1 27718 -38863440 -334420875 -624327243 -2181904 1521976995
        -1884771528 1533962291 -130559</internalNodes>
      <leafValues>
        -4.8654961585998535e-01 4.0057244896888733e-01</leafValues></_>
    <_>
      <internalNodes>
        0 -1 4426 318025710 1073768765 -627736313 -1878982655 867951571
        555909639 1103807673 -1205405782</internalNodes>
      <leafValues>
        -5.9804248809814453e-01 3.6369857192039490e-01</leafValues></_>
    <_>
      <internalNodes>
        0 -1 46906 -1214644246 -577188469 -1337107173 -182282680
        -11248469 1233764491 848577193 1501560857</internalNodes>
      <leafValues>
        -5.4882490634918213e-01 3.5692596435546875e-01</leafValues></_>
    <_>
      <internalNodes>
        0 -1 45103 776226968 -1761607148 -446839389 2137105515 164318728
        -771194725 -2104519617 1461423905</internalNodes>
      <leafValues>
        -6.7893803119659424e-01 3.0151504278182983e-01</leafValues></_>
    <_>
      <internalNodes>
        0 -1 36432 -16232902 486687810 1532024400 528646258 -347976838
        1873433690 -978839880 -575993061</internalNodes>
      <leafValues>
        -5.4779934883117676e-01 3.7174910306930542e-01</leafValues></_>
    <_>
      <internalNodes>
        0 -1 30349 -321730429 1086464080 1879205201 -552558505
        -1924553635 -2142129911 -861919753 281324383</internalNodes>
      <leafValues>
        -6.7373836040496826e-01 3.0549588799476624e-01</leafValues></_>
    <_>
      <internalNodes>
        0 -1 11177 -913342188 -1173057399 -1635313500 -914358272
        1897121857 -1665138560 1878775287 1793462275</internalNodes>
      <leafValues>
        -5.5127292871475220e-01 4.0763026475906372e-01</leafValues></_>
    <_>
      <internalNodes>
        0 -1 47188 -709050625 1415390284 1095143935 -938676394
        -1656488534 -128182319 1612503801 -14696549</internalNodes>
      <leafValues>
        -3.9092645049095154e-01 6.0572785139083862e-01</leafValues></_>
    <_>
      <internalNodes>
        0 -1 39587 -129925531 -686010332 78066849 -1726939099
        -1296328160 -1944020326 -846541941 1293982804</internalNodes>
      <leafValues>
        -5.4842293262481689e-01 4.1940629482269287e-01</leafValues></_></weakClassifiers></stage18>
</opencv_storage>
