<?xml version="1.0"?>
<opencv_storage>
<stage6>
  <maxWeakCount>7</maxWeakCount>
  <stageThreshold>-8.5931879281997681e-01</stageThreshold>
  <weakClassifiers>
    <_>
      <internalNodes>
        0 -1 8311 -352329777 1073872887 -524460 -1353842689 41910036
        4194175 91717615 1879048191</internalNodes>
      <leafValues>
        -4.8866498470306396e-01 6.2919312715530396e-01</leafValues></_>
    <_>
      <internalNodes>
        0 -1 43072 -674968374 2106675016 -451573250 1396117657 1230538
        1527529744 606336927 -1821441265</internalNodes>
      <leafValues>
        -5.3354120254516602e-01 5.1179552078247070e-01</leafValues></_>
    <_>
      <internalNodes>
        0 -1 19580 -6029390 -4718668 -1073745451 -536890140 -1648956749
        2142363508 1421743667 -1129849</internalNodes>
      <leafValues>
        -4.9688616394996643e-01 5.4030227661132812e-01</leafValues></_>
    <_>
      <internalNodes>
        0 -1 43189 -108732464 1506027616 287150584 994574355 -1182222164
        470417576 405375401 -214206054</internalNodes>
      <leafValues>
        -5.6399053335189819e-01 4.8948824405670166e-01</leafValues></_>
    <_>
      <internalNodes>
        0 -1 44977 -36382004 -33843320 1078370492 462915670 281163816
        973801608 536883016 462094351</internalNodes>
      <leafValues>
        -7.0131015777587891e-01 4.0448302030563354e-01</leafValues></_>
    <_>
      <internalNodes>
        0 -1 50595 1367012008 1936425087 303254022 -2019120637 470926059
        1211013506 290287211 -618831385</internalNodes>
      <leafValues>
        -6.3084793090820312e-01 4.4819638133049011e-01</leafValues></_>
    <_>
      <internalNodes>
        0 -1 61930 -751044474 536938498 637575519 537944179 -1589516084
        -2138628078 -960911329 261875883</internalNodes>
      <leafValues>
        -6.4053815603256226e-01 4.5798417925834656e-01</leafValues></_></weakClassifiers></stage6>
</opencv_storage>
