<?xml version="1.0"?>
<opencv_storage>
<stage19>
  <maxWeakCount>10</maxWeakCount>
  <stageThreshold>-9.4237011671066284e-01</stageThreshold>
  <weakClassifiers>
    <_>
      <internalNodes>
        0 -1 28307 -1427758938 -1807723056 -201002415 -687171295
        647735540 813711376 -1204779367 1573683346</internalNodes>
      <leafValues>
        -9.0849673748016357e-01 4.7438752651214600e-01</leafValues></_>
    <_>
      <internalNodes>
        0 -1 47048 2063497867 1946134461 1215719027 582479595 1266669732
        1213997366 1149038586 -658766083</internalNodes>
      <leafValues>
        -3.9377301931381226e-01 4.8520815372467041e-01</leafValues></_>
    <_>
      <internalNodes>
        0 -1 16708 -780077184 -1719389872 -1056372495 2111654916
        152505003 1744978068 336450851 -1887210493</internalNodes>
      <leafValues>
        -5.9070068597793579e-01 3.4041801095008850e-01</leafValues></_>
    <_>
      <internalNodes>
        0 -1 38589 817306772 -789958661 130391894 269013449 -226281216
        1719816384 2017749000 -1884518199</internalNodes>
      <leafValues>
        -6.4687502384185791e-01 2.9566898941993713e-01</leafValues></_>
    <_>
      <internalNodes>
        0 -1 25400 1888571579 -2143203243 -712985517 -1126981247
        1430404031 853139550 1586395910 -2083958459</internalNodes>
      <leafValues>
        -5.5304282903671265e-01 3.6274194717407227e-01</leafValues></_>
    <_>
      <internalNodes>
        0 -1 33707 -717569984 1501659874 -1059602123 1471595664
        1375742379 782885272 1259999966 1372832069</internalNodes>
      <leafValues>
        -5.4630923271179199e-01 3.6634716391563416e-01</leafValues></_>
    <_>
      <internalNodes>
        0 -1 48717 -1797601464 -1687063099 1395818322 1802969303
        -1548660700 -2002198359 -1300461202 445223562</internalNodes>
      <leafValues>
        -6.9689399003982544e-01 2.9950639605522156e-01</leafValues></_>
    <_>
      <internalNodes>
        0 -1 7666 -305992 -868859279 -1980019333 1769820314 1126581511
        1327309843 1497878003 -336632389</internalNodes>
      <leafValues>
        -4.3698614835739136e-01 5.2116990089416504e-01</leafValues></_>
    <_>
      <internalNodes>
        0 -1 52480 -199868080 -251427576 1361494187 -646969350
        -2088441172 -2048819178 -929650198 511949930</internalNodes>
      <leafValues>
        -5.7951998710632324e-01 4.1081252694129944e-01</leafValues></_>
    <_>
      <internalNodes>
        0 -1 45215 -332736440 1071387673 524542771 1171266970 -919142256
        289193524 1958567083 1661936667</internalNodes>
      <leafValues>
        -7.5102710723876953e-01 2.9490256309509277e-01</leafValues></_></weakClassifiers></stage19>
</opencv_storage>
