<?xml version="1.0"?>
<opencv_storage>
<stage16>
  <maxWeakCount>9</maxWeakCount>
  <stageThreshold>-8.0779981613159180e-01</stageThreshold>
  <weakClassifiers>
    <_>
      <internalNodes>
        0 -1 25633 -1413176795 -1466900319 290468048 277908864 146875835
        -2087138189 1965056440 -416594664</internalNodes>
      <leafValues>
        -5.8766859769821167e-01 5.2599757909774780e-01</leafValues></_>
    <_>
      <internalNodes>
        0 -1 59400 -140608009 -308621637 1677608259 202143595 410525348
        2144701431 1027569663 -630475025</internalNodes>
      <leafValues>
        -3.3393964171409607e-01 5.5209869146347046e-01</leafValues></_>
    <_>
      <internalNodes>
        0 -1 30665 -1313873085 -603351013 990001109 -556967491
        1646659495 -332681414 1630552421 -859192880</internalNodes>
      <leafValues>
        -4.7371274232864380e-01 4.1315668821334839e-01</leafValues></_>
    <_>
      <internalNodes>
        0 -1 48767 -570572677 532097599 1795391089 533053664 -1462837014
        895410173 1566007496 -8448257</internalNodes>
      <leafValues>
        -4.1106536984443665e-01 5.1270544528961182e-01</leafValues></_>
    <_>
      <internalNodes>
        0 -1 40999 1338372951 -2762979 -1742605361 1072635743
        -1646765430 -1098771201 -1657015881 -927122065</internalNodes>
      <leafValues>
        -3.7897837162017822e-01 6.0135477781295776e-01</leafValues></_>
    <_>
      <internalNodes>
        0 -1 48862 -1602200076 -537195773 1993852891 1767064325
        -369476168 972094717 721371150 388966923</internalNodes>
      <leafValues>
        -7.1467536687850952e-01 3.4051930904388428e-01</leafValues></_>
    <_>
      <internalNodes>
        0 -1 49827 -1969372995 538614149 -993682220 1692905612
        1452294766 418138432 -1605482402 583327949</internalNodes>
      <leafValues>
        -7.1952408552169800e-01 3.0745846033096313e-01</leafValues></_>
    <_>
      <internalNodes>
        0 -1 50681 -474352283 1995210367 2067726014 -1560444932
        -1258491016 1610463101 -1480589368 -1749051905</internalNodes>
      <leafValues>
        -4.1381627321243286e-01 5.7830089330673218e-01</leafValues></_>
    <_>
      <internalNodes>
        0 -1 45365 -57342790 1574837274 -2043456481 1604911188
        -1489253662 -1987171632 173248138 655296527</internalNodes>
      <leafValues>
        -6.2824529409408569e-01 4.2365434765815735e-01</leafValues></_></weakClassifiers></stage16>
</opencv_storage>
