<?xml version="1.0"?>
<opencv_storage>
<stage11>
  <maxWeakCount>7</maxWeakCount>
  <stageThreshold>-1.2061381340026855e+00</stageThreshold>
  <weakClassifiers>
    <_>
      <internalNodes>
        0 -1 40406 23021062 33670228 -796351504 -657157903 -1987792513
        -1069006711 -268287688 -2098314295</internalNodes>
      <leafValues>
        -6.0071301460266113e-01 5.4817545413970947e-01</leafValues></_>
    <_>
      <internalNodes>
        0 -1 13676 -64457264 -729230795 -1555561292 -13336463 1512090362
        -201270990 1194197843 1607951759</internalNodes>
      <leafValues>
        -6.1750483512878418e-01 3.9107683300971985e-01</leafValues></_>
    <_>
      <internalNodes>
        0 -1 35544 1348608180 -435140352 -804980737 -705690475
        1897994237 -123383535 2021737521 -349223164</internalNodes>
      <leafValues>
        -6.1765366792678833e-01 3.7648546695709229e-01</leafValues></_>
    <_>
      <internalNodes>
        0 -1 33055 -655445244 236881801 -775734948 277224915 -1110638469
        -1776283029 -351907634 -1517783100</internalNodes>
      <leafValues>
        -7.0453280210494995e-01 2.8926897048950195e-01</leafValues></_>
    <_>
      <internalNodes>
        0 -1 34108 -366534016 2052539424 68232446 754959839 -2036776397
        -342786008 -976674278 -615526238</internalNodes>
      <leafValues>
        -7.3789286613464355e-01 2.7755096554756165e-01</leafValues></_>
    <_>
      <internalNodes>
        0 -1 40817 2046582486 1892700389 37034631 -895445438 -1430569645
        -561439590 866238343 1398003923</internalNodes>
      <leafValues>
        -5.9882211685180664e-01 3.8485357165336609e-01</leafValues></_>
    <_>
      <internalNodes>
        0 -1 37236 -103057415 1887105496 -985426447 -731520632
        1807365821 -25253157 -1032877477 -189766891</internalNodes>
      <leafValues>
        -4.8029083013534546e-01 4.9493566155433655e-01</leafValues></_></weakClassifiers></stage11>
</opencv_storage>
