<?xml version="1.0"?>
<opencv_storage>
<stage12>
  <maxWeakCount>8</maxWeakCount>
  <stageThreshold>-7.1338194608688354e-01</stageThreshold>
  <weakClassifiers>
    <_>
      <internalNodes>
        0 -1 17545 1658020582 570724725 1466683890 -82796452 1190489719
        839063120 75989729 1870842712</internalNodes>
      <leafValues>
        -6.5079367160797119e-01 5.3205126523971558e-01</leafValues></_>
    <_>
      <internalNodes>
        0 -1 52013 -679508441 218062811 -562045736 -193134593 -285279
        -524289 -536887825 -807469057</internalNodes>
      <leafValues>
        -4.0625226497650146e-01 5.0739204883575439e-01</leafValues></_>
    <_>
      <internalNodes>
        0 -1 4518 -96215062 1896008208 1478743042 1471387808 -2146786097
        -1358427581 314593383 -12061149</internalNodes>
      <leafValues>
        -4.9356368184089661e-01 4.6405625343322754e-01</leafValues></_>
    <_>
      <internalNodes>
        0 -1 47245 1161556696 10552414 1162040401 1900282231 210836687
        467141701 -585245707 -570733669</internalNodes>
      <leafValues>
        -4.8544731736183167e-01 4.4136866927146912e-01</leafValues></_>
    <_>
      <internalNodes>
        0 -1 26559 -697375034 -205618445 -2113656056 50512931 539164906
        1932747149 -60176070 1418040352</internalNodes>
      <leafValues>
        -7.1005535125732422e-01 3.0176901817321777e-01</leafValues></_>
    <_>
      <internalNodes>
        0 -1 99 -887950198 -872285938 33670338 -448759413 -888803174
        -987225692 325120178 1166572459</internalNodes>
      <leafValues>
        -7.0038878917694092e-01 3.0094173550605774e-01</leafValues></_>
    <_>
      <internalNodes>
        0 -1 27744 -232572272 544273182 -1071603051 -236879715 805518795
        -660167520 1939873625 -1014300155</internalNodes>
      <leafValues>
        -6.5506619215011597e-01 3.6134856939315796e-01</leafValues></_>
    <_>
      <internalNodes>
        0 -1 48910 -530441004 -1243971753 -1973631632 -744489617
        -1879006979 779554734 -1456876056 -1714812232</internalNodes>
      <leafValues>
        -4.9623385071754456e-01 4.8472785949707031e-01</leafValues></_></weakClassifiers></stage12>
</opencv_storage>
