<?xml version="1.0"?>
<opencv_storage>
<stage2>
  <maxWeakCount>6</maxWeakCount>
  <stageThreshold>-1.2621737718582153e+00</stageThreshold>
  <weakClassifiers>
    <_>
      <internalNodes>
        0 -1 20100 -805860690 -42339361 -652872482 542964545 16452539
        687954367 1259408779 -76107345</internalNodes>
      <leafValues>
        -7.6470589637756348e-01 6.3466441631317139e-01</leafValues></_>
    <_>
      <internalNodes>
        0 -1 19999 -266641 334147322 -1050053 1962082302 1212059647
        -1744830465 -20545 -134217793</internalNodes>
      <leafValues>
        -5.6423842906951904e-01 6.1629331111907959e-01</leafValues></_>
    <_>
      <internalNodes>
        0 -1 25488 -1141952514 -188163705 -242436203 -209810983
        1262038413 -1162810193 1269499223 -817904123</internalNodes>
      <leafValues>
        -5.8596009016036987e-01 5.4462444782257080e-01</leafValues></_>
    <_>
      <internalNodes>
        0 -1 43104 1602994940 201375744 -719078681 1511221903
        -1127686679 -1999744344 -1899045759 -335544341</internalNodes>
      <leafValues>
        -5.7638090848922729e-01 5.6217610836029053e-01</leafValues></_>
    <_>
      <internalNodes>
        0 -1 588 -624177161 -880058993 344441 -827340800 141668
        1828915217 1252221683 2132798206</internalNodes>
      <leafValues>
        -6.8041062355041504e-01 4.7075876593589783e-01</leafValues></_>
    <_>
      <internalNodes>
        0 -1 40721 1794076443 1633156084 -949678082 1079495321
        -1549514885 144923219 -607851187 -392434290</internalNodes>
      <leafValues>
        -6.2043261528015137e-01 5.1948249340057373e-01</leafValues></_></weakClassifiers></stage2>
</opencv_storage>
