<?xml version="1.0"?>
<opencv_storage>
<stage23>
  <maxWeakCount>10</maxWeakCount>
  <stageThreshold>-1.1604522466659546e+00</stageThreshold>
  <weakClassifiers>
    <_>
      <internalNodes>
        0 -1 48813 1073482032 294921525 2046619156 1814188872 338830196
        2015366864 682392506 537133059</internalNodes>
      <leafValues>
        -8.0232560634613037e-01 4.8042169213294983e-01</leafValues></_>
    <_>
      <internalNodes>
        0 -1 50651 112784864 447236283 753664000 16974509 -1952195746
        1277853900 745675452 -672259569</internalNodes>
      <leafValues>
        -5.9727323055267334e-01 3.0189850926399231e-01</leafValues></_>
    <_>
      <internalNodes>
        0 -1 48828 1406818758 1380975490 433575681 -29900278 1872938490
        1298161875 1412809604 -1778301890</internalNodes>
      <leafValues>
        -4.8001468181610107e-01 3.8019254803657532e-01</leafValues></_>
    <_>
      <internalNodes>
        0 -1 32964 -82269224 -93700 459411805 -119678516 764921322
        -2576344 175267241 -14199672</internalNodes>
      <leafValues>
        -4.8015698790550232e-01 4.0316376090049744e-01</leafValues></_>
    <_>
      <internalNodes>
        0 -1 55375 -805319122 2108670351 1332642514 -1562505190
        201902146 113870873 -458700618 191424971</internalNodes>
      <leafValues>
        -5.9397250413894653e-01 3.4611937403678894e-01</leafValues></_>
    <_>
      <internalNodes>
        0 -1 30086 320146292 -1291270600 637149 -826507052 1477189375
        -1917801974 -240436481 -525859115</internalNodes>
      <leafValues>
        -5.6264060735702515e-01 3.6009016633033752e-01</leafValues></_>
    <_>
      <internalNodes>
        0 -1 48710 -785875530 810937678 -2121047167 219534513 1892354056
        984089024 1797357825 -1866063623</internalNodes>
      <leafValues>
        -6.1436909437179565e-01 3.3255520462989807e-01</leafValues></_>
    <_>
      <internalNodes>
        0 -1 45152 1454294428 1565900874 -805271777 477188435 1177278904
        -641080668 -1327820576 -696180056</internalNodes>
      <leafValues>
        -5.1298576593399048e-01 4.3258085846900940e-01</leafValues></_>
    <_>
      <internalNodes>
        0 -1 11821 -1936516073 296783967 -1873656239 -1848670206 5789742
        415902218 -22597480 -307419999</internalNodes>
      <leafValues>
        -5.0291264057159424e-01 4.6686753630638123e-01</leafValues></_>
    <_>
      <internalNodes>
        0 -1 38786 1062068920 1466336260 1647953360 504275684 799813693
        1510118024 168865918 995679043</internalNodes>
      <leafValues>
        -6.9114232063293457e-01 3.4500294923782349e-01</leafValues></_></weakClassifiers></stage23>
</opencv_storage>
