<?xml version="1.0"?>
<opencv_storage>
<stage14>
  <maxWeakCount>8</maxWeakCount>
  <stageThreshold>-9.3880856037139893e-01</stageThreshold>
  <weakClassifiers>
    <_>
      <internalNodes>
        0 -1 47049 138949152 442238980 1346912426 490805163 167251930
        1599801045 -1961680898 939998989</internalNodes>
      <leafValues>
        -7.8975743055343628e-01 4.9182197451591492e-01</leafValues></_>
    <_>
      <internalNodes>
        0 -1 38851 -456138483 1126825790 743865844 -1145307139 787427323
        175475740 170881274 -817380105</internalNodes>
      <leafValues>
        -4.0921080112457275e-01 4.9075117707252502e-01</leafValues></_>
    <_>
      <internalNodes>
        0 -1 52361 -561840656 -795719597 -1921869858 361437703
        1530629599 -1279721449 140542386 -1029504445</internalNodes>
      <leafValues>
        -4.6783694624900818e-01 4.6536582708358765e-01</leafValues></_>
    <_>
      <internalNodes>
        0 -1 41055 -839814450 2050164849 179374031 1026623749
        -1969631048 -53917030 -1330567000 -703912950</internalNodes>
      <leafValues>
        -5.3520339727401733e-01 4.0106043219566345e-01</leafValues></_>
    <_>
      <internalNodes>
        0 -1 42962 1509902258 -827743218 -2093840479 -2067468965
        1322649612 444993944 227127716 1035966601</internalNodes>
      <leafValues>
        -6.6532808542251587e-01 3.2659548521041870e-01</leafValues></_>
    <_>
      <internalNodes>
        0 -1 33302 822108551 -247442601 508821331 -1835212020 288636038
        -175377759 -514963865 -561331563</internalNodes>
      <leafValues>
        -5.2774697542190552e-01 4.2332711815834045e-01</leafValues></_>
    <_>
      <internalNodes>
        0 -1 45128 1609425652 210256001 -781038782 1529457383
        -2100845645 684511402 36618503 950570057</internalNodes>
      <leafValues>
        -6.3777726888656616e-01 3.6709457635879517e-01</leafValues></_>
    <_>
      <internalNodes>
        0 -1 39026 157348088 427294801 588264828 86134376 -1995904584
        -631183168 404826282 153303592</internalNodes>
      <leafValues>
        -7.1139609813690186e-01 3.0981352925300598e-01</leafValues></_></weakClassifiers></stage14>
</opencv_storage>
