<?xml version="1.0"?>
<opencv_storage>
<stage15>
  <maxWeakCount>8</maxWeakCount>
  <stageThreshold>-7.9344117641448975e-01</stageThreshold>
  <weakClassifiers>
    <_>
      <internalNodes>
        0 -1 41698 -1462313002 642023748 281399514 1356711130 1489388763
        1151074377 -1870544689 605505605</internalNodes>
      <leafValues>
        -5.9765625000000000e-01 5.2491962909698486e-01</leafValues></_>
    <_>
      <internalNodes>
        0 -1 16229 -668763452 -395194126 428457309 -157564399 -389469211
        -359997312 2111318975 2109805079</internalNodes>
      <leafValues>
        -5.9031492471694946e-01 3.4988540410995483e-01</leafValues></_>
    <_>
      <internalNodes>
        0 -1 15428 -1521554178 -535471856 -1702129470 -1148595695
        436208347 1342914723 -2004843538 304328860</internalNodes>
      <leafValues>
        -6.9761216640472412e-01 2.9952949285507202e-01</leafValues></_>
    <_>
      <internalNodes>
        0 -1 48869 -81931828 -73639847 -846271495 1173039929 -1397980534
        -339394483 -1579222377 -1333938500</internalNodes>
      <leafValues>
        -4.7570562362670898e-01 4.3417066335678101e-01</leafValues></_>
    <_>
      <internalNodes>
        0 -1 45042 2128241147 1533102866 -1032388347 -1182746407
        797273787 1556105438 575524384 534750220</internalNodes>
      <leafValues>
        -5.9777235984802246e-01 3.8311323523521423e-01</leafValues></_>
    <_>
      <internalNodes>
        0 -1 116 -628185306 -1350561705 350060569 -620691451 1778967333
        -1694445551 716934106 2104723871</internalNodes>
      <leafValues>
        -6.0417371988296509e-01 3.5931923985481262e-01</leafValues></_>
    <_>
      <internalNodes>
        0 -1 17891 1495932495 -3899070 1912883895 -68467964 1380319773
        982679969 2064984600 -75159551</internalNodes>
      <leafValues>
        -5.2853238582611084e-01 4.1986793279647827e-01</leafValues></_>
    <_>
      <internalNodes>
        0 -1 47000 -145458210 2000164928 -1043271618 -1356733425
        397218712 -1440037876 -534535149 -233847671</internalNodes>
      <leafValues>
        -4.9612891674041748e-01 4.8204317688941956e-01</leafValues></_></weakClassifiers></stage15>
</opencv_storage>
