<?xml version="1.0"?>
<opencv_storage>
<stage8>
  <maxWeakCount>7</maxWeakCount>
  <stageThreshold>-8.2605046033859253e-01</stageThreshold>
  <weakClassifiers>
    <_>
      <internalNodes>
        0 -1 20097 2146414506 -57671699 1929314039 -923283457 1341065101
        1917824975 2135906053 -34664699</internalNodes>
      <leafValues>
        -5.0526314973831177e-01 6.1785715818405151e-01</leafValues></_>
    <_>
      <internalNodes>
        0 -1 40305 1283391491 1411241744 2098263331 -568987392
        2030769861 -1866413051 -256608048 -1424809374</internalNodes>
      <leafValues>
        -6.8276423215866089e-01 3.8910785317420959e-01</leafValues></_>
    <_>
      <internalNodes>
        0 -1 22972 -789452689 953173264 1614815296 1351241777 1339065175
        -187592575 -528182752 -1073047408</internalNodes>
      <leafValues>
        -5.5928665399551392e-01 4.3877652287483215e-01</leafValues></_>
    <_>
      <internalNodes>
        0 -1 19962 -147198497 1065414746 -167406091 -34598127 177261483
        2055790976 1415659895 -656850547</internalNodes>
      <leafValues>
        -5.6121462583541870e-01 4.4157946109771729e-01</leafValues></_>
    <_>
      <internalNodes>
        0 -1 44970 -551921845 -807940974 2097246905 508028394 -50160984
        718217221 -702338208 469584195</internalNodes>
      <leafValues>
        -5.7131034135818481e-01 4.4093134999275208e-01</leafValues></_>
    <_>
      <internalNodes>
        0 -1 38999 -1493184103 -1996864673 -738081595 1589252327
        -406206983 -357775717 -746143615 -1601767013</internalNodes>
      <leafValues>
        -5.2633911371231079e-01 5.0823420286178589e-01</leafValues></_>
    <_>
      <internalNodes>
        0 -1 43929 -1066355268 -800409744 -1878929968 -712717411
        -443997838 -225033007 -292729435 -73070079</internalNodes>
      <leafValues>
        -4.6475052833557129e-01 5.7148182392120361e-01</leafValues></_></weakClassifiers></stage8>
</opencv_storage>
